,0,1,2,3,4,5,6,7,8,9,10,11,12,13,14,15,16,17,18,19,20,21,22,23,24,25,26,27,28,29,30,31,32,33,34,35,36,37,38,39,40,41,42,43,44,45,46,47,48,49
TTCACCCTAAACGA-1-ventral,0.03345167,0.41547707,-0.18807676,-0.32219675,-0.0,0.0,0.09919147,0.0,0.5495202,0.5805943,-0.10515631,-0.116773985,-0.41440833,0.29622972,0.03836463,-0.37768075,-0.0,-0.035013292,0.32300004,-0.35928085,-0.096238986,-0.47391245,-0.034498904,0.7391216,-0.31842697,-0.44429886,-0.1342394,-0.23651615,-0.16661248,0.5081973,-0.20677766,0.0,0.042640124,-0.40569016,-0.2071088,0.2898831,-0.10383554,0.0,-0.41411522,0.095066465,-0.15970244,0.81695706,0.0,-1.103168,0.05791666,-0.3686064,0.36089805,-0.13405192,0.5710744,-0.53070366
CTTGAGGATGCTCC-1-ventral,-0.5666388,-0.38941014,0.21470478,0.0,0.83653164,0.02207522,-0.0,-0.20288932,-0.17278565,0.72501147,0.32469448,-0.40544888,-0.5425021,0.39018992,-0.4163212,0.3953041,1.0966071,-0.341125,0.4878937,-0.47945157,0.09346095,-0.098762386,0.61957455,-0.18021372,-0.27296016,-0.43227562,0.15459865,0.8531939,0.8214379,0.048666995,-0.27485055,-0.0,-0.43720394,-0.13226722,-0.014646849,-0.09582354,0.18442522,0.61891985,-0.3840979,-0.3616457,-0.4622475,0.69011724,0.098591916,-1.1013739,0.55656356,-0.45691922,-0.3638747,-0.1334095,-0.50583065,0.13009985
TGGCACCTGCGAAG-1-ventral,-0.33989233,-0.0,0.08314601,0.53120166,0.08943716,-0.33461916,0.029030329,-0.040950116,-0.26740903,-0.26486167,0.16765721,-0.081979044,0.3256817,-0.0,0.0,-0.0,0.43051544,-0.24242237,-0.1968711,-0.11765527,0.58472854,0.337484,0.35208595,-0.4777006,0.34610134,0.16543742,0.19963805,0.24905998,0.45802543,-0.21132821,0.06459667,-0.22488396,0.004971094,0.4685875,0.12442083,-0.2685461,0.0,-0.34513304,0.2129573,-0.0,-0.03413982,-0.2370104,-0.22801751,-1.1043929,-0.1404206,0.21035926,-0.027182898,-0.27129784,-0.36068407,0.5810396
TATACGCTCCGTAA-1-dorsal,0.26834783,0.54101217,0.07317856,-0.37993196,-0.0982731,1.2180375,0.51495653,-0.31827334,0.85204744,1.1007178,0.0221549,-0.15719077,-0.46178907,0.3961119,-0.16830167,-0.4593191,-0.36568287,0.34558588,0.0,-0.48329017,-0.112606026,-0.5812922,-0.16191219,0.7121926,-0.35378152,-0.6181735,-0.030448835,-0.28291917,-0.21831514,0.59217054,-0.1993904,0.0,-0.20382458,-0.68114126,-0.53462696,-0.04283892,-0.35021392,1.0789986,-0.5092102,0.0536998,-0.27070683,1.0161818,-0.094091035,-0.0,0.0079603,-0.37360814,0.0,-0.27240542,0.70695,-0.69589394
TTTCACGAGGTGTT-1-dorsal,-0.031004747,0.18372937,-0.120353304,-0.6512895,-0.053310663,-0.062780716,-0.24145651,0.3668994,-0.22164531,-0.19205418,-0.15204702,0.18474273,-0.0,0.57045305,0.050347995,-0.03546821,-0.0,-0.0813518,-0.14883883,0.03706207,-0.44188568,-0.11736937,-0.0,0.8260688,-0.3227258,-0.31819174,-0.10854503,-0.0,-0.048852365,0.65880185,0.023319358,-0.0,0.28632933,-0.2666619,0.46597013,0.39640865,0.12236198,0.552698,-0.2998503,0.188569,0.044538893,0.21329916,0.5268886,-1.1036001,0.085274234,-0.118382975,0.4595174,0.0,-0.013276273,-0.3552059
TGCTAGGACCACAA-1-dorsal,0.37927613,-0.2521707,-0.18516727,0.45659295,-0.0,-0.24841416,0.046854567,-0.17978537,0.0,-0.34792948,-0.25412336,0.26464522,0.67081463,-0.19314218,0.11622797,-0.23985241,-0.2596095,-0.38043952,-0.5305768,0.2097422,0.4814158,0.037295192,-0.25852072,-0.2867949,0.09158416,0.0,-0.07264297,0.5288698,-0.03277269,-0.05880111,0.08093828,-0.3917125,0.5056952,0.37196732,0.0,-0.26512665,0.11076626,-0.22861621,0.0950941,-0.1935402,-0.2176024,-0.12283578,0.17673667,-1.104344,-0.06815341,-0.032391086,0.4165264,-0.21567723,0.3450756,0.09732106
TACATAGAAGAACA-1-ventral,-0.0,0.03669526,-0.16882004,-0.31971908,-0.27434602,0.36643234,0.0,0.33546245,-0.33190575,0.0,0.29074496,-0.11909982,-0.3034017,-0.10837357,0.0,-0.37217745,-0.31329322,0.0,0.7482421,-0.4742977,0.23465694,-0.24951419,0.48187563,-0.006870694,-0.15733163,-0.0,0.06834805,-0.39328015,-0.17065486,-0.0033193165,-0.13200283,0.8768387,0.20281643,-0.3902507,-0.15521017,0.3579904,-0.22883648,0.044896275,-0.20459475,0.522153,0.5651718,0.03709058,-0.13167779,-1.1035386,-0.24606428,0.1618613,0.30904064,-0.052016646,-0.025761262,-0.48685104
TACTACACAAGTGA-1-dorsal,-0.012376243,-0.14346667,0.23544075,-0.6541614,0.019019645,-0.11701081,-0.15490095,0.55584663,-0.52813447,-0.42267087,0.19286223,0.14387232,-0.0,0.0,-0.016129747,-0.2476277,-0.0,-0.06692655,0.009009739,-0.29962566,-0.35209325,0.10420432,-0.1061627,0.65465593,-0.30390072,-0.114351586,0.23178026,-0.4902059,-0.07165009,0.7235388,0.29338565,-0.31177086,0.19270144,-0.4281325,0.6331278,0.5106782,0.04230993,0.0,0.047682676,0.40899578,0.047729447,-0.23949698,0.2214,-1.1030455,-0.038171016,0.16297886,0.41540837,0.7674635,-0.33057797,-0.37869242
TGGTTACTCTGGAT-1-ventral,-0.52250177,0.057489965,-0.46738422,-0.16549608,-0.41988865,-0.2302262,0.001110683,0.7993831,-0.5566825,-0.05436924,0.38123164,-0.0,-0.32597843,-0.46966052,0.6575982,-0.31292388,-0.04644712,0.72277254,0.5487537,-0.5653922,0.32579523,-0.16206397,0.0,-0.321628,0.1277849,-0.19047883,0.097102,-0.0,-0.10821899,-0.42030773,-0.34594274,1.3658211,0.48667407,-0.17561066,0.016705692,0.587825,-0.20504192,-0.13880366,-0.1510848,0.5149171,1.156954,-0.010417237,-0.29138148,-1.1000849,-0.3132038,0.3020422,-0.04151894,-0.33453876,-0.14506447,-0.32046533
CGAGGAGAGCCATA-1-ventral,-0.35249394,-0.006292264,0.32128745,0.0,0.6306954,-0.0,-0.0003107389,-0.28987542,-0.292501,0.030819394,-0.0,0.0726352,-0.31221107,0.28806117,-0.37325126,0.4716783,0.64127594,-0.016967325,-0.13325799,0.33389252,-0.027838416,0.3160972,-0.09379626,-0.32726595,-0.0,-0.37013295,0.19276144,0.74661565,0.6238655,-0.22951393,-0.16830412,-0.43544996,-0.0,0.032070067,-0.09919803,-0.30482215,0.23174854,-0.29374072,-0.31453982,-0.27666107,-0.25283146,0.0,0.26649556,-1.1039386,0.555591,0.1066198,-0.0,0.46704012,-0.41633728,0.44245988
TATAAGACACGACT-1-dorsal,-0.2597373,-0.0,-0.28900996,-0.59325254,-0.28848457,-0.22470853,-0.2393338,0.6997296,-0.17013676,-0.19793512,-0.0026812158,-0.017924111,-0.38644978,0.60229534,0.13317297,-0.3420581,-0.25688836,-0.4383878,-0.1492446,-0.4050584,-0.30998495,-0.07524967,0.39322504,0.8803168,-0.34557185,-0.12768799,-0.27120566,-0.37965003,0.021307386,0.7119808,0.13057037,-0.026295848,0.0,-0.13114592,0.7584189,0.7966903,0.071371235,1.0998319,-0.29868543,0.37759417,0.14958222,0.15828298,0.4295142,-1.1019584,-0.2058536,-0.0,0.0,0.4045055,-0.1523406,-0.5285184
CACAACGATGAGAA-1-ventral,-0.40217865,-0.057068072,0.3945519,0.074952446,0.66083723,0.36580586,0.071708135,-0.30460563,-0.2405937,0.6335392,0.21713983,-0.26080206,-0.37754887,0.24977276,-0.0,0.19876474,0.87124145,-0.06979598,0.4914337,-0.27898505,0.11824595,-0.17348357,0.29809654,-0.0,-0.3095839,-0.375442,0.44171616,0.69168705,0.0,-0.07497165,-0.17994346,-0.24498662,-0.37832382,-0.39832237,-0.28595847,-0.17444704,0.057779737,0.19573522,-0.0,-0.24553274,-0.41455495,0.56120193,0.045284316,-0.0,0.5693574,-0.12963985,-0.32577702,0.0,-0.37929934,-0.07729213
GTGATGACCTGGTA-1-dorsal,0.073706895,0.6931014,-0.0,-0.477689,-0.18040645,0.59910697,0.03362169,-0.17611888,0.6809529,0.7329238,-0.0,-0.068345204,-0.48560926,0.31944078,-0.0,-0.22569214,-0.28296658,0.06996152,0.12836581,0.013610324,-0.22324225,-0.0,-0.34784916,0.87224865,-0.0,-0.5662867,-0.14959866,-0.037364166,-0.21540153,0.41324347,-0.2832603,0.43963417,-0.044632886,-0.52172047,-0.0,0.20890148,-0.12357401,1.1193866,-0.5042874,-0.07443137,-0.20554623,1.1632729,0.32659155,-1.101303,0.20691693,-0.34788385,0.37964624,-0.075549155,0.79847294,-0.5802429
TATCAGCTGCGAAG-1-dorsal,0.734187,-0.28682378,0.63382155,0.08211303,0.2096002,0.0,0.98928154,-0.5061497,0.0,0.44551215,0.1997376,0.41569746,0.3524954,0.29257107,-0.21545756,-0.506438,-0.53674567,0.15616208,0.6911761,-0.0,0.20496604,-0.24537227,-0.40190434,-0.034146044,-0.0,-0.0,0.33942002,-0.22188678,-0.2764539,0.4875157,0.37490472,-0.24027468,-0.12609814,-0.4982803,-0.5187845,-0.466384,-0.24801083,-0.119269095,0.010316273,0.0,-0.3664248,-0.12335976,-0.27750507,-1.1016067,-0.17837645,0.15204458,0.0,-0.12613285,0.16362312,-0.5313091
CACTAGGAAAACGA-1-dorsal,-0.20836534,-0.0,-0.0046175057,-0.0,-0.078584224,-0.20673805,-0.26391315,0.5386894,-0.38537386,-0.27239397,0.17037125,0.02413081,-0.3155021,0.3942491,-0.034903422,-0.22076343,-0.049005486,-0.0,-0.1330883,-0.0,-0.38144046,0.0062835054,0.0,0.63890046,-0.26593488,-0.09381791,0.113125086,-0.4037133,-0.061041452,0.67113006,0.16865228,-0.18581444,0.34975094,-0.41375667,0.49931,0.5923714,0.039101973,0.6081152,-0.045282975,0.35083586,0.022747204,0.058901165,0.0,-1.103812,-0.021022161,-0.022588836,0.0,0.0,-0.18693653,-0.34384722
ACGATCGAGCTCCT-1-ventral,0.44844553,-0.33045122,-0.39335153,0.69376564,-0.48458812,-0.15617153,0.3197672,-0.3582626,1.3414975,-0.1533295,-0.3974961,0.43549302,0.0,-0.12367938,0.30237228,-0.3246124,-0.49399158,-0.59597456,-0.0,0.10756992,0.6907012,-0.08245177,-0.26249027,-0.087075174,-0.04814009,0.1098288,-0.37853527,0.65945905,0.08726069,-0.0119404,-0.0,-0.34931305,0.66226715,0.75960183,-0.037751663,-0.0,0.09996541,0.07381607,-0.10736843,-0.19289163,-0.2961869,-0.2111841,0.13205925,-1.1019394,-0.26158154,-0.34761038,0.70061845,-0.43299824,0.5757969,-0.050302282
CCGATAGATCTTAC-1-ventral,-0.5236949,-0.0,-0.2242846,0.32499176,-0.07821236,-0.6253219,-0.17778371,0.29931659,-0.48107952,-0.51253664,0.011963795,-0.06798519,-0.033730865,-0.22762465,0.29317215,0.3673113,0.42282313,-0.104946434,-0.41828832,-0.12492538,0.5367758,0.55914986,0.68853766,-0.62515336,0.5048574,-0.02165099,-0.107828915,0.39887223,0.7206025,-0.4943918,-0.23007467,0.17635879,0.12287982,1.0188586,0.0,-0.20687999,0.17879185,-0.532978,0.025248727,-0.16827425,0.0,-0.4503283,-0.23005474,-0.0,-0.0,0.27203956,-0.16350217,0.028844675,-0.0,1.001568
CTTTACGACTGTCC-1-dorsal,-0.15304083,-0.15710971,0.10574977,-0.5492653,-0.06610102,-0.091108486,-0.078554355,0.60848695,-0.4547189,-0.28485605,0.20567547,0.12273651,-0.29868683,0.38468474,0.07343236,-0.2417479,-0.27897042,-0.063195035,0.038712986,-0.37519184,-0.34742576,-0.04367451,0.22288132,0.60083586,-0.37232912,-0.0,0.001637497,-0.4480484,-0.08498252,0.47701645,0.1239373,-0.17834075,0.25887695,-0.26716936,0.5673589,0.5257226,0.067944996,0.43613854,-0.09075338,0.47924635,0.2958721,-0.12715618,0.34640348,-1.1036948,-0.14294413,0.06952662,0.48179874,0.0,-0.30327535,-0.43555313
GACGATTGCTCTCG-1-ventral,-0.355114,-0.028239954,-0.3803248,-0.13898082,-0.40598673,-0.05110145,0.18275043,0.5555558,-0.3674641,0.20392668,0.32810888,-0.34823683,-0.24260813,-0.3534402,0.4106227,-0.4088353,-0.26597893,0.55852795,0.0,-0.6112741,0.39103794,-0.23907305,0.9931421,-0.04979114,-0.09145631,-0.11814827,0.06862387,-0.4806836,-0.2577342,-0.017801458,-0.13028204,1.3406106,0.42822987,-0.4492287,-0.06210016,0.5142589,-0.0,0.20235598,-0.041119523,0.0,0.8159489,0.0,-0.26533407,-1.1013186,-0.4437408,0.17420669,0.17700562,-0.34253076,-0.03984882,-0.0
TCTCAAACGGTCTA-1-ventral,-0.27329063,-0.3800457,0.39433435,0.16690946,0.4028015,-0.5050229,-0.18383193,-0.06992883,-0.5273083,-0.52885413,0.0,0.16967776,0.39504856,-0.10822118,-0.0,0.28628218,0.49810982,-0.1851027,-0.4781404,0.41400525,0.0973935,0.6758886,-0.20674971,-0.40636143,0.30538064,0.232511,0.3869376,0.49177447,0.42023203,-0.21126443,0.16495888,-0.0,-0.19114535,0.32674718,0.0,-0.330403,0.0,-0.53638566,0.43096486,-0.14100042,-0.20511694,-0.4017599,0.017118355,-1.1028757,0.13622542,0.42135626,-0.20141861,0.2493075,-0.5224106,0.873496
TCGTGAGATGTCGA-1-dorsal,-0.14921653,-0.29195654,0.08246636,-0.5737357,-0.09792838,-0.040040415,-0.017160509,0.58909965,-0.0,-0.26690167,0.28042382,0.06166346,-0.1886254,0.35487348,0.09340027,-0.3984827,-0.25302902,-0.10408561,0.10269081,-0.5343609,-0.16414537,-0.022218958,0.44029662,0.51967794,-0.19548331,0.006628103,0.072453804,-0.5251052,-0.15068187,0.60763097,0.31518486,-0.110670336,0.22220951,-0.29403436,0.48694977,0.5048119,0.0068600974,0.48274028,0.13632995,0.47195557,0.22906445,-0.23766392,0.15286021,-1.1035321,-0.23291099,0.0019433598,0.50341105,0.3614333,-0.28265595,-0.38212726
CGAGGCTGACCTAG-1-ventral,-0.049413446,-0.6436557,0.35405707,0.6659909,0.14574891,-0.38179764,-0.06198771,-0.0,-0.135607,-0.0,0.13086535,0.13332267,0.9515765,-0.29513335,-0.06379856,-0.21324363,0.40113688,-0.47760946,-0.5383839,0.0,0.46551058,0.0,-0.11887875,-0.4300872,0.38680547,0.0,0.2902648,0.0,0.37988147,-0.05010155,0.48721632,-0.0,-0.0,0.39506483,0.17744811,-0.369712,0.117186844,-0.4064776,0.73360986,-0.23021746,-0.30010676,-0.46629578,-0.21051408,-0.0,-0.19726105,0.0,0.07982481,-0.0,-0.373161,0.7064141
CTAGTTTGATACCG-1-dorsal,-0.5549757,-0.4870646,-0.22251727,0.4131663,-0.121386126,-0.6309975,-0.19036539,0.44919103,-0.5031506,-0.47805306,0.028798647,-0.104888156,-0.0,-0.20051838,0.25601047,0.21978316,0.31799582,-0.16056651,-0.3412429,-0.14783502,0.47684148,0.50963634,0.0,-0.5063897,0.31920972,0.07859701,-0.055616237,0.28151965,0.6558429,-0.5022049,-0.16832153,0.22215772,0.17922162,0.8541663,0.463777,-0.03715343,0.20547208,-0.44228292,0.1098057,0.0024972858,0.46197397,-0.0,-0.12462881,-0.0,-0.17522448,0.2946373,-0.020019347,-0.080965035,-0.45987317,0.7585358
ATCGCGCTGCGAGA-1-dorsal,-0.0366656,1.2835279,-0.002252857,-0.66684914,0.1945572,-0.10260457,-0.20625547,0.16003582,-0.443348,-0.2039971,-0.3454349,0.16549835,-0.52072513,-0.0,0.0,0.44587764,-0.15951833,0.91137683,-0.066945754,0.7048016,-0.4515721,-0.15927163,-0.43005455,-0.11025813,-0.11472478,-0.0,0.2741312,0.2892343,-0.20643209,-0.13960719,-0.4207851,0.09368006,0.205668,-0.57081276,-0.053680874,0.12613474,0.07264159,-0.44053066,-0.3819911,-0.06505503,0.46128824,0.39672887,0.4409357,-1.1014028,0.61296356,0.61848515,-0.0,0.8566634,0.0,-0.035911072
AGTCTTACATCGTG-1-ventral,-0.43187892,-0.43874723,0.30136147,0.2540248,0.65948987,0.1720062,0.03410896,-0.21738496,-0.070392825,0.57185984,0.32012737,-0.35110125,-0.26269093,0.19725846,-0.3663858,0.051123984,0.9047157,-0.32547072,0.0,-0.45252457,0.0,-0.14245252,0.462676,-0.0,-0.1899714,-0.16068737,0.3644797,0.65420496,0.6363816,0.083979376,-0.0040117903,-0.24981454,-0.30167356,-0.21094885,-0.13757667,-0.11067404,0.07627304,0.40382898,-0.119291686,-0.2701608,-0.48062697,0.42929935,0.00013013682,-1.1035339,0.0,-0.25800467,-0.26214507,-0.28263032,-0.46610436,-0.057474244
TTAGACCTCTTGGA-1-dorsal,-0.3290787,-0.31367517,0.032266993,-0.65544105,-0.015971264,-0.40008897,-0.36972326,0.7541071,-0.5601402,-0.4026414,0.28792,-0.09980918,-0.3545011,0.0,0.034863256,-0.0,0.058018338,-0.28257027,-0.21309033,-0.3793433,-0.34990337,0.0,0.43267325,0.70860285,-0.20561378,0.06945932,0.06568601,-0.4626438,0.024287354,0.73936665,0.30126223,-0.14130679,0.16079786,-0.27646345,0.8487986,0.7317432,0.09582324,0.70595473,0.13873868,0.37282732,0.21783705,-0.0,0.30943096,-1.1022923,-0.13777389,-0.017707944,0.26564375,0.51669073,-0.39427707,-0.35074434
AAGCCTGATTGACG-1-dorsal,0.24602328,-0.34567025,0.8202529,-0.345477,0.47150204,0.9831321,0.8082015,-0.18538482,-0.37271786,0.2211021,0.5095127,0.23793088,-0.04654454,0.40998203,-0.265434,-0.41865033,-0.23226978,0.40832615,0.8886418,-0.0,-0.06250607,-0.057278477,-0.13522367,0.09619102,-0.26450318,-0.2890934,0.5115175,-0.5103473,-0.15117322,0.55017525,0.38392523,-0.17483453,-0.32567868,-0.5370177,-0.33721483,-0.0,-0.22272673,-0.15912706,0.08268872,0.47343925,-0.14121427,-0.26606297,-0.2875362,-0.0,-0.16744548,0.0,0.0,0.25082657,-0.3479241,-0.43109757
TCCTATGATAGCGT-1-ventral,-0.5526382,-0.41475913,-0.25967056,0.36638546,-0.15553786,-0.57027835,-0.17583305,0.4343768,-0.42420992,-0.52501434,-0.010201865,-0.004647308,0.04725874,-0.21530053,0.2643762,0.2523582,0.36088565,-0.16274877,-0.0,-0.0,0.42982972,0.48123106,0.63314945,-0.5559908,0.34599775,0.04790379,-0.037218135,0.0,0.56932205,-0.44991773,-0.21453872,0.08400164,0.21671854,0.85508347,0.4991782,-0.03358788,0.19347824,-0.47979054,-0.0,-0.0,0.5675195,-0.43639356,-0.24700451,-0.0,-0.18765742,0.26255733,0.0,0.06470126,-0.47420776,0.8464422
CAGGGCACCTTGGA-1-ventral,-0.3340087,-0.19748132,0.39914817,-0.020854475,0.70737386,-0.3345821,-0.0,-0.34330633,-0.27589944,-0.15777582,-0.25118035,0.1452733,-0.1419292,0.36754134,-0.3747852,0.6757335,0.6355549,-0.2130225,-0.40665835,0.7710567,-0.21516582,0.553526,-0.0,-0.23751697,-0.22413221,-0.3281069,0.07538402,0.67176783,0.0,-0.11068742,-0.06755902,-0.0,-0.34063375,0.27061313,0.12173605,-0.37221137,0.3918922,-0.4030376,-0.18697938,-0.3450725,-0.47330084,-0.06320762,0.32419035,-1.1019359,0.4667593,0.16656597,-0.2600776,0.770197,-0.53284985,0.8635144
ATTCTGACACCAGT-1-ventral,0.25595972,0.023328539,0.0,-0.36305335,0.56811917,0.8380304,0.7372435,-0.22278972,-0.5665382,0.090908095,0.0,0.2697286,-0.041320458,0.06617712,-0.0,-0.22740333,-0.16219445,0.8240969,0.7165162,-0.37768075,-0.0,0.07333701,-0.32666698,-0.2535568,-0.15817,-0.0,0.69191724,-0.34183404,-0.0,0.0,0.32291618,-0.053243376,-0.27719855,-0.6577382,-0.0,-0.3115217,-0.21042712,-0.5532516,0.0,0.3920852,0.0918978,-0.23179135,-0.22396287,-1.1019117,0.10233227,0.7789661,0.019116402,0.3624082,-0.30514055,-0.2735142
GGAACACTCCATGA-1-ventral,0.07102306,-0.52852386,0.5950502,0.5556781,0.0,-0.45470458,-0.1560394,-0.2922808,-0.3885036,-0.56808674,0.19353029,0.18598728,0.9047546,-0.32722884,-0.21140623,-0.0,0.47661036,-0.33166316,-0.6014696,0.27524912,0.22845869,0.70539135,-0.32610205,-0.484017,0.53723055,0.6990785,0.53712636,0.49343202,0.27288374,-0.09726061,0.5338605,-0.61079705,-0.25233305,0.24941981,0.10409367,-0.45640585,0.031917114,-0.0,0.0,-0.25795713,-0.36547893,-0.4678584,-0.2731962,-0.0,-0.04469567,0.5593942,-0.17274639,-0.08545412,-0.43589666,0.893627
GAAATACTTCCTCG-1-ventral,-0.0,0.059636593,0.4690389,-0.22560704,0.0,-0.0,0.08674529,-0.4250937,-0.0,-0.16930322,-0.33556926,0.37318614,-0.31215802,0.32439533,-0.39229494,0.0,0.5325974,0.14098023,-0.32297042,0.0,-0.16993245,0.68061185,-0.56137544,-0.44034773,-0.0,-0.5463733,0.16801839,0.7731227,0.79567075,-0.43367124,-0.3357955,-0.5087751,-0.3603818,0.21106601,-0.1052675,-0.51144326,0.4161786,-0.73458683,-0.28614444,-0.29068312,-0.19359007,-0.12498691,0.34725899,-1.0980027,0.6587664,0.0,-0.40307942,1.1063921,-0.0,1.0759906
CGCTAAGAGGCGAA-1-dorsal,0.5879857,0.0,-0.29218483,-0.37121588,-0.30922082,0.8900991,0.0,-0.4070743,1.4643071,0.84220004,-0.36641243,0.047969375,-0.29315937,0.0,0.06513988,-0.4514154,-0.52840704,-0.09554268,0.1704503,-0.02977431,-0.066430904,-0.5580948,-0.44633198,0.7142567,-0.44930062,-0.53562224,-0.23945458,0.04082929,-0.3055607,0.5113947,-0.0,0.32872435,0.20721853,-0.51068556,-0.44403985,0.017908059,-0.1660963,1.0844325,-0.50949746,-0.091521345,-0.0,1.1305808,0.26339725,-1.0981468,0.05759367,-0.45814404,0.51203305,-0.30796012,1.1244733,-0.64788145
TGGATGTGAGCGGA-1-dorsal,0.39342812,-0.4537339,-0.08180327,0.5612834,-0.29321057,-0.24413289,0.031803798,-0.3007653,0.0,-0.4126941,-0.19572742,0.33142212,0.0,-0.15584363,0.17641863,-0.30952442,-0.19317502,-0.0,-0.57667404,0.13496403,0.4544355,0.20280604,-0.32860997,-0.24966042,0.19835386,0.41808045,-0.07709649,0.0,0.042660784,-0.06504609,0.26328427,-0.0,0.29738474,0.5731691,0.0,-0.29992026,0.15935835,-0.0,0.35218215,-0.18021545,-0.20112482,-0.33271003,-0.05168809,-1.1038213,-0.15009451,-0.03466858,0.4497113,-0.2976697,0.296036,0.22452685
CGCCATACATACCG-1-ventral,-0.4576354,-0.47033134,-0.5276209,0.45627284,-0.5875723,-0.38679278,0.0,0.5390926,-0.08939511,-0.18123648,-0.010643006,-0.15537713,-0.029420855,-0.3272927,0.640649,-0.16750178,-0.19390333,-0.11730745,-0.08359188,-0.5159153,0.7050793,-0.029536089,1.0180426,-0.3414809,0.0,-0.07667025,-0.34364787,-0.042996608,0.2921949,-0.32279426,-0.20117965,0.7188229,0.5831262,0.88576937,0.0,0.24093533,0.052758407,0.0022484115,-0.2245817,0.0,0.79637176,-0.2323852,-0.24743836,-1.1021255,-0.43029508,-0.18335105,0.41113147,-0.41622376,-0.17289229,0.14718506
GCCGACGAGCTACA-1-ventral,0.20007442,-0.57893515,0.5144524,0.68168896,0.119896226,-0.18399756,0.17320895,-0.29881194,-0.13629794,-0.0,0.32638735,0.155147,0.0,-0.35992995,-0.116908096,-0.40141705,0.18155606,-0.14068663,-0.31000495,-0.18570802,0.5103973,0.44856414,-0.1171283,-0.48084766,0.56920207,0.68765265,0.55460805,0.16596463,-0.0031409,-0.11308426,0.5245024,-0.3383501,-0.09426197,0.24091558,-0.0,-0.5020085,-0.08681629,-0.62226284,0.80822855,-0.108613774,-0.20250626,-0.5133471,-0.41730154,-1.102193,-0.27453193,0.4900932,0.07017363,-0.33249047,-0.3224216,0.5163004
AATGCGTGAACGAA-1-dorsal,-0.13319188,1.1659176,-0.07838521,-0.6093295,0.11490087,-0.17855671,-0.0,0.21153364,-0.51732016,-0.27427727,-0.34166855,0.19066817,-0.4971898,-0.22173618,0.0026303532,0.53160673,-0.07975963,0.8272567,0.0,0.0,-0.3900732,-0.035104487,-0.3299959,-0.31098884,-0.039467484,-0.4566394,0.23564555,0.31444743,-0.0,-0.35817003,-0.34964588,-0.061523322,0.19268548,-0.4070496,0.1349396,0.0,0.11654848,-0.5355546,-0.0,-0.0565211,0.4860359,0.2408926,0.47751462,-0.0,0.5682746,0.67479205,-0.25261497,0.97619647,0.18032259,-0.12935871
CTCCGAACAACCTG-1-ventral,-0.0075797243,0.90808487,0.11056904,-0.6662176,0.16946921,0.036813628,-0.1587836,0.3053536,-0.5377622,-0.19891448,-0.08532743,0.14288321,-0.41620713,-0.0,0.06344268,0.22538309,-0.0,0.79351383,0.029950673,0.44011816,-0.40207082,-0.0,-0.4106031,-0.031132169,-0.07125597,-0.43346816,0.38481575,0.12731585,-0.25027037,-0.10726042,-0.2545433,0.07737929,0.19396284,-0.60930425,0.004078448,0.23439054,0.04360893,-0.34360927,-0.24965744,0.037204325,0.4478884,0.21205689,0.2880888,-1.1028874,0.36188638,0.65213996,-0.18028857,0.7630281,0.02758614,-0.16878645
GTTAACCTCACACA-1-ventral,0.3042896,-0.36983994,-0.0,0.748593,-0.42570096,-0.25976288,0.17591687,-0.19521894,0.7924508,-0.3014317,-0.24443178,0.2807331,0.5168082,-0.0,0.2636952,-0.21897927,-0.28488612,-0.30689156,-0.41996375,0.013444821,0.6801561,0.063512325,-0.017991597,-0.4264392,0.0037091973,0.21879695,-0.19826546,0.53077406,0.11284099,-0.2584737,0.0,-0.2334165,0.0,0.61467457,0.04615241,-0.32532653,0.100965306,-0.0,-0.06132914,-0.1369748,0.052412834,-0.22697715,-0.013479194,-1.1038046,-0.0,0.04153992,0.0,-0.37152398,0.25477847,0.11814474
TTGTCATGGATAAG-1-dorsal,0.058845416,-0.34332237,0.51812136,-0.47028074,0.0,0.6060697,0.5429878,0.18759379,-0.0,-0.11042218,0.47555244,0.0,0.006473429,0.2607005,-0.12525758,-0.46214926,-0.36925006,0.4118689,0.6521241,-0.5639324,-0.1357133,0.02927128,0.109632365,0.18000117,-0.0,-0.095353395,0.3938772,-0.64716196,-0.2883975,0.51917386,0.5221807,-0.0,-0.13117526,-0.0,0.0056040785,0.09143289,-0.1708295,-0.06533643,0.20216782,0.68494534,0.20894311,-0.39157102,-0.15758184,-1.1024735,-0.27088353,0.5017629,0.0,0.34496778,-0.34089077,-0.45122823
ACTTTGTGCAATCG-1-dorsal,0.65925044,-0.25833753,-0.20179842,0.0,-0.37771186,0.0,0.34005484,-0.45375606,1.2935379,-0.10211164,-0.33590224,0.44233742,0.78399664,-0.0,0.20961815,-0.45583484,-0.47229856,-0.3931883,-0.42511466,0.10881314,0.61094236,-0.0,-0.42940944,-0.2206109,-0.020946663,0.15111005,-0.17609696,0.4978323,-0.0,-0.04553007,0.12888452,-0.35529786,0.58518094,0.2673213,-0.25436383,-0.39529333,0.07086946,-0.07918073,-0.016829042,-0.201449,-0.35806194,-0.07339114,0.010243705,-1.1026627,-0.1186802,-0.16575827,0.6261676,-0.0,0.7030323,-0.12083319
AGTTAAACGACGAG-1-ventral,-0.4662706,-0.14855915,-0.5282421,0.22095701,-0.53893864,-0.35818818,0.14092188,0.0,-0.5384062,-0.15140978,0.0,-0.42819282,-0.0,-0.65992993,0.8158765,-0.46843338,-0.164001,0.7405873,0.62999004,-0.65403616,0.7364355,-0.15810941,1.3817552,-0.526201,0.37158397,0.04804706,0.12207638,-0.3685451,-0.2517517,-0.537404,-0.25605893,1.5831058,0.54458594,0.02054862,-0.04482607,0.50906014,-0.29807892,-0.30645186,0.1355407,0.5537404,1.3138217,-0.16079997,-0.5139055,-1.0948672,-0.54558253,0.4213232,-0.038367182,-0.55599505,-0.18017186,-0.1923091
CAATCTACGGTATC-1-dorsal,0.5585897,-0.27917275,0.40089995,0.2522325,0.038684145,1.0760032,1.0756608,-0.4170561,0.4546928,0.3631951,0.20184514,0.2957723,0.28408453,-0.00030517578,0.001493858,-0.5037512,-0.5360441,0.41503146,0.7598145,-0.56092966,0.48401213,-0.21692052,-0.16013305,-0.24905418,-0.22582784,-0.26476544,0.1974604,-0.3247917,-0.30169475,0.15752144,0.2576509,0.2089431,0.004366256,-0.31872725,-0.5750035,-0.4451503,-0.28631994,-0.0,-0.05195234,0.0,-0.017059313,-0.17472248,-0.33571365,-1.1021113,-0.27128246,0.22843774,0.4814416,-0.3060659,0.18461402,-0.44058734
AATCTAGACGGGAA-1-dorsal,-0.17352754,-0.17955701,0.34207946,-0.55929804,0.3267217,0.17885384,0.074416086,0.30239955,-0.49029604,-0.05355047,0.27937493,0.1097179,-0.3261269,0.601691,-0.18774046,-0.20867732,-0.053795513,0.052325696,0.27327865,-0.37117112,-0.3457267,0.08978957,0.13789055,0.5630872,-0.2803092,-0.27834594,0.14083743,-0.45492133,-0.049832862,0.65453595,0.22693308,-0.1879769,-0.09906557,-0.43371382,0.30736056,0.27665344,-0.0422238,0.42921096,-0.04927874,0.40599528,0.018409923,-0.04917589,0.09826356,-1.1038729,-0.07231223,0.050623618,0.2515885,0.5095895,-0.33971244,-0.39660475
CTTTACGATCTCTA-1-ventral,0.38886347,0.1887468,0.0,-0.4387469,0.0,1.2515368,0.78173965,-0.38311788,0.29326335,0.7854228,0.24570741,0.06577765,-0.16297023,0.45574057,-0.31744653,-0.46531639,-0.32669294,0.41158262,0.9202751,-0.50956225,-0.10662629,-0.3959039,-0.32717183,0.53258467,-0.39684206,-0.4868072,0.30495274,-0.43557566,-0.30786183,0.71761006,0.12553841,0.17247058,-0.37320337,-0.7107131,-0.54384923,-0.1889705,-0.32343283,0.54552746,-0.0,0.27492148,-0.27082497,0.4630848,-0.16489784,-1.1000541,-0.029290585,-0.0001963642,0.3809323,-0.13684896,0.2926396,-0.6488259
AGTCGAACGAAAGT-1-ventral,-0.6511797,-0.60465187,-0.13567959,0.26198035,0.0,-0.0,-0.19632003,0.4770062,-0.5122137,-0.0,0.15708102,-0.23577313,-0.0075381338,-0.13975634,0.14644898,0.19313999,0.7343589,-0.3499142,-0.3015019,-0.39683968,0.5118465,0.533944,0.881764,-0.4345308,0.26675698,0.109311864,-0.02705402,0.3059324,0.0,-0.38700238,-0.06569704,0.15956236,-0.015949873,0.0,0.5262315,0.07169253,0.18927379,-0.121481754,0.1597284,-0.06889741,0.2570597,-0.31459227,-0.0,-1.1021589,-0.23365922,0.017101947,-0.148241,-0.12893856,-0.5942914,0.6904704
GAGTCAACGGCAAG-1-ventral,-0.2587585,-0.2906822,-0.2494775,0.16485022,-0.3347672,0.27741295,0.4806727,0.35282138,-0.32288793,0.30998987,0.45245287,-0.2774448,-0.076827675,-0.38243687,0.41938874,-0.48669505,-0.19697402,0.5612532,0.8590807,-0.71240836,0.6848722,-0.25127155,1.0204866,-0.4085566,0.049932916,-0.18991312,0.09165379,-0.32771385,-0.083100006,-0.3122559,-0.0976136,0.0,0.26206014,-0.028548772,-0.28967118,0.0,-0.27039945,-0.059100855,-0.12461345,0.4904995,0.7984121,-0.14353502,-0.4556178,-1.1014386,-0.43610057,0.0,0.0,-0.5242001,0.008088384,-0.31699088
TCCTAAACGAAAGT-1-ventral,-0.03565994,0.0,-0.04317562,-0.0,0.17333053,0.28933203,0.047021892,0.00010626184,-0.2449359,0.19282,-0.2480866,0.08126463,-0.5127404,-0.02415379,-0.064264536,0.26352873,-0.26962632,0.91784847,0.3567702,0.4684235,-0.34741735,-0.32273427,-0.41403627,0.06709954,-0.3479854,-0.6453296,0.0871437,0.117797576,-0.0,-0.11690856,-0.4118572,0.17531846,0.09045427,-0.60199213,-0.25212574,0.11837002,0.025019448,-0.25252992,-0.0,0.13425532,0.41897172,0.6591124,0.5246893,-1.1018625,0.50875247,0.45439324,-0.100863114,0.70931095,0.30636126,-0.36578366
CACTGCACGTCAAC-1-ventral,-0.26772764,0.31218636,0.17747033,-0.0,0.22257835,-0.20608446,-0.15529369,0.0,-0.5576005,-0.30770773,-0.074742705,0.10860925,-0.0,0.0,-0.0,0.30729073,0.08500187,0.37805033,-0.14912242,0.23247747,-0.2769184,0.119351335,-0.13981429,-0.0,-0.14096214,-0.36473686,0.0,0.14049126,0.20644058,-0.07745015,-0.0,-0.119868785,0.053960152,-0.31514946,0.31445003,0.15464383,0.13559712,-0.29583097,-0.16953695,0.04596704,0.28192964,-0.047166083,0.30410537,-0.0,0.40528128,0.0,-0.083440416,0.75132746,-0.25037846,0.08416463
CTGAATCTGCAAGG-1-ventral,0.54832155,-0.22457813,0.14077435,0.31237876,-0.0,0.0,0.44237754,-0.43440476,0.64428717,0.024736855,-0.15157382,0.32169384,0.45244756,0.007158005,-0.04740967,-0.264459,-0.0,-0.0,-0.17878076,0.069876745,0.31532687,-0.061651405,-0.41216275,-0.0,-0.1644016,-0.015411642,0.1023056,0.3263297,-0.07363876,0.11639202,0.2164305,-0.3505891,0.22397855,0.09584726,-0.32163543,-0.41871184,-0.0071003707,-0.27575442,-0.032853156,-0.029190581,-0.3323732,-0.092581645,0.056205906,-1.1047238,-0.01990219,0.04057338,0.0,-0.12085571,0.29966938,-0.19413413
TTCCTAGAAGTCGT-1-dorsal,0.5733199,-0.04764319,-0.29104513,0.3476509,-0.37969658,0.2429609,0.40566012,-0.34645227,1.2341828,0.03716934,-0.42970607,0.48808512,0.27020985,0.07276395,0.2114385,-0.23515908,-0.56226444,-0.23566274,-0.2677227,0.10761937,0.51142496,-0.26213554,-0.4016267,-0.13868187,-0.22068495,-0.2034345,-0.2937619,0.4094312,0.011143669,-0.09812077,0.0021424228,-0.31356576,0.53189206,0.31595364,-0.18275765,-0.30153692,0.0656773,-0.040164657,-0.3431829,-0.0,-0.14057478,-0.039151315,0.16594972,-1.1035782,-0.0,-0.0,0.6877143,-0.17205907,0.5622569,-0.0
CTGTAACTATCTCT-1-ventral,-0.32864758,-0.12382515,0.30959365,-0.09557195,0.5478987,-0.42077118,-0.061673325,-0.2909228,-0.28999382,-0.2716558,-0.36059883,0.4273616,-0.24379759,0.47171435,-0.35064486,0.8733767,0.0,-0.22133212,-0.43011832,0.0,-0.18855652,0.6018765,-0.41617978,-0.33249712,-0.18893772,-0.51229775,-0.10795541,0.84991366,0.9097518,-0.31570813,-0.3494296,-0.69359773,-0.18603446,0.3708537,0.15891258,-0.45010462,0.5127947,-0.5821166,-0.33523998,-0.29607576,-0.20260812,-0.098924115,0.45995224,-1.0998179,0.5863334,0.15633616,-0.21622758,1.0491203,-0.0,0.9962531
GACATTCTGAGATA-1-ventral,0.2157373,-0.116896234,0.5601494,-0.34287283,0.2655972,0.73013586,0.65184164,0.018667893,-0.42585182,0.09907688,0.38916147,0.2817784,-0.13434033,0.0,-0.17071499,-0.36622593,-0.30721545,0.54585963,0.0,-0.5267803,-0.051599544,-0.1685493,-0.00642856,-0.022434726,-0.26311386,-0.2938684,0.37355137,-0.4353762,-0.25944546,0.39426327,0.1892798,-0.032052003,-0.08272787,-0.52457947,-0.2065419,-0.0855979,-0.17168237,-0.19862573,-0.08369035,0.48568556,0.118076794,-0.21021585,-0.14322633,-1.1035012,-0.11043238,0.39698026,0.3079469,0.35987222,-0.19848447,-0.46167025
AGGTGTTGGTGAGG-1-ventral,-0.07873496,1.2935907,-0.27658403,-0.60072744,-0.037723385,-0.0,-0.0,0.28282252,-0.44052145,-0.39049417,-0.4216128,0.15321028,-0.4263306,-0.31713513,0.2477306,0.0,-0.0,0.8778344,-0.24501298,0.0,-0.30889472,-0.076288454,-0.4084892,-0.2777444,0.010914919,-0.4627473,0.10163419,0.35259786,-0.21038474,-0.40877888,-0.5193952,0.2532423,0.0,-0.39238548,0.05354375,0.17934945,0.16802394,-0.62588125,-0.4560398,-0.11492061,0.6883039,0.21903382,0.0,-1.1003547,0.60637826,0.6812643,-0.2639299,0.8648861,0.22648665,0.0
CGAAGTACGGTGTT-1-ventral,-0.27522123,-0.25284663,-0.20289244,-0.011701982,-0.3287487,0.11493608,0.0,0.4939357,-0.38084105,0.15142377,0.40947706,-0.22102317,-0.132561,-0.32070222,0.34129784,-0.43155408,-0.23008732,0.55555785,0.7442855,-0.6804063,0.47953966,-0.19773391,1.072999,-0.18076354,-0.11519843,-0.1513958,0.102651685,-0.42737553,-0.18741721,-0.15542892,-0.06724139,0.93929166,0.29417762,-0.24436931,-0.17952238,0.40699828,-0.28449512,-0.020563008,-0.036346316,0.58554983,0.8116315,-0.13993423,-0.34884864,-1.1022521,-0.3778471,0.21132809,0.26051754,-0.3304322,-0.14919871,-0.44747525
ATCCAGGAATCTCT-1-ventral,-0.10373321,-0.5882731,0.24545926,0.5938964,0.018950818,-0.3460942,-0.17344628,-0.14282413,-0.20810327,-0.5299681,0.33431962,0.033240154,0.7719431,-0.0,-0.02969934,-0.26849204,0.30664986,-0.26351896,-0.49572927,-0.15070823,0.48611075,0.58717847,0.16706415,-0.47754058,0.5841437,0.6445996,0.46091396,0.30960646,0.17709701,-0.08633647,0.34694657,-0.25814712,-0.016247896,0.35672912,0.090007275,-0.33030298,-0.056764554,-0.4556321,0.84687424,-0.13580072,-0.13104452,-0.42840892,-0.31924036,-0.0,-0.21968882,0.3014972,-0.035275422,-0.29434046,-0.32975695,0.57882506
GTAGTCGAGGACAG-1-ventral,-0.5838187,-0.0,-0.33313408,0.50139725,-0.36763868,-0.63287693,-0.15863115,0.58663154,-0.51648885,-0.0,0.2133807,-0.1687677,0.15115534,-0.36964518,0.49886107,0.0,0.3759475,-0.0,-0.0,-0.5135482,0.67416877,0.5504126,1.0311171,-0.5570755,0.5115741,0.3177272,-0.10588388,0.09313165,0.56872666,-0.42723292,-0.09290351,0.22874303,0.20558843,1.0509409,0.6023019,0.043194402,0.18562487,-0.3936214,0.14088596,0.09488437,0.6447235,-0.51818705,-0.3106124,-1.0998871,-0.34440023,0.11166479,-0.0056658853,-0.23361956,-0.5222808,0.8532469
CATGGCCTTCGATG-1-dorsal,0.2618152,-0.5799983,0.40786454,0.4894016,0.08398656,-0.1893323,0.11773342,-0.36420527,0.027232569,-0.42382628,0.25555006,0.1783847,1.0665746,-0.23330915,-0.15856306,-0.4026782,0.22808413,-0.3653471,-0.45255333,-0.054720312,0.40910193,0.4248739,-0.27341554,-0.0,0.0,0.75981563,0.46593097,0.29736722,0.064627916,0.09290421,0.5803113,-0.46705195,-0.031312972,0.1229912,-0.059724983,-0.42622787,-0.021174617,-0.3408115,0.8547685,-0.1584616,-0.36416784,-0.0,-0.25701073,-1.1027786,-0.0,0.0,0.11108406,-0.38287064,-0.2570837,0.3902777
CGCATAGATGGGAG-1-dorsal,0.42442068,-0.13740249,0.8240201,-0.35708708,0.47931004,1.1414487,0.78522104,-0.28614098,-0.23844767,0.38069642,0.3810828,0.24007876,-0.037965048,0.4138825,-0.31682837,-0.37543657,-0.0,0.5056904,0.8611937,-0.53842646,-0.12920904,-0.16288586,-0.27576354,0.0,-0.31378588,-0.36817744,0.5120184,-0.46118367,-0.27069628,0.53575504,0.40237224,-0.1463261,-0.0,-0.0,-0.48175305,-0.24463098,-0.23145597,-0.06985175,-0.023457011,0.3925392,-0.19906853,-0.061846577,-0.19541708,-1.1016054,-0.047338407,0.0,0.30966747,0.20115015,-0.1778518,-0.4845619
GAGTCAACTGGAGG-1-dorsal,0.44923416,-0.11719969,0.64421135,-0.33871892,0.4199198,1.1413513,0.8455873,-0.27915207,-0.047832794,0.32008377,0.2842737,0.0,-0.11448854,0.53301346,-0.33712137,-0.0,-0.3824054,0.4029075,0.7625637,-0.49702197,-0.1983689,-0.0,-0.24409176,0.25925365,-0.39005727,-0.4266641,0.37377018,-0.0,-0.22643124,0.0,0.28979287,-0.28511524,-0.24824978,-0.5658215,-0.37886164,-0.0,-0.19476216,-0.05620394,-0.153397,0.4694284,-0.17405206,-0.0,-0.12737878,-1.1021423,0.048923362,0.24968998,0.40415627,0.3565403,-0.14112632,-0.0
TATCGTACGAATCC-1-dorsal,-0.07294609,0.9911448,-0.061239604,-0.5537973,0.0,-0.21551438,-0.15656915,0.12438718,-0.48945865,-0.0,-0.33326554,0.2314042,-0.4239327,-0.12961614,0.026969166,0.4627431,-0.08715934,0.75400746,-0.028016038,0.6792571,-0.32099587,-0.0335698,-0.3748884,-0.26027364,-0.13022794,-0.48262796,0.22729523,0.34896442,-0.09305061,-0.27551612,-0.35714072,-0.07636051,0.21945965,-0.44941282,0.021302486,0.0,0.15795712,-0.5039854,-0.38551128,0.05950698,0.47549197,0.13963297,0.43969104,-1.1027569,0.0,0.6275026,-0.17275718,0.8167042,0.07072183,-0.0038327775
TATGCGGATCTCTA-1-ventral,-0.22113231,0.0,-0.18519628,-0.0,-0.15861419,-0.23840064,-0.03472984,0.44910392,-0.0,-0.18051876,0.04661509,0.021717565,-0.2932122,-0.30218995,0.35324243,-0.0016463466,-0.0,0.53176033,0.28384587,-0.18175279,0.01918796,-0.06809791,0.26432586,-0.17511356,-0.006505185,-0.2748914,0.01759655,-0.0,-0.12066789,-0.2390051,-0.2763475,0.43443447,0.44352883,-0.22739848,0.10779391,0.33088747,-0.0141939195,-0.2749769,-0.0,0.2551077,0.86325186,-0.03654626,0.07794376,-1.1044184,-0.029709937,0.43376222,0.09005068,0.32758334,-0.13432914,-0.1351593
CCGACACTCTGACA-1-ventral,0.28023043,-0.34329847,-0.26025414,0.4373168,-0.3787202,-0.30548468,-0.0015401841,-0.20885965,0.8120203,-0.28637934,-0.24687847,0.31768715,0.44655165,-0.059873663,0.0,-0.30881763,-0.3578983,-0.48383948,-0.4812368,0.08387119,0.591161,0.10792981,-0.20745133,-0.15446518,-0.036230884,0.16386929,-0.28265518,0.48003116,0.09563317,-0.044571824,0.05466736,-0.33052015,0.52401686,0.6246453,0.12002762,-0.15136719,0.0,0.053328343,-0.022276575,-0.16397728,-0.16350707,-0.1322696,0.06537216,-1.1040776,-0.13078836,-0.19833201,0.0,-0.2813734,0.0,0.13685858
TGACTGGATTTGGG-1-ventral,0.0,-0.44801146,-0.2555638,0.0,-0.2381419,-0.3400893,0.0,-0.14523348,0.4605171,-0.22714451,-0.05595744,0.059122726,0.49085316,-0.3764521,0.21204324,-0.21188836,0.07571257,-0.3046267,-0.38215002,-0.022445124,0.71105397,0.16344343,0.20260553,-0.49213287,0.0,0.32799724,-0.0010250675,0.5390174,0.24221407,-0.0,0.040761415,-0.027942725,0.33174622,0.48708913,-0.079401866,-0.25231853,0.057212267,-0.28665438,0.19268508,-0.16014066,0.033446155,-0.19277143,-0.19308634,-1.1042305,-0.23241746,0.010140307,0.21707842,-0.0,0.067099154,0.30285954
GTTCATACCCACAA-1-ventral,-0.2748297,-0.10181467,0.23022057,-0.0790308,0.446366,-0.0,-0.09729525,-0.36036202,-0.22316033,-0.3568783,-0.376776,0.48264703,-0.17236438,0.42735174,-0.2110739,0.81853855,0.4435054,-0.0,-0.46851227,0.0,0.04185806,0.0,-0.39789334,-0.36180067,-0.17133501,-0.3920272,-0.078731716,0.83897954,0.776712,-0.0,-0.22935517,-0.71856993,-0.13258968,0.0,0.229105,-0.4195127,0.0,-0.5079916,-0.25339168,-0.26998317,-0.29890844,-0.15312408,0.37316734,-1.1010895,0.52680904,0.1512119,-0.10715816,0.819723,-0.44910645,0.93476146
ATGACGTGGAATAG-1-ventral,-0.21008135,0.26370534,0.12301836,-0.2851783,0.44978732,-0.0,-0.026173327,-0.2469096,-0.31519282,-0.16759337,-0.38329816,0.27864444,-0.31667155,0.21767934,-0.0,0.6700862,0.27531415,0.17092308,-0.3376559,0.8818418,-0.1308232,0.3332229,-0.43311426,-0.26957035,-0.077458955,-0.49144363,0.14101791,0.5907402,0.4817718,-0.2565704,-0.27035078,-0.359963,-0.14064696,-0.003305475,-0.08427018,-0.344244,0.24701285,-0.0,-0.24779156,-0.26748836,-0.04307416,0.09074619,0.29584265,-1.1034623,0.56223947,0.3587754,-0.11122856,0.6284864,-0.23570685,0.6265598
TGGTATCTGCCAAT-1-ventral,-0.3529737,-0.257334,-0.20993777,0.103998885,-0.29342785,0.10074747,0.46989325,0.46897578,-0.539306,0.088600986,0.511495,-0.2181489,-0.07931842,-0.43540943,0.39802003,-0.37704292,-0.24643807,0.7395927,0.94588184,-0.67103994,0.0,-0.10380772,1.1039377,-0.4627183,0.07021172,-0.13341096,0.22191618,-0.45854247,-0.20936206,-0.35605136,-0.127988,1.1044068,0.23551413,-0.16659154,-0.25458097,0.25087804,-0.3120528,-0.43805084,0.07958279,0.6211041,0.93457264,-0.0,-0.43483862,-1.1004751,-0.46693236,0.44670466,0.12472281,-0.3258277,-0.26035833,-0.23189321
TCCTAAACCCTTGC-1-ventral,-0.51953346,-0.5443694,-0.26233634,0.0,-0.0,-0.4993684,-0.18216346,0.52633405,-0.53499806,-0.0,0.4034046,-0.0,0.30232832,-0.49422082,0.37776363,-0.053841274,0.3696819,-0.020012723,-0.13919619,-0.4362519,0.6833909,0.27247837,1.0259255,-0.55934787,0.5793075,0.0,0.13943817,0.0,0.3668878,-0.42419535,0.01432606,0.41992188,0.21810144,0.51830274,0.43487656,-0.0761256,0.013353461,-0.34553,0.41980308,-0.0,0.6121933,-0.34687328,-0.40929756,-1.101639,-0.4125378,0.32092038,-0.0,-0.42998508,-0.43134037,0.67169565
CCAGGTCTCCTGAA-1-dorsal,-0.31358317,-0.6429327,0.67191374,0.6054789,0.40189135,-0.49573305,-0.1730019,-0.1642051,-0.6936856,-0.57058203,0.61457497,-0.09595898,0.90473324,-0.42150632,-0.26060224,-0.27841502,0.8136777,-0.22632839,-0.40364936,-0.0,0.0,0.8092376,0.105521485,-0.49970835,0.74115604,0.9210533,0.784805,0.11160227,0.16107379,-0.099107295,0.574858,-0.33367476,-0.337519,-0.044909187,0.0,-0.3936134,-0.08711232,-0.45725435,1.3132913,-0.22853528,-0.2841629,-0.47280163,-0.4373187,-0.0,-0.0,0.6356249,-0.30710673,-0.36163133,-0.5999062,0.93537253
CACTGCTGTCGTTT-1-dorsal,-0.2248131,-0.20093706,0.05931381,-0.49703467,-0.1350128,-0.15723336,-0.06929676,0.59872746,-0.52398115,-0.2947014,0.19017978,0.0,-0.20544411,0.28609025,0.11417399,-0.29487652,-0.21863806,-0.05934027,-0.011587011,-0.37418956,-0.1944638,0.06746193,0.3260469,0.0,-0.22103655,-0.08282,0.016356625,-0.44331613,-0.026684338,0.0,0.20220026,-0.036121808,0.27341706,-0.15027265,0.5583755,0.47508454,0.04139917,0.0,-0.06253077,0.41237628,0.3160877,-0.2538862,0.19136578,-1.1041293,-0.21116424,0.0,0.47678334,0.45450857,-0.3434098,-0.30612624
ACTGTGGACGTTGA-1-dorsal,0.44466248,0.043978073,0.357062,-0.23221779,0.08526024,1.1490777,0.6996568,-0.3346689,0.0,0.8027116,0.23204516,0.01524821,-0.16166529,0.32340997,-0.0,-0.554503,-0.40703267,0.3088815,0.82470685,-0.58157235,0.03242529,-0.40442812,-0.26263425,0.5605717,-0.3254878,-0.0,0.32886347,-0.40681475,-0.39959884,0.6058998,0.121348105,0.42091534,-0.23306781,-0.66773975,-0.54449916,-0.015848478,-0.31287062,0.67276204,-0.0,0.25984475,-0.2930542,0.5220501,-0.24613753,-1.1005074,-0.16749503,-0.17081314,0.42217845,-0.2934215,0.45146117,-0.0
TATGGGACATTCGG-1-ventral,-0.31813928,-0.057786774,-0.25852668,-0.1758965,-0.0,0.25874496,0.39271137,0.3749398,-0.3412102,0.26363814,0.34881163,-0.1965413,-0.3004563,-0.22097649,0.38719994,-0.34737277,-0.250722,0.53822184,0.7829253,-0.5848698,0.28076136,-0.19302693,0.75257593,-0.13025741,-0.043803588,-0.35480553,0.037941355,-0.38725635,-0.142411,-0.0,-0.23192494,1.0603367,0.1591038,-0.2848845,-0.1644763,0.281339,-0.22820792,-0.026381347,-0.22682376,0.5256016,0.70894283,0.107752934,-0.26549658,-1.1030363,-0.31074393,0.13049214,0.24668415,-0.22085005,0.00056697265,-0.42255297
GCACTAGACACACA-1-dorsal,-0.15628484,0.7758926,0.007416656,-0.6303325,0.14649943,-0.2024554,-0.2972023,0.33202505,-0.45870146,-0.28586283,-0.15304202,0.17445944,-0.42604,0.113328554,0.06702698,0.21443447,-0.06316636,0.49719065,-0.06834871,0.40760198,-0.4144858,-0.14717221,-0.34847388,0.20967455,-0.28460318,-0.45305786,0.107115015,0.05759589,-0.11220509,0.0590338,-0.20368537,-0.18110985,0.24028166,-0.4706212,0.30972868,0.2554334,0.24325186,-0.08239097,-0.35534683,0.1121301,0.29861557,0.17981105,0.48674446,-1.1034664,0.45492804,0.32585436,-0.0693014,0.0,0.0054167546,-0.09606627
CGGACCGACAACTG-1-dorsal,0.37779057,-0.0,-0.050170757,0.5601238,-0.11004422,-0.01944575,0.28569415,-0.38090873,0.7649751,-0.16813928,-0.2809918,0.30024603,0.5497397,-0.09810031,0.14194784,-0.20947829,-0.21115662,-0.32857704,-0.36628646,0.0,0.46010867,0.051744517,-0.3153148,-0.36370638,-0.12989615,0.1345725,-0.02928416,0.6388732,0.13146678,-0.10290901,0.05681535,-0.4744175,0.27512488,0.3916614,-0.16050975,-0.37127846,0.0,-0.3381122,-0.062237848,-0.1936447,-0.25313312,-0.0,0.0,-1.1043551,0.031861547,-0.04598492,0.40677908,-0.2061738,0.22692378,0.08688444
ACTTCAACCTATTC-1-ventral,0.5300179,-0.47839835,-0.17254287,0.7371003,-0.3984425,0.010827209,0.22904785,-0.36531198,1.040304,-0.18134595,-0.0,0.29923666,0.75092006,-0.20234871,0.21865137,-0.0,-0.3643854,-0.4273575,-0.39362434,-0.091590226,0.0,-0.115395725,-0.1916757,-0.0,0.04119984,0.29592866,-0.14562164,0.36686134,-0.030072797,0.0034995792,0.20772779,-0.28659517,0.53299105,0.5196422,-0.06747763,-0.35625598,0.0,-0.09222323,0.09128687,-0.0,-0.2522531,-0.26532438,-0.119162075,-1.1032579,-0.24600825,-0.17495957,0.68141896,-0.0,0.45556185,-0.09229952
GAAGGGTGCTAGAC-1-dorsal,-0.555767,-0.5782826,-0.30211762,0.30118212,-0.35177794,-0.66697097,-0.29750374,0.67366606,-0.54770887,-0.53262866,0.10432605,-0.19528589,0.118699,-0.35123742,0.48728737,0.04955441,0.0,-0.0,-0.36193782,-0.41466066,0.5466839,0.42749444,1.0283352,-0.4632066,0.5473004,0.30334628,-0.06083237,0.02673381,0.5223981,-0.40596136,-0.1213183,0.40280083,0.2855227,0.94845194,0.6405784,0.0,0.12577823,-0.31173363,0.2821455,0.034861963,0.5823071,-0.43378904,-0.26825482,-0.0,-0.41154855,0.0,0.027690614,-0.0,-0.0,0.7609438
CGAAGGGAGGGACA-1-ventral,-0.48907495,-0.2104346,-0.39829734,0.11037784,-0.40152466,-0.3037423,0.1095694,0.56312263,-0.33336958,-0.10510611,0.22807725,-0.30253822,-0.16048333,-0.40415084,0.0,-0.26247305,0.027438154,0.27417466,0.45722064,-0.55939543,0.5000773,-0.07674436,1.0190861,-0.0,0.13957317,-0.046041213,0.019140974,-0.12879054,0.060727466,-0.32239783,-0.20102966,1.0068009,0.34967616,0.0,0.0,0.30685157,-0.17941198,-0.09989865,-0.03394359,0.0,0.85689414,-0.026587382,-0.29525864,-1.1029972,-0.3347011,0.121878974,0.08910493,-0.4080797,-0.0,-0.054773957
GCCATCACCGTAAC-1-ventral,-0.29633164,-0.09143989,0.3238265,-0.053913396,0.58571184,-0.49901983,-0.23562293,-0.3687717,-0.30495843,-0.43664795,-0.41590607,0.46237013,-0.0,0.47128615,-0.33243605,0.82293063,0.4744744,-0.29320374,-0.58784354,0.99765027,-0.20390691,0.0,-0.0,-0.3173362,-0.1998759,-0.34994525,0.020594714,0.91901296,0.87792176,-0.0,-0.1644387,-0.73154587,-0.2356883,0.43240947,0.27403247,-0.45230404,0.0,-0.4970888,-0.26989496,-0.3484048,-0.36558405,-0.18260844,0.33688858,-1.0989425,0.56556475,0.25356543,-0.0,0.9694848,-0.0,1.0930277
CTCCATCTCTGAAC-1-dorsal,-0.4439182,-0.21572995,0.5573411,-0.13653272,0.9752914,-0.48829022,-0.32634798,-0.31609073,-0.6808778,-0.3993155,-0.15234716,0.31451148,-0.16436034,0.293257,-0.44936335,0.82809824,0.0,-0.07616666,-0.4766583,0.96119887,-0.0,0.9169952,-0.43865284,-0.3601389,0.03147407,-0.0,0.3406662,0.66656727,1.0021142,-0.22095893,-0.14068061,-0.671268,-0.4687481,0.14337032,0.1857605,-0.4439629,0.32546797,-0.69357836,0.05527639,-0.32373872,-0.24903451,-0.35999486,0.21583723,-1.0963387,0.55444473,0.5791315,-0.42351598,0.9728608,-0.6565926,1.1378084
CATGAGACACACGT-1-ventral,-0.57771516,-0.0,-0.26190084,0.6448341,-0.19130291,-0.55658394,-0.08934028,0.35060698,-0.32807863,-0.293959,0.22016135,-0.22454521,0.10113098,-0.26953897,0.19660106,-0.03339079,0.578922,-0.3413125,-0.28337824,-0.44014198,0.7272093,0.3996462,0.8192588,-0.49305904,0.5176742,0.20605077,-0.07376221,0.0,0.65339357,-0.0,-0.09101259,0.23346141,0.06927865,0.9200285,0.4129054,-0.086439654,0.049645986,-0.16230465,0.25470528,-0.110522844,0.39260092,-0.29768005,-0.37147072,-1.1019375,-0.29792547,0.08886409,0.0,-0.40288675,-0.4039948,0.77494395
TCATCATGAGTACC-1-ventral,-0.59741616,-0.59632945,-0.20076813,0.0,-0.0,-0.52487224,-0.15695241,0.45147926,-0.5740417,-0.38518476,0.34945878,-0.2489612,0.018814504,-0.27320135,0.35581177,0.10570065,0.47658452,-0.21912311,-0.25582698,-0.41732505,0.5730331,0.51107013,1.0414305,-0.5514252,0.0,0.18419507,-0.07601315,0.03258432,0.6660176,-0.3957942,-0.0,0.36716127,0.05201633,0.8547124,0.5145917,0.031658124,0.1350752,-0.3055815,0.15282209,-0.025862655,0.0,-0.41328,-0.29828975,-1.1014918,-0.0,0.15629731,-0.09621972,-0.30146268,-0.0,0.7705937
CGGATATGGATAGA-1-dorsal,-0.3582375,-0.32994735,0.04611542,-0.5979355,-0.15541601,-0.34628168,-0.0,0.7790036,-0.56749266,-0.44338295,0.19140914,0.0,-0.2058826,0.37271348,0.08670786,-0.25223807,-0.17414021,-0.2922494,-0.0,-0.26767653,-0.37614653,0.12883237,0.29928908,0.0,-0.23486085,-0.005752577,0.054634348,-0.41132838,0.03644553,0.0,0.26078242,-0.0,0.3080924,-0.12607495,0.8857864,0.66962963,0.10897823,0.33752853,0.15857044,0.39320418,0.3072472,-0.18548152,0.33663142,-1.1029701,-0.22040772,0.057537973,0.0,0.5593549,-0.30899382,-0.34289533
AGCCGTCTTAAGCC-1-ventral,-0.30031696,-0.28109252,0.29695785,0.062363245,0.3556208,-0.55528736,-0.20452262,-0.3248717,-0.35261613,-0.0,-0.2670191,0.33218148,0.022576304,0.25629827,-0.25430575,0.5805581,0.4146545,-0.32809544,-0.51825655,0.8573383,0.01277215,0.7343432,-0.3699089,-0.3625331,-0.16681407,-0.092812315,-0.060702696,0.8238882,0.7659127,-0.18539098,-0.13950865,-0.657553,-0.117385656,0.6066413,0.0,-0.0,0.46768373,-0.5857561,-0.08440501,-0.25841755,-0.26544997,-0.23709093,0.32921085,-1.1012845,0.0,0.31399217,-0.19102402,0.0,-0.46684122,0.9629133
CTCTAATGGGTACT-1-dorsal,-0.0,-0.21701549,-0.12572898,-0.66292006,-0.14457716,-0.13019165,-0.19593585,0.74282664,-0.4548461,-0.18674156,0.2476241,-0.0,-0.3862793,0.51140904,0.11557755,-0.32361066,-0.14651081,-0.112424165,0.0834747,-0.0,-0.28982773,-0.044658188,0.48044977,0.0,-0.0,-0.17611332,-0.009497868,-0.52837783,-0.065108806,0.5997804,0.10487689,0.0,0.24362527,-0.28578785,0.5851908,0.7575096,-0.029662585,0.8409864,-0.12226225,0.40960485,0.2130058,0.094766125,0.24723999,-1.1026441,-0.21773525,-0.18665592,0.43579414,0.3387703,-0.22249223,-0.452995
TTGGAGACTTACTC-1-dorsal,0.46088013,0.28901494,-0.35389525,-0.2084054,-0.43478015,0.546492,0.24459635,-0.18677096,1.3852105,0.5537209,-0.3560944,0.06842643,-0.15451558,0.31469604,0.1920816,-0.50301784,-0.5368635,-0.2827714,0.007835925,-0.21925186,0.10956837,-0.539416,-0.29504538,0.7931006,-0.37003008,-0.40702716,-0.37145537,-0.037185155,-0.2613832,0.5810469,-0.088924706,0.14649767,0.36023995,-0.29558137,-0.3106406,0.14043683,-0.0,1.170361,-0.0,-0.027135149,-0.3084565,0.85493505,0.28356475,-1.1000974,-0.037511192,-0.5257006,0.72337735,-0.36109474,1.0677892,-0.6499239
AACCCAGAAGAATG-1-ventral,-0.61738074,-0.60640585,-0.36525226,0.41815668,-0.40715,-0.68543667,-0.26164374,0.5881162,-0.55552655,-0.6251885,0.12196889,-0.12061113,0.0,-0.36590472,0.4209611,0.049630225,0.0,-0.2788212,-0.5328261,-0.32604736,0.6460306,0.7076905,1.0977373,-0.54750824,0.5400238,0.36883163,-0.1326753,0.030530801,0.6365461,-0.43760413,-0.007181499,0.0,0.23898198,1.1765645,0.6773307,-0.0017238327,0.20417917,-0.38560313,0.34703144,0.076033376,0.69774175,-0.55957985,-0.22408606,-1.0985187,-0.4402802,0.1355115,0.064709306,-0.08630422,-0.5219598,0.0
AGTGACTGAGAATG-1-dorsal,0.28031683,-0.40914702,0.14157832,0.5536024,-0.14968137,-0.2789332,0.055643868,-0.36826175,0.29282027,-0.3900199,0.011407055,0.27645242,0.0,-0.26634482,0.021252898,-0.27413642,-0.0453592,-0.34126052,-0.529929,0.15295228,0.50507104,0.37798724,-0.31909573,-0.37931344,0.23640437,0.4658707,0.23492953,0.6609457,0.101390205,-0.116288535,0.3572843,-0.0,0.18923411,0.24377349,-0.113418244,-0.3878919,0.023475986,-0.37304145,0.45782375,-0.18809266,-0.2800578,-0.33865964,-0.06272197,-1.103705,-0.0,0.15521877,0.23625608,-0.317179,0.0851228,0.3899079
GAAGTCTGCGAGAG-1-dorsal,-0.28228232,-0.51978564,-0.007428461,-0.4932995,-0.21006294,-0.24158983,-0.0,0.7262297,-0.43935075,-0.37760028,0.0,0.06497398,-0.035790075,0.4260245,0.056913365,-0.45082915,-0.1679555,-0.31441605,-0.07304311,-0.60187936,-0.18920873,0.12391081,0.0,0.6896539,-0.15451789,0.0,0.008652244,-0.58767575,-0.04687813,0.71131545,0.40427262,-0.16875221,0.19365555,-0.06626891,0.6955641,0.6440158,-0.044318173,0.506518,0.21226902,0.5698774,0.20158055,-0.38530073,0.08471398,-1.1025279,-0.33120182,-0.06604208,0.6035965,0.0,-0.3173672,-0.31438684
TGAGGTACTGATGC-1-ventral,-0.0,-0.29328957,-0.14677101,0.31579104,0.0,-0.1183788,-0.0,0.055853397,-0.18913409,0.43632,0.24072985,-0.38602486,-0.40536934,-0.06671535,-0.03109707,0.076235384,0.66169703,-0.23058641,0.36084142,-0.41140512,0.3578035,-0.19934927,0.746643,-0.22165988,-0.076994434,-0.26762718,0.12914982,0.43269476,0.49296162,-0.18579821,-0.25557154,0.32869485,-0.09903405,0.03630403,-0.0047350596,0.07318398,0.04505267,0.47039914,-0.15463221,-0.23245971,-0.17406788,0.63502926,-0.08483357,-1.1042403,0.16542825,-0.26824653,-0.16062254,-0.32341442,-0.2764004,0.15966742
CATCGCTGTGGTAC-1-ventral,-0.49022764,-0.21720715,0.07924067,0.27082396,0.5255637,-0.146141,-0.058605608,-0.2754931,-0.0035950874,0.53954,-0.05790075,-0.24833521,-0.3859432,0.1952976,-0.2804994,0.32516143,0.81086695,-0.3171266,0.19460495,-0.19228771,0.0,-0.016055107,0.40699285,-0.18106116,-0.2795785,-0.36129847,0.11804315,0.7381959,0.76619226,-0.07153127,-0.26773733,-0.3038172,-0.2523555,-0.030071605,-0.12358077,-0.09304351,0.22644094,0.37098077,-0.30878723,-0.31557775,-0.0,0.54704905,0.14433089,-1.1038188,0.51104975,-0.31848332,-0.22721092,0.06447984,-0.3945437,0.19774966
GACCATGATTAGGC-1-dorsal,0.6224859,-0.22932835,-0.2894174,0.0,-0.49018246,-0.023896761,0.25005838,-0.431805,1.3172075,-0.24638124,-0.40917975,0.4720851,0.68174136,-0.14357342,0.31563735,-0.32917812,-0.51810634,-0.43173328,-0.0,0.21031864,0.6247261,-0.0,-0.42244217,-0.29659465,-0.0687382,0.11477365,-0.33359385,0.61130565,-0.0,-0.086075865,0.07724549,-0.46590462,0.68341756,0.5623668,-0.09591858,-0.39214706,0.18433887,-0.14277896,-0.22145292,-0.16544701,-0.0,-0.16436127,0.09569086,-1.1021518,-0.18364576,-0.0,0.7160369,-0.32013053,0.67414117,-0.056599844
GGATACTGGACTAC-1-ventral,0.15851963,-0.011054278,0.5652749,-0.33301732,0.28603157,0.8627887,0.64772433,-0.1964701,-0.35567883,0.25286913,0.0,0.17439006,-0.0,0.15886796,-0.0,-0.355984,-0.24585466,0.0,0.0,-0.47339785,-0.055631734,-0.14383423,-0.16335177,0.09795591,-0.25801635,-0.3200526,0.42512774,-0.3781177,-0.0,0.3255991,0.2746513,0.09615965,-0.2487943,-0.5832022,-0.38253322,-0.13292253,-0.24415329,-0.19225883,0.077788256,0.43633437,0.023402043,-0.06421818,-0.154151,-1.1034101,-0.03256566,0.37246215,0.19762479,0.13257606,-0.094625294,-0.41444105
TTCCTAGAGTTGTG-1-dorsal,0.013391443,0.0,-0.044647854,-0.44295406,-0.10958308,0.037249453,-0.0,0.0,-0.19824135,-0.26414967,0.0,0.0,-0.0,0.17116645,0.116539076,-0.3179627,-0.21929504,0.0,-0.039448675,-0.23503868,-0.0,-0.12574925,0.044303738,0.31644332,-0.15926084,-0.046861306,0.114174955,-0.29500127,-0.17095587,0.29596916,0.15039398,-0.09586567,0.32525873,-0.29623073,0.0,0.3916587,-0.0,0.19121033,-0.06743491,0.28196773,0.20765126,-0.06347584,0.23977935,-1.1050159,-0.08663238,0.115152985,0.3526183,0.33349055,0.04734576,-0.4174644
AAGCCAACGAATGA-1-dorsal,-0.11999608,-0.17551059,0.0,-0.0,-0.0027719473,-0.06572406,-0.26565295,0.47846842,-0.34014797,-0.18384,0.0,0.046394736,-0.23599282,0.722443,-0.13730918,-0.0,-0.18368563,-0.37445608,-0.08916517,-0.35851765,-0.43403348,-0.0,0.05898125,1.0452079,-0.3133934,-0.11838139,0.035881385,-0.51378536,-0.12958117,0.96718705,0.0,-0.32124653,0.10337527,-0.0,0.55414927,0.64848936,-0.0420124,1.032161,-0.0030920904,0.3925427,-0.1288557,0.20222872,0.37803593,-1.1020046,-0.13690233,-0.2869148,0.56423056,0.3713514,-0.1490938,-0.44422576
CCTGAGCTGGAGGT-1-ventral,-0.3854373,-0.0,0.13923049,0.14692828,0.0,0.25871426,0.019680295,-0.2155328,0.09626652,0.62731886,0.044584062,-0.23751797,-0.36349365,0.36126834,-0.35368717,0.1969873,0.0,-0.17214961,0.4126941,-0.250295,0.14668363,-0.0,0.34391356,-0.18805875,-0.4313911,-0.45413595,0.100931615,0.6558053,0.7567146,0.06786731,-0.0,-0.3197935,-0.20262666,-0.21307674,-0.17044413,-0.1736488,0.2144494,0.33293593,-0.46341667,-0.24174592,-0.42362553,0.5254409,0.23577859,-1.1036867,0.60010827,-0.30978218,-0.1923128,0.012437288,-0.31916076,-0.028246775
ACAGTGACTTCTGT-1-ventral,-0.26119995,-0.024698643,0.01790704,-0.19251268,0.0061822934,0.2607652,0.2778257,0.42120233,-0.45461115,0.0,0.41603953,-0.14544275,-0.22885457,-0.26775852,0.26639742,-0.0,-0.15237014,0.6402407,0.0,-0.5861341,0.24971364,-0.13980561,0.6184828,-0.20354384,-0.021903118,-0.2145611,0.32403097,-0.35430154,-0.1506726,-0.05835593,-0.11935599,0.6754359,0.0,-0.41274005,-0.17357655,0.22860862,-0.23323338,-0.2004742,-0.026915804,0.41514373,0.6561842,-0.027960606,-0.28371707,-1.1037166,-0.21874335,0.38555652,0.045690954,-0.0,-0.20788015,-0.35828274
ACGCACCTTGTTCT-1-ventral,-0.0,-0.0,0.21515493,-0.179277,0.36441964,-0.44731638,-0.20947206,-0.1872543,-0.45122313,-0.32827246,-0.32886449,0.29168236,-0.22730418,0.073366486,-0.19879276,0.0,0.0,-0.15561382,-0.42952818,0.0,-0.14200178,0.5545233,-0.17481142,-0.0,-0.008614196,-0.28425866,0.08028145,0.6478228,0.6484272,-0.0,-0.20182663,-0.46647206,-0.0,0.33811888,0.21899423,-0.2314512,0.36988324,-0.0,-0.22092867,-0.25408185,-0.10612872,-0.087483466,0.30761832,-1.1025175,0.4655904,0.0,-0.2301701,0.7336548,-0.48155707,1.0297323
AATCAAACCTGGAT-1-ventral,0.060592577,0.30738598,-0.15980536,-0.26162055,0.054329224,0.9259626,0.13750756,-0.3326973,0.9429188,1.1944029,-0.043381985,-0.3499659,-0.48312548,0.35290635,-0.20374233,-0.41975263,-0.06426858,-0.0065679685,0.6679865,-0.44231164,-0.08458681,-0.5767414,-0.118379995,0.7824109,-0.40115827,-0.56645346,-0.015885433,0.035724685,-0.17263162,0.54498655,-0.18920602,0.49981785,-0.19181941,-0.6430953,-0.5196228,0.1327934,-0.0,1.550225,-0.42571533,-0.14590423,-0.42734447,1.389131,0.1304633,-1.0977819,0.0,-0.52040714,0.20043696,-0.4384014,0.6782805,-0.6505944
GCCACTACGGTTAC-1-dorsal,0.24085729,0.6640078,-0.27300557,-0.46105048,-0.22656627,0.0,0.04293889,-0.22148703,1.0110662,0.7719693,-0.2641882,-0.09896557,-0.0,0.46951687,-0.0490533,-0.38805693,-0.35687846,-0.047781006,0.18064362,-0.13796866,-0.23963559,-0.0,-0.33339608,1.0383544,-0.34954503,-0.5433969,-0.15292227,-0.12800059,-0.2715483,0.5885687,-0.14943011,0.24884894,0.019898167,-0.5994288,-0.33936647,0.24960642,-0.0,1.3438468,-0.41867536,-0.08529498,-0.33648327,0.0,0.2904616,-0.0,0.0,-0.464581,0.44890857,-0.26496762,0.8999853,-0.6412807
GGTACATGTCACCC-1-dorsal,-0.11004098,-0.42505252,0.3017162,-0.6016566,0.1834404,-0.10072351,-0.14073028,0.46075553,-0.5377641,-0.3831627,0.27736565,0.18683194,-0.09640906,0.5800425,-0.12293174,-0.31004617,-0.0,-0.30830008,-0.09744771,-0.35782185,-0.3563905,0.23698191,0.09594408,0.6616097,-0.23383023,0.10021747,0.21192436,-0.45008978,-0.022309424,0.76322085,0.46701473,-0.43023914,0.0029597185,-0.0,0.6001268,0.39026222,0.052981246,0.51393664,0.17031954,0.39067018,-0.0,-0.3075452,0.22785339,-1.1030433,-0.17077996,0.040616546,0.43416455,0.57434165,-0.39719623,-0.30634657
GGGCAGCTAACCGT-1-dorsal,-0.48387867,-0.2744506,0.3661444,0.0,0.4587269,-0.5584602,-0.21819142,-0.105015375,-0.5199698,-0.48459646,-0.19835354,0.26568562,-0.1538994,0.16696405,-0.12966998,0.6646379,0.50751656,-0.04655613,-0.4718939,0.54429466,0.025648477,0.0,-0.044135984,-0.5099477,0.19214696,-0.26398912,0.0,0.6861796,0.87340206,-0.3963027,-0.13473187,-0.596747,-0.25790143,0.0,0.0,-0.35850567,0.30347222,-0.58227223,0.020982774,-0.22536173,-0.09777421,-0.37839878,0.12236481,-1.101109,0.37684694,0.39565274,-0.24467649,0.61918116,-0.5132921,1.1603979
GCTAGATGGTACCA-1-ventral,-0.07236627,-0.6391041,0.5972581,0.50781935,0.3669629,-0.41901895,-0.14335997,-0.33789986,-0.40895358,-0.5551182,0.32375124,0.18792705,0.0,-0.27945647,-0.0,-0.20039679,0.5991894,-0.36605254,-0.59360105,-0.020440951,0.0,0.81470585,-0.20481071,-0.40691072,0.5721729,0.762609,0.57239586,0.31809282,0.27439922,0.035593778,0.56289715,-0.52963525,-0.27751228,0.23797071,0.036200337,-0.41047508,-0.0019881462,-0.0,0.9929242,-0.1962993,-0.3796081,-0.46906355,-0.2707977,-1.1006763,-0.18900011,0.42532882,-0.0,-0.18651856,-0.50839716,0.8568001
GTGCCACTTGTGGT-1-ventral,-0.5584099,-0.43238172,-0.39067018,0.29822385,-0.33815318,-0.5064311,-0.08866436,0.6097141,-0.46996582,-0.4171742,0.20141801,-0.20554829,-0.01277268,-0.3862168,0.53268224,0.0405027,0.14750025,0.11330661,-0.015774569,-0.40724784,0.6541779,0.27743793,1.0510994,-0.54376537,0.35787538,0.0115520265,-0.10723962,0.0014222993,0.440805,-0.5197378,-0.22985433,0.6717444,0.2661482,0.7871255,0.43199986,0.111795515,0.029934034,-0.4389306,0.011259649,0.123243354,0.7771683,-0.38671514,-0.33006346,-0.0,-0.3677691,0.24821466,0.029201625,-0.24543539,-0.41288927,0.5885897
CTCTAATGGATACC-1-dorsal,-0.25625443,-0.21771982,0.04374453,-0.6657814,-0.0038032401,0.0,-0.0,0.58852714,-0.32865235,0.064771324,0.0,-0.015344157,-0.34926614,0.0,-0.085681744,-0.36397657,-0.0,-0.29409364,0.0,-0.5436169,-0.32321098,-0.18522654,0.0,1.1143584,-0.38433978,-0.31882414,-0.0,-0.5983785,-0.013632378,0.9830214,0.25190756,-0.07913192,-0.062651105,-0.4464998,0.5060543,0.7431335,-0.08574274,1.2563969,-0.020500556,0.48555523,-0.06842124,0.17439258,0.0925644,-1.1010885,-0.28502703,-0.24831714,0.46975416,0.14639491,-0.20454766,-0.5154559
AGCGGCTGGGAGGT-1-ventral,-0.5123191,-0.0,0.45959818,0.0019051963,0.6710463,-0.47962528,-0.26919246,-0.11216548,-0.62728274,-0.26770672,0.0028859081,0.09273511,-0.21747795,0.31987238,-0.0,0.6998517,0.91308707,-0.2951474,-0.25696212,0.2791653,-0.06835401,0.69845957,-0.026098225,-0.4280748,-0.02743602,-0.22486548,0.23682006,0.66118366,0.95633775,-0.22194068,-0.11140135,-0.59075904,-0.3545393,0.26826167,0.30194804,-0.34170988,0.3387289,-0.37507218,-0.05238944,-0.28757653,-0.26934147,-0.0,0.0,-1.101291,0.48366052,0.20786668,-0.3810321,0.56205034,-0.64816076,0.9750758
AACAGAGAGGATTC-1-ventral,-0.57683045,-0.55797696,-0.0,0.4048676,-0.12226821,-0.68263835,-0.3448054,0.52409136,-0.60105056,-0.5226423,0.094347365,-0.11250563,0.020957723,-0.19480295,0.24212644,0.27120185,0.59252083,-0.2836333,-0.43820748,-0.21989943,0.36236006,0.55919784,0.7197283,-0.46975762,0.5299359,0.1531181,-0.0,0.23068303,0.7523196,-0.31121746,-0.13249066,0.072582155,0.12690374,0.95823324,0.7412751,-0.023832256,0.2653271,-0.387654,0.13931844,-0.0,0.42987886,-0.46078154,-0.0,-1.1010287,-0.0,0.117526144,-0.0,-0.10282616,-0.5708672,0.99980193
TCGCACACGTTGCA-1-ventral,-0.39152795,0.018962383,0.19979611,0.107099846,0.67767096,-0.35523647,-0.09564089,-0.35659555,-0.22033076,-0.0,-0.2923935,0.23980886,-0.32004988,0.39304644,-0.30702037,0.7876202,0.5472087,-0.25363454,-0.23417203,0.60215306,-0.025379792,0.47826734,-0.22707278,-0.33357954,-0.20127536,-0.46386695,0.013035471,0.7416441,0.8367634,-0.25239348,-0.27962965,-0.5657001,-0.23684874,0.25396436,0.007993513,-0.38544697,0.36832923,-0.3323032,-0.34023815,-0.29077598,-0.0,0.002942698,0.37288687,-1.102539,0.5669704,0.046699744,-0.25097132,0.62852293,-0.44922242,0.7525401
ATTATGGAGCCTTC-1-dorsal,0.0,0.23332104,0.71304613,-0.0,0.0,0.9770889,0.65465415,-0.30694485,-0.21033129,0.3363744,0.26567867,0.0,-0.23875065,0.4330616,-0.32471937,-0.2649486,-0.25522816,0.4585893,0.6831525,-0.37758934,-0.16051771,-0.08079655,-0.39726526,0.20641477,-0.27914214,-0.47596204,0.5005516,-0.0,-0.24959539,0.0,0.21742517,-0.1761769,-0.32860538,-0.64769614,-0.41769916,-0.25233337,-0.24065106,-0.14111665,-0.19245718,0.3180712,-0.15885659,0.076016724,-0.099324785,-1.1026651,0.0,0.0,0.0,0.0,-0.117652886,-0.41392553
TGAGCTGAAACGAA-1-dorsal,-0.17937516,-0.6385104,0.830091,0.6559954,0.53093266,-0.4536194,-0.14863485,-0.30018523,-0.62181133,-0.534163,0.60438,-0.015925303,0.9080423,-0.32909414,-0.3327537,-0.19169715,0.6912799,-0.26813892,-0.4582606,-0.0756332,0.25836933,0.86600864,-0.1910274,-0.5068786,0.7079432,0.881627,0.75141114,0.18238522,0.19239312,-0.05128695,0.66024935,-0.46933952,-0.37888986,0.12670377,-0.019036531,-0.4375303,-0.033509668,-0.56445825,1.1749038,-0.0,-0.3611139,-0.5268171,-0.4028641,-1.0980532,-0.22594161,0.65899324,-0.24428044,-0.25276372,-0.6173465,0.8719268
TCTACAACTCGTGA-1-ventral,-0.48284507,-0.41367432,-0.0,0.48396093,-0.43926606,0.0,0.24380976,0.582308,-0.363249,0.12515792,0.5689961,-0.444249,-0.036417514,-0.0,0.5920175,-0.5188785,0.021217765,0.37161523,0.7015987,-0.7511823,0.81967854,-0.16345614,1.3565522,-0.3948716,0.4010504,-0.06054269,0.09162897,-0.4437796,-0.06695609,-0.3723632,-0.13939475,1.4128841,0.26072717,0.054321855,-0.17785537,0.33569252,-0.3003459,0.0,0.13396461,0.40412208,0.79440355,-0.04746967,-0.5603452,-1.0980483,-0.5523236,0.13419747,0.04415027,-0.66733575,-0.14307976,-0.21944186
CAGCGTCTCTTGAG-1-dorsal,-0.1437929,0.94534826,-0.07801818,-0.5438649,0.12614214,-0.106243625,-0.122637555,0.21296526,-0.4913363,-0.25244874,-0.19240817,0.098192744,-0.0,-0.24869244,0.13586095,0.28734812,-0.0,0.90685946,0.045157474,0.57090193,-0.28073868,-0.11533135,-0.29792812,-0.2211378,-0.0,-0.4508816,0.28115115,0.24755068,-0.23984163,-0.28358912,-0.39045304,0.23872675,0.2759839,-0.4992484,-0.06705391,0.07621864,0.110941134,-0.55340874,-0.35681593,0.0005226997,0.56182843,0.19494894,0.38458616,-1.1028479,0.4907629,0.6757291,-0.2359638,0.6880849,0.10284434,-0.0
CACCCATGACTCTT-1-ventral,-0.0,-0.0,-0.0,0.4315082,-0.0,-0.0,-0.16180132,0.8252311,-0.45735872,-0.5484445,0.13165763,-0.19431122,0.043406438,-0.3077294,0.53180456,0.06571932,0.2585636,-0.29942527,-0.0,-0.526403,0.6421419,0.4148277,1.305022,-0.5046461,0.0,0.14955096,-0.29153177,0.0053586815,0.6162547,-0.48053262,-0.21250448,0.49041727,0.29495427,1.2037919,0.7705033,0.0,0.1836545,-0.26700756,0.07663874,0.054542758,0.0,-0.53313684,-0.3374168,-0.0,-0.42287132,-0.02053539,0.124590404,-0.24481258,-0.44708553,0.75105155
TAACAATGTATGGC-1-dorsal,0.7164838,-0.08176049,0.4963963,-0.17615835,0.15030383,1.3628658,1.0438057,-0.5195515,0.70778483,0.61802197,0.07265805,0.35659447,0.101697534,0.3471797,-0.19616923,-0.5158452,-0.53098357,0.32962558,0.0,-0.43813947,0.17698945,-0.3691129,-0.38489038,0.18935585,-0.38052633,-0.43822092,0.17239171,-0.29604092,-0.34047922,0.39739808,0.0,-0.059133176,-0.092752315,-0.49384478,-0.5875597,-0.40152976,-0.21859065,0.07349159,-0.20415413,0.3464114,-0.28174335,0.10448493,-0.2107721,-1.1008369,-0.14063789,0.03370704,0.532991,-0.0,0.35772637,-0.62125564
GGTCTAGAGGTGGA-1-dorsal,0.20561765,0.93687195,0.0,-0.51942253,0.26863402,0.077644795,0.13324444,-0.16888084,-0.34476057,-0.21532378,-0.3171945,0.42571566,-0.3522111,0.009769947,0.074860856,0.43745643,-0.27773654,0.8107193,0.027680663,0.6909943,-0.30865857,-0.01261486,-0.56409454,-0.2291302,-0.17936397,-0.516347,0.20349526,0.30549705,-0.24498478,-0.24941465,-0.3220136,-0.2034155,0.12645608,-0.4275928,-0.23900299,-0.16546774,0.066381395,-0.5863072,-0.3827343,0.024474777,0.32822663,0.061263908,0.3512566,-1.1025736,0.4540802,0.63520616,-0.0955991,0.9371268,0.15227012,0.06795956
TGAGTCGAATGGTC-1-dorsal,0.18568236,0.53922606,-0.46710885,-0.32869452,-0.39334908,0.86593413,0.24790405,-0.15600483,1.3804433,1.0500925,-0.33035943,-0.20351344,-0.0,0.31782517,0.166583,-0.4934904,-0.48209465,-0.06157213,0.29694974,-0.31649974,-0.01464612,-0.6643737,-0.19957173,0.9427676,-0.37968114,-0.56063074,-0.37208176,-0.1269426,-0.29972887,0.59709877,-0.3171713,0.7468207,0.17633206,-0.44960096,-0.43728328,0.19526947,-0.22152881,1.4620559,-0.58766377,-0.05514238,-0.25970474,1.3122164,0.21189639,-1.09454,-0.06512689,-0.5793567,0.55350363,-0.46698043,1.1285399,-0.0
TTTCGAACTCATTC-1-dorsal,0.48075807,-0.36840177,-0.0,0.4591669,-0.38618368,-0.0,0.25654605,-0.33728126,1.0608592,-0.0,-0.3394739,0.0,0.63083607,0.08369463,0.22006159,-0.3075385,-0.4301549,-0.0,-0.48540276,0.018270116,0.4617466,-0.005991989,-0.3858038,-0.053660937,-0.036462348,0.15011598,-0.18426141,0.45464337,0.047797844,0.086801656,0.2658964,-0.52132297,0.44336143,0.4395217,0.025096538,-0.27457696,0.12929407,-0.0047598947,-0.030239094,-0.17305614,-0.29388762,-0.19652666,0.11261879,-1.103515,-0.19327834,-0.18477263,0.676287,-0.22954214,0.37538674,-0.0
TAGCATCTTCCTTA-1-ventral,-0.2699827,-0.0,-0.117969714,-0.03623075,0.15007678,-0.45818716,-0.045056477,-0.21017128,-0.046150886,-0.0,-0.34231547,0.39368698,-0.07634561,0.0,-0.14722387,0.6211529,0.22769886,-0.2732526,-0.45720538,0.6205837,0.20476964,0.42063758,-0.22121596,-0.37550345,0.00904219,-0.23873052,-0.13559818,0.8448634,0.6549942,-0.33611134,-0.0,-0.44777143,0.0,0.0,0.35021105,-0.30706757,0.4097498,-0.5695346,-0.23266383,-0.25207198,-0.006482535,-0.18344416,0.27078605,-1.1030279,0.1360419,0.15496716,-0.102283165,0.5319261,-0.29504657,0.89592046
TGGATCGAGCTTCC-1-ventral,0.60282284,-0.30737853,-0.2556058,0.52277386,-0.4018193,0.09208568,0.0,-0.0,1.1776373,-0.15973131,-0.31267247,0.41488782,0.57260805,-0.10069046,0.28666073,-0.39415786,-0.511778,-0.4309302,-0.40974587,0.023349011,0.49275732,-0.11204608,-0.36078063,-0.13266538,0.015649483,0.21908309,-0.2165331,0.33633804,-0.0,0.17314954,0.17228906,-0.2796964,0.5275468,0.4032137,-0.1457013,-0.0,0.07025345,-0.033560067,0.018818893,-0.1504455,-0.23040879,-0.22469595,0.0,-1.1033216,-0.2277279,-0.2001191,0.0,-0.38633674,0.65916455,-0.15470114
TGGATGACGCGAAG-1-ventral,-0.41911113,-0.32226208,0.15185109,0.020679098,0.3228719,-0.0,-0.087288626,-0.23061185,-0.0,-0.2239138,-0.15110639,0.14741248,-0.06442918,0.21805209,-0.16595457,0.5592173,0.40235344,-0.21882012,-0.33377597,0.3089239,0.0,0.47929525,0.0,-0.4314358,-0.11333857,-0.22233593,0.0,0.542406,0.80591154,-0.0,-0.1389644,-0.35124356,-0.0,0.5900912,0.2030334,-0.33249858,0.0,-0.42823488,-0.1502351,-0.17756523,-0.0675565,-0.20247017,0.0,-1.1038214,0.25474265,0.0,-0.12977263,0.0,-0.46383607,0.80217105
GGAGGCCTCAGCTA-1-dorsal,-0.0,-0.024279755,-0.028512944,-0.63626343,-0.053871278,-0.34748667,-0.23492403,0.52063686,-0.4931299,-0.41385692,0.01261433,0.20535421,-0.24475747,0.42198548,0.050384503,-0.1500639,-0.17336422,-0.12546195,-0.26353824,0.055601962,-0.37825188,0.0,-0.07896543,0.0,-0.24573095,-0.08572394,-0.0060424544,-0.3346152,-0.04503674,0.0,0.15504235,-0.0,0.3255696,-0.22576624,0.6565228,0.5059215,0.0,0.25171167,-0.09746009,0.37557086,0.15100163,-0.15118116,0.4694383,-1.1036915,-0.0,0.17510393,0.36960882,0.7750345,-0.22937034,-0.27702683
GAGATCACTTCTAC-1-ventral,-0.38305622,0.51687574,0.0,-0.0,0.11724618,-0.32980317,-0.28025025,0.44117227,-0.5236205,-0.33746973,-0.10261947,0.0,-0.4173108,-0.089243785,0.11312962,0.2769635,0.0,0.46020648,-0.10121757,0.20890856,-0.23642184,0.0,0.038602818,-0.21583155,-0.03458732,-0.35190755,0.1720372,0.24079406,0.12721129,-0.21893509,-0.30730182,-0.0,0.16927232,-0.25580978,0.0,0.17018618,0.1394102,-0.32979465,-0.29374582,-0.028646788,0.3949874,0.0,0.2917558,-1.1042968,0.36845097,0.45751256,-0.17300348,0.6775032,-0.2189929,0.1698082
AGCTTTACTACTGG-1-ventral,-0.4939014,-0.14270929,0.102089964,0.0,0.0,-0.54133326,-0.2433204,-0.06722828,-0.0,-0.38507432,-0.14607629,0.12775221,-0.038828388,-0.11682908,-0.0,0.0,0.5111579,-0.024344128,-0.0,0.42426214,0.17897852,0.0,0.083872415,-0.44817278,0.16545925,-0.14229715,0.033782307,0.6197686,0.71057016,-0.38732213,-0.21615294,-0.28490108,-0.067531936,0.50664437,0.22406285,-0.0,0.33636865,-0.5261179,-0.016290877,-0.21074454,0.036651444,-0.0,0.110037185,-1.1031685,0.23617883,0.30862784,-0.23147273,0.3761001,-0.4891376,0.96228015
GGAATCTGGTGCAT-1-ventral,0.40310884,-0.48093295,0.0,0.54752403,0.50348014,-0.17672037,0.120164424,-0.5713757,-0.31198484,-0.47896665,0.2647193,0.32276022,1.1535362,-0.0,-0.4115407,-0.22635911,0.36817822,-0.25761592,-0.4776219,0.45077613,0.14305076,0.0,-0.55015355,-0.53505915,0.0,0.64873785,0.6999253,0.55702555,-0.061323844,0.02159872,0.6494382,-0.641781,-0.29931962,-0.06316358,-0.26076213,-0.60323465,-0.0061203376,-0.66224843,0.95966333,-0.28015906,-0.5205657,-0.4824493,-0.24196228,-1.0988797,0.027881315,0.6278708,-0.09149154,-0.0,-0.0,0.7342054
CTATACTGTAGACC-1-dorsal,0.32296357,0.0,-0.27899173,-0.10927399,-0.33608776,0.42075905,0.16435684,-0.33022407,1.1175172,0.52657056,-0.35213605,0.07504212,-0.09686013,0.39284045,0.06166743,-0.35393232,-0.3607215,-0.31582078,-0.15537965,-0.006289615,0.14481151,-0.38728425,-0.3947151,0.6112423,-0.35132852,-0.40666676,-0.3020088,0.10382187,-0.10350539,0.42130435,-0.07265396,0.03885228,0.29771408,-0.23630111,-0.23481376,0.011603791,-0.019187663,0.9571659,-0.3781207,-0.106695496,-0.0,0.819098,0.3377321,-1.1027089,-0.018184716,-0.4650235,0.61902654,-0.2755768,0.0,-0.52527857
GTTATGCTAACGGG-1-ventral,-0.21012625,-0.33909807,0.53478074,0.3406336,0.6338205,-0.46266538,-0.070290506,-0.34414968,-0.4811348,-0.49677858,-0.07853826,0.0,0.25216857,0.0868716,-0.23639283,0.40883514,0.41593203,-0.05322927,-0.46647194,0.46786147,0.07428482,0.7403525,-0.0,-0.5157815,0.0,-0.0,0.0,0.5293737,0.61378413,-0.31234226,0.02357536,-0.56872714,-0.21373127,0.3452433,0.120651774,-0.49280587,0.24737744,-0.68005365,0.20980689,-0.19245009,-0.20989704,-0.44834232,0.02315811,-1.1017116,0.38805667,0.5344666,-0.22795923,0.5182635,-0.5189799,0.9908506
TTATGGCTTTGGCA-1-dorsal,0.16534902,-0.0,0.3534158,-0.40324497,0.18895404,0.6474367,0.4833721,0.045331918,-0.33450428,0.09963392,0.2894809,0.0,-0.17228949,0.2911303,-0.15833499,-0.33296937,-0.2467241,0.27885035,0.68284357,-0.44089815,-0.22807413,-0.24056648,-0.06998169,0.4020366,-0.3228993,-0.29806152,0.0,-0.48849016,-0.22701715,0.0,0.17479096,0.029709887,-0.055978037,-0.5644885,-0.0,0.0,-0.12786415,0.22899666,-0.045210723,0.52741086,-0.04376286,-0.0010032124,0.036997862,-1.103794,-0.08468118,0.0,0.28237066,0.2743955,-0.08702497,-0.0
CATCTCCTTCTCTA-1-ventral,-0.06008771,0.0,0.097189896,-0.56432605,0.022660892,0.09297599,-0.02240903,0.18142848,-0.0,-0.25166538,-0.23397328,0.18022136,-0.42083955,-0.08803527,0.19708297,0.23910993,-0.29303923,0.67036235,0.1537697,0.33526805,-0.15114057,0.012500171,-0.3467181,-0.11806376,-0.19572484,-0.4902995,0.18549082,0.22099423,-0.15972933,-0.09369672,-0.0,0.01006393,0.13895017,-0.39828813,-0.113779776,0.0,0.0,-0.41010448,-0.0,0.1522621,0.46723124,0.20671238,0.0,-1.103969,0.33676678,0.4926724,0.11427789,0.6497035,-0.04576286,-0.075657904
TGATTCACCTTGTT-1-dorsal,-0.28622296,-0.32604617,-0.09280828,-0.5575003,-0.09890934,-0.4362466,-0.0,0.0,-0.5664588,-0.52293015,0.120942034,0.108603954,-0.0,0.46823642,0.12553385,-0.20265679,-0.14718288,-0.28434438,-0.36193597,-0.20704702,-0.34478003,0.28725082,0.18239397,0.5685091,-0.1586636,0.005068597,-0.020783942,-0.35862395,0.10623835,0.48352078,0.0,-0.34786564,0.36862507,0.0058604446,0.8878337,0.66923994,0.10610955,0.4009794,0.0074812444,0.4163484,0.23262845,-0.29954204,0.287679,-1.1029085,-0.15507527,0.0553453,0.4682298,0.6664769,-0.40942803,-0.0
GGGATTACGGATTC-1-dorsal,0.0,0.61475694,0.010524591,-0.5486113,-0.07986738,0.68308765,0.29502377,-0.2242709,0.0,0.64689153,-0.17650115,-0.16267698,-0.37320244,0.47392604,-0.15874837,-0.3925312,-0.28460458,0.07241054,0.33100116,-0.22182624,-0.3519136,-0.49770477,-0.22871628,0.8526929,-0.2471575,-0.526106,0.03735448,-0.29459107,-0.30303955,0.593102,-0.0460934,0.28851599,-0.08409355,-0.6220805,-0.41816595,0.20750898,-0.17629214,1.1045523,-0.34139714,-0.07053925,-0.25814125,0.9373713,0.16209015,-1.1013311,0.0,-0.0,0.36498746,-0.0,0.7698054,-0.56714946
TCAGGATGTGCCTC-1-ventral,-0.5222751,-0.0,0.1369384,0.55126834,0.64673615,0.2562143,-0.008970764,-0.21818474,-0.0910318,0.70056456,0.23506407,-0.40600678,-0.35519344,0.09756645,-0.34524912,0.17705841,0.9886282,-0.0,0.52340245,-0.47507143,0.26259834,-0.26722988,0.5315725,-0.40394983,-0.3102945,-0.35743344,0.3108946,0.781356,0.72142845,0.0079557635,-0.24718776,-0.073760025,-0.0,-0.24763851,-0.25687623,-0.10514843,0.10699402,0.5552951,-0.3655776,-0.2806588,-0.0,0.6658285,-0.0,-1.1024354,0.7063271,-0.33962813,-0.35127556,-0.28884837,-0.0,-0.08545221
GGCTAAACTTCTTG-1-ventral,-0.022899179,-0.59967786,0.81022906,0.5236998,0.39075595,-0.3954777,-0.07460992,-0.369553,-0.0,-0.5779667,0.4042589,0.082749896,1.0813705,-0.40342963,-0.29830974,-0.2757009,0.53998816,-0.2285429,-0.50748485,0.12454994,0.0,0.85603213,-0.3827201,-0.4956892,0.6735516,0.8548093,0.84164345,0.2009184,0.121933244,-0.06520305,0.0,-0.4891448,-0.31916118,-0.07581837,-0.13849689,-0.5425329,-0.07748644,-0.0,1.339132,-0.26730275,-0.38117948,-0.47609565,-0.32731256,-1.09829,-0.1681626,0.7571263,-0.20077336,-0.2555871,-0.45349395,0.88267744
CACCGTACGTTGTG-1-ventral,-0.074276865,-0.65700203,0.7321121,0.60712296,0.4061603,-0.45875287,-0.13561322,-0.33209947,-0.53085667,-0.5496665,0.47124785,-0.054274004,0.0,-0.0,-0.2973113,-0.0,0.68869144,-0.22041574,-0.5038815,0.06337067,0.3825084,0.8096053,-0.15970124,-0.5918161,0.7624064,0.8518593,0.8064002,0.31544843,0.21628442,-0.15352753,0.6144716,-0.5024953,-0.34553477,0.12100016,-0.04542371,-0.45801994,-0.0,-0.5886861,1.2771055,-0.0,-0.0,-0.50072056,-0.46470618,-1.0975718,-0.0,0.6311453,-0.25326133,-0.0,-0.5421498,1.0277431
TAATCCACGCATCA-1-ventral,0.522443,0.16412249,0.39435494,-0.14572912,0.25732985,0.0,1.036182,-0.46731833,0.49225062,0.9174913,0.07722116,0.16064663,-0.30634576,0.29525647,-0.25902128,-0.37464833,-0.43406826,0.5708741,1.1517572,-0.5138214,0.1381751,-0.43640602,-0.20841685,0.032065883,-0.463295,-0.61392903,0.1944741,-0.18984345,-0.19248566,0.29531804,-0.033461124,0.25944644,-0.1776747,-0.67597204,-0.64253944,-0.35878864,-0.2983765,0.09366092,-0.39210528,0.3096051,-0.18337859,0.43828464,-0.16800907,-1.0996851,0.027384743,-0.0019372173,0.37560663,-0.112818815,0.30350745,-0.6276769
CGAAGTACAAGGCG-1-dorsal,0.117469184,-0.6165273,0.2632596,0.90423995,-0.032720037,-0.23257469,0.060546897,-0.32720608,0.16081648,-0.4150755,0.0,-0.011438397,1.1579337,-0.48990583,-0.03207008,-0.4665186,0.26025173,-0.0,-0.40403646,-0.0,0.6384592,0.31960464,-0.064686805,-0.49350283,0.6341869,0.816848,0.44243652,0.37851328,0.031969897,-0.14225537,0.46853438,-0.0,0.075993724,0.25158584,-0.15949847,-0.422581,-0.0,-0.36267382,0.96586347,-0.0,-0.3458385,-0.33770907,-0.39877766,-1.1016136,-0.0,0.27439588,0.09818508,-0.57493937,-0.10669132,0.0
TCAGAGACCACTGA-1-ventral,-0.5220167,-0.31599748,-0.60067654,0.4148426,-0.4935803,-0.33523324,0.0,0.71903867,-0.24887364,-0.0,0.26561075,-0.36928695,-0.09220859,-0.53770036,0.77217317,-0.26542467,-0.015728805,0.24401596,0.3251276,-0.62970626,0.8228531,-0.12467319,1.3836446,-0.5498256,0.2965792,0.0034126642,-0.0,-0.0,0.13023157,-0.5981329,-0.30989468,1.2390946,0.53738856,0.0,0.048500814,0.39195523,-0.129908,-0.13357495,-0.06327961,0.2454347,1.0133772,-0.15870161,-0.42347282,-1.0990809,-0.0,0.09807135,0.12308603,-0.56480587,-0.18742542,-0.05122026
TATGCGGATGGTCA-1-ventral,-0.4770756,-0.14515652,0.09033402,0.18469909,0.63175744,0.438739,0.0,-0.23999771,0.0,0.99361444,0.14625649,-0.3897485,-0.54382557,0.2994238,-0.3977691,0.15677232,0.8710164,-0.15039888,0.7403979,-0.51383156,0.21186988,-0.40215605,0.5855289,-0.17109998,-0.43317023,-0.5244376,0.2528976,0.66420823,0.698582,0.012370812,-0.3138806,-0.088480584,-0.33261275,-0.0,-0.22875324,-0.0,0.08178135,0.0,-0.5122407,-0.22252932,-0.4042974,0.0,0.10954382,-1.1016469,0.59814274,-0.4393036,-0.32585993,-0.10937579,-0.35709488,-0.24517643
CATTAGCTGACAGG-1-dorsal,-0.094624296,1.0803828,-0.0,-0.526964,-0.01437876,-0.13199449,-0.18331297,0.2826818,-0.29168388,-0.08800361,-0.34749404,0.062368136,-0.49063963,-0.17040122,0.0,0.38021868,-0.13875088,0.7925119,0.17008452,0.5222042,-0.35425273,-0.29829478,-0.22608593,-0.09904597,-0.1426769,-0.49200013,0.15114364,0.4027999,-0.15437889,-0.0,-0.453857,0.036482234,0.3197941,-0.46789524,-0.0,0.18990906,0.08909481,-0.4118697,-0.50209117,-0.0,0.5492177,0.48454154,0.48496157,-1.1028888,0.6173566,0.0,-0.1118805,0.49764228,0.22751532,-0.16858433
AGGATAGAGTAGGG-1-ventral,-0.514542,-0.21540259,0.39804897,0.017728781,0.68334734,-0.50578076,-0.23715179,-0.28551555,-0.5504944,-0.30213106,-0.1998018,0.13140094,-0.20847672,0.2349577,-0.277633,0.7903411,0.6446478,-0.012672411,-0.3668576,0.62884504,-0.04822632,0.73107684,-0.24959466,-0.4245698,-0.058649186,-0.30924177,0.1799226,0.7449626,0.8529511,-0.33805418,-0.21694781,-0.0,-0.31156972,0.28940746,0.11461924,-0.2986455,0.29612637,-0.5374924,-0.10752851,-0.27314213,-0.20094098,-0.19675587,0.0,-1.1013136,0.0,0.41323438,-0.2974105,0.72757035,-0.5533146,0.0
AGAGCGGATCAAGC-1-dorsal,0.2224457,-0.10745513,0.6345852,-0.51954776,0.29269704,0.9009267,0.5627104,-0.015294023,-0.0,0.3031354,0.401261,0.15858394,-0.19172378,0.4622267,-0.22612454,-0.0,-0.2970656,0.33490136,0.7251521,-0.55381846,-0.24913418,-0.19319151,-0.12993747,0.0,-0.34434524,-0.33640605,0.39923114,-0.5073742,-0.25389588,0.5528279,0.28333405,-0.0,-0.2117277,-0.6167532,-0.20655514,-0.013091896,-0.18111223,0.20796388,-0.041389797,0.4728407,-0.02317932,0.039593894,-0.06028394,-1.1025336,-0.0,0.1942546,0.3627966,0.35714778,-0.16875651,-0.58719915
GGGAAGACGGGCAA-1-ventral,-0.62551284,-0.51327145,-0.37701383,0.0,-0.0,-0.5949712,-0.15308924,0.54308033,-0.42423832,-0.35872632,0.13548368,-0.25044766,-0.095127426,-0.23546161,0.33731526,0.18048973,0.52394587,-0.21613553,-0.23179685,-0.36336604,0.62570053,0.3595065,1.0919306,-0.47413054,0.3190195,0.009156599,-0.12710387,0.20689562,0.0,-0.40406495,-0.21922761,0.32091781,0.23166248,0.8942605,0.5316724,-0.04117555,0.17157552,-0.28361374,-0.051335562,-0.029386416,0.5164768,-0.3057725,-0.16005994,-1.1020571,-0.22930378,-0.011594759,-0.084303424,-0.24225323,-0.48283103,0.60888916
TAGATCCTAAAGTG-1-dorsal,0.4727884,-0.26782608,-0.46562746,0.7309587,-0.5738871,-0.07975764,0.16665705,-0.22500303,1.2372229,-0.22434177,-0.3455733,0.28019607,0.6574366,-0.28056696,0.3878935,-0.45459577,-0.5279896,-0.40354407,-0.4869156,-0.042498246,0.6803904,-0.20050725,-0.1464318,-0.29296327,0.15703568,0.2858209,-0.25332472,0.3942688,-0.12800774,-0.120735504,0.17681988,-0.16044272,0.80915964,0.6633392,-0.061055556,-0.22389796,0.015786706,-0.026702683,-0.1207667,-0.09530353,-0.059131186,-0.026637979,-0.009685888,-1.1022046,-0.0,-0.30155805,0.80277634,-0.44008735,0.6380444,-0.27493173
ATTCAGCTGTATGC-1-dorsal,-0.6039073,-0.51234233,-0.4123823,0.526736,-0.4455926,-0.60161936,-0.18725051,0.69237244,-0.4339439,-0.4854854,0.05858549,-0.23601891,0.02989337,-0.37657443,0.5561825,-0.0633657,0.27937728,-0.15368065,-0.26218006,-0.4581487,0.6891944,0.35163933,0.0,-0.54054534,0.5663156,0.15448254,-0.1418525,0.056367088,0.48646817,-0.49050367,-0.18279912,0.0,0.39200896,0.9556457,0.5586737,0.0,0.051268805,-0.35849825,0.18071952,0.07392114,0.7441259,-0.0,-0.35714853,-1.1003695,-0.4497705,0.08644954,0.035436254,-0.29624623,-0.39342988,0.6489351
ATAGCCGATCGCAA-1-dorsal,0.0,-0.34049293,-0.23582777,0.5153911,-0.47894904,0.24065624,0.3318803,-0.33019093,1.3972939,-0.021114616,-0.35823062,0.35198015,0.52262044,0.12917988,0.19917363,-0.41287118,-0.47392848,-0.5571918,-0.43002534,-0.19512138,0.0,-0.0,-0.33020842,0.06999332,-0.0417569,0.08538808,-0.3396764,0.41428697,0.06844798,0.079633914,0.15483788,-0.39634162,0.47515592,0.49149534,-0.07677999,-0.27710074,0.10717909,0.35438547,-0.22267237,-0.1918571,-0.36504126,0.020251673,0.06130237,-1.1024251,-0.1421616,-0.0,0.78140926,-0.40958077,0.6847402,-0.2556695
GATTCGGATCATTC-1-dorsal,-0.0,-0.30569568,0.172008,-0.63256806,-0.04700886,-0.30068704,-0.27019137,0.52025247,-0.5036545,-0.50156415,0.12572196,0.22820237,-0.025971534,0.43698326,-0.110760935,-0.32343158,-0.17804338,-0.32229307,-0.30433908,-0.08813878,-0.38139352,0.22236826,-0.12713055,0.67369056,-0.110976435,0.1272326,0.08029395,-0.382717,-0.018126568,0.74310595,0.4211735,-0.47295573,0.23612231,-0.17496945,0.82108986,0.42514008,0.1534219,0.45103544,0.0,0.2877782,0.022475157,-0.2906357,0.4069572,-1.1028149,-0.20553206,0.11099884,0.41886485,0.76949334,-0.31557125,-0.33559212
ATCCATACTTCTTG-1-ventral,-0.60231024,-0.39800102,-0.43074676,0.3581467,-0.3326681,-0.12558156,0.1264743,0.551884,-0.54073673,-0.025163295,0.49705687,-0.45896176,-0.26558545,-0.4448548,0.64979476,-0.0,-0.027922459,0.6505529,0.95245063,-0.6894991,0.679101,-0.21919754,1.3825711,-0.0,-0.04390644,-0.0,0.13141735,-0.4546506,-0.069220066,-0.33579245,-0.30306935,0.0,0.42155486,-0.14737031,-0.1106341,0.49895343,-0.24927908,-0.1687205,0.050270297,0.56093824,1.0345587,-0.09960142,-0.40992832,-1.098374,-0.40422025,0.1678468,0.08319812,-0.49059042,-0.0,-0.19670144
TTGAGGACGTGTAC-1-ventral,-0.13359356,-0.0,0.80715597,0.64117146,0.42321372,-0.42829132,-0.07047402,-0.34101394,-0.5854219,-0.0,0.43179098,0.0682376,0.9930361,-0.3369225,-0.32648373,-0.0,0.66947687,-0.20055819,-0.44778734,0.061667282,0.25816613,0.8644596,-0.10028833,-0.5104748,0.67577606,0.8641088,0.7739645,0.18137479,0.17327182,-0.049471725,0.6716544,-0.48639598,-0.40305153,0.06943537,-0.03480938,-0.0,-0.06369525,-0.5976577,1.1858668,-0.15627982,-0.36078772,-0.0,-0.41240528,-1.0979316,-0.20838222,0.6924295,-0.29235986,-0.2342372,-0.60030144,0.92782533
TCCATAACAAAAGC-1-ventral,-0.5809877,-0.51180416,-0.21847355,0.30379933,-0.09173844,-0.56609493,-0.18442419,0.43812403,-0.0,-0.45137155,0.10580557,-0.18643725,0.0,-0.28872466,0.23879026,0.23037156,0.5442869,-0.19362953,-0.28479347,-0.36780345,0.49574736,0.56221557,0.8127231,-0.0,0.40719035,0.042889617,-0.0205842,0.0,0.70466644,-0.4394483,-0.16134521,0.16493653,0.096264616,0.7411683,0.5751716,0.035021663,0.11605273,-0.40866232,0.182652,0.0135199735,0.49950787,-0.0,-0.21234076,-1.1022166,-0.20539245,0.2536306,-0.08394149,0.049192097,-0.55351245,0.71379536
GCCAACCTGTGTAC-1-dorsal,0.28534985,0.7212128,-0.28986648,-0.4470865,-0.23908338,0.92210317,0.18908031,-0.29791218,1.125674,1.0321727,-0.24274509,-0.1434319,-0.42389336,0.36762172,-0.043670602,-0.49827042,-0.4378584,0.10173856,0.49212605,-0.25914207,-0.14995363,-0.65418273,-0.3170034,0.9832916,-0.3852177,-0.55223185,-0.14310533,-0.20974949,-0.0,0.5783795,-0.24549565,0.5907904,0.0228232,-0.6387756,-0.48114985,0.27512366,-0.2761962,0.0,-0.0,-0.012871491,-0.3422161,1.3513469,0.18262236,-1.095741,0.03269954,-0.4711617,0.42037773,-0.38270596,1.0379888,-0.0
AAGATGGACTATTC-1-dorsal,0.038555562,-0.4376393,0.52821666,0.35164997,0.29646704,-0.2628655,-0.06149054,-0.40142095,-0.15269797,-0.34413737,0.1320329,0.22659546,0.6347846,-0.0871973,-0.18402869,-0.08604838,0.32198074,-0.3173556,-0.4971213,0.27914232,0.1972873,0.516976,-0.38154948,-0.0,0.34301198,0.3305467,0.0,0.4213602,0.26664668,0.03665492,0.35801315,-0.49270692,-0.2240577,0.0,-0.05311039,-0.41888496,0.025682334,-0.4056446,0.57453454,-0.237642,-0.4097681,-0.27373648,-0.1652462,-1.1037263,-0.037694443,0.31263652,0.04453035,-0.1585338,-0.25342473,0.0
ACTACTACCTACGA-1-dorsal,-0.03485322,-0.23344332,0.15560138,-0.5521079,0.03465742,-0.0,-0.1692917,0.0,-0.5722749,-0.36267263,0.30650726,0.10839524,-0.16444962,0.20722997,-0.045340724,-0.3390964,-0.26153505,-0.07022573,0.017751489,-0.42723432,-0.2822256,0.058280267,0.3120769,0.4556647,-0.29412544,0.0,0.18707229,-0.48974475,-0.16083917,0.543154,0.3588039,-0.23369724,0.426842,-0.4056103,0.7163381,0.58684754,-0.029264359,0.0,0.075492814,0.4961492,0.23876944,-0.3686495,0.24004422,-0.0,-0.17835253,0.10721663,0.47691825,0.67043626,-0.40662163,-0.4346157
CCGCGAGAGATACC-1-dorsal,-0.42877072,-0.29855922,-0.06370485,-0.5360104,-0.038101077,-0.38113126,-0.0,0.0,-0.0,-0.397847,0.37371114,-0.0,-0.2574338,0.18365693,0.11360653,-0.28648564,0.14165509,-0.13701248,-0.021536285,-0.0,-0.26739877,0.10581426,0.6267722,0.0,-0.12353971,0.10461907,0.14166056,-0.46729222,-0.009454092,0.45126262,0.1588393,-0.007955101,0.26711798,-0.20086879,0.78155714,0.75877035,-0.06465184,0.40512365,0.13770851,0.41519386,0.34236896,-0.13803788,0.17367429,-1.1030102,-0.25663245,0.050419208,0.27405354,0.3965552,-0.0,-0.30608988
GAATTAACACCAAC-1-dorsal,0.29100665,0.761324,-0.2549594,-0.0,-0.10473358,1.0119957,0.0,-0.36318305,1.2155167,1.091198,-0.265585,-0.20859945,-0.46867114,0.3421255,-0.11207449,-0.4072104,-0.0,0.021234255,0.5205886,-0.25064656,-0.23273827,-0.6563949,-0.35635936,0.9425618,-0.39309928,-0.61152595,-0.0,-0.07708868,-0.3660151,0.58692515,-0.0,0.4152349,-0.053755444,-0.69275725,-0.51041204,0.22338119,-0.18159536,1.3609443,-0.5138695,-0.12364911,-0.3592316,1.4468125,0.20171106,-1.0949632,0.1623383,-0.48285156,0.32375312,-0.3455494,1.0321709,-0.71752113
AGTTGTCTGTCTTT-1-dorsal,0.60828686,0.030759467,-0.3530196,0.37060213,-0.47185674,0.51280046,0.3740842,-0.0,1.5490891,0.0,-0.35972264,0.0,0.13274986,0.05532444,0.2045618,-0.4390342,-0.545536,-0.30055326,-0.1347112,-0.07084191,0.4608657,-0.0,-0.28352526,0.0,-0.0,-0.28240782,-0.35254347,0.2964068,-0.122957036,0.17953081,-0.09205991,-0.01948105,0.44866836,-0.0027917493,-0.31498018,-0.22551563,-0.0,0.5359122,-0.45580906,-0.09734148,-0.2935145,0.0,0.1449211,-1.1020588,0.036678016,-0.4253921,0.66820014,-0.44115472,0.9449798,-0.4711585
TAGAATTGACTAGC-1-ventral,0.0148371365,0.46716195,-0.24676894,-0.3828002,-0.22375028,0.7883118,0.12674923,0.016369224,0.6246141,0.88746935,-0.06507596,-0.22547895,-0.0,0.41016063,-0.016798908,-0.4422872,-0.27127433,0.17275406,0.5441987,-0.3449013,-0.21275368,-0.47697586,0.034277987,0.8906449,-0.0,-0.53590953,-0.14254756,-0.34275535,-0.27189085,0.0,-0.2559564,0.7443071,-0.105557844,-0.5953089,-0.35660422,0.23486315,-0.28843775,1.3301677,-0.48207697,0.075878106,-0.15074188,1.153312,0.016691223,-1.0996481,-0.12620483,-0.43417978,0.4190436,-0.0,0.7036289,-0.68779176
GTAAGCACATGACC-1-ventral,0.0,-0.15466823,-0.4001154,0.4077869,-0.42473418,-0.22391917,0.07917549,-0.17491408,0.920512,-0.15843862,-0.4430822,0.40315324,0.089684695,0.047264118,0.2688222,0.028409777,-0.36787307,-0.40146002,-0.40344268,0.42121547,0.52423763,-0.06276118,-0.1571519,-0.21920483,-0.0,-0.0,-0.4268759,0.56162333,0.28413713,-0.24546538,-0.26041925,-0.0,0.6646555,0.7519339,0.11325618,-0.20353782,0.2867867,-0.115564734,-0.41284376,-0.0,-0.06219758,-0.06671767,0.21630475,-0.0,0.022581767,-0.23494549,0.0,-0.09906961,0.3916705,0.06708447
ATTTCTCTGTCATG-1-dorsal,0.54056245,-0.12329506,-0.47916454,0.5562615,-0.5726707,-0.019658474,0.28335088,-0.24738154,1.4010495,-0.11652358,-0.40370545,0.33800194,0.44452345,-0.101843014,0.43289945,-0.38314542,-0.5417371,-0.4587887,-0.41213608,0.020362189,0.6267952,-0.30796376,-0.0,-0.18890965,-0.1602765,-0.020488039,-0.40258488,0.529164,-0.048789386,-0.082260706,-0.058393218,-0.20945053,0.8128165,0.58961195,-0.08648475,-0.17698368,0.1516269,0.18418182,-0.31441325,-0.137224,-0.0,0.015876658,0.16117018,-1.1020648,-0.1715588,-0.3899871,0.77159154,-0.393572,0.7913172,-0.3027406
GAGAGGTGACTCTT-1-ventral,-0.58349574,-0.26538566,0.36575383,0.13848822,0.77933806,0.15941048,-0.05133947,-0.0,-0.3113544,0.69071865,0.0,-0.0,-0.4416731,0.23685531,-0.4629099,0.29060504,1.1312228,-0.17843817,0.6028705,-0.4530079,0.09450591,-0.09796176,0.5645902,-0.29654318,-0.0,-0.0,0.4585756,0.5691322,0.8070142,-0.0065586967,-0.18305911,-0.16796643,-0.47839445,-0.3779862,-0.15757681,-0.09596878,0.07384762,0.41295293,-0.21236931,-0.33021757,-0.4140229,0.0,0.014347021,-1.1018758,0.6230612,-0.0,-0.4500261,-0.09998759,-0.5810984,0.19929472
CGCGGATGTAAGCC-1-ventral,-0.2823596,-0.115344,0.43641603,0.116194524,0.57962394,-0.0,-0.0,-0.37438726,-0.4148263,-0.28560734,-0.10667165,0.13303024,0.017753443,0.030899877,-0.27687728,0.43445686,0.5372117,-0.04052487,-0.33812293,0.61641645,0.037122767,0.5851351,-0.2855911,-0.38599506,0.09206365,-0.103180744,0.34391242,0.6724908,0.53977,-0.24228488,-0.034810107,-0.49344978,-0.26080683,0.07598026,-0.056832172,-0.37413883,0.21527609,-0.507112,0.154243,-0.25297856,-0.2596254,-0.13046345,0.08898835,-0.0,0.0,0.0,-0.0,0.38554233,-0.447766,0.74903023
CAAATTGACTCTCG-1-ventral,-0.22651449,0.1813587,0.3067253,0.0034771427,0.0,-0.0,-0.026708445,-0.35986915,-0.0,-0.28444913,-0.36697078,0.45394322,-0.18632962,0.2820598,-0.0,0.72033846,0.37961975,0.11463841,-0.38389957,0.86878145,-0.15560158,0.52953905,-0.0,-0.31016973,-0.12826331,-0.0,0.09268435,0.65079504,0.4713948,-0.2983247,-0.0,-0.6211981,-0.0,0.25007695,0.06570252,-0.3507111,0.37162176,-0.5602368,-0.29518282,-0.3006481,-0.17915137,-0.16430962,0.3481454,-1.1018987,0.6340264,0.4257889,-0.0,0.8954087,-0.4427869,0.7761699
TACGTACTTCTTCA-1-ventral,-0.057690676,0.889253,-0.038049553,-0.0,0.116217904,0.0,-0.17244306,0.2478368,-0.3738912,-0.037172306,-0.028693546,-0.06281257,-0.39440447,-0.0,0.040926587,-0.0,-0.042545136,0.6999986,0.23930566,0.21414274,-0.38377407,-0.27347222,-0.207218,0.18781301,-0.16021895,-0.3897915,0.27074584,0.0397437,-0.29698917,0.056874275,-0.2451261,0.1500963,0.14848983,-0.5936769,-0.12370792,0.28660437,-0.067290865,0.014649713,-0.24234627,0.101116136,0.0,0.5776653,0.34741488,-1.1036425,0.31296936,0.38400394,-0.107696,0.462959,0.25413212,-0.35348034
CCAATTTGGATAGA-1-ventral,-0.47451326,0.13096397,-0.54103017,-0.14528348,-0.5142468,-0.2075781,0.03139564,0.7130579,-0.29141295,0.13582894,0.23482165,-0.38506886,-0.0,-0.0,0.68029195,-0.3618438,-0.18399683,0.61121833,0.60860336,-0.5249669,0.48817134,-0.29377556,1.0723573,-0.23505966,0.060050506,-0.25249144,-0.0,-0.32372674,-0.13532275,-0.39159465,-0.36375365,1.457122,0.52219975,-0.11035648,-0.047128998,0.5841585,-0.26946718,-0.07325822,-0.1706634,0.49036056,1.067274,0.17942266,-0.298423,-1.1003127,-0.36765492,0.15556973,0.09965761,-0.40567148,0.044896655,-0.27136564
TCAAGGACAGAGAT-1-ventral,-0.37527868,-0.16927567,0.0,0.25936615,0.0,0.45558786,0.19317648,-0.28941402,0.13038878,0.9805984,0.18778004,-0.37215546,-0.47083944,0.2335051,-0.34769273,0.081754185,0.76591927,-0.21805897,0.6226413,-0.5596927,0.30139938,-0.36787155,0.5530807,-0.11314168,-0.36957377,-0.459638,0.20177372,0.5571517,0.58363986,0.065156505,-0.0,-0.01918561,-0.3191736,-0.37885648,-0.27991495,-0.0,0.0057353578,0.72115034,-0.44294173,-0.2290143,-0.44824094,0.8751706,0.11431657,-1.1023407,0.58162326,-0.40294635,-0.27072895,-0.2727149,-0.0,-0.2730453
ACGTTTACGTTGAC-1-dorsal,0.5415694,0.09592804,-0.15587668,0.105673194,-0.3110528,0.6323685,0.50837004,-0.34523633,1.1174039,0.5157037,-0.1842875,0.16977935,0.116011344,0.086869255,0.0,-0.4313499,-0.0,-0.042157043,0.0,-0.27387953,0.0,-0.42851776,-0.28608868,0.13134676,-0.2786961,-0.2957992,-0.12234033,0.0,-0.2323717,0.16317408,-0.032742754,0.14502744,0.33505943,-0.27191588,-0.40129027,-0.2029172,-0.12108068,0.3592308,-0.0,0.04216731,-0.16626544,0.44988653,0.014686022,-1.1034831,-0.06793804,-0.2796679,0.53912365,-0.4026764,0.72265935,-0.4980558
GGATGTTGGGATCT-1-ventral,-0.0,-0.60025173,-0.28113645,0.0,-0.30277577,-0.5857839,-0.15456134,0.6765182,-0.53662014,-0.47321904,0.32599473,-0.23676662,0.0,-0.44484994,0.4773381,-0.0842568,0.5094873,-0.16193722,-0.0,-0.507788,0.6206459,0.2748543,0.99834824,-0.5391785,0.504076,0.31741288,-0.0064394874,-0.0,0.45338243,-0.3809374,-0.08566016,0.0,0.20135541,0.7377435,0.59277457,0.09455119,0.058608886,-0.29053617,0.0,0.044115916,0.6642867,-0.4077326,-0.3681109,-1.1011245,-0.42648953,0.18047643,-0.036738716,-0.0,-0.48500824,0.68339473
ATTGTCTGGGTGAG-1-dorsal,0.18785785,-0.2577191,1.0638584,-0.50089294,0.57655364,0.792155,0.63737506,-0.13536388,-0.5469709,-0.029567614,0.42905113,0.38207924,-0.12376647,0.7550352,-0.39937192,-0.2750614,-0.0,0.2008402,0.51828414,-0.40218323,-0.31493494,0.19555831,-0.35210228,0.0,-0.36125338,-0.3223185,0.0,-0.4303873,-0.041787095,0.5782057,0.54838896,-0.47740832,-0.29464272,-0.60555357,-0.06488774,-0.17727965,-0.10710697,-0.15933713,0.06322106,0.47151542,-0.24351545,-0.40122947,-0.040102735,-1.1012784,0.0,0.40206587,0.0,0.73109853,-0.0,-0.39973968
CACCGTTGCGGGAA-1-ventral,-0.0,-0.24441376,0.37226906,0.0494326,0.6779205,-0.12595092,-0.03183365,-0.23764996,-0.254147,0.2556846,-0.016411478,-0.06402453,-0.34533098,0.34110296,-0.33457294,0.42166623,0.0,-0.24717014,0.09494471,-0.0014733607,0.007903527,0.07323315,0.116057865,-0.26981482,-0.28607437,-0.3789751,0.0,0.73719996,0.871466,-0.06604751,-0.15895864,-0.47492817,-0.33142343,-0.015222232,0.008635985,-0.2798762,0.26610672,0.037285786,-0.30353865,-0.2682435,-0.39779472,0.254424,0.24307539,-1.1035267,0.6569825,-0.11465113,-0.2930885,0.30804294,-0.49733746,0.3973091
GTACTACTAGGAGC-1-ventral,0.45603156,-0.25134513,0.0,0.08356372,0.14480925,0.0,0.9392662,-0.35978326,0.0,0.5771941,0.21293114,0.19893745,0.015964277,0.25446415,-0.15098883,-0.48752317,-0.38531145,0.27782765,0.0,-0.5721091,0.34336257,-0.3293484,-0.12660909,0.03133197,-0.32218894,-0.3672688,0.2096124,-0.3248228,-0.21809712,0.3262054,0.19343162,0.13234544,-0.11127916,-0.41662523,-0.48024175,-0.32764292,-0.23519716,0.08362007,-0.0,0.33044213,-0.18219955,0.026851099,-0.3035968,-1.1025146,-0.15593159,-0.021517145,0.431452,-0.27301988,0.16917463,-0.5929933
TGTGGATGGCGATT-1-ventral,0.6673636,-0.4452961,-0.35968953,0.81595385,-0.51615536,-0.08210216,0.31439397,-0.2873768,1.3658112,-0.2538403,-0.0,0.42997354,0.8173814,-0.18197048,0.40108666,-0.4789427,-0.55850255,-0.52623206,-0.51400316,-0.0353435,0.8441402,-0.2126568,-0.23655137,-0.37740472,-0.10184182,0.40841746,-0.0,0.52329445,-0.1362292,-0.055700477,0.0,-0.35031253,0.8679015,0.69827247,-0.0,-0.0,0.104192466,-0.13503705,-0.11296723,-0.10774666,-0.13444293,-0.0,0.03804485,-1.1007686,-0.31272578,-0.0,0.7480077,-0.44957334,0.5880623,-0.19104455
TGATCGGACGGTAT-1-dorsal,-0.1802971,-0.39034277,0.15183294,-0.6214175,-0.024054978,-0.2169839,-0.17447704,0.68532914,-0.0,-0.42316484,0.4330173,0.039912794,-0.1581245,0.4725624,-0.015346143,-0.0,-0.18300004,-0.24335359,-0.14021266,-0.42852432,-0.37494403,0.1847865,0.33350384,0.8098319,-0.19724694,0.20449306,0.16936608,-0.0,-0.111143924,0.7958017,0.0,-0.3058139,0.21703514,-0.34827426,0.7502284,0.7624126,-0.057476364,0.6492551,0.20792003,0.5648942,0.09825598,-0.29283935,0.22499183,-1.1018637,-0.31523448,-7.457204e-05,0.40945977,0.43483296,-0.39250508,-0.42373222
CCTATAACGTAGGG-1-dorsal,0.17385732,-0.70605826,0.5589752,0.85537064,0.18062852,-0.0,0.12542255,-0.31594715,-0.26349255,-0.5750555,0.5180236,0.1532278,1.3481145,-0.0,-0.16429359,-0.51211655,0.26762274,-0.38669634,-0.49700812,-0.17259334,0.48647743,0.6111292,-0.14898208,-0.49151668,0.62850803,0.0,0.6237848,0.033270188,-0.09145857,0.0,0.8135426,-0.43418634,-0.16136383,0.21952245,-0.1167361,-0.47452015,-0.14503904,-0.52440274,1.2363093,-0.117894016,-0.0,-0.5798035,-0.479355,-1.0979744,-0.4536025,0.56832606,0.11348816,-0.5000995,-0.3687611,0.5444401
GGGAAGTGTGTGAC-1-ventral,-0.44594145,-0.1562971,-0.4429973,0.057506725,-0.412939,-0.22725888,0.098478384,0.43166846,-0.23838879,0.12121478,0.24389464,-0.33219743,-0.0,-0.41722387,0.57188684,-0.3183388,-0.07994699,0.35320476,0.42005023,-0.53740656,0.0,-0.14853796,0.9372768,-0.28374535,0.1381182,-0.11983481,-0.045666102,-0.24731809,-0.08420104,-0.25524405,-0.28578588,1.1155113,0.47464153,0.0030439596,-0.0,0.34389493,-0.22724126,0.10815934,-0.026586255,0.28938738,0.84970164,0.11396523,-0.2787702,-1.1027913,-0.41740432,0.12152975,0.17433715,-0.47521135,-0.0038450959,-0.1865393
AGTGTGACGTATCG-1-dorsal,-0.27031952,-0.0,-0.037898093,-0.6124165,-0.15845445,-0.49423632,-0.38845608,0.8767919,-0.5960707,-0.5794813,0.17077407,0.0,-0.16095573,0.53450525,0.071207285,-0.24401268,-0.05751438,-0.4052808,-0.40211374,-0.30208185,-0.42901915,0.2792163,0.0,0.72688526,-0.1681971,0.16689615,-0.053515967,-0.45819372,-0.08480443,0.7635904,0.39510244,-0.42180276,0.2832113,-0.0751261,1.0041882,0.6551285,0.115426786,0.49599558,0.14355186,0.44890875,0.2343648,-0.2829991,0.3934335,-0.0,-0.24592811,0.0,0.5649975,0.7090936,-0.40579957,-0.22449872
TACATAGAAGACTC-1-ventral,-0.28619397,-0.08449747,-0.25476286,-0.06555233,-0.3595355,0.24659413,0.0,0.49679804,-0.4180733,0.18678804,0.3986594,-0.21354127,-0.0,-0.36777055,0.49136943,-0.43530414,-0.35943893,0.7505204,0.8170965,-0.0,0.5361171,-0.20021042,0.9394688,-0.276409,-0.0055166087,-0.21100317,0.0655416,-0.44452205,-0.24367632,-0.2617468,-0.1334442,1.1373754,0.31943375,-0.0,-0.15265386,0.32245952,-0.308886,-0.17043075,-0.10629548,0.0,0.9456054,-0.123678185,-0.39071256,-1.1011815,-0.47398946,0.33103123,0.20923358,-0.3158373,-0.113920644,-0.4328516
CCATCGTGTTCTGT-1-dorsal,0.04141975,-0.6622194,0.6893715,0.45960626,0.35336417,-0.3540142,-0.09747665,-0.27297047,-0.5379358,-0.5515122,0.6110046,-0.012840496,1.126102,-0.44931155,-0.29644185,-0.41330606,0.6590623,-0.16364118,-0.45027608,-0.16495904,0.26843682,0.7257491,-0.14976105,-0.4347269,0.6718011,1.0506562,0.80552477,0.104082346,-0.028703082,0.12407919,0.7973934,-0.42335302,-0.33055082,-0.13852756,-0.120711,-0.4158327,-0.0,-0.0,0.0,-0.18771867,-0.37048632,-0.48887798,-0.0,-1.0986828,-0.26189965,0.6568231,-0.22869416,-0.3862809,-0.0,0.6586912
ATACGGACGTATGC-1-ventral,-0.48352587,-0.2820631,0.23769747,0.13176593,0.6468096,0.16701378,0.036561556,-0.107884146,-0.16587655,0.49388608,0.0,-0.36181492,-0.0,0.17572044,-0.35717827,0.21971363,0.9045854,-0.08851045,0.48193714,-0.40471834,0.14364538,-0.07319683,0.5403776,-0.0,-0.2841098,-0.39662305,0.3914188,0.6096779,0.6865218,-0.07112225,-0.19517979,-0.0,-0.34708488,-0.1735378,-0.16571204,-0.1621169,0.07133424,0.0,-0.2900641,-0.18772556,-0.2951415,0.46138898,-0.037800737,-1.1036414,0.38497338,-0.16226134,-0.31711924,-0.06977452,-0.5072106,0.04089402
GACGCTCTTCGCCT-1-dorsal,-0.26405078,-0.5553248,0.6937101,0.46199712,0.5668672,-0.50282764,-0.0,-0.28835788,-0.6956397,-0.61143494,0.0,0.027393898,0.8441509,-0.35028657,-0.32878956,-0.026256774,0.6995129,-0.06857985,-0.0,0.20801882,0.17947714,0.9963019,-0.22901098,-0.55791163,0.7711385,0.72325975,0.81781274,0.28676167,0.2263138,-0.15985171,0.54735047,-0.46546754,-0.0,0.1385846,0.024222236,-0.47797462,-0.009947817,-0.6454696,1.1171459,-0.2764622,-0.32500362,-0.48409697,-0.3515502,-1.0974908,-0.087666385,0.7857087,-0.3694033,-0.04504065,-0.603488,1.0472605
ATGTACCTTCCTCG-1-ventral,-0.0,-0.111970246,-0.4178266,-0.3318326,-0.42421865,0.0841673,0.2502795,0.54980904,-0.11901002,0.21006243,0.0,-0.0,-0.38351947,-0.0,0.46258304,-0.39490741,-0.3282922,0.20220946,0.45244703,-0.56386805,0.26051235,-0.35738257,0.7428333,0.0,-0.22546259,-0.20981313,-0.17193821,-0.335982,-0.14751177,0.04021269,-0.16420001,0.88909894,0.53432393,-0.16607465,0.13445576,0.5308661,-0.1875378,0.4575177,-0.3313603,0.0,0.6000988,0.21076655,0.0031970444,-1.1029719,-0.30311015,-0.11566381,0.0,-0.0,0.15400419,-0.56112015
GGACGCTGTGCTGA-1-dorsal,0.434534,0.30557105,-0.35631183,-0.14476578,-0.38284224,0.5700762,0.17961277,-0.33135602,1.4105875,0.6696064,-0.34874323,0.052943744,-0.25642285,0.40679953,0.14871955,-0.40041408,-0.42405832,-0.0,-0.120106414,-0.10254622,0.10988683,-0.492181,-0.33969867,0.0,-0.31159198,-0.41039124,-0.0,0.09331101,-0.17611273,0.47969,-0.1622663,0.08463121,0.30063763,-0.2472665,-0.31798947,0.067852266,-0.08893239,0.0,-0.4438489,-0.0,-0.40551466,0.0,0.0,-1.1008129,0.023680331,-0.5501695,0.0,-0.3830267,0.9926401,-0.57695305
AGGAACCTGTTGAC-1-ventral,-0.33887884,-0.49512553,0.06754685,0.31255883,-0.039027005,-0.0,-0.070387326,-0.0,-0.283603,-0.4413422,-0.14837213,0.3202155,0.1346164,0.05778007,0.020727897,0.0,0.22623411,-0.30621782,-0.46951205,0.0,0.3509173,0.65828276,0.10014448,-0.4280966,0.15979286,-0.029385356,-0.14111255,0.37559786,0.7640384,-0.31937924,-0.054590505,-0.36645705,0.0,0.86719465,0.3881885,-0.3129072,0.28434065,-0.5433598,0.0,-0.091604464,0.1382222,-0.41412753,-0.06361949,-1.1031674,-0.020030143,0.1749217,0.061795067,0.21859173,-0.4710421,0.9040512
