,0,1,2,3,4,5,6,7,8,9,10,11,12,13,14,15,16,17,18,19,20,21,22,23,24,25,26,27,28,29,30,31,32,33,34,35,36,37,38,39,40,41,42,43,44,45,46,47,48,49
AAACATACCTACCC-1-ventral,0.11051241,0.051625524,0.057274576,0.19888183,0.0586146,-1.1095827,0.076324165,-0.136592,0.27375874,0.30249682,0.2857079,0.0,0.15092152,0.0,0.028882198,-0.11072689,-0.18463758,0.023737522,0.070215054,0.031200565,0.07645077,0.059245344,0.18706685,0.016132329,-0.13440411,0.1833813,0.17120025,-0.021309324,0.08219047,0.44542685,0.16392682,0.14796741,-0.0438771,0.023949863,0.45656267,0.007224046,-0.25426435,0.15777615,0.2646006,-0.15609741,0.26021203,-0.09514624,-0.11542864,0.38049704,-0.0045757825,0.07005101,0.096805744,0.19219087,-0.066456795,0.07037604
AAACATACGCGGAA-1-dorsal,-0.073223844,0.19543937,0.0,0.13319017,0.08859254,-1.109621,-0.120817564,-0.0,0.1331468,0.23244458,0.16604437,-0.013879075,0.0,0.048993155,0.24254286,0.011120199,-0.23527087,-0.0,0.067516916,0.08563842,0.124669835,0.35282728,0.0,0.12681353,0.043623287,0.0,0.1786906,0.03735768,-0.0036009154,0.14288852,0.17491052,0.34296912,-0.13071425,0.2050712,0.02824894,0.10980534,-0.0309719,-0.025020773,0.08228878,0.0,0.16489944,-0.062161952,-0.07708901,0.0,0.15410684,-0.038275257,0.1729787,0.19473758,-0.0054745544,0.1662141
AAACATACGCGGAA-1-dorsal-1,-0.06530848,0.27821404,0.37346604,0.11216909,0.12291432,-1.1096237,-0.15134567,-0.096820265,0.19919261,0.08146826,0.17376725,-0.0024433269,0.0,0.08614873,0.2322211,-0.059008073,-0.0,-0.06603546,0.040544443,0.026457775,-0.03716747,0.40038848,0.014751646,0.0,0.12787436,0.06761713,0.15268621,-0.040820178,-0.07912146,0.09100641,0.25576678,0.2614973,-0.15349428,0.20453073,0.09584583,0.100634664,0.14584844,0.034369074,0.22007403,0.12432461,0.06092839,0.056812074,-0.028664537,0.028879859,0.120994635,0.04421308,0.076545164,0.26104015,-0.049772926,0.18726327
AAACATACGGTCTA-1-dorsal,0.055286314,0.14842898,0.18490063,-0.027501982,0.31206033,-1.1096114,-0.14995694,-0.058552694,0.036078412,0.071965374,0.099238686,-0.21943286,0.16069989,0.17533986,0.23397692,-0.06951432,-0.013580389,-0.26395687,0.1863784,0.1297382,0.21623397,0.29908022,0.27150032,0.20394747,0.13322538,0.21497065,0.22502029,0.1278823,-0.087382,0.010690131,0.15290566,0.054734394,-0.08270933,-0.014721156,0.17760792,0.11964095,-0.1653519,0.13646035,-0.03231605,-0.031445228,0.08284453,0.0797408,0.1969671,0.16887897,0.06184725,0.2561516,0.3513713,0.15309307,0.0024170263,-0.028777057
AAACATACGTTGAC-1-ventral,-0.047543515,0.1200214,0.12434313,0.20248239,0.14402886,-1.1096243,-0.047039393,-0.02494726,-0.019138722,0.24021319,-0.006321139,-0.05548153,0.29552683,0.27217773,0.08231591,0.059710942,-0.0,-0.23397593,0.03007252,0.21039064,0.05819548,0.186172,0.041158564,0.16506983,0.0,0.21382426,0.15703219,0.040243987,-0.023609998,0.19279283,0.1882319,0.23671526,-0.096007526,0.18997711,0.3039711,0.22750197,-0.0,0.16022313,0.17018998,-0.118348934,0.0998546,0.19843657,0.0,0.01738767,0.0,-0.106273696,-0.015633306,0.24568968,-0.12268054,0.08336472
AAACATTGACGGGA-1-dorsal,-0.025364626,0.088869974,0.232529,0.15172264,0.049910404,-0.0,0.1648983,0.17262201,-0.019174153,0.105034314,0.09668211,0.08611216,0.0,0.26036647,0.049742013,0.013387013,-0.18454579,-0.02416379,0.04139949,0.08988654,0.228079,0.0,0.08955423,0.0,0.1684053,0.33508462,0.21686992,0.085395195,-0.0,0.22852027,0.01470349,0.054189973,-0.13208641,0.075948305,0.26899534,0.10667624,-0.0,0.0,0.26833245,-0.028880438,0.08694447,-0.019580457,0.045243528,0.072336026,0.07799162,-0.017667148,0.03439231,0.11501306,-0.07055972,0.09422781
AAACATTGACGGGA-1-dorsal-1,-0.018152462,0.13846785,0.26905778,0.107384406,0.0060768677,-1.1096264,0.18152852,0.09683151,-0.011320777,0.10459245,0.14615268,0.14872666,0.29484522,0.1902942,0.11663944,-0.0,-0.22708973,-0.0,0.07380526,0.16030802,0.24002044,0.25072706,0.05132356,0.07842029,0.21648782,0.31401226,0.20344348,0.11935329,-0.112176806,0.21871397,0.0,0.09723128,-0.14597741,0.021185583,0.2557891,0.06018071,-0.15431829,0.08140292,0.24675886,-0.0,0.10150249,-0.044033464,-0.06507132,0.11850608,0.08863981,0.0,0.109246746,0.09497378,-0.0,0.10781418
AAACATTGGAACTC-1-ventral,0.048003636,0.13733524,0.0,0.22418271,0.14903669,-1.1096036,-0.08477549,0.0003525615,0.11964589,0.0,0.18388136,0.0,0.0,0.25323525,0.068439,0.07198485,-0.07581334,-0.097263396,0.0,0.06294405,0.07181374,0.22627863,0.07871241,0.1514311,0.06436342,0.0,-0.036436055,0.08213696,0.048444923,0.23415813,0.007496526,0.14768177,-0.17699057,0.037521187,0.35698864,0.02840548,-0.19341126,0.2237821,0.21035725,-0.0,0.0,-0.0911771,-0.12034794,0.17797941,0.3126883,-0.09345638,-0.0,0.19818406,-0.16199867,0.09768435
AAACGCACCATGGT-1-dorsal,0.05046829,0.18072507,0.17766462,0.06780369,0.0,-1.1096386,0.11302346,-0.120122306,0.02086128,0.07275037,0.16811448,0.0,0.24289791,0.32933527,0.09810008,0.06655563,-0.21907516,0.09291229,0.18860278,-0.064562164,0.18513681,0.25400686,0.1283297,0.1366879,0.11026873,0.0,0.0,-0.0065947245,-0.07051462,0.27681068,0.148043,0.0,-0.0436412,0.053102504,0.08487506,0.06908729,-0.0,0.08247736,0.12502493,-0.0057795313,0.086600356,0.0,0.088108815,-0.0,0.09327066,0.14701946,0.0,0.1254043,-0.023180313,-0.00824723
AAACGCACCATGGT-1-dorsal-1,0.03501038,0.1531269,0.16666572,0.12292842,0.11489054,-1.1096535,0.16176826,-0.07410752,0.0,0.12680998,0.18330511,0.12939416,0.13565426,0.23972192,0.1851624,-0.069331,-0.18326032,0.0289196,0.2140781,-0.011530452,0.09092652,0.18819846,0.11792814,0.06556572,0.0690618,0.3484001,0.08032001,0.107060395,-0.06147299,0.091533005,0.1384049,0.110493995,0.056475893,0.07038142,0.1641921,0.04784898,-0.16491401,0.03409558,0.16417687,0.07710415,0.021053988,-0.018472474,0.157779,-0.011198588,0.02254971,0.12701868,0.0,0.075850755,0.019389119,0.04365981
AAACGCACGGTCAT-1-ventral,0.07416558,0.12482878,0.2919164,0.0,0.11530709,-1.1096102,0.059016008,0.0,-0.072694756,0.23775393,0.08420986,0.19965875,0.22316788,0.16121818,0.11767797,0.03771797,-0.18681414,-0.225591,0.18894291,0.14320666,0.16380033,0.25396204,-0.044013925,0.069802456,0.16579081,0.2508923,0.12476439,0.0,-0.18709236,0.28304926,-0.0361183,0.024850009,0.008889213,0.0401511,0.0,0.06905197,-0.10937976,0.16489486,0.30106187,-0.111434065,-0.045011245,0.027148481,0.08909176,0.083251655,0.25860536,-0.08207315,0.0068482803,0.12550318,-0.021796957,-0.0018794008
AAACGCACGGTCAT-1-ventral-1,0.078712225,0.14082244,0.30124408,0.060963668,0.13220942,-1.1096059,0.039666634,0.06711237,-0.045950215,0.16710302,0.12214035,0.24421653,0.24305911,0.0,0.07648564,0.11410429,-0.16910236,-0.0,0.12144084,0.0,0.14050749,0.27620485,-0.04872435,0.06314538,0.19100133,0.2362309,0.052086003,0.0,-0.13760951,0.2883115,-0.10504538,-0.048583485,-0.0,0.012507352,0.33072224,0.1432955,-0.06943895,0.16402236,0.31881568,-0.1633411,-0.07245004,-0.0,0.14060085,0.07545863,0.2868417,-0.0,0.03688895,0.14380428,0.035365887,-0.011433562
AAACGCTGACACGT-1-ventral,0.059796732,0.14459151,0.19943129,0.12913455,0.16314647,-1.1096058,-0.060597528,-0.1883183,0.181862,0.2636289,0.16310377,0.15654483,0.0,0.2659298,0.030258618,0.0,-0.25714445,-0.03100137,0.005539813,0.16035978,0.18989798,0.109726,-0.06207334,0.16926719,0.048007146,0.20127417,0.080475815,0.03280627,-0.03397187,0.27935326,0.13694628,-0.068755485,0.06178843,-0.11521459,0.32565007,0.2671218,-0.08850681,0.009009441,0.27144653,0.022441002,0.26438132,-0.0,0.0,-0.029547812,0.3049149,0.13455981,0.07844755,-0.0,-0.06874985,0.21228719
AAACGCTGACACGT-1-ventral-1,0.08516264,0.11754044,0.17024617,0.07057904,0.19092081,-1.1095988,0.08734773,-0.22376339,0.16684274,0.0,0.19707876,0.061406363,0.0,0.28321046,-0.054573815,0.03579711,-0.32457626,0.07525911,0.07626012,0.0,0.27784744,0.09717945,-0.048472352,0.11385106,0.0,0.31039706,0.009257065,-0.016227895,-0.010175176,0.30082172,0.15445378,-0.027686425,-0.004893608,-0.037098262,0.3225644,0.22907929,-0.1121533,0.016230121,0.28611144,0.00086744217,0.16245924,-0.039558478,-0.042733286,-0.016314454,0.24776837,0.0857262,0.15079263,-0.050655074,-0.13685061,0.0
AAACGCTGGATACC-1-dorsal,0.09122354,0.07677073,0.27266693,0.017314712,0.20764165,-0.0,0.17464392,0.1344239,0.031102847,0.0,0.0,0.112459645,0.22774151,0.20387831,0.154374,0.013191626,-0.17588265,-0.047821406,0.11407311,0.15272085,0.0439273,0.14447597,0.12051957,0.13797869,0.10269685,0.30096424,0.09050538,0.114437714,-0.13282797,0.11338335,0.045525756,0.16713521,-0.22199811,0.07355897,0.21481174,0.1283861,-0.21583393,0.034853652,0.2337644,-0.02985332,0.14349125,0.05105992,0.023267584,0.22958592,0.1355603,0.015706727,0.052438177,0.0,-0.1411487,0.09590299
AAACGCTGGTCTTT-1-ventral,0.0,0.038534578,0.0,0.23578413,0.27578562,-1.1096047,-0.05400638,-0.108238995,0.06532924,0.16009818,0.0,0.051571447,0.14139703,0.30092737,0.06056344,0.026145563,-0.36080667,-0.20767418,0.17542763,0.17778568,0.16968165,0.27079484,0.0,0.07982514,-0.080346934,0.35319546,0.017439293,0.08522501,-0.0786786,0.17875294,0.15539154,0.24553154,-0.00035358802,0.22370902,0.20054926,-0.019476878,-0.016855597,0.1643117,0.21301012,-0.041419733,0.0,-0.06220818,-0.010351936,0.0,0.0,0.0,0.0,0.24019575,-0.07629348,0.045245472
AAACGCTGGTCTTT-1-ventral-1,0.0,0.06611165,0.0,0.15102917,0.13122174,-1.1096168,0.008406859,-0.107869044,0.0380404,0.14146842,0.07171239,0.0,0.16875897,0.21352178,0.032330766,-0.01838194,-0.28792316,-0.19128099,0.18040477,0.2277639,0.19938338,0.3015039,0.13060291,0.04102862,-0.02903084,0.40828845,0.06354141,0.16896734,-0.0733214,0.19897558,0.15575692,0.24201994,-0.11959527,0.07753926,0.2517818,-0.04718178,-0.0,0.2260246,0.17402448,-0.07434468,0.0,0.016571727,0.06368046,0.069298655,0.040299047,0.09817914,0.08893568,0.24273594,0.025575833,-0.0
AAACGCTGGTCTTT-1-ventral-2,0.0,0.0,0.11778496,0.172233,0.18154927,-0.0,-0.0,-0.0683664,0.081095904,0.17916425,0.055660035,0.042846587,0.19248801,0.25750223,0.013756103,-0.047755707,-0.0,-0.16244982,0.22581208,0.0,0.08977611,0.20203851,0.078466855,0.08433967,-0.016039677,0.33755118,0.031233324,0.17202729,-0.0,0.12087685,0.16718303,0.15633512,-0.01678447,0.119514555,0.263788,0.0,0.0,0.0,0.1856959,-0.0,0.21286315,-0.06832845,-0.026538638,0.035796713,0.16230437,0.016871832,-0.0325301,0.2707478,0.045116447,0.13446663
AAACGGCTAGTCGT-1-dorsal,0.01912266,-0.03711919,0.040553015,0.10626026,-0.09819766,-1.1096071,-0.12389184,-0.10905822,0.023810178,0.13941948,0.19633019,0.195576,0.053741388,0.21089518,0.11372972,0.112806596,-0.15133196,-0.08701901,-0.0,0.059652332,0.25429016,0.1118334,0.07458222,0.11587434,0.0,0.0,0.0,0.019051462,0.25355852,0.0,-0.026259888,0.018806443,0.09530625,0.12635913,0.34072393,0.04574602,-0.33509257,0.28373012,0.17988802,0.013623797,0.1663821,-0.023413567,0.049877293,0.20627248,0.0,0.02175568,0.21328536,0.25350398,-0.030845935,0.11980342
AAACGGCTTCATTC-1-ventral,-0.062076386,0.12464692,0.11302399,0.12931623,0.029581042,-1.1096287,0.09189959,0.1532276,0.14767668,0.12630247,0.13309155,0.18300004,0.19046874,0.19917434,0.16026053,-0.09470106,-0.029198993,-0.13640974,-0.09330737,0.20634253,0.29399416,0.0,0.11841588,-0.050457984,0.14359754,0.35510096,0.027251327,0.1072046,-0.06278913,0.25313044,0.11106965,0.0,-0.12298015,0.027841616,0.29703215,0.1309373,-0.0034874016,0.16083884,0.2341253,-0.09885212,0.14511865,-0.024864873,0.05721567,0.06320576,0.18179719,-0.17181198,0.054249976,0.0,-0.056419242,-0.010936194
AAACTTGAACGGAG-1-ventral,0.022812072,-0.018192133,0.1255924,0.16493195,0.22079837,-1.1095924,0.055462334,0.20037182,0.059264626,0.27584237,0.192712,-0.08904736,0.10692394,0.27724588,0.09916473,-0.088803045,-0.08546916,0.005881112,-0.17336197,-0.13495883,0.0,0.0,0.03688657,-0.03792306,0.006366455,0.28211293,-0.04926132,0.14178577,-0.20160379,0.35209975,0.05761212,0.15810806,0.052637577,0.12073263,0.43231103,0.1109872,-0.0,0.10666037,0.28697053,-0.009584825,0.020999657,0.0,0.110808864,0.14505608,0.19349593,-0.016587112,0.016582957,0.44207132,-0.13137262,0.046822853
AAACTTGATAGCGT-1-dorsal,0.015327468,0.19494693,0.27375215,-0.06633222,-0.059920948,-1.1095953,0.18177052,0.13233297,0.0,0.030632617,0.11098709,0.18007773,0.23552571,0.23454303,0.14717072,-0.1538137,-0.24624316,-0.15217371,-0.026979513,0.12857029,0.0,0.1882541,0.0,-0.06305602,0.21948817,0.33996648,0.13391499,0.06543033,0.06492482,0.1990124,0.13417043,0.16909537,-0.18196769,0.113002434,0.2529236,0.07539815,-0.29573163,0.10683084,0.29510042,-0.028361348,0.0,-0.03404346,0.05706828,0.27826804,-0.013695161,0.09467703,0.034143392,0.2246351,-0.033685565,-0.0007781056
AAAGACGATACTCT-1-dorsal,0.079357795,0.20874128,0.28097883,0.0,0.17594533,-1.1096429,0.040756878,-0.18652473,-0.0058241687,0.123051874,0.28217295,-0.092369854,0.1201247,0.098376,0.099100545,0.13954155,-0.12409145,-0.07052362,0.0,0.094973534,0.10038864,0.23874043,0.056020357,0.106273934,0.07053157,0.0,0.14134285,0.037763324,-0.12860498,0.2357563,0.040223766,0.19357735,-0.022431018,0.13313884,0.1470069,0.18145715,0.0,0.11559102,0.15530914,-0.0,0.0,0.03741874,-0.014391741,0.11420804,0.12346409,0.11642125,0.2327563,0.081979536,-0.06103443,0.04653839
AAAGACGATACTCT-1-dorsal-1,-0.05126556,0.23698635,0.3397443,0.044506583,0.23942213,-1.109642,0.08089187,-0.22026196,0.028090702,0.0,0.26428372,-0.083919175,0.14564693,0.12678644,0.050304215,0.045995068,-0.11214502,-0.031087864,0.26590905,0.05551918,0.0,0.22138724,0.118240505,0.12894213,0.089249335,0.27347583,0.069906466,-0.034798056,-0.014889638,0.11061584,0.15382966,0.110122904,0.028448677,0.08089119,0.101166934,0.15397793,-0.10593706,0.06354882,0.081017725,-0.08207004,0.05200179,0.08789212,0.0,0.0,0.04337366,0.20321675,0.0,0.0,-0.0,0.082701385
AAAGATCTGAGGTG-1-dorsal,0.0,0.14999042,0.30466056,0.027115198,0.07568924,-1.109638,0.02521758,-0.04723026,0.0,0.15667446,0.27979797,-0.010866192,0.26440874,0.18332641,0.15060137,-0.10211912,-0.16595615,-0.15499526,0.0,0.031353585,0.12019187,0.32563326,0.23180743,0.12602092,0.086407535,0.14443624,0.0029244937,0.043044966,0.048347916,0.18510239,0.2354877,0.0,-0.0013762714,0.0,0.2285029,0.027707245,-0.058221158,0.0,0.26384276,-0.043238204,0.05468255,-0.05049295,0.007881183,0.110215545,-0.0,0.0,0.06341941,0.0,-0.021287601,0.10206316
AAAGATCTTGCACA-1-ventral,0.0068556936,0.14683942,0.14093709,0.16488318,0.19854987,-1.1096238,0.12427059,0.0852212,0.3337441,0.18233445,0.08398882,-0.03532178,0.22201033,0.21788782,0.14804783,-0.052763026,-0.12256583,-0.018445652,0.022039592,0.0,0.06663597,0.0,0.108704686,0.06302727,0.102173224,0.24652499,-0.024005441,0.03974805,-0.054335333,0.23880361,0.03353746,0.14563335,-0.004698038,0.0657863,0.27099746,-0.008153386,-0.20202625,0.34476742,0.14668962,-0.089562476,0.0728392,0.019580627,-0.035025477,0.21141769,0.25685287,-0.0,-0.060227584,0.24504817,-0.0,-0.08684073
AAAGCCTGAGGTTC-1-dorsal,-0.009621117,0.06732076,0.0,0.0,0.19126341,-1.109635,0.034958214,0.077813305,0.09808661,0.061169203,0.0,0.14761034,0.29417062,0.0,0.0,-0.1218221,-0.21925788,-0.17639723,0.03991222,0.20667943,0.22435074,0.2774052,0.02925806,0.11158097,0.2078221,0.17571037,0.1385108,0.17095765,-0.072724424,0.046446163,0.18882252,0.058041293,-0.051089328,-0.038383804,0.32557005,0.11609951,-0.025612514,0.16006292,0.19034936,0.06431853,0.0,0.055228494,-0.020666985,0.17193907,0.043548077,-0.015042491,0.059870183,0.0,-0.15824,0.10157617
AAAGCCTGAGTGTC-1-ventral,0.07274549,0.16854578,0.21921852,0.19283113,0.23896968,-1.109607,0.24814533,-0.09842701,0.07541092,0.28558472,0.36188254,-0.0045087603,0.0,0.101640806,0.1003783,-0.085606046,-0.0,-0.0,-0.10729035,0.18427242,0.18931052,0.18741769,-0.019811459,0.01354932,0.028924558,0.16471854,-0.061254635,0.048734974,-0.14531328,0.0,-0.057030853,0.0780591,0.0,0.03506633,0.4473864,0.20455115,-0.20144145,0.2119242,0.1361713,-0.07419123,0.17591314,0.10880391,-0.0,0.16369185,0.006063407,0.16743693,-0.027756162,0.037941422,0.032029063,0.05936921
AAAGCCTGGTAAGA-1-ventral,0.7617622,0.10120797,0.0,1.8089502,0.0,-1.1072352,-0.45834512,-0.5260125,-0.15901738,-0.43338975,-0.0532998,-0.66846204,-0.520498,-0.25903738,1.1246262,-0.0,0.047582217,-0.28868067,0.1676654,-0.3743882,0.5683098,1.0185082,-0.32500422,-0.4861275,0.003429701,-0.08325968,0.95320576,0.79844445,0.6111498,-0.34956303,0.13177107,0.3139368,0.7440667,0.1039013,0.14599591,-0.2619293,-0.37000844,-0.25106287,0.36503974,0.4380511,0.27849764,-0.10893928,-0.24694125,-0.37900496,0.34006524,0.94286454,0.0,-0.54680616,0.2263246,0.37798408
AAAGCCTGGTAAGA-1-ventral-1,0.8430912,0.1341629,0.21387513,1.7999681,-0.050965086,-1.1070775,-0.5230097,-0.45814297,-0.0,-0.47780773,0.026053183,-0.63836473,-0.48090327,-0.38808554,1.0860007,-0.27510035,0.07656379,-0.33005518,0.039949276,-0.36589658,0.5005364,0.97580695,-0.34308216,-0.4451156,-0.10170732,-0.1374554,1.019179,0.0,0.6600208,-0.38452694,0.22911279,0.4385926,0.59254074,0.0,0.2100897,-0.24265105,-0.4765687,-0.0,0.3771125,0.38571602,0.33226323,-0.0,-0.20762113,-0.31076565,0.47241527,1.0401508,0.071178995,-0.5676295,0.34467536,0.34357178
AAAGCCTGGTTTCT-1-ventral,0.21380094,0.17802899,0.26305804,0.18002783,-0.041865114,-1.1096036,0.044059526,0.013415429,0.11897545,0.13345115,0.022798877,0.19775929,0.43490797,0.079081364,0.107962444,0.007536809,-0.20794843,-0.09423879,0.060609132,0.20906346,0.2021221,0.21792333,0.114347115,0.0,-0.007290708,0.40272963,0.12706982,0.078663416,-0.056768857,0.26373944,0.14109276,0.09319943,0.0,0.039038274,0.3675008,-0.010006627,-0.16535164,0.14014202,0.21730953,-0.15871552,0.047830954,0.008712105,-0.029179985,-0.057658356,0.00037824115,-0.08529147,-0.0,0.21139231,0.04687068,0.045331486
AAAGGCCTAACCAC-1-ventral,0.36114863,0.14110622,0.066089466,0.0,0.05132944,-1.1096343,0.019497454,-0.10660993,-0.025925174,0.04408295,0.096110016,0.06409389,0.1279304,0.2735429,0.0,0.11305772,-0.14553826,0.0014707075,0.18454506,0.15397026,0.09813573,0.06543322,0.07919512,0.25704598,0.21545236,0.42101645,0.07078087,0.023588294,0.022175254,0.036886107,0.0,0.13795656,0.117193356,0.11618913,0.07001948,0.16803183,-0.1874741,0.20738702,0.15769598,-0.089336306,0.0,-0.05103999,0.017582022,0.1666545,0.014649685,0.06618141,0.014517242,0.18425973,-0.042748056,-0.066139765
AAAGTTTGACACTG-1-ventral,0.2440968,0.10948023,0.27488333,0.092275605,0.020623146,-1.1096258,-0.046019822,-0.06609652,0.02807465,0.08792252,0.14730471,0.0924127,0.33205503,0.0,0.05905623,0.023611115,-0.14259961,-0.10480126,0.076514125,0.06767467,0.0,0.08988571,0.062110674,0.10896295,0.17040694,0.33310127,0.070177,0.19853595,0.027281523,0.3286835,0.051519036,0.13973002,-0.0,-0.06264223,0.3011251,0.021650394,-0.13628583,0.056343667,0.30317235,-0.0776883,0.041210916,0.06730931,-0.07855648,0.18905257,0.0734167,-0.076057255,-0.041838292,0.2578945,0.007326678,0.050915357
AAAGTTTGCTGACA-1-dorsal,-0.06936749,0.10281292,0.0,0.14218758,0.109138325,-1.1096429,-0.008990566,-0.047027405,0.072595984,0.08588836,0.1517379,0.018403051,0.12115379,0.3286842,0.0,0.092995435,-0.17943409,0.0,0.010283697,0.010311107,0.17798948,0.36330214,0.0807107,0.10306498,0.045622155,0.19643526,0.13054495,0.100372754,-0.07873787,0.22597119,0.24815719,0.24231677,-0.15952456,0.121535,0.15523781,0.0,0.059556603,0.04873646,0.0,-0.084933445,0.123481475,-0.10881047,-0.050142873,0.04314936,0.11529085,0.04425107,0.10654735,0.11510618,0.030655498,0.120505184
AAAGTTTGGACAAA-1-dorsal,-0.00016676055,0.052409124,0.34491342,-0.030036902,-0.03643864,-1.1096268,0.015380756,0.01148452,-0.03774974,0.07280623,0.09877479,-0.0555914,0.24538592,0.1828235,-0.084007986,0.041651066,-0.21046494,-0.05581141,0.017642098,0.06617957,0.33758083,0.12117562,0.0,0.16167204,0.13807595,0.0,0.031945027,0.08006222,0.031847022,0.25389662,0.18831177,0.20287816,-0.003451374,0.15234275,0.21310735,0.1487432,-0.0,0.25844038,0.17557615,-0.0,0.08351446,-0.03882276,0.035659682,0.10900327,0.034121364,0.09173498,0.260588,-0.12418099,-0.019337073,0.09284856
AAATCATGGTCTGA-1-ventral,0.06403034,0.18184802,0.044355907,0.0,0.0,-1.1096402,0.033938725,-0.026193263,0.06750969,0.13072774,0.11567097,-0.13057676,0.1911137,0.25925022,0.14229777,-0.09622614,-0.06353153,-0.17444552,0.29588267,0.060554963,0.19027148,0.24750641,0.23103173,0.14231831,0.13878863,0.1364587,0.0373274,0.09471354,0.05474525,0.20191023,0.3143596,0.0,-0.039000712,0.08813615,0.24388014,-0.0,-0.1595564,0.08430424,0.12621175,-0.09408256,0.0,0.038102407,0.085612394,0.12710886,0.06525112,0.10158988,0.11728801,0.199264,-0.071733266,0.10183139
AAATCCCTGACAGG-1-ventral,0.26780427,0.2188274,0.16263773,0.16979513,0.0040043355,-1.1096271,0.08651255,0.042367585,-0.038919054,0.044524174,-0.009875961,0.18604939,0.23307133,0.3402619,0.11098806,-0.032022133,-0.16905163,-0.111653544,0.14523831,0.019260952,0.08606364,0.14952114,-0.0365597,0.1984904,0.008289235,0.3432722,0.11398309,0.13264853,0.03823871,0.091874756,0.32722226,0.0,-0.061773993,0.069516964,0.13741946,0.0,-0.0,0.1461013,0.25325304,-0.13179098,0.007822141,0.11008613,0.027254738,0.053433,0.10701228,-0.10380693,-0.010024773,0.29415065,0.068079494,0.05840469
AAATCCCTGTTCGA-1-ventral,-0.041957963,0.12833242,0.11961525,0.046035234,0.0,-1.1096063,0.060197156,0.0,0.20919897,0.26181555,0.047822133,0.0759064,0.21080965,0.31199443,0.10517949,-0.10786362,-0.0,-0.0,0.12325392,0.13630383,0.0,0.06252571,0.18982196,0.081625216,-0.0,0.13155897,0.070787854,0.10850383,-0.07362346,0.2622577,0.14395088,0.15228756,0.050833013,0.09146396,0.37008083,0.06902532,-0.28189778,0.21543361,0.36810926,-0.02662182,0.15337518,-0.14096433,0.112255566,0.11170599,0.017358176,-0.036048494,0.07450331,0.106970936,-0.10435966,0.23302375
AAATGTTGAGCAAA-1-ventral,0.08922715,0.23408361,0.05783203,0.15423395,0.24867895,-1.1096299,0.108303815,0.05125524,0.14981139,0.115264595,0.0,0.00516312,0.35753617,0.21151093,0.0,-0.09227243,-0.1694519,-0.03992167,0.03251828,0.27599594,0.2643205,0.13196029,-0.07263774,0.025983285,0.036008835,0.053502027,0.010106572,0.05289682,-0.03260924,0.15191075,0.11234695,0.0,-0.011969408,0.1682778,0.0,0.11147425,-0.22595207,0.26212502,0.0,-0.11825178,0.097056285,0.106503226,-0.0,0.0054331375,0.22304644,0.049399413,0.121738866,0.20430309,-0.015120043,0.100898944
AAATGTTGAGCAAA-1-ventral-1,0.07072172,0.28783548,0.16529468,0.17909567,0.2288578,-1.109624,0.068833925,-0.036347114,0.033880565,0.02757359,0.027668072,-0.0314994,0.39147833,0.13988052,0.06654372,0.059849657,-0.06476039,-0.0,-0.036562618,0.21503091,0.34766892,0.0,-0.0343789,-0.022957988,0.043658804,0.07284248,0.022831501,0.05810668,-0.0,0.12299017,0.09443913,0.17657192,-0.05137179,0.079341635,0.3666144,0.09391358,-0.15680698,0.3191724,0.18811445,-0.08657072,0.003032403,0.081992716,-0.12150553,0.0,0.13365051,0.027833665,0.04034606,0.27211607,-0.09479205,0.12702791
AAATGTTGCCTGAA-1-dorsal,-0.0018515852,0.16006523,0.28508493,0.06484237,0.11674282,-1.1096404,0.025932778,-0.020207234,0.086006284,0.05097431,0.15569462,0.06758763,0.09692165,0.16099899,-0.027726492,0.055864193,-0.0,0.011489818,0.31059802,0.13704814,0.19994389,0.24199182,0.24798429,0.010822855,0.050679177,0.38886848,0.13295831,-0.0020654334,-0.05156941,0.11650982,0.12197425,0.13630393,-0.0077333055,0.0,0.18483739,0.024533637,-0.104704574,0.0,0.19717763,-0.06019414,0.06168589,0.06375618,-0.013796754,0.07447509,-0.045227345,0.0,0.06436313,0.12429021,0.0,-0.031208595
AAATGTTGGAGGTG-1-ventral,-0.07917067,0.0,0.21412852,0.0022539373,0.05894983,-1.1096247,-0.13063571,0.018443512,0.12696837,0.13675359,0.18140201,-0.2098942,0.20082551,0.16634879,0.103785135,0.10384635,-0.0,-0.035823718,0.0,-0.22153477,0.30624595,0.08048762,0.14276877,0.18276902,0.085832335,0.18921527,-0.0843617,0.1087198,0.17316067,0.028483247,0.07802687,0.0,0.014334388,-0.08811276,0.37301347,-0.0,-0.061891545,0.2468002,0.2704176,0.0,0.11587019,0.14398842,0.061616834,0.20332482,0.0,0.010927891,0.26893643,0.20382854,-0.05200631,0.19050631
AAATGTTGGCTAAC-1-dorsal,0.09220688,0.21233799,0.14208627,0.12696564,0.24143696,-1.1096036,0.0040853024,0.02220887,0.11547895,0.27250794,-0.017385285,0.22867373,0.34840024,0.09372869,0.044898305,0.055700857,-0.22652441,-0.24784724,0.16517398,0.20317309,0.22639352,0.12476665,0.08407923,0.10720306,-0.0,0.23238587,0.12835196,0.17032212,-0.0,0.3146924,0.115438476,0.14912136,-0.09322094,0.05855637,0.3403524,0.064019896,-0.14647047,0.1562455,0.14523311,-0.17379503,0.04200202,0.03739778,0.018953335,-0.07013434,0.1376131,-0.049257345,0.021138268,0.22830167,0.060994893,0.07505869
AAATTCGAAGCACT-1-ventral,0.01269598,0.1847254,0.02296144,0.0005329028,0.0,-1.1096367,-0.016063983,-0.0,0.01507342,0.06162349,0.1950036,0.007289077,0.07003674,0.29760793,0.12965864,0.079061344,-0.02316316,-0.15663406,0.07655229,0.007353434,0.30902594,0.22976416,0.19860496,0.0,0.028341766,0.18245307,-0.0027438006,0.0024421639,0.019281669,0.2497511,0.2721437,0.24070135,-0.1139013,0.1751016,0.24644671,0.07913898,-0.08479516,0.11438189,0.18091749,-0.099173196,0.0,0.0045488444,0.07016103,0.103844784,0.1401342,-0.0,0.24364063,0.17314057,-0.15739985,0.0
AAATTCGATCAGAC-1-ventral,0.15525562,0.13567197,0.06101909,0.11878664,0.19393185,-1.1096176,0.13907306,-0.055088006,0.18569762,0.19471534,-0.0,-0.023795102,0.17744002,0.2468222,0.09804499,0.03501523,-0.0848396,-0.06846382,-0.06163167,0.14951551,0.15366107,0.23979142,0.019996375,0.15328749,0.0,0.0,0.08810532,0.10931668,-0.17530541,0.29429656,-0.06050269,0.16690871,-0.0,0.12010651,0.31969675,0.056217026,-0.0,0.31970108,0.2974334,-0.00064267055,0.0,-0.016933482,0.03879404,0.1689561,0.0,-0.039995514,-0.0,0.10028167,-0.0,0.18452546
AAATTGACAAGTAG-1-dorsal,-0.121044524,0.18746473,0.14002591,0.14705199,0.24917337,-1.1096189,-0.046239562,-0.022000141,0.091163926,0.0969463,0.098807625,0.10660909,0.052039426,0.25559926,0.072872676,0.028843848,-0.19932847,-0.0,0.0,0.028480127,0.32140905,0.29150268,0.3366877,0.0092745535,0.12636247,0.31640953,0.059398457,0.07424246,-0.03744808,0.09286212,0.058452953,0.08946656,-0.07267959,0.0,0.1731451,0.12262734,-0.19231625,0.019907175,0.0,-0.036544338,0.16214536,0.06445339,-0.03865282,0.18392386,-0.024056701,0.041693293,0.1661569,0.30040464,-0.0156173445,-0.035868287
AAATTGACAAGTAG-1-dorsal-1,0.01927928,0.0,0.095001996,0.07554854,0.23056911,-1.1096206,-0.040168896,-0.03166252,0.14394301,0.065141045,0.099217854,0.14483924,-0.0046273735,0.19015314,0.13651742,-0.021975704,-0.20493574,-0.042879254,0.16748539,0.052203506,0.3508292,0.302087,0.2961851,0.020299207,0.16090687,0.22606513,0.05158775,0.07389816,-0.020784538,0.19415112,0.0574547,0.07594143,-0.08127922,0.2623917,0.14272271,0.058154218,-0.23012976,0.09728035,0.29348174,-0.038354266,0.07476787,0.004891505,-0.0,0.1849256,-0.055015422,0.14935094,0.14653711,0.0,-0.08126544,-0.0052100425
AAATTGACTATCGG-1-ventral,-0.06269502,0.0,0.17466067,0.30469233,0.23727703,-1.1096201,0.0,0.14944714,0.31510967,0.22340123,0.051432874,-0.0,0.25607625,0.21838163,0.13818185,-0.03546397,-0.14957389,-0.1843095,0.10424823,0.076434016,0.045201067,0.19275132,0.14905742,0.044135924,0.10266023,0.03280422,0.008125831,0.08413236,-0.10299226,0.2750086,-0.01454817,0.14378174,0.029800395,0.034053035,0.0,0.048077118,-0.21109231,0.34733483,0.17901485,0.044080023,0.030996623,-0.024277106,-0.030114388,0.26610994,0.0,0.024764929,0.0,0.0,-0.11504128,-0.028547183
AAATTGACTATCGG-1-ventral-1,-0.12805654,0.22665767,0.17862488,0.26227558,0.22200827,-1.1096122,0.06371247,0.0,0.19446851,0.2601249,0.051051587,0.047343493,0.2302356,0.25150484,0.17066671,0.018713748,-0.071681276,-0.19116634,-0.04714999,0.18789148,0.115348764,0.24900533,0.112203196,0.12524384,0.09920662,0.13783763,0.020451257,0.09004197,-0.08374102,0.26653132,0.033533767,0.11287285,-0.036838587,0.05332608,0.0866116,0.06599414,-0.28798026,0.34270948,0.14422286,0.10548481,0.029712226,-0.07958081,-0.07768651,0.18687342,0.32527977,-0.0009059244,0.07786443,0.14805037,-0.0,-0.027453834
AACAATACTTTGCT-1-dorsal,0.047161274,0.122051135,0.2381386,-0.044848524,0.16536053,-1.1096395,0.0,-0.03299793,0.0,0.0034717224,0.26216018,0.09037141,0.14602913,0.2803114,0.12549914,-0.039639477,-0.15392178,-0.08657595,0.18656483,0.12462931,0.0,0.22047015,0.124613166,0.06583745,0.03140758,0.289431,0.16031684,-0.013224748,0.01652745,0.0,0.055030454,0.13796921,-0.054769915,0.17532471,0.08416037,-0.00014689234,-0.15925767,0.18186325,0.3907565,-0.052565802,-0.020069547,0.11522368,-0.08107027,0.18019886,0.0,0.041208707,0.1409746,0.17507812,0.104263954,0.086403094
AACAATACTTTGCT-1-dorsal-1,0.046106156,0.013913007,0.0,-0.011063748,0.18380393,-1.1096437,0.033306528,-0.0,0.10134677,-0.025255086,0.27669007,0.01472681,0.1435662,0.17118223,0.05834719,-0.04551444,-0.15641285,-0.0,0.14386305,0.084285654,0.26233038,0.21840811,0.23283832,0.013064163,0.01621441,0.35710055,0.09783958,0.037258826,-0.008705788,0.16129074,0.13995646,0.14034623,-0.04825917,0.24742164,0.092706434,0.0051723546,-0.138068,0.21800217,0.26776445,0.025734803,0.024590423,0.06476919,-0.057823926,0.109630786,0.095117606,0.12657884,0.11993465,0.14513864,0.08116366,0.0
AACAATACTTTGCT-1-dorsal-2,-0.018215511,0.107307844,0.0,-0.033347078,0.18573783,-1.1096412,0.105285615,-0.022507112,0.06440283,0.015381906,0.15515769,0.0746333,0.19561388,0.2372426,0.06015015,0.025978304,-0.20655759,-0.12476809,0.21681827,0.11436213,0.13211712,0.24947664,0.1525963,0.06550322,0.049245935,0.2916428,0.10429763,0.05190181,0.00546051,0.1589659,0.09927361,0.15905245,-0.096571185,0.16703843,0.04643036,0.025835833,-0.13356243,0.1582561,0.35117415,-0.0,-0.054218043,0.08429713,-0.05013612,0.13447268,0.08273902,0.111867905,0.14385584,0.22916521,0.028539186,0.064808704
AACACGTGGTTGGT-1-ventral,0.009951029,0.103828356,0.21107346,0.13629434,0.13693243,-1.1096121,0.083946325,-0.15264757,0.043639682,0.33395508,0.0,-0.027218197,0.08152248,0.17790522,0.048383165,0.034424383,-0.06478542,-0.0,0.035176788,0.085271366,0.050565735,0.25892997,0.1566768,-0.030082798,0.17475525,0.18194766,0.08170308,0.09492939,-0.0,0.4323961,0.056936737,0.25147384,-0.1367579,0.15103246,0.3944846,0.19128527,-0.16547574,0.2280708,0.111409456,0.023332678,0.09396893,0.03470664,0.017977342,0.0,0.34525016,-0.11728764,-0.09412719,0.096516594,-0.08690576,0.15322506
AACAGAGAGGATTC-1-ventral,-0.021566616,0.23783179,0.2022637,0.25752833,0.06743385,-1.1095577,0.023452727,-0.016024312,0.22174843,0.31956714,0.0681057,0.41525978,0.2912201,0.1467148,0.0,0.1799836,-0.22216758,-0.15025331,-0.044379503,0.02617096,0.0,0.22900937,0.19807746,0.14749773,-0.1287806,0.18507181,0.19207628,-0.19280091,-0.20284799,0.30224007,0.053076547,0.15892719,-0.008735326,0.0061996947,0.45491743,0.15740785,-0.0,0.11449016,0.03386651,-0.1615178,0.012727405,0.2774247,0.02383993,0.0028739043,0.09741989,0.09359862,0.010456319,0.060671728,0.05186922,0.11045178
AACAGAGAGGATTC-1-ventral-1,-0.0,0.26773387,0.054877724,0.2469186,-0.0019115873,-0.0,-0.020502409,0.086990006,0.32318312,0.3305226,0.07366402,0.497075,0.37098393,-0.057482127,0.093126036,0.10468045,-0.17023684,-0.20383704,-0.07877748,-0.06864694,0.21328212,0.21865503,0.2491345,0.11411216,0.041139703,0.13771373,0.24430597,-0.0,-0.24458104,0.26779196,0.05642063,0.0685421,0.03797427,-0.03481812,0.44649917,0.108749956,-0.22699794,0.14405963,0.021207515,-0.091175705,0.008926061,0.38388583,0.00218908,-0.026586387,0.115681216,0.08792255,0.017431283,0.027264366,-0.08308444,0.13179828
AACAGCACACGCAT-1-dorsal,-0.06923755,0.21072137,0.2039995,0.05101382,0.011484773,-1.1096289,0.0,-0.0,0.03961637,0.19670795,0.17247516,-0.15905334,0.08446275,0.15296417,0.11952252,0.03973587,-0.14121413,-0.13001263,0.06570219,0.01416242,0.2674036,0.2575175,0.0,0.08847606,0.00445308,0.21107194,0.1591209,0.09999001,0.046106126,0.22882403,0.09285139,0.2480807,-0.06187585,0.20595995,0.15428586,-0.028100016,-0.06518689,0.15713342,0.28912476,-0.08681006,0.0,-0.09320478,0.024270508,0.0,0.22044832,0.029855512,0.31190926,0.042580046,-0.051963665,0.08413348
AACAGCACACGCAT-1-dorsal-1,-0.060821246,0.22049494,0.18881269,0.16807856,0.11450633,-0.0,0.060545634,-0.08283993,0.228463,0.17719117,0.11061961,-0.0,0.009918437,0.16275789,0.08389657,0.008654901,-0.14879254,-0.081853405,0.0,0.016786814,0.27323323,0.0,0.19643018,0.1857303,-0.05315112,0.20491084,0.108206086,0.1690135,-0.021362903,0.18910405,0.16938017,0.22486903,-0.07550485,0.21914974,0.11393809,0.06065628,-0.10809614,0.11058813,0.3008899,-0.05300019,0.08801292,-0.013623768,-0.06698245,0.11237053,0.14048481,0.057548195,0.35167748,0.008255294,-0.0667325,0.077624835
AACAGCACGGTGGA-1-dorsal,0.0,0.18586811,0.22506574,0.0647417,0.1113085,-1.1096437,0.120438375,0.0,0.17858255,0.07633499,0.07056509,-0.0058586732,0.17004514,0.13954772,0.054605328,-0.0,-0.18591775,0.087497205,0.053234994,0.18622017,0.23014764,0.18041654,0.12400326,-0.007824832,0.048695907,0.38941297,0.06612385,0.14873037,-0.0,0.0,-0.0025386943,0.20451239,-0.0,0.118450925,0.2572135,-0.04262335,-0.11684862,0.17958774,0.22497979,-0.0,0.11004541,0.09004156,0.07338339,0.16220333,0.033754893,0.012220318,0.10106678,0.082672544,-0.011153023,0.02305762
AACATTGATTCGCC-1-ventral,0.13462636,0.20215002,0.07418077,-0.0,0.092224,-1.1096221,0.05991043,-0.036798783,0.16083407,0.38088697,0.11274957,0.05556655,0.16069701,0.23873019,0.0398062,-0.036679376,-0.03380855,-0.12727943,-0.07204387,0.093966596,0.22943392,0.2406981,0.0,0.0,0.11350363,0.34783396,0.11103189,0.0,-0.088454686,0.24559729,0.013872129,0.0977796,-0.0,0.04054449,0.18223546,0.08572126,-0.14370137,0.0,0.16596054,-0.1723387,0.15919942,0.043670766,0.0113800755,0.0,0.28964356,-0.03667805,-0.04156073,0.13972749,-0.0,0.3034308
AACCAGTGGCGATT-1-ventral,0.031054692,0.089967415,0.27946985,-0.081966124,0.12015262,-1.1096295,0.047655527,-0.043443907,0.0,0.12162921,0.105251305,0.14478141,0.37485105,0.2260536,0.16112815,-0.092652574,-0.039097007,-0.08011322,0.008439911,0.071230106,0.33249253,0.13781542,0.19876947,0.13895053,0.1824925,0.28061792,0.14284141,0.038093675,0.048162024,0.35019463,0.08042664,0.0336924,-0.1274205,0.03289417,0.0,0.19027594,-0.22573936,-0.00090718275,0.11860104,-0.0011285809,0.13425735,0.057289623,-0.0,0.0152301965,0.12784861,-0.029265419,-0.019269388,0.0142467115,0.012545379,0.17376222
AACCAGTGGCGATT-1-ventral-1,0.014670194,0.09845508,0.21137021,0.011267059,0.094125755,-1.109625,0.04493651,0.08594606,0.16856784,0.064982325,0.0,0.24303877,0.31066975,0.21041667,0.09916066,0.043273274,-0.08942088,-0.13560939,0.041440245,0.110823736,0.26252508,0.10670851,0.19698152,0.16872983,0.23727253,0.0,0.1290827,0.08766683,-0.024584401,0.40155149,0.05879424,0.010450698,-0.14650995,0.06414626,0.24124911,0.15222737,-0.18083851,-0.040215258,0.18751228,-0.023971798,0.0,-0.088036396,-0.03166861,0.060160305,0.18871865,-0.0,-0.11111863,0.09253974,-0.0917348,0.18834075
AACCAGTGTTGCTT-1-ventral,0.10600038,0.13628627,0.3584472,0.047805544,0.077910446,-1.1096126,0.041120846,0.014311279,0.1614326,0.4317573,0.005286899,-0.02032459,0.20877793,0.16149648,0.05949608,-0.017618008,-0.14412072,-0.0,0.0,0.09453116,0.0,0.15733118,0.071049355,0.0,0.09353479,0.16378133,0.11343474,0.060083386,-0.16787146,0.23951003,-0.0117828455,0.077708565,0.004242394,0.0,0.30970764,0.025116522,-0.19250208,0.2863823,0.1685435,-0.03402518,0.07953207,-0.036778584,-0.0,0.20872812,0.18085635,-0.015648803,0.023714632,0.09021519,-0.0,0.30345762
AACCCAGAAGAATG-1-ventral,-0.20771722,-0.25016984,0.3515512,0.1686353,0.0,-1.1092123,-0.0,-0.31811324,0.47226596,0.6619995,-0.22905536,-0.0,-0.17452326,-0.0950814,-0.2270563,0.27303448,-0.34890845,0.30326986,-0.2533981,-0.03893965,0.17970228,0.87633264,0.09211762,0.21092084,-0.0,0.3621946,0.552765,0.5569202,0.19201742,0.1646999,0.36910218,-0.06497635,0.14317423,-0.048620373,0.27950338,0.55095863,-0.0,0.39802116,0.318133,-0.28746885,-0.0718742,-0.22038665,0.05383278,0.21084034,0.07002056,-0.17802776,0.11016871,-0.028645994,-0.24713743,0.18630093
AACCCAGAAGAATG-1-ventral-1,-0.124719284,-0.25405025,0.39566103,0.22775486,0.30876428,-1.1092008,-0.21319893,-0.37848872,0.49623922,0.775166,-0.13749693,-0.15574747,-0.22198996,-0.050565273,-0.25553778,0.0,-0.0,0.2083684,-0.21262448,-0.013912784,0.0,0.8806917,-0.0,0.18196414,-0.16209412,0.31688365,0.0,0.47100782,0.2285799,0.1343166,0.3241231,-0.20542239,0.19021353,0.0,0.0,0.4853448,-0.31489652,0.0,0.32108703,-0.29204226,-0.06710834,-0.22306219,-0.0041280854,0.0,0.14976956,-0.23081489,0.07446546,-0.0,-0.2067027,0.247629
AACCCAGATGTCTT-1-dorsal,0.0092679765,0.064821884,0.32728222,0.16154625,0.16324528,-1.1096058,-0.1293346,0.049389865,-0.0,0.05515311,-0.028841695,0.17504957,0.08567652,0.19418396,0.12510407,-0.05090601,-0.13477829,-0.09441184,-0.05514304,0.20869315,0.09176656,0.43676034,0.15809703,0.019787105,0.19928013,0.22335117,-0.01758761,0.1456932,-0.10774772,0.116780005,0.08921481,0.10657717,-0.21479289,0.27678773,0.14465566,0.05436589,-0.08436753,0.090424314,0.0,0.0,-0.02436499,0.23089623,-0.050441492,0.11854493,-0.0,0.24430685,0.035912268,0.23918718,-0.056294933,0.11990299
AACCGATGTACTCT-1-ventral,-0.11823979,0.087209985,0.2694929,0.17120656,0.30418068,-1.1095994,0.13486835,0.005419619,0.019191902,0.23559727,0.3257999,-0.115710504,0.20500746,0.22754222,0.0015815017,0.0,-0.022959908,-0.0,-0.031084618,-0.02185325,0.26484865,0.38041148,0.13046388,0.08660042,0.10146532,0.3232708,-0.039339133,0.052924037,-0.1352452,0.3486753,-0.03671077,0.22285426,-0.034037698,0.038088467,0.339046,0.01964423,-0.0,0.0,-0.010063053,-0.08982712,0.0061485628,0.06593272,0.009882988,0.17012896,0.2654352,-0.049180456,-0.07022626,0.13450287,-0.11070795,0.0985184
AACCGATGTTGTCT-1-ventral,0.0,0.073195115,0.23297866,0.20138566,0.0121517405,-0.0,0.31693804,-0.12410178,0.026461177,0.24508262,0.14496665,0.19761768,0.23894636,0.42727658,-0.057869688,-0.10298623,-0.1900881,-0.0782658,0.18710616,0.0,0.45423627,0.09824765,0.14620478,0.0,0.0,0.1395161,-0.0,-0.11923234,-0.18833181,0.2962771,-0.077967584,0.14439523,-0.1931435,0.07019914,0.4415382,-0.072169706,-0.10670735,0.19570233,0.256237,-0.011105075,-0.040597785,-0.18031347,-0.0,0.0,0.2027321,0.12660716,-0.011466609,0.010552159,-0.21114834,0.35755593
AACCGATGTTGTCT-1-ventral-1,0.37522388,0.118473366,0.19248408,0.27919465,0.08952399,-1.1095577,0.0,-0.0,0.13895725,0.24596576,0.05497436,0.039210867,0.0,0.32290944,-0.097701624,-0.0,-0.2258628,-0.0761556,0.0,0.15413585,0.34057584,0.058451526,0.013167213,0.06872824,-0.0025285615,0.1769907,-0.091873944,0.0013437744,-0.19356596,0.19110088,-0.026838053,0.19551802,-0.08851191,0.12337443,0.0,-0.13760772,-0.06943266,0.31224638,0.16104533,-0.13709407,0.0061021456,-0.15352601,-0.0037388671,0.3666024,0.16185406,0.07936346,0.06400219,0.032570407,-0.23673336,0.0
AACCGCCTTGCAGT-1-ventral,0.13788822,0.12758057,-0.051803328,0.16524859,0.21541376,-1.1096338,0.2495112,-0.072671905,0.14853773,0.23618968,0.0,-0.10328002,0.318992,0.2179692,0.00014490138,0.02533839,-0.0,-0.0053268676,-0.044561032,0.03467295,0.19805701,0.20932958,0.058835518,-0.0,0.10663743,0.23969576,0.0,-0.010092988,-0.06409665,0.22893883,-0.014136501,0.07291165,-0.02988928,0.07213174,0.24951005,0.09445602,-0.16463664,0.0,0.16691305,-0.06200572,0.1442569,0.07204627,0.08277741,0.23115216,0.2086303,-0.053099528,0.0,0.23477425,-0.0,0.06712096
AACCTTTGCCCGTT-1-dorsal,-0.008874735,0.07108506,0.2849595,0.042483825,0.019320756,-1.1096257,-0.091221005,-0.1413691,0.0,0.2337774,0.12870032,-0.09184745,0.10517695,0.060133677,0.2537735,-0.13965037,-0.12710665,-0.0793871,0.17815056,0.1657733,0.14826378,0.20726518,0.31282976,0.16611467,0.0,0.2330341,-0.0,0.06876576,0.0070054913,0.15907882,0.050877187,0.24713348,-0.07397546,0.15114121,0.23493126,0.16929875,-0.09086265,0.12979788,0.06232741,-0.06548683,0.11227474,-0.0075036953,-0.013268127,0.0,0.0,0.0017469295,0.20921808,0.07485476,0.0,-0.018204782
AACCTTTGGGAAGC-1-ventral,0.092022955,0.028550766,0.2393537,0.09767997,0.08338279,-0.0,0.14598432,0.12714256,0.04265398,0.17170317,0.17269722,0.09027371,0.0,0.19109991,0.11111889,0.09174284,0.021673856,-0.21630348,-0.057746243,-0.017526813,0.22721457,0.18138537,-0.0,0.13691932,0.1440501,0.11171411,0.12658672,0.115356885,-0.08584553,0.119542636,0.055284612,0.14259031,-0.024868848,-0.0,0.23017782,0.12784933,-0.15852068,0.29922554,0.20947722,-0.0,0.0,0.0,0.14014709,0.24499924,0.22899993,-0.0440175,-0.015051234,0.08820589,-0.113248035,0.09703794
AACCTTTGTATGCG-1-dorsal,0.051566936,-0.022353465,0.24693982,0.1892436,0.15559103,-1.1096168,0.12599444,-0.075410806,-0.0125467125,0.19155987,0.2358701,0.31610918,0.09806753,0.31622523,0.17694858,0.023334797,-0.19643778,-0.13671346,0.090388976,0.079183385,0.11288051,0.30628282,0.027761865,0.28961226,0.0,-0.0,0.026811097,0.18389292,-0.058068305,0.1012628,0.12071834,-0.027850006,-0.09889808,0.0,0.24480857,0.009925275,0.045537617,0.016852949,0.29020277,0.04179424,0.23761074,0.12828295,-0.17479175,0.17202808,2.3688708e-05,0.17566027,-0.011783574,0.09448785,-0.17161244,0.09030162
AACGCAACATGTCG-1-dorsal,-0.07990877,0.056816526,0.1223898,0.16993709,0.05802993,-0.0,0.19609058,0.15470201,0.0,0.10106849,0.0,0.10356751,0.18770348,0.120534636,-0.018274123,0.028257389,-0.206205,-0.015139117,0.09009471,0.11405699,0.3088911,0.0,0.16185948,0.0004153492,0.17305276,0.0,0.1667195,0.084769495,0.032717716,0.22603723,0.1162539,0.13515054,-0.079786845,0.17677823,0.2766474,0.18424661,-0.22185552,0.11600958,0.20439729,0.07402917,0.2583894,-0.076080434,-0.05037553,0.1279869,0.0,-0.05392174,0.020367302,0.07243859,-0.14489579,0.09892087
AACGCAACCCTACC-1-dorsal,0.12134109,0.002946001,0.25914282,0.13627893,0.131194,-0.0,0.0,0.09255875,0.056472052,0.040211797,0.184243,-0.005352961,0.25705424,0.23084745,0.014611885,0.0,-0.2263062,-3.139178e-05,0.09506064,0.009926434,0.0,0.16114588,0.05701698,-0.005576147,0.07793872,0.3451801,0.21041761,0.021072043,-0.046730574,0.14736077,-0.04291654,0.17819634,-0.14687128,0.107739024,0.24823299,0.14834858,-0.178675,0.16632886,0.0,-0.08903537,0.14929582,0.02501071,0.12221451,0.1526185,0.0,-0.052182212,0.06337824,0.0406016,0.0029311497,0.037484452
AACGCAACCTCAAG-1-dorsal,0.0954831,0.099734664,0.06653909,-0.11781176,0.0,-0.0,0.09647621,0.024733284,0.03274834,0.07146291,0.033473622,0.15375327,0.10943532,0.11878922,0.13870801,0.10157655,0.10358207,0.0,0.13056675,0.053301938,0.16248418,0.10255457,0.07903313,0.12159682,0.061241966,0.07416785,0.095252655,0.14466758,0.06474639,0.062500685,0.18021724,0.088355266,-0.03432241,0.13174617,0.11762211,0.074785106,0.032038752,0.073079675,0.0,0.03152196,0.10068198,0.15025489,0.09358398,0.0,0.15882085,-0.008885728,0.040318243,0.123961374,0.13306625,0.110990725
AACGCCCTAAACAG-1-dorsal,-0.10955924,0.059824266,0.2769766,0.1137448,0.0,-1.1096354,-0.09912306,-0.0046002865,0.12640639,0.151868,0.14065309,-0.08032276,0.14765558,0.2985882,0.044786673,0.010484789,-0.17606796,-0.09006203,0.0748083,-0.019881131,0.23190172,0.40046632,0.019609822,0.08768845,0.054063737,0.21040693,0.11831449,0.07529998,-0.057252847,0.24460457,0.20862216,0.28780004,-0.07330352,0.16323519,0.16445883,0.044311825,0.15338261,0.11100118,0.18478428,-0.048440102,0.14430016,-0.042942036,-0.00862625,-0.0044384934,0.00016839555,0.0,0.17506558,0.09382917,-0.0015625027,0.011169737
AACGCCCTAACTGC-1-dorsal,-0.034446653,0.22620206,0.13424863,0.067676336,0.12221917,-1.1096292,0.0,0.08166757,0.116260946,0.07232097,0.0,0.0012827499,0.25806344,0.15814887,0.059498474,-0.0,-0.19372411,-0.1695339,-0.04076163,0.03892349,0.10079961,0.23372224,0.078409,0.04513826,0.076436125,0.319596,0.27392086,0.0,-0.06893039,0.20789832,0.059344273,0.19103412,-0.1072632,0.095886275,0.32453892,0.0,-0.21738596,0.13081646,0.0,-0.0514049,0.047513608,0.14035568,-0.04397664,0.08362374,0.1399023,0.1327632,0.016110921,0.07155793,-0.021133158,0.093263075
AACGCCCTAACTGC-1-dorsal-1,0.056435354,0.18302001,0.15757854,0.09348526,0.1645967,-1.1096268,0.2577955,0.16860774,0.091357954,-0.018634466,0.20498733,0.05389631,0.29002574,0.23593421,0.020589411,-0.0,-0.2224907,-0.08797732,0.05095952,0.040703867,0.0,0.27099538,0.07955235,-0.0,0.08756216,0.0,0.19233987,0.04104557,-0.025056072,0.23598315,-0.007289781,0.1856635,-0.10761003,0.01405617,0.31325606,0.1553661,-0.0,0.0,0.2770836,-0.13013609,0.071614504,0.07045163,-0.0139774885,0.17141664,0.050252195,0.124273784,0.086435996,0.100001335,-0.009478,0.10181313
AACGGTTGAGGTCT-1-ventral,-0.12595674,0.18212724,0.11619668,0.07577365,-0.039261315,-1.1096253,0.02222734,-0.021984711,-0.022138424,0.03353576,0.20858514,-0.021003487,0.1439141,0.08388675,-0.00485109,0.023648491,-0.23020123,-0.091935866,0.079085104,-0.046168435,0.15863968,0.3439037,0.25695065,0.03082913,0.046304356,0.0,-0.063577496,0.12018661,-0.045666233,0.20057519,0.032366566,0.41107476,0.009429737,0.17265311,0.26561466,0.037660196,-0.05514377,0.12560743,0.23475194,0.04477433,0.11140781,0.069815174,0.075295255,0.24040833,0.23219977,0.28961045,0.1384896,0.1033002,-0.093843475,0.08927205
AACGGTTGCTTGTT-1-ventral,0.13658099,0.008394073,0.21837758,0.09445458,0.09412375,-1.109605,-0.0019464891,-0.085770495,-0.01872023,0.16565625,0.20322742,0.12714465,0.26537573,0.3201852,0.07421214,0.0,0.0,-0.0,0.0011684373,0.06060516,0.39588594,0.07029529,0.101742946,0.056038376,-0.12630953,0.22047411,0.0,0.11527752,-0.09183341,0.3577222,0.106718995,0.23599559,-0.0,0.042401087,0.2117436,0.2065899,-0.0,0.13446636,0.26397234,-0.15048254,0.054570947,-0.1730242,-0.010880431,-0.082485415,0.20024225,0.15077084,0.0,0.17012757,-0.08707477,0.10997756
AACGGTTGCTTGTT-1-ventral-1,0.2000283,0.09206432,0.16118398,-0.00032762688,0.044757582,-1.1096088,0.0268578,-0.12167964,-0.047966577,0.035114687,0.15326954,0.0,0.21708827,0.0,0.10878651,0.20901802,-0.050405994,-0.20796439,0.024308186,0.018172836,0.35608935,0.027193507,0.10214639,-0.028377375,-0.031996835,0.24916872,0.17613041,0.16432609,-0.0723317,0.30633372,0.12485761,0.24858572,0.026337696,-0.0,0.0,0.2726988,-0.051849023,0.11772263,0.0,-0.20832208,0.112477295,-0.14599873,0.048559345,-0.06493986,0.18733826,0.105416216,0.09183542,0.0,-0.032162137,-0.010289153
AACGGTTGTATGGC-1-dorsal,0.13716336,0.01767464,0.07480693,0.094344266,0.1194404,-0.0,-0.10051582,-0.14425933,0.18914926,0.14649922,0.053954177,0.09035709,0.06795272,0.21442229,-0.09523141,0.1272796,-0.18627664,-0.099741556,0.15650673,0.23928542,0.19553265,0.122104526,0.07412257,0.09343394,-0.11786535,0.0,-0.028777521,0.13871677,0.2624703,0.0,0.10855374,0.22276466,-0.031251974,0.044331986,0.0,0.1381844,-0.13992125,0.13638097,0.30926812,-0.14833206,0.093281336,0.00023007394,-0.053753655,0.0,0.13860343,-0.053955585,0.15828381,0.06263753,0.0055103586,0.28189495
AACGGTTGTATGGC-1-dorsal-1,0.058012705,-0.01790305,0.014403272,0.21114533,0.0,-1.1096092,-0.07620593,-0.20280474,0.0,0.10262435,0.059794333,0.038247377,0.0,0.0,-0.05914132,0.08815867,-0.1843232,-0.12315049,0.13881199,0.2868746,0.13364732,0.20330527,0.0,0.002424117,0.009352731,0.4004897,0.03887234,0.09697653,0.26550558,0.2481902,0.0,0.26407292,-0.044865876,-0.008547439,0.31613833,0.22234482,-0.15784656,0.0965377,0.18618426,-0.12580395,0.0,0.066295646,-0.04117436,0.022053959,-0.0072474615,-0.05934623,0.19266494,0.08030723,0.006795733,0.24688536
AACGTCGAGGTGTT-1-ventral,0.033316713,0.12792575,0.10852823,-0.008362069,0.09198389,-1.1096393,0.054413922,-0.14751567,0.0,-0.004573266,0.0,-0.022238692,0.2424121,0.062000394,0.22796205,-0.032459766,-0.14516115,-0.11255993,0.0,0.0283133,0.10269433,0.0,0.2893666,0.16885781,0.16887373,0.2439721,0.11817695,0.109228365,-0.09473854,0.021769898,0.0,0.18854553,-0.15126997,0.19567485,0.20707951,0.11017588,-0.051372252,0.029026743,0.14022096,-0.0078543695,0.1508265,0.047945626,0.08614865,0.18028589,0.22889012,0.27921334,-0.008358426,0.14136714,-0.102667086,0.12716053
AACGTCGATCCCAC-1-ventral,0.16953698,0.22662054,0.100483075,0.052642502,0.20451456,-1.109623,-0.03857414,-0.078406736,0.14214344,0.18779673,0.1633019,0.008958148,0.29946434,0.0,0.08789051,0.12578274,-0.21111152,-0.07005672,0.21276425,0.004431639,0.1577334,0.23488818,0.14972387,0.062095094,0.0,0.0,0.0017166429,-0.089732476,-0.044425596,0.2553974,0.0,0.15188831,0.045898046,0.20484054,0.17486571,0.13406262,-0.20922172,0.10983187,0.0,-0.101927854,0.27324066,-0.050576,0.058141842,-0.05700774,0.0,0.03944262,0.06466895,0.264358,-0.13155904,-0.05180419
AACGTGTGGAGCTT-1-dorsal,-0.024525326,0.10879245,0.1657307,0.046234496,0.14279675,-1.10965,0.16600288,-0.06533544,0.08662862,0.02269207,0.0394799,0.14548598,0.27078637,0.2198081,0.004870213,0.026844393,-0.037485827,-0.06553227,0.045740858,0.089476,0.43087602,0.13712177,0.04131012,0.14793225,0.10090504,0.10932186,0.09879729,0.095986515,0.07427095,0.20061031,0.033368744,0.1390559,-0.22688946,0.16582815,0.14273578,0.020747269,-0.0773214,0.038175136,0.2553143,-0.03369795,0.22108172,0.16779183,-0.019637546,0.082172684,0.0457229,0.021987773,0.015799351,0.20510796,0.020249719,0.14470871
AACGTGTGGAGCTT-1-dorsal-1,-0.027469927,0.044733215,0.27646124,0.103975534,0.0,-0.0,0.07447443,-0.085382,0.07006226,0.0,0.05509589,0.18345271,0.24480997,0.20165938,0.08939896,0.018466389,-0.090024605,-0.011322035,0.10460056,0.049277134,0.37580204,0.1534339,0.0,0.14083913,0.14473397,0.12560552,0.0,0.09584127,0.029300498,0.12315594,0.036169708,0.13747367,-0.0,0.25518373,0.11896134,0.008203462,-0.06983784,0.05073772,0.0,-0.0,0.18451272,0.095385864,0.008465557,0.10175566,0.10897372,-0.023177002,-0.09939082,0.15109293,-0.01676553,0.10509849
AACGTTCTCAGAGG-1-ventral,-0.0073007084,-0.051074494,0.3768451,-0.042661496,0.0,-1.1095564,0.18135415,0.003515867,-0.0,0.4108252,0.17748274,-0.048734084,0.1278091,0.29160887,0.1161156,0.04254729,-0.27197745,-0.21080244,0.14563273,0.13715366,0.0,0.23414825,0.011048723,-0.0155267455,0.03317523,0.28152314,0.093264475,0.1239024,-0.104893714,0.417254,0.057983138,0.0,-0.04878634,0.008146701,0.0,0.026417706,-0.14771628,0.0,0.20244291,-0.1567128,-0.0,-0.20883958,-0.0728435,0.1324167,0.4686328,-0.06881701,0.22769032,0.28874916,0.009897021,0.2167768
AACGTTCTTCAAGC-1-ventral,0.10374863,0.095311664,0.102418765,0.0123877665,0.051653896,-1.1096013,0.049265057,-0.1149328,0.072659515,0.15705715,-0.0023178924,0.057341177,0.11676715,0.24593565,0.022118635,-0.0055659483,-0.1788403,-0.0,0.23095082,0.005165703,0.15607576,0.077673994,0.2411802,0.08558094,-0.22717158,0.3294391,-0.036708053,0.25780585,0.05973363,0.19761701,0.29123276,0.4355093,-0.040735804,0.08771943,0.15419707,-0.15983191,-0.031622253,0.2658319,0.33418015,-0.032949515,0.108260036,-0.036469698,0.036784403,0.18398176,0.039660912,-0.0042353077,0.09501658,0.27352774,-0.14095937,0.2313423
AACGTTCTTCAAGC-1-ventral-1,0.12022751,0.16145568,0.21633913,0.069848195,0.06784194,-1.1096029,-0.008198487,-0.031943984,0.08841986,0.12544477,-0.030740634,0.02935081,0.18251917,0.18309194,0.0,0.056892436,-0.15707123,-0.18867116,0.25772414,0.0,0.095815405,0.06750526,0.25656822,0.0670874,-0.2190227,0.3217782,-0.0,0.26076174,0.050136693,0.0,0.298179,0.0,-0.108637944,0.086393595,0.105060495,-0.099741556,-0.042514604,0.25117594,0.2349653,-0.064532496,0.109196775,-0.030913752,0.068927824,0.2663788,0.09729106,-0.008362929,0.08617085,0.26877728,-0.11832754,0.16074592
AACTACCTCCAATG-1-ventral,-0.107858054,0.2922813,0.08305307,0.2327733,0.036763024,-1.1096117,0.120095715,0.0,0.012950807,0.13113667,-0.0019890734,0.18844996,0.23118365,0.23255195,0.1702561,0.030907279,-0.13401906,-0.14824378,0.13036816,0.07921741,0.0,0.124658056,0.19759075,0.09667749,0.13164182,0.38998157,0.118513174,0.11724774,-0.023327868,0.0,-0.023023553,0.023934586,-0.09233283,0.010327578,0.2129535,0.10758902,-0.26213932,0.0,0.27660763,-0.029274559,0.23982291,-0.08698146,0.0,0.17442611,0.08074812,-0.0506462,0.027727274,0.20204458,-0.13781323,0.05334866
AACTACCTCCAATG-1-ventral-1,-0.13080207,0.0,0.15635037,0.08785217,0.016163923,-1.1096013,0.14637066,0.095243424,0.011298334,0.043887995,-0.0,0.28307134,0.30121928,0.05430757,0.27593303,0.034488276,-0.11295187,-0.16117805,0.22241744,0.15874447,0.31886154,0.261551,0.0,0.112586915,0.13678156,0.28474987,0.05626173,0.15759195,0.08558893,0.09453578,-0.0,0.045084838,-0.078662306,-0.00035027665,0.20434386,0.0,-0.0,0.087133855,0.17748903,0.017058685,0.33186397,-0.10602117,0.0031828634,0.0,0.12656428,-0.033383437,-0.0038974816,0.12169451,-0.040993296,0.0
AACTCACTACCACA-1-dorsal,-0.09082523,0.17731604,0.22816889,0.007673788,0.13972,-1.1096041,0.04833181,-0.03167146,0.05027531,-0.06065369,0.07250991,-0.04532066,0.11512372,0.14949468,-0.046524737,-0.022618573,-0.0,-0.004817446,0.13046764,0.013889795,0.0,0.106289886,0.19298957,0.1987746,0.102718696,0.16616948,-0.005666349,0.4182314,-0.03473004,0.08760991,0.07181009,0.1343125,-0.0724311,0.1407734,0.0,0.0407152,-0.19515847,0.033549637,0.44002837,-0.1878461,0.16808414,0.08299318,-0.028260881,0.26732552,0.13900995,0.22464311,-0.054897204,0.0,0.025055286,0.0
AACTCACTAGTACC-1-ventral,0.011981966,0.21486807,0.0,-0.10987779,0.16486427,-1.1096102,-0.044437185,-0.0,0.20234364,0.106343485,0.02883316,0.09356734,0.16982742,0.26059216,0.08488149,0.0,-0.080525815,-0.14111036,0.0022927632,0.0,0.36047903,0.22329229,0.22448947,0.07740369,0.1138159,0.21068223,-0.17413212,0.04926967,-0.0802311,0.011589014,0.028391797,0.24263658,-0.048536196,0.16999355,0.0,0.020244272,-0.16815127,0.24424253,0.13111661,-0.15976144,0.029673507,-0.039695505,0.08847123,0.26757407,0.090439856,0.28964984,0.117847145,0.17735247,-0.0113499835,0.0006461889
AACTCGGACTAAGC-1-ventral,0.18003888,0.075908415,0.25318858,0.12115873,0.07013528,-1.1095976,0.010389877,-0.1962236,0.19246623,0.4253641,0.0062610875,0.008680043,0.2843675,0.2301781,-0.05795393,-0.10935493,-0.13562316,-0.13724288,0.12665628,0.025014283,0.17506322,0.21228682,0.104960755,-0.0075063445,0.13244906,0.0,0.05732899,0.054010257,-0.10124882,0.37911043,0.031412568,0.12446135,-0.0,0.027356815,0.2279042,0.17132507,-0.19130887,0.19571656,0.27155444,-0.096736886,0.08983566,0.085175835,0.057193365,0.0,0.17760722,-0.084848806,0.09396171,0.086895,-0.08215236,0.28938508
AACTCGGACTACTT-1-dorsal,-0.052957073,0.061615933,0.21935482,0.017626708,0.15792409,-0.0,0.12283269,-0.03890051,0.046792287,0.15397957,0.119721934,0.13892797,0.12137373,0.2562572,0.09991996,0.10816147,-0.08428653,-0.13269901,0.057317454,0.064262666,0.3447194,0.38611543,0.08743542,0.2945817,0.024429392,0.30804947,0.08931572,0.08754776,-0.08034753,0.2528701,0.0,0.2025256,-0.13616192,0.0036194674,0.0,0.15247233,-0.15495062,0.0563138,0.21449527,-0.13516632,0.2006764,0.027450759,0.019434012,0.16938995,0.13777305,-0.08433137,0.0,0.043650478,0.010387592,-0.013367667
AACTCGGACTACTT-1-dorsal-1,-0.045520466,0.046565685,0.17749722,0.06952121,0.0989815,-1.1096414,0.08951318,-0.026176175,-0.060066253,0.07285731,0.15333985,0.16728441,0.091101274,0.26533836,0.13801107,0.10754673,-0.059177283,-0.09339856,0.03975728,0.19281523,0.2938974,0.2727762,0.051821075,0.0,0.15073204,0.33008632,0.0611395,0.06022372,-0.11024224,0.21630299,0.039215256,0.17281848,-0.06352114,0.017388873,0.0853848,0.12820844,-0.055271126,0.061926506,0.0,-0.06802129,0.24113253,-0.017821591,-0.0,0.18568279,0.22593549,-0.107352406,0.0,0.04028264,-0.0081739165,0.095011726
AACTCGGACTTTAC-1-dorsal,0.062762454,0.14533709,0.0,0.035506546,0.011514865,-1.1096482,-0.026136506,-0.033132702,0.18023075,0.103750266,0.16460817,-0.0460734,0.15388407,0.15919363,0.105249174,0.0,-0.0,-0.068407595,0.13306457,0.066455275,0.1127549,0.2074596,0.30337706,0.08425077,0.17704366,0.11709442,0.11412369,-0.039474636,0.05372137,0.2073296,0.029774575,0.32459843,-0.0012223589,0.11417062,0.20864838,0.02428901,-0.15173078,0.058771037,0.051752895,-0.040523876,0.0,0.0,-0.09810905,0.0,0.046825614,0.117603615,0.17227772,0.05917042,0.19439566,0.08877647
AACTCGGACTTTAC-1-dorsal-1,-0.056668192,0.08500763,0.2437573,0.04143668,-0.034830704,-1.1096462,-0.034975678,-0.032335322,0.18444134,0.033421636,0.15378185,-0.0401785,0.2602334,0.032038726,0.0,0.11324996,-0.104554564,-0.10715816,0.146785,0.050759286,0.0,0.0,0.32510978,0.05826082,0.24184911,0.11490576,0.05517431,-0.0043337215,0.068217576,0.15984924,0.06867601,0.35313916,0.00010111266,0.16803609,0.2208781,0.066775076,-0.018408962,0.0,0.06623483,-0.074812114,-0.0,-0.020976333,-0.0,0.24245541,0.08538876,0.08646199,0.16621496,0.0937592,0.14136474,0.06439461
AACTCGGAGAACCT-1-dorsal,0.06599587,0.26865855,0.16933562,0.061988976,0.072758466,-1.1096582,0.076345675,0.02034129,0.03328296,0.10007571,0.085059784,-0.0,0.14024411,0.17451295,0.07617699,0.039637886,-0.053786438,-0.16543482,0.13766412,0.056979876,0.18908782,0.20689735,0.17424667,0.1861721,0.16749053,0.15791205,0.15212885,0.07850242,-0.01583477,0.1791076,0.20860083,0.0,0.072727196,0.17461768,0.0,0.17002004,-0.07186479,0.12730703,0.14189118,-0.0947692,0.0021180138,0.027636345,0.06574709,0.13687919,-0.040228102,-0.062201094,0.19999209,0.05046146,-0.016505256,0.0
AACTCTTGGTGTAC-1-ventral,-0.06534934,0.14357133,0.13235036,0.2636678,0.21354002,-1.1096293,0.0,-0.0049002967,0.0,0.10652324,0.0684713,-0.0378116,0.16179854,0.135433,0.15972288,0.028183926,-0.13237736,-0.11746719,0.09024525,0.0,0.199082,0.24054061,0.04200726,0.04229084,0.0,0.22522934,0.03407981,0.05662881,-0.08535928,0.31581876,0.048354313,0.08518314,0.10079452,0.06422732,0.24286093,0.07535978,-0.27370766,0.35475674,0.1796734,-0.0,-0.036585066,-0.019916695,-0.037136942,0.12665267,0.16785805,0.0002696448,0.07817353,0.17692776,0.038575176,0.029139023
AACTCTTGTCTACT-1-ventral,0.12782225,-0.0039861603,0.32221797,0.0,0.16830693,-1.1096104,0.04912008,-0.019588338,-0.015352104,0.30818462,0.08526954,0.030543441,0.21198085,0.2158047,0.10739329,0.14990798,-0.0,-0.14584972,0.027007382,0.16694587,0.09702427,0.20348516,0.033608545,0.048698984,0.005325154,0.36530715,-0.041425295,0.0,-0.0,0.0,0.0019812337,0.18911068,-0.14386125,0.023525173,0.31099397,0.17926262,-0.1480504,0.15442696,0.13024336,0.06288935,-0.052569844,-0.043566495,0.075632766,0.12626718,0.14609896,0.08169789,0.08239157,0.28454953,0.0052300924,0.0055520404
AACTCTTGTGCGTA-1-dorsal,-0.15051459,0.110022105,0.16981353,0.083746776,0.14396349,-1.1096368,0.0,-0.03542251,0.08527328,0.0,0.0970179,0.025562497,0.08338441,0.31003094,0.0,0.042509172,-0.21524973,-0.13847697,0.2330752,0.05177003,0.14909524,0.20098768,0.19957164,0.109351255,0.1143885,0.2648632,-0.029389065,0.09301464,-0.03926489,0.052138988,0.21044107,0.13346057,-0.066704154,0.21164842,0.22749992,0.072710186,-0.09240336,0.13241787,0.0,-0.040341552,0.14798433,0.00686261,0.055844106,0.0,0.055210963,0.21523064,0.00638711,0.21068849,-0.013729997,0.102464594
AACTCTTGTTCGTT-1-dorsal,0.09007663,0.15959574,0.48795405,0.022100152,0.090160556,-0.0,-0.10348367,-0.03654924,-0.11666093,-0.021883052,0.2156558,0.15213962,0.20207006,0.08346457,0.18160424,0.23777515,-0.16531025,-0.07665833,-0.058322024,0.08978231,0.016243037,0.22841161,0.11679895,0.26566535,0.27352205,0.09284293,0.08934517,0.06937931,-0.10758268,0.19340728,0.04683598,0.03256397,-0.0,0.023996927,0.16481818,0.24899861,-0.0,0.023931349,0.4312457,-0.13176958,0.15392664,0.0,-0.07733047,0.13674846,0.28880018,-0.077337824,-0.0134016415,0.15473753,-0.085572936,0.22765584
AACTGTCTCCACCT-1-dorsal,0.04168624,0.3323589,0.20309453,0.0,0.16676141,-0.0,0.093924455,-0.11050662,0.050358012,0.034629654,0.19788763,-0.048122145,0.18368287,0.14269313,0.064597666,-0.040619574,-0.0,-0.08389414,0.10124485,-0.05927477,0.12442906,0.24803583,0.2782122,0.12382994,0.0,0.29225117,0.02827715,-0.004778372,-0.08428057,0.13578151,0.24477182,0.12108011,-0.091146365,0.14986525,0.2063309,0.11701088,-0.0,0.13102533,0.15594718,0.04312373,0.07133974,0.051213086,0.26314655,0.14151497,0.08962577,0.082101315,0.1060467,0.08170546,-0.110340916,0.053782873
AACTGTCTGAATAG-1-dorsal,0.039412573,0.17765619,0.26405916,0.05347561,0.076443456,-0.0,-0.053664714,-0.07199851,0.056738336,0.20573017,0.14318427,0.08675533,0.20007919,0.0,-0.03527635,-0.046587855,-0.08311782,-0.06618692,0.124317266,0.05970788,0.3028189,0.3428452,0.17880233,0.10948542,0.17162862,0.23161058,0.09624709,0.09417766,0.020279396,0.20911567,0.10785742,0.10030503,-0.07069111,0.1930977,0.16169618,0.13164125,-0.06582016,0.145754,0.08519308,-0.08218368,0.0,-0.038531225,0.0,0.023712318,-0.046807464,-0.03595478,0.15740252,0.086351156,-0.051696368,-0.07716563
AACTGTCTTTTCAC-1-ventral,0.059582468,0.11556249,0.009394496,-0.010885862,0.0,-1.1095927,0.09324321,-0.0,0.32371387,0.35401988,0.050264567,-0.0,0.18549038,0.42053387,-0.044819847,0.17719838,-0.195158,-0.019798014,-0.0033834246,-0.0,0.20830671,0.40794933,0.012972563,0.060108233,0.026549205,0.4197613,0.097347796,-0.005277925,-0.062180232,0.4137546,0.12059651,0.2220306,0.13076673,0.051611662,-0.020563934,0.20670658,-0.09760764,0.090605594,0.26195562,-0.108204685,0.21640752,-0.054452356,-0.05059183,-0.061489876,-0.019423896,0.0,0.0014211817,0.15675391,-0.04290084,0.06666576
AACTTGCTTTCTAC-1-ventral,0.0,0.057650063,0.22333926,0.13665797,0.23858051,-1.1095762,-0.035051174,-0.0,0.1373998,0.2144859,0.01750505,0.06495279,0.1662017,0.054814484,-0.15473148,0.02219052,-0.12834378,-0.212054,0.24289013,0.16190206,0.3485685,0.0,0.09685028,0.14666635,-0.15670142,0.36823806,-0.013066796,0.20226267,0.13684815,0.41378218,-0.07795606,0.027209017,-0.17726038,0.024242945,0.1557934,0.062352065,-0.26732096,0.30012116,0.21088326,-0.0014656783,0.031876966,-0.017176537,-0.16228174,0.30529585,0.0,-0.11260252,0.19659077,0.28113672,0.05219483,0.16909285
AACTTGCTTTCTAC-1-ventral-1,0.124555685,0.030419365,0.33781788,0.0,0.16056332,-1.1095686,0.06275011,-0.011080835,0.07471819,0.36210695,-0.001771715,-0.02286421,0.23859923,0.13007152,-0.15970536,0.052615937,-0.15784702,-0.19353603,0.23629762,0.20221557,0.21438318,0.13323121,0.11140637,0.15603279,-0.051959556,0.40800205,-0.018278295,0.25581253,0.12972529,0.47443342,-0.17557403,-0.03392273,-0.15316752,0.030538917,0.0,0.12724924,-0.24699868,0.10456168,0.0,-0.028264392,-0.042814415,-0.086546674,-0.1664685,0.1695584,0.0,-0.0,0.19500542,0.0,0.0,0.2543272
AAGAACGAAAGGCG-1-dorsal,-0.0064465078,0.12561674,0.28287464,0.113620974,0.041190382,-1.109626,0.07396366,-0.17009106,0.15622097,0.0,0.09234744,-0.10460278,0.24871089,0.14962246,0.2365925,0.07125151,-0.22559908,-0.08758267,0.10205168,-0.1317113,0.0,0.17919289,0.14388262,0.24566476,0.103503056,0.17344515,0.311144,-0.0825584,-0.04400876,0.15292853,0.315263,0.21053798,-0.13124447,0.24174088,0.15506482,0.14915863,0.02786266,0.0,0.15783387,0.077025294,0.0045940033,-0.026055112,0.07678878,-0.01322349,0.08028195,0.13797206,0.07523054,0.14239125,-0.13986562,0.07528344
AAGAAGACCTGGTA-1-dorsal,-0.07009387,0.112552606,0.1837751,0.15326795,0.24348937,-1.1096178,0.08535347,-0.06432904,0.13816072,0.26868185,0.15138783,0.077763185,0.14949872,0.2402387,0.12244093,0.061909873,-0.16404782,-0.1726697,-0.0028731427,0.2170853,0.14157395,0.0,0.06125048,0.043332066,0.111417145,0.15977529,-0.0058750315,0.16438664,-0.04286197,0.25304648,-0.13122533,0.054536697,-0.10421515,0.1776285,0.30894554,0.20586126,-0.2206339,0.16442826,0.10563484,-0.053333975,0.09970159,-0.03896369,-0.049608417,0.024522338,0.2998053,-0.027009383,0.15938197,0.20538525,0.009649512,0.09401913
AAGAAGACCTGGTA-1-dorsal-1,-0.06166869,0.033182256,0.23457451,0.20173766,0.0,-1.1096164,0.14937526,-0.043239463,0.16073543,0.22531238,0.0,0.048291422,0.0,0.09937737,0.07576764,0.11273755,-0.17909852,-0.17813061,-0.059854127,0.17812158,0.09243536,0.30055812,0.07164104,-0.045633253,0.121786386,0.07634302,0.040478062,0.119959235,-0.0827535,0.2163434,-0.10300644,0.10023014,-0.08151545,0.14255382,0.40102252,0.12972715,-0.19943881,0.1923059,0.09271714,-0.10917889,0.10774383,0.058974177,-0.037246548,0.17570777,0.21446759,-0.0002684196,0.075150564,0.2612714,0.061563786,0.121670805
AAGAAGACCTGGTA-1-dorsal-2,-0.069592796,0.16617832,0.22616392,0.2070655,0.29037338,-1.1095995,0.16404209,-0.096083485,0.18046714,0.14092301,0.19963858,-0.01575543,0.22728841,0.23228733,0.08893939,0.14844358,-0.12225953,-0.19635029,-0.076167785,0.22846095,0.17726283,0.24627666,-0.026155313,0.086963944,0.056929223,0.1023988,0.034061905,0.016459398,-0.07186426,0.30923426,-0.09679404,0.084428765,-0.0816134,0.11594971,0.44878381,0.2335317,-0.27048668,0.20620844,0.11855365,-0.064219505,0.09855723,-0.0,-0.08842654,0.17720406,0.21080396,-0.06875363,0.053896885,0.29555196,0.038586758,-0.009496676
AAGAAGACTTCATC-1-ventral,0.007061131,0.08995352,0.281135,0.21261945,0.04628467,-1.1096385,0.030198293,-0.05502509,0.0016201785,0.09007345,0.118323974,-0.13087697,0.33645976,0.10730906,0.14162828,0.02787865,-0.0131968,-0.019573968,-0.0,0.15516162,0.026213817,0.38111714,0.34137914,0.050281204,0.15028799,0.13024029,0.0,-0.0043712724,0.09941772,0.0,0.23486553,0.044565856,-0.11795309,0.12809327,0.23599873,-0.021910138,-0.06432044,0.0,0.0,0.033173397,-0.06942842,0.09879739,0.0712129,0.037628092,0.030246284,0.06663616,0.15468399,0.068837255,-0.01631313,0.25071782
AAGAATCTAAGCCT-1-dorsal,0.09398093,0.17492822,0.0,0.091493905,0.12512098,-1.1096331,0.08346876,-0.0,0.22022602,0.019442473,0.2486447,-0.02767457,0.18136327,0.055619128,0.13818716,-0.07823772,-0.08941115,-0.07140166,0.037717856,0.13507389,0.018259602,0.31544942,0.08009401,0.0,0.033303794,0.08043026,0.13714758,-0.0007017454,0.13738851,0.33989245,0.13771424,0.16901235,-0.16630332,0.2414765,0.23443492,0.041396406,-0.21926881,0.13029766,0.12771116,0.066438936,0.0,0.0113305785,0.08515714,0.0016156585,-0.030892361,0.22364503,0.12887093,-0.060966283,0.0,0.024091337
AAGAATCTAAGCCT-1-dorsal-1,-0.00052730244,0.14701185,0.2706981,0.08703182,0.022149319,-1.1096274,0.11260164,-0.16981338,0.13824865,0.121622324,0.16904597,0.078651264,0.28297544,-0.041290127,0.13232556,-0.053240594,-0.099494465,0.08389912,-0.017436014,0.17093131,0.1397131,0.2680864,0.16230689,0.18279102,0.05793506,0.0,0.16133839,0.055884123,0.0,0.3346659,0.0,0.0,-0.17818949,0.21619657,0.20697913,0.05454798,-0.22719602,0.04007378,0.08045941,0.12679097,-0.0017072757,0.038734853,0.07001504,-0.06283032,-0.091826856,0.14051521,0.20818442,-0.09873258,0.0413971,0.07697652
AAGAATCTATCAGC-1-dorsal,-0.0050796405,0.12654682,0.12499485,0.0,0.07663545,-1.1096275,0.21212268,0.0,0.06824829,0.16463648,0.1562682,0.08692459,0.28092697,0.23987456,-0.026690299,-0.01510044,-0.31275368,-0.08109623,0.0,-0.034360226,0.0,0.1547215,0.13562538,0.12572087,0.20136273,0.37196103,0.115189,0.10139155,0.011041488,0.03976239,0.020819904,0.18276867,-0.009400778,0.0,0.18786006,0.15575969,-0.17234783,0.120978765,0.27789018,0.0,0.0,0.04077957,-0.103007294,0.19001567,0.0,0.016282732,0.10724249,0.025405098,-0.11912512,0.12498992
AAGACAGACTGGAT-1-ventral,0.02728632,-0.058699716,-0.004250805,-0.07150432,0.071305126,-0.0,0.048590954,-0.012743805,0.04981103,0.22369137,0.18049946,-0.16367158,0.40024978,0.06716664,0.0,-0.088804305,-0.19485164,-0.22982122,0.11359262,0.15973844,0.13647361,0.15979059,0.24403949,0.13018098,0.20849492,0.20220035,0.029565511,0.06052177,0.0022425503,0.3064477,0.22812574,0.25933668,0.0,0.19992761,0.0,0.027855776,-0.095756724,0.107816555,0.093165435,-0.15136574,0.044235766,-0.051902205,-0.0,0.16717693,0.20345812,0.2733644,0.13380057,0.19708195,0.047364984,-0.012028085
AAGAGATGAACGAA-1-ventral,0.03993162,0.068910465,0.2682605,0.18232462,0.04682054,-1.1096298,0.19801395,0.03450771,0.080875,0.039281998,0.0,0.12159459,0.2600717,0.25525257,0.15997685,-0.06725597,-0.17112984,0.0015048435,0.09406226,0.14998373,0.09609891,0.20073329,0.21277331,0.01463985,0.2116206,0.2398188,0.24606282,0.09293323,-0.11635046,0.21523272,0.09573676,0.2133666,-0.21223539,0.14843057,0.2741096,0.1373485,-0.20657673,0.0,0.15629199,-0.042578183,0.17705487,0.0,0.019303173,0.035337683,0.09697193,0.0,-0.0,0.09158125,-0.1088206,-0.04237586
AAGAGATGCCAGTA-1-ventral,-0.15161647,0.013496934,0.12471241,0.19550268,0.029405858,-0.0,-0.030675068,0.00947278,0.106611185,0.11362459,0.0015953308,0.0,0.19384053,0.16535199,0.1625255,-0.15845206,-0.16434173,-0.09047482,0.18343262,0.026127176,0.40400878,0.30627498,0.14979428,-0.10606773,0.17154591,0.31944796,0.08323525,0.21782374,-0.061799888,0.1889288,0.06985686,0.09696392,-0.18608001,0.030522302,0.0,0.13046086,-0.0,0.05853033,0.3877913,0.025445696,0.1648545,-0.000260671,-0.043084756,0.2620729,0.15018407,0.010249035,0.095199764,0.094806835,-0.0,0.099713095
AAGATGGACTATTC-1-dorsal,-0.07710557,0.018786358,0.1730453,0.12844299,0.2438435,-1.1096427,0.08953587,0.114073046,0.08219225,0.09099017,0.13142538,-0.03366947,0.18985444,0.0,0.04734184,-0.022909775,-0.14037378,-0.121332414,0.13424863,0.110670865,0.1105639,0.26390767,0.0,0.048447553,0.0,0.22140692,0.115343146,0.14579564,-0.04594154,0.26726687,-0.01405014,0.26099062,-0.029185748,0.13595185,0.24838151,0.12898825,-0.2238969,0.15378042,0.0,-0.11391428,0.10820611,0.020803144,0.009868427,0.15361983,0.09871056,0.011438877,-0.034618776,0.18730047,0.029165689,0.111031555
AAGATGGACTATTC-1-dorsal-1,-0.05042275,0.019629905,0.1979001,0.038241316,0.20330623,-1.1096364,0.10330086,0.028421512,0.036190435,0.17076847,0.13279653,-0.01068559,0.23847826,0.26796356,0.07145884,-0.0150426235,-0.1367761,-0.0,-0.011600058,0.16578424,0.101626426,0.2497739,0.11243591,0.037007723,0.13409168,0.3282177,0.028324079,0.037788562,-0.074166656,0.24498038,-0.012037622,0.28872204,-0.055046085,0.16004063,0.32142553,0.11673675,-0.2112204,0.17537536,0.11585519,0.02682801,0.084538415,0.07489143,-0.0064787604,0.12236487,0.051473476,0.08569903,-0.08006626,0.20327702,0.0066311248,0.099312685
AAGATGGAGACGAG-1-ventral,-0.022459826,0.10094,0.18709277,0.11482192,0.097094335,-1.1096069,0.047381345,0.067795455,0.043701895,0.17674036,0.22882575,0.09839617,0.2740953,0.22420776,0.2536888,0.13739225,-0.050577126,-0.21849276,-0.18515813,0.13671054,0.19920985,0.31317362,0.07017045,0.0,0.21396126,0.1601492,-0.05195598,0.105602495,-0.23649667,0.23282368,0.17132664,0.0,0.026175696,0.015179304,0.2519394,0.113033645,-0.11917744,0.0058507756,0.3967041,-0.05459362,0.2090271,-0.04955994,0.09482985,0.009424281,0.17318833,0.11033787,-0.040934023,0.08319365,-0.18781114,0.094195016
AAGATGGAGACGAG-1-ventral-1,-0.0063864393,0.17541936,0.1961458,0.12345191,0.121282876,-1.1095937,-0.040348176,0.06533474,0.022274753,0.16000016,0.25916722,0.051810347,0.25704938,0.24270673,0.18150748,0.1228067,-0.07974771,-0.18040445,-0.0,0.1808482,0.25195345,0.24158804,0.1875157,0.08804415,0.14707166,0.0,-0.0574761,0.036410123,-0.0,0.29657176,0.2614496,0.087710515,-0.013129579,-0.009536147,0.23660737,0.0656294,0.010477587,-0.009261437,0.0,-0.062409576,0.15767674,-0.09422607,0.010351498,0.093839794,0.07450755,0.046083715,-0.0326754,0.076934434,-0.24049634,0.11448785
AAGATTACCCATGA-1-ventral,-0.052713953,0.21244706,0.2101776,0.205587,0.14465213,-1.1096128,0.0,-0.043721136,0.103320196,0.09912584,0.07437636,-0.044584543,0.25712273,0.04729278,0.21734455,0.23139721,-0.19024505,0.01322195,0.115349814,0.023264663,0.2069829,0.34529296,0.1090024,0.113750696,0.06933464,0.23403941,0.10101116,-0.06315742,0.034542363,0.0,0.019602586,0.04190638,0.036186703,0.026144382,0.28557235,0.22410901,-0.31239313,0.20888217,0.103882946,-0.022632414,0.12872241,-0.06554319,-0.046669643,0.11995684,0.34754685,-0.09997309,-0.0,0.17808506,-0.12877981,0.2047869
AAGCAAGAAGAGTA-1-ventral,-0.0,0.0,0.0,0.11152726,-0.033494104,-1.1096344,0.14215986,-0.0836232,-0.067810886,0.20779786,0.05601523,-0.1033991,0.07243587,0.0,0.17740794,0.05449552,-0.16724958,0.047646627,0.053961664,0.2543835,0.1796403,0.24708974,0.22012988,0.09829302,0.0,0.08691797,0.07987851,0.10423939,0.01347546,0.0,0.09607644,0.23468386,0.09683479,0.24282692,0.0,-0.004955928,-0.18558377,0.016680583,0.20749354,0.026550245,0.16003616,-0.0,0.13291106,0.02437883,0.01652202,0.025174776,0.16333444,0.11683794,-0.031800933,0.16722542
AAGCCAACGAATGA-1-dorsal,0.04594735,0.0,0.34650692,-0.007246137,0.0905585,-1.1096277,-0.09292418,-0.0,0.06329642,0.08270926,0.17657661,-0.06019745,0.08789035,0.23697793,0.19556016,0.025026973,-0.19621314,-0.0,0.0714823,-0.0011372566,0.16429415,0.31924424,0.24946438,0.0,0.1660477,0.25158724,0.1741922,0.060314856,-0.0035209127,0.29910344,0.13928278,0.06677897,-0.10677669,0.28002068,0.08863825,0.13140535,0.004672396,0.1487377,0.28880924,-0.016699567,0.0,-0.084953114,-0.031053359,-0.015947754,0.08029332,0.01690705,0.0040617255,-0.0016701885,-0.016169548,0.11139132
AAGCCAACGTTTCT-1-dorsal,0.10217723,0.087328516,0.22107852,0.058299307,0.0654845,-1.109625,0.15626024,-0.16588782,0.06508803,0.09179998,0.084413335,0.051357996,0.16769281,0.0,0.259644,0.14905371,-0.0,0.047558162,0.0,0.063127264,0.18949364,0.30918327,0.07376779,0.0,0.04817936,0.08661476,0.13253373,-0.0,-0.03030042,0.25792727,0.28788447,0.0,-0.19915298,0.15932722,0.18340437,0.0,-0.05665468,-0.025143094,0.13081884,-0.034559768,0.13971551,-0.0,0.1898151,0.038106624,0.09619925,0.25785795,0.11843299,0.12530802,-0.033606756,0.16978619
AAGCCAACTATGCG-1-ventral,-0.009566413,0.1495435,0.20927571,0.13737962,0.038282182,-1.1096262,0.14286771,-0.069961354,0.08656318,0.25049567,0.19171765,-0.0,0.089696676,0.2824684,0.23596264,-0.085226834,-0.08469595,-0.19313475,-0.0038700635,0.01702,0.1282921,0.13680406,0.07525712,0.042981017,0.07710934,0.17212738,0.09455367,-0.050474342,-0.008978248,0.3334897,0.15288998,0.1085933,0.10200074,0.06774602,0.19707868,0.19766551,-0.25118896,0.25655815,0.2966064,-0.12641524,0.10258998,0.025477497,0.08249979,0.04603809,0.16619366,-0.066249706,0.15887015,0.10886185,-0.0024531286,0.0
AAGCCATGCCCAAA-1-dorsal,-0.0,0.16567698,0.32556647,0.16932072,0.0,-1.1096427,-0.0,-0.146421,0.114756905,0.045598034,0.2744798,-0.0,0.17810674,0.189865,-0.0,-0.03699773,0.10425596,-0.0,0.0,0.0,0.15903695,0.28090286,0.19248326,0.052163627,0.08885646,0.19536082,0.1139959,0.01508724,-0.10353837,0.1795643,0.28398868,0.13647826,0.0053844606,0.0,0.2478999,0.028919926,-0.025821064,0.11597234,0.18519773,0.01837814,0.082356155,0.06324138,0.009502943,0.089462064,-0.076233946,0.07562629,0.100812785,-0.04153722,-0.054517854,0.09856405
AAGCCATGGTAAGA-1-ventral,-0.05193267,0.15824209,0.15300891,0.06988143,0.10932506,-1.1096034,0.06620242,0.060128976,0.009901383,0.02753935,0.17926353,0.101821244,0.204451,0.35539594,0.12354151,-0.04431824,-0.12779024,0.038179,-0.0,0.1964887,0.09794374,0.27778634,-0.0,0.14453399,0.120569885,0.20401748,-0.06110867,0.09369347,-0.1598539,0.15541428,0.1906107,0.17461093,-0.01506832,0.104294024,0.3863328,0.09961657,-0.2313516,0.0,0.0,-0.2396942,-0.06280098,-0.01105143,0.026825676,0.0,0.30884016,0.059109177,0.15863793,0.26492944,-0.097063124,0.018957697
AAGCCATGGTAAGA-1-ventral-1,-0.09841264,0.30814987,0.27004093,0.17365827,0.19868824,-0.0,0.024166327,-0.11586269,0.06335652,0.14649779,0.15315282,-0.07502298,0.26563308,0.3607073,0.28543276,-0.06751067,-0.06162849,-0.051236287,-0.10957082,0.13985465,0.17399682,0.1956628,0.045430098,0.08501324,0.097510524,0.3015542,0.053773038,0.028277235,-0.15892394,0.104301065,0.18268412,0.14845534,-0.026907194,0.042453002,0.2852328,0.0,-0.20730297,0.28108194,0.26360133,-0.18269765,-0.0717481,0.17988645,0.03910559,-0.05608539,0.0,0.02824829,0.14737536,0.19498467,-0.15077227,-0.010906193
AAGCCTGAGTGAGG-1-ventral,-0.0,0.22753395,0.20642032,-0.04584763,0.12902439,-1.1096307,0.0,-0.17280805,0.23986493,0.04292884,0.0122421775,-0.040926274,0.0834065,0.0,0.0,0.109726116,-0.18521906,0.008442638,0.08054833,0.010408586,0.3062833,0.22713736,0.24301903,0.20954657,0.021734582,0.23056975,0.07095373,0.054172978,-0.041360263,0.31533235,0.2376342,0.021467641,-0.13223761,-0.09887967,0.18202019,0.0,-0.0,0.06772435,0.0,-0.023429858,0.13561454,-0.0,0.03308126,0.055947565,0.052375577,0.0,0.26734298,0.14417681,-0.025418468,0.08572577
AAGCCTGATTGACG-1-dorsal,-0.10482563,0.101173565,0.0,0.12886329,0.136528,-1.1096498,-0.049991544,-0.09892517,0.0049980483,0.20965968,0.22640772,-0.0042474936,0.234331,0.05650569,0.047598213,0.05860592,-0.05034043,-0.13083181,0.0,0.0,0.131165,0.25425428,0.21168973,0.16033126,0.060294345,0.13118698,0.11339401,0.043575075,0.02971802,0.034064572,0.19416729,0.21632354,0.015326333,0.08404928,0.25970387,0.023180943,-0.08584619,0.10883227,0.15603203,0.046268895,0.04777905,0.07594703,0.0,0.13326839,0.0033568633,-0.0,0.1636483,0.023025366,0.006052231,0.07099372
AAGCGACTCTGATG-1-ventral,0.039675612,0.2357404,0.41400567,0.12804672,0.15023771,-1.1096088,-0.009335743,0.0,0.12460034,0.17961477,0.028003423,-0.0,0.15688148,0.37748322,0.09794792,-0.083706446,-0.08996924,-0.17193331,0.13754204,0.23525198,0.24303506,0.18665019,0.015488905,0.0,0.0,0.14951953,-2.304713e-05,-0.03619704,-0.042048033,0.0,0.0687712,0.0,-0.0981323,0.029547924,0.24661294,-0.0,-0.0,0.25970933,0.25233197,-0.0007000235,0.0011217553,-0.0671251,-0.072334014,0.0,0.13139759,0.0,0.01572888,0.15503913,-0.081121266,0.17204182
AAGCGTACTATGCG-1-ventral,0.23820037,0.09928407,0.10528752,0.053941686,0.0,-1.1096106,0.025022896,-0.09327134,-0.009942519,-9.79503e-05,0.06793795,-0.22258249,0.18588378,0.17115125,0.11406699,0.16810247,-0.2666857,-0.17502931,0.29333973,0.08549237,0.1101096,0.13741267,0.054347858,0.17262079,0.12072779,0.0,0.20241168,0.0,-0.03881905,0.27993125,0.29009846,0.0,-0.12384508,0.020420903,0.24597844,0.025001591,0.04702904,0.18884858,0.2119934,-0.1295711,0.20049141,0.03289124,-0.080185205,0.13819768,0.009242885,0.11142766,-0.03607598,0.3505252,0.03691527,0.09023043
AAGGCTACGACAAA-1-ventral,0.076207094,0.14070028,0.24044871,0.12008632,0.03163531,-1.1096121,0.12102552,-0.027295485,0.036062516,0.20672014,0.06768625,-0.016946992,0.31146553,0.3590581,0.0,0.091687776,-0.12607469,-0.23079324,0.050865345,0.0,0.2870791,0.104070544,0.09959172,0.100174226,0.096013255,0.32127932,0.036583494,-0.010287629,0.0070689335,0.2546312,0.09391255,0.09023126,-0.120924056,0.050341684,0.28366768,0.023709016,-0.091587044,0.0,0.27055928,-0.029136805,-0.041475896,-0.13642378,-0.037149325,0.07989817,0.32115865,-0.09049204,-0.0061813993,0.19701685,-0.064219505,0.0
AAGGCTACGGTGAG-1-ventral,0.06655076,0.2528856,0.30049425,0.15529315,0.053248685,-1.1096246,0.10042484,0.16483559,0.0649802,0.00015038584,0.032969747,0.043745987,0.3815197,0.0,0.04809635,0.02968429,-0.2151788,-0.047592986,0.16040376,0.06360841,0.044765953,0.28441766,0.060136866,0.0008091434,0.26501337,0.13957493,0.1603723,0.09662238,-0.113756396,0.2016514,0.030014327,0.036974262,-0.17038101,-0.017602643,0.2853123,0.0,-0.0,0.15852432,0.2511934,-0.0068255267,0.0,0.06037937,0.0,0.10101621,0.037772983,-0.028556652,-0.0,0.12557495,-0.010505584,0.10574737
AAGGCTTGCTCATT-1-dorsal,0.095160805,0.07961624,0.23233281,0.0,0.1403824,-1.1096417,0.075648665,0.15151556,0.14935166,0.043527454,0.16008092,0.06943109,0.20335037,0.10289173,0.11757399,0.012655283,-0.24435739,-0.15320076,0.14488807,0.035320275,0.23208566,0.20342678,0.08789638,-0.059055027,0.0,0.34915087,0.14645308,0.12103762,0.06890198,0.113195285,0.0053605027,0.0,-0.061856844,0.11397212,0.0,0.136786,-0.18718058,0.17659576,0.14486599,0.085062735,0.23071559,0.021367716,-0.043615237,0.12618086,0.11198985,-0.050320692,0.082930334,0.17626514,-0.0,0.050055876
AAGGTCACACTTTC-1-dorsal,0.090520985,0.0,0.0,0.21618083,0.15707824,-1.1096317,0.20326887,-0.0859899,-0.029923983,-0.040990513,0.09179943,0.09416599,0.12164753,0.09504987,0.17135565,0.074834675,-0.19579199,-0.1054389,0.18542181,0.0,0.28607592,0.19709747,0.06669997,0.08371432,0.101658955,0.1522385,0.104074925,0.116253994,-0.12596647,0.082575254,0.042403758,0.06102815,-0.085368425,0.1321638,0.1204725,0.030589536,0.0020310325,0.08978944,0.44506732,-0.106951796,0.2344564,0.115820125,-0.08408309,0.30893815,0.14113212,-0.08911471,0.17291503,0.14547597,-0.032674342,0.034071334
AAGGTCACAGGGTG-1-ventral,0.0,0.12933762,0.11367177,0.0,0.0936543,-1.10961,0.1946634,-0.023455223,-0.1099213,0.16964579,0.15957363,0.25912303,0.10226124,0.22849666,0.035197623,0.06388754,-0.0,-0.11939983,-0.020778246,0.2609149,0.22488728,0.11433231,0.0,0.07702177,-0.19883859,0.3913066,0.05062884,0.17388436,-0.0,0.17542613,0.07059674,0.35117653,0.039991025,0.22134566,0.1515356,0.0,-0.10054443,0.17610002,0.29675123,-0.10067212,0.16004701,-0.09067894,0.027369635,0.092168316,0.15614948,-0.11265053,0.07983447,0.0,0.025097804,-0.059454445
AAGGTCACCCCTCA-1-ventral,0.031658944,0.18015902,0.12098606,0.16456874,0.19062203,-1.109634,0.1853139,-0.034275386,0.16714157,0.2342215,0.10527264,0.01831208,0.20915475,0.16627006,0.08362514,0.043808986,-0.086393625,0.017393386,-0.00927051,0.08511627,0.20003879,0.19948813,0.081606165,0.025174106,-0.03029499,0.26195958,0.09676511,0.035643145,-0.040889055,0.22630475,0.092900485,0.18054439,-0.11835291,0.07902745,0.32435614,0.0,-0.2825822,0.15855165,0.22948012,0.048304178,0.07961714,-0.0032268632,-0.004774001,0.17284828,0.04675428,-0.0,0.007203524,0.1606555,-0.102433234,0.0
AAGGTCACTAACGC-1-ventral,0.036675353,0.15639919,0.19320586,0.12400329,0.16634454,-1.1096439,0.0013357815,-0.08654919,0.09728673,0.17238171,0.06795956,-0.0,0.17195167,0.19661449,0.11367758,-0.053532127,-0.17779994,-0.10621906,0.13826235,-0.009241634,0.10886205,0.23981275,0.25055924,0.0525686,-0.033121575,0.3109522,0.00879063,0.04870245,0.031071957,0.067722365,0.24168211,0.19916452,0.03724774,0.24459957,0.07572549,0.09532235,-0.09979275,0.0,0.18291461,-0.03305634,0.1097481,0.07709222,0.12760776,0.1232049,0.10484522,0.090939835,0.07361414,0.10864402,-0.06312033,0.022300962
AAGGTCACTCAGGT-1-ventral,-0.01374364,0.2718805,0.118449,0.16625734,0.22133726,-1.1096109,-0.10270782,-0.07551438,0.1260328,0.053165525,0.0,0.051631566,0.12483701,0.39176548,-0.04130622,0.109662585,-0.101716526,-0.104101434,0.23578827,-0.009508398,0.2131702,0.0,0.0,0.0,0.21290168,0.21900992,0.052437883,0.074967645,-0.11396375,0.24003929,-0.0,0.058883306,-0.19517754,0.16206653,0.0,0.18404333,-0.21377406,-0.029365355,0.17728683,-0.13908526,0.09049621,-0.02048009,-0.016012523,0.1414118,0.0,0.27380282,0.076270044,0.1803989,-0.062262684,0.08137422
AAGGTCTGGGTGGA-1-dorsal,-0.005392234,0.17001073,0.16203122,0.0043065515,0.09032909,-1.109632,0.2636277,0.0045426562,0.07418536,0.13658851,0.24324885,0.041844003,0.21003158,0.23250104,0.03849344,0.03342958,-0.18976948,-0.0,-0.11669186,0.050143834,0.32737857,0.0,0.09024859,0.05693504,-0.001528528,0.265149,0.13526972,0.024012912,-0.0031894448,0.25652733,0.18748896,0.12091347,-0.07666012,0.11893288,0.0,0.073126875,-0.10491921,0.23126918,0.0,-0.0321379,0.10485012,0.05567223,-0.080949135,0.057163384,0.077997215,0.09026794,0.0,0.0,0.0,0.0186832
AAGGTCTGTCAGTG-1-dorsal,0.034109697,-0.060751706,0.36057416,0.091899365,0.14273533,-1.1096277,-0.014397635,-0.084915295,0.02373842,-0.03586637,0.08440491,-0.00014689234,0.021439796,0.38120398,0.15692468,-0.06780466,-0.102162495,0.0031636697,0.15643409,0.04997444,0.11985696,0.36720476,0.19240336,0.08558812,0.13441375,0.0,-0.05543934,0.104020014,-0.007889668,0.052681945,0.08513019,0.0,-0.074067585,0.17323425,0.16308184,0.046904918,-0.012419489,0.076629,0.43554956,-0.11849338,0.0997847,0.182409,-0.11840311,0.16418242,0.014653737,0.12053818,0.0,0.13928604,0.0,0.10416526
AAGGTGCTATCTCT-1-ventral,-0.0,0.2336564,0.32588968,0.021313388,0.2363771,-1.109627,0.0,-0.0,0.101815544,0.13036147,0.17966433,-0.05703423,0.1276209,0.14569074,0.14233358,0.019967632,-0.12644398,-0.06388015,-0.041267674,0.12354307,0.12208369,0.14691137,0.04022244,0.07531991,0.059858013,0.0,0.2286677,0.13238822,-0.1028467,0.26147896,-0.084781654,0.19575717,-0.008633667,0.09036591,0.0,0.27018598,-0.18967742,0.18457729,0.17782988,-0.11681875,0.0445887,0.06928015,0.04212027,0.119924046,0.25636813,-0.0,0.0030618121,0.07931465,-0.09878524,0.0
AAGGTGCTATCTCT-1-ventral-1,-0.025793381,0.0,0.25841138,0.07885684,0.27543974,-1.1096236,0.0,0.014495656,0.08970509,0.21516767,0.1611855,-0.11224542,0.15176181,0.20594788,0.09876404,-0.017459989,-0.10236462,-0.13093267,-0.06472833,0.17447716,0.035462283,0.0,0.036415864,-0.006199612,0.062249087,0.18350942,0.17409074,0.07699859,-0.1382596,0.26844853,-0.0064438586,0.23287691,-0.0,0.05625145,0.41248357,0.24349234,-0.0,0.19301909,0.20533082,-0.06347352,0.013477244,0.100978635,0.09192656,0.17169751,0.20126165,0.023825841,0.0037102362,0.08859918,-0.0,0.20109889
AAGTAACTAGATGA-1-dorsal,0.005736492,0.21181498,0.28609157,-0.0025961136,0.017494267,-1.1096495,-0.025577612,0.0,0.08526002,0.010843807,0.13133676,-0.097001135,0.10400932,0.122453526,0.0,-0.09890431,-0.076263614,-0.0555663,0.057203356,0.16690946,0.1633861,0.1961791,0.0,0.18889968,0.14238377,0.28662437,0.023633068,0.09193817,-0.03809684,0.26122385,0.23029113,0.25132564,-0.06343451,0.0,0.26655477,0.07381098,-0.0,0.09111985,0.0,0.113052815,0.0777414,0.07181153,0.020542419,-0.009430846,0.054287255,0.075683065,0.16434547,-0.0013761389,-0.021370651,0.062970124
AAGTAACTTCCTCG-1-dorsal,0.0,0.10606441,0.25455976,0.024450447,0.13829027,-1.1096276,0.06849856,0.09963943,0.0,0.053063154,0.18066132,0.06710553,0.23639502,0.0968547,0.0,0.006467295,-0.24726406,-0.06642627,0.19448105,0.16340075,0.18124843,0.25175685,0.16680783,-0.013730593,0.16652833,0.34249043,0.0,0.15787357,0.076557,0.16489644,-0.0,0.12072664,-0.10464033,0.022499276,0.0,0.05860969,-0.18452539,0.16552253,0.08809026,-0.035892926,0.1781502,0.0,-0.09998024,0.08896629,0.0685969,-0.10325518,0.069884464,0.14563233,-0.05877038,0.2767611
AAGTAGGAGGACTT-1-ventral,0.016799744,-0.09621342,0.11943833,0.1899674,-0.11177209,-1.1095314,-0.09818223,0.086776406,0.090161294,0.28419644,0.0,-0.10156566,0.32844698,0.02234286,-0.060217384,0.0,-0.1121368,-0.11405621,0.037082173,0.0056098737,-0.14004059,0.37246737,0.12988298,0.043333158,0.14094341,0.43564025,0.30594304,-0.0,-0.19688156,0.10925815,0.057978526,0.09683409,0.1584431,0.09000327,0.15957378,0.42593396,-0.16961132,0.41249767,0.26317307,-0.0,0.13573726,-0.11412899,0.22504747,0.4451897,0.29625878,0.19428429,0.0,-0.023523437,-0.07931942,0.28245527
AAGTAGGAGGACTT-1-ventral-1,0.12917843,-0.13838908,0.17889424,0.17739293,-0.16288765,-0.0,-0.15381907,0.07100495,-0.019110441,0.26758754,0.028921086,-0.09368884,0.36557788,0.031246573,-0.083788104,0.10253452,-0.08841283,-0.07503364,0.015400206,0.16363786,-0.08113815,0.40119612,0.11614318,-0.047679942,0.08280246,0.42706692,0.26262668,-0.14874923,-0.22463912,0.10263761,0.0,0.08515431,0.24800725,0.07729445,0.21257693,0.37383285,-0.075384974,0.36866972,0.3256362,-0.30627406,0.065292485,-0.10760983,0.1836743,0.37825656,0.19994211,0.0,0.029798007,-0.009357333,-0.069514915,0.32506588
AAGTATACGGGAGT-1-dorsal,-0.0,0.07566104,0.17272133,0.10549677,0.12636115,-1.1096346,-0.018376576,-0.08208586,0.06489731,0.038764395,0.18601935,-0.0,0.0,0.07462129,-0.017694302,0.054683737,-0.22631447,0.046243433,0.102672204,0.037840787,0.17965122,0.0,0.29084194,0.11431227,0.090196714,0.25650135,0.034828536,0.0,0.0,0.19037281,0.30374625,0.15794851,-0.07532133,0.07282701,0.0,-0.026473138,-0.070487,0.09453603,0.21375415,0.033428222,0.0,0.02244829,0.15149617,0.06410745,0.06951882,0.15039799,0.11789023,0.039405428,-0.03941311,0.12306759
AAGTATACTCAGGT-1-ventral,-0.10948645,0.25707626,0.2640688,0.16251506,0.06378135,-1.1096039,0.1278909,-0.089305446,0.103568085,0.035611425,0.0,-0.06588923,0.22817278,0.093847536,0.21908602,-0.10891915,-0.12377362,-0.0,0.11768045,0.027063407,0.20817125,0.18997175,0.15928459,0.07981669,0.18875478,0.25118813,0.07034512,0.20624016,0.009045191,0.30703408,0.005219985,0.07175183,-0.0647474,0.087472074,0.2477293,0.051524483,-0.23899503,0.4501236,0.11215946,-0.08346048,0.055064797,-0.0022989511,-0.07443058,0.15697616,0.4218343,-0.098837025,0.074633546,0.22160092,-0.0027420125,0.0
AAGTCCGAAGCGGA-1-ventral,-0.019495487,0.16417359,0.14182085,0.20004833,0.087209895,-1.1095862,0.0856813,-0.0075826384,0.15823591,0.108575016,0.0,0.35481188,0.28571475,0.04753004,0.023528276,-0.0,-0.14521268,-0.11469457,0.17535536,0.07087627,0.28557026,0.21143429,0.27112147,0.071734965,-0.08313431,0.48086748,0.0601217,0.13402188,-0.18450652,0.29088745,0.0,0.15777129,0.040662557,-0.06636355,0.42244428,0.13669099,-0.16854168,-0.033845305,-0.014752415,-0.12546149,0.0,0.13586159,0.05493714,0.046095014,0.11835764,-0.1939049,-0.0,0.15254837,0.02036791,0.16505222
AAGTCCGAGAGGCA-1-ventral,0.07011756,0.08817813,0.13349111,0.0,0.23916213,-1.1096292,0.1916963,0.009456596,0.17890902,0.22875641,0.09485474,-0.055674054,0.256526,0.117684856,0.0,-0.03847626,-0.12400442,-0.12886564,0.08180478,0.05711021,0.046298854,0.13892049,0.17255782,-0.030559568,0.006637756,0.13797674,0.10813032,0.12729506,-0.020386511,0.36786026,0.15502621,0.2772992,-0.08271324,0.13385202,0.35064825,0.21339513,-0.20619228,0.17023571,0.020859657,-0.10643555,0.03443595,0.010189866,-0.011713704,0.12176118,0.0,0.007086231,-0.0,0.24922444,-0.0,0.029253017
AAGTCTCTAGTGCT-1-ventral,0.0,0.14468767,0.15842329,0.097603776,0.065947436,-1.1096189,0.0395072,0.028426437,0.20938057,0.3258321,0.101921074,0.02787404,0.17006364,0.21650122,0.022586837,0.11219194,-0.0971173,-0.23390658,0.1325747,0.12717298,0.09295048,0.0,0.13758416,0.0848549,0.081693895,0.37846085,0.14732544,0.031855825,0.034382787,0.33116075,-0.04696197,0.041261476,-0.16517355,0.07999679,0.0,0.11330993,-0.14501368,0.11013355,0.16707054,-0.07190771,-0.07033865,-0.025971599,-0.039103694,0.17099808,0.08154068,-0.014139879,0.10602412,0.17121129,-0.09498537,0.17759033
AAGTCTCTGGATCT-1-dorsal,-0.06309112,-0.0,0.36266363,0.11282172,0.068953656,-1.1096344,-0.20120119,-0.112013824,0.0,0.09630926,0.17991666,-0.052349903,0.20954342,0.1522933,0.1781528,-0.018852353,-0.1586946,-0.026291411,0.0678838,0.1257055,0.17176771,0.28919506,0.24619396,0.1249993,0.1785091,0.254782,0.0065471237,0.026559098,0.003271902,0.1307046,0.12230741,0.22962777,-0.036107767,0.112615496,0.19576818,-0.0236145,-0.042076312,0.040226,0.14163452,0.23679672,0.15496254,-0.0,0.07037367,0.097479135,0.028279379,0.14320476,0.15109608,-0.027821727,-0.054766603,0.10621095
AAGTGCACGTACGT-1-ventral,0.09516695,0.0056573916,0.4021966,0.07338499,0.0498356,-1.1096078,0.106193215,0.0759976,0.07901486,0.18600349,0.2002425,0.11528054,0.42591217,0.21143934,0.14228462,0.1401672,-0.13636385,-0.146721,0.13031954,0.05731697,0.26253235,0.26202855,0.085514456,-0.027144022,0.15586425,0.23893426,0.014508831,-0.14533633,0.07187927,0.16739142,0.012400656,0.02077422,-0.07411408,-0.009388991,0.2781691,0.09928995,-0.2092896,0.18014187,0.1964883,-0.0,0.08779997,-0.07583976,-0.0306501,0.12334052,-0.16287546,-0.04687614,0.0,0.0,-0.018227963,0.25711945
AAGTGGCTCCTTCG-1-dorsal,0.017082328,0.17262109,0.23251301,-0.009695821,0.18261409,-1.1096337,0.25624314,0.18857162,0.026200656,0.16265261,0.13166256,-0.086783774,0.12382696,0.22001253,0.025857924,-0.020209221,-0.21929404,-0.05696085,0.05377487,0.08067044,0.26587975,0.23056164,0.12784117,-0.047122773,0.0,0.40999156,0.09315529,0.06487312,-0.02247976,0.24378623,0.111553505,0.11531745,-0.0,0.16619529,0.16168553,0.0,-0.19515608,0.13335,0.0925222,-0.028910374,0.04557819,0.12125183,0.010827192,0.074383594,0.1718193,-0.08229667,0.028865194,0.14252354,0.050481766,0.093295515
AAGTTATGACGACT-1-ventral,0.13825496,0.17014197,0.0948926,0.14782572,0.0011706519,-1.1096215,0.23812671,-0.052649315,0.008877508,0.3156126,0.10010401,0.01161789,0.0,0.18726443,0.031178905,0.0,-0.16028418,-0.13275704,0.1074237,0.23988283,0.03480309,0.0,0.0,-0.05814546,0.026342543,0.22837828,0.056329116,0.10062636,-0.055299006,0.33082405,-0.06810586,0.13327487,-0.047237013,0.1093215,0.30598873,0.12194846,-0.19071586,0.0,0.0,-0.0,0.19309965,-0.03928403,-0.036802493,0.24683759,0.088042706,0.07178812,0.06518949,0.14956488,0.05836796,-0.032871634
AAGTTATGACGGAG-1-dorsal,-0.030167965,0.0708922,0.31935772,0.067334905,0.18012448,-1.1096206,0.08375387,-0.09501683,0.033295505,-0.044669576,0.064242385,0.105713956,0.13857564,0.24400178,0.26564443,-0.069604784,-0.2166576,-0.12270763,-0.022101138,0.0,0.16574831,0.2739714,0.20162737,0.20898628,0.10496443,0.3126167,0.08923259,0.12316053,-0.15752436,0.16402802,0.0,-0.019616088,-0.13403642,0.18100816,0.090542935,0.0631603,-0.12293015,0.12579772,0.3544627,-0.01274758,0.05136345,0.0,-0.08126723,0.04569915,0.124787614,0.23990041,0.13695428,0.043311693,0.119418584,0.07072219
AAGTTATGCATACG-1-ventral,0.1308276,-0.016175376,0.004430728,0.0663236,0.1302517,-1.1095988,0.010898614,-0.12586284,0.014990163,0.22235292,0.0013600829,-0.15172535,0.2291955,0.13168062,0.006681677,0.061484165,-0.29931122,-0.23060827,0.0,0.047753222,0.14646411,0.29074603,0.386971,0.14466058,0.13189773,0.20342977,0.0003771153,0.13537475,0.06866851,0.2564833,0.23767787,0.13200462,0.05382764,0.09807665,0.1603607,0.031343386,-0.05431725,0.26599398,0.22646981,-0.14187562,0.17274103,0.08328319,0.008039698,0.25530627,-0.02994842,0.2260629,0.1483204,0.21572913,-0.16240048,0.2293754
AAGTTATGGAGGCA-1-ventral,0.0,0.031777207,0.0,-0.0019939742,0.13295735,-1.109614,0.04249051,0.021418992,0.007175729,0.07903979,0.089378834,-0.1853939,0.1576403,0.15774617,0.26342192,0.087282926,-0.14276856,-0.12454596,-0.010145572,0.07467176,0.0,0.12978731,0.20280194,0.1748875,0.19275035,0.31859788,0.09430715,0.073803484,-0.1714586,0.1542262,0.23286085,0.21606155,-0.083486244,0.0147264255,0.40933302,-0.07430686,-0.1341592,0.1859559,0.13258134,-0.045292776,-0.10570553,0.09671891,0.15704803,0.13383758,0.13216376,0.017434988,0.3528815,0.2317866,0.012035395,0.017612081
AAGTTATGTAGCCA-1-ventral,-0.08593533,0.0,0.24085845,0.17459245,0.0639366,-1.10962,0.14174423,0.051300343,-0.014282134,0.20303836,0.14758508,0.14559087,0.22662303,0.0,0.11731246,-0.044976342,-0.08771288,-0.28330275,-0.044376917,0.07562942,0.35957,0.0857137,0.18566701,0.010129462,0.1530752,0.28364658,0.0724544,0.10325204,-0.14949296,0.3335279,-0.04541894,0.10633843,-0.04634771,0.1396681,0.274402,0.12639119,-0.20663515,0.19247967,0.04472885,0.04880017,0.124971606,0.057806306,-0.057330266,0.0,0.0,0.0,0.13211945,0.18225868,0.0,0.014164266
AAGTTATGTAGCCA-1-ventral-1,-0.0,0.0,0.14138012,0.18077858,0.09230856,-1.1096056,0.20632602,-0.020249024,0.06956299,0.249704,0.097940676,0.050492637,0.31294072,0.0,0.11633027,0.0010163834,-0.11382819,-0.0,-0.08630561,0.0,0.29685616,0.0,0.15645278,0.037655633,0.18007816,0.3065169,0.10771342,0.0,-0.0992732,0.32317466,-0.0052828263,0.12403526,-0.14922938,0.18175186,0.3057807,0.14037183,-0.23288384,0.1934557,0.18548433,-0.11277193,0.018221075,0.0057172156,-0.052573882,0.07636465,0.2500908,-0.05939709,0.04109961,0.28032193,0.088491224,-0.1360547
AATAACACTGCAGT-1-ventral,0.045569897,-0.029551124,0.1914687,0.17758957,0.08479626,-0.0,0.05851051,-0.08790394,0.13558207,0.29139838,0.0,0.13533436,0.32104445,0.10521345,0.06216593,0.019544803,-0.16806689,-0.15969986,-0.024534067,0.020515101,0.13885891,0.09015954,0.09038533,0.20574455,-0.04344212,0.18060753,0.0025382887,0.20326087,-0.1566497,0.15875894,0.1721356,0.26454264,0.031127848,0.076287456,0.26987925,0.13138007,-0.13375959,0.15146591,0.29752326,-0.09573646,0.17280886,-0.01587689,0.12808806,0.14829245,0.09985333,0.05118462,-0.0,0.21843982,-0.0985894,0.059679385
AATAAGCTATGTGC-1-dorsal,-0.021449594,0.13684894,0.0,0.0,0.10393386,-1.1096239,0.09356173,-0.033221446,0.07416102,0.08915497,0.110923596,0.05987222,0.28559133,0.17453079,0.1777057,0.18602906,-0.15354489,-0.014813543,-0.031467017,0.064567395,0.22802734,0.3349136,0.046595063,0.22594519,0.055224363,0.15155718,0.06095302,0.1220954,-0.17805193,0.17798476,0.12696181,0.0,-0.0,0.0733388,0.16161986,-0.01063433,-0.17452757,0.12454212,0.43000925,-0.11514055,0.18941662,0.008154135,-0.005302098,0.16726197,0.11091519,0.19641334,0.048933227,0.10524596,-0.12857418,0.03456678
AATAAGCTGTATCG-1-dorsal,0.19029899,0.20373932,0.3705191,0.0,-0.0037477415,-1.1095958,-0.05780108,0.0,0.03024353,-0.056421693,0.098364085,-0.18044545,0.10409189,0.31631088,0.289599,-0.06780823,-0.035939485,-0.059763327,-0.062612295,-0.27581957,0.07289801,0.27716902,0.16763116,0.18718316,-0.0,0.0,0.053351972,0.06866188,-0.0,0.16001736,0.2462562,0.18003117,0.015099927,0.07646657,0.08340427,0.0,-0.057402853,0.0,-0.034903556,0.06574087,0.16524242,0.14328909,0.047908194,-0.006782479,-0.03293786,0.0,0.61399984,0.32025722,0.0,0.03214748
AATAAGCTGTATCG-1-dorsal-1,0.13547264,0.15648906,0.39951387,0.18107782,0.058527745,-1.1095909,0.028784065,0.0688866,-0.033245683,-0.1174499,0.043792587,-0.22010182,0.06447841,0.34880933,0.26113227,-0.14746687,-0.06451905,-0.006745458,-0.022892687,-0.3066383,0.10276888,0.33376747,0.0,0.17828277,-0.012158156,-0.009498928,0.053967338,0.104944825,-0.1679998,0.2419643,0.28615412,0.2847876,-0.027891332,0.07099665,0.112964086,0.019500017,-0.06521073,0.1727316,-0.06324318,0.06042629,0.093592905,0.099023566,0.086043894,0.1282857,-0.06879244,0.28027496,0.45800424,0.34219432,0.050476693,0.0921921
AATACCCTACCTAG-1-ventral,-0.027035277,0.102853954,0.26479402,0.12308213,0.10024906,-1.1096525,0.04680914,0.008465292,0.06783639,0.14746769,0.03622388,0.018862164,0.14846806,0.176406,0.1754034,0.13207008,-0.17432849,-0.027406085,0.0,0.065427445,0.17500742,0.2300796,0.24817751,0.073771834,0.07644988,0.24801159,-0.087722346,0.0,-0.015342567,0.15792242,0.07782754,0.11194931,0.0,0.1625763,0.0,0.08756871,-0.1331503,0.16706488,0.07317147,-0.060150098,0.09750802,-0.008135836,0.13305822,0.049217444,0.120686665,0.059281815,0.25575918,0.10200244,-0.0,0.13250463
AATACCCTAGGGTG-1-ventral,-0.08070046,0.16068095,0.34516874,0.15258531,0.11343499,-1.109631,-0.08240634,-0.11854967,0.08283363,0.13632861,0.16405566,-0.029342309,0.09194942,0.3517991,-0.1017603,0.10102895,-0.10469748,-0.034456983,0.059032347,0.103471,0.2176809,0.27400154,-0.015487406,0.038621444,0.19931783,0.10154878,-0.08128339,0.0,0.032831736,0.15373772,0.16060935,0.2893864,-0.15188761,0.11471813,0.2999402,0.115073316,-0.036463737,0.06659239,0.22031212,-0.0,-0.021054283,0.026353851,0.14762473,0.16124004,-0.0063046487,0.16765329,0.18283656,0.0,0.014463308,0.020155933
AATACCCTATACCG-1-ventral,-0.09710001,0.05926871,0.020170445,0.025388781,0.03203593,-1.1096138,-0.001758602,-0.052535802,0.21518596,-0.0766272,0.087112695,0.01736266,0.09662078,0.1590787,0.038750146,0.08899037,-0.17446029,-0.0,0.050541352,0.14870402,0.0,0.15175293,0.35219672,0.1396284,0.12914139,0.2962926,-0.0,0.12546214,0.062291663,0.245295,-0.044616465,0.2378429,0.0489626,0.3171381,0.34508163,0.11680622,-0.0,0.116492935,0.0,-0.09868987,0.051019084,-0.10901061,0.22907355,0.046114568,0.056705266,0.09239715,0.16909355,0.16385768,0.07340846,0.08789952
AATACCCTATACCG-1-ventral-1,-0.047470797,0.002310806,0.11834892,-0.024609568,0.011804432,-0.0,0.0,-0.12007886,0.15885225,-0.0,0.0,0.028536396,0.12215879,0.22236447,0.07856646,0.0,-0.13894519,0.0,-0.032083858,0.08779192,0.3573846,0.1434434,0.30512077,0.12792082,0.14291032,0.36792463,0.030603675,0.041208457,0.0,0.0,0.041269496,0.0,0.037243467,0.25334644,0.23407398,0.1841154,-0.0,0.23154035,0.12114988,-0.16372813,0.08161007,-0.020171603,0.17090158,-0.04283945,0.05405959,-0.017922256,0.26223695,0.18914913,0.0,0.108686626
AATACCCTCTTACT-1-ventral,-0.0019980802,0.0469579,0.11391246,0.062994406,0.28421655,-1.1095902,-0.002953609,0.11085741,0.10321476,0.23259714,0.0,0.0,0.3427963,0.0,0.13744901,-0.057705775,-0.14242662,-0.1771052,-0.17387007,0.04782662,0.28136924,0.3573739,0.10756934,0.08132139,0.09157249,0.34672812,0.0635119,0.05248756,0.10156619,0.21388742,0.17260306,0.14387685,-0.21488224,0.13250473,0.32005054,0.07172522,-0.3911541,0.18772368,0.15922087,0.0,0.051642604,0.0,0.031624835,0.07926979,0.05881531,-0.0020073522,0.026118513,0.18792623,-0.0887845,0.0
AATACCCTGCCTTC-1-dorsal,-0.0,0.26719058,0.22493368,0.11904165,0.2821831,-1.1096343,-0.034315124,-0.14014384,0.13856144,0.016152827,0.2256069,-0.03752795,0.21789198,0.15268183,0.10014405,0.08885608,-0.07435507,-0.11127485,0.22910291,-0.0014307102,-0.039099786,0.40728396,-0.0025304821,0.19269243,-0.01456062,0.08170916,0.098642536,-0.116783716,0.115124956,0.10351013,0.2889616,0.1957271,0.06052762,0.115062535,0.1632291,0.11916049,-0.106132634,0.18534237,0.0,-0.0,0.072285235,0.1259436,0.09486533,0.06890487,0.012332069,-0.064696014,0.050493684,0.24360272,0.019411312,-0.040459305
AATAGGGAACAGCT-1-dorsal,0.28234407,0.19052204,0.39141497,0.16422647,-0.043498743,-1.1095974,0.092671685,-0.03480223,-0.0040529175,-0.05223016,0.059287723,-0.0,-0.10012098,0.27152395,0.16859327,-0.086625285,-0.18280408,0.013362236,0.08152219,0.021705454,0.24832107,0.33991995,0.18256892,0.13036506,0.31909135,0.0,0.14195122,-0.048161812,-0.1820818,0.20597614,0.16144416,0.15923077,-0.0,0.20411465,0.1968045,-0.04103926,0.0153969815,0.1845107,0.0,-0.04633692,0.109092034,-0.004751285,0.12903263,0.21497026,0.22584543,0.011668487,0.0,0.09848516,-0.01572748,0.22151348
AATAGGGAATGGTC-1-ventral,0.016478889,0.13026838,0.0,0.0128902,0.2107387,-1.1096226,0.0,-0.08259343,0.0,0.19837202,0.0,-0.036651958,0.24334598,0.38356712,0.0687898,0.08156068,-0.11280166,0.0,-0.05446262,0.09639593,0.23084155,0.2893446,0.081628926,0.0924551,0.0,0.2565799,0.09050382,-0.07845362,0.07940208,0.24159603,0.097256355,0.0,-0.10039337,0.06845837,0.30185646,0.20750627,-0.26887274,0.0,0.0091063315,-0.062545076,0.13909249,-0.028539367,0.0018229337,0.0,0.14610167,0.057571724,-0.094997026,0.08857704,-0.11999276,-0.007640786
