,0,1,2,3,4,5,6,7,8,9,10,11,12,13,14,15,16,17,18,19,20,21,22,23,24,25,26,27,28,29,30,31,32,33,34,35,36,37,38,39,40,41,42,43,44,45,46,47,48,49
AAACATACCTACCC-1-ventral,0.011087673,-0.0074694557,0.020151334,-1.1096882,0.06439383,0.028966837,-0.054758128,-0.10931148,0.18646882,-0.0870108,0.2707699,0.04846631,0.26458263,-0.057926908,0.0,-0.03806836,0.3296422,0.16639909,0.18835767,0.098898016,-0.059448153,0.18089616,0.18314253,-0.06452991,-0.0050306325,0.21798232,0.01503911,-0.032837722,0.0,0.022874365,0.13969937,0.06158207,0.13679737,0.1779202,-0.03524529,0.015199541,0.30065295,0.0,0.04490361,0.06869742,0.028823825,0.088034004,0.19045976,0.26214144,0.09248054,-0.061856776,0.10343496,0.15062039,0.24346001,0.121133104
AAACATACGCGGAA-1-dorsal,0.11166404,-0.18315819,0.10783814,-1.1096582,0.10262523,-0.058991116,-0.0,0.093649164,0.08091546,0.077880904,0.11598118,0.19993544,0.38629663,-0.20933855,-0.07718663,0.21768667,0.07548351,0.08389777,-0.01904236,0.19203685,-0.0271776,0.32088852,0.15962102,0.14159739,-0.06504887,0.13833795,0.0,0.10907179,0.13126996,0.20418349,0.0,-0.12393767,0.2565483,0.3498866,0.035737067,0.43654722,0.09787317,0.023827368,0.19805369,-0.12435987,0.046926077,0.02045439,0.28049758,0.056485314,-0.05735007,-0.13406694,0.16430287,0.0,-0.0025759805,0.10712664
AAACATACGCGGAA-1-dorsal-1,0.11267071,-0.112022296,0.03205444,-1.10966,0.043087013,-0.0874528,-0.0,0.013526703,0.1028284,0.04188259,0.05767607,0.21181843,0.35506356,-0.27339154,-0.043435365,0.2502302,0.11018568,0.0,-0.1207161,0.16333458,-0.014810894,0.0,0.14270826,0.18096103,-0.08255151,0.12664497,0.22988543,0.079513505,0.17070387,0.17500417,0.13256614,-0.09807296,0.33142936,0.35866994,0.06737971,0.4022852,0.12437914,-0.0682652,0.18545033,-0.0,0.20140211,0.14965835,0.21090853,0.008507396,0.0043447814,-0.087523334,0.10755685,0.16589311,-0.031573176,0.10987638
AAACATACGGTCTA-1-dorsal,0.15739252,0.054799434,0.36293134,-1.1096537,-0.019090574,0.124520116,-0.032486916,0.1494276,-0.0060677533,0.16374956,0.09087841,0.015220179,-0.0,0.07052815,0.17747839,-0.07576916,0.25856993,0.13861927,0.06357139,0.041526984,0.13793318,0.21023677,-0.2463235,0.33024302,0.021268047,0.03372532,0.050012235,-0.045229927,0.0011147601,0.18518727,0.33005044,0.235023,0.077400036,0.050918106,0.14832604,0.16376977,0.030356532,-0.038081013,0.3448077,0.19812758,-0.12064504,-0.22685522,0.44070894,-0.051616497,0.02067583,0.20354848,0.03393907,0.020633854,0.15742604,-0.03815969
AAACATACGTTGAC-1-ventral,0.050547447,0.0,0.048049804,-1.109702,0.06495172,0.23412587,-0.003313621,0.16268627,-0.0026708844,0.1924729,0.14310224,0.15205671,0.089807615,-0.0,0.007671772,0.057327818,0.0,0.025853043,0.20862599,0.1350197,0.15444256,-0.0,0.026865495,-0.0,0.04404617,-0.011465219,0.090852946,-0.05760763,0.16640247,0.057012927,0.0790043,0.06052593,0.028684067,0.0,0.0941773,0.19427708,0.20172411,0.14940965,-0.0058896015,0.08740479,0.117741935,-0.040900312,0.38054958,0.13620916,0.10149053,-0.0018878778,0.07776234,0.07952908,-0.00051233504,0.1570296
AAACATTGACGGGA-1-dorsal,0.18495099,0.06560985,0.10872338,-1.1096982,-0.105624996,0.029173996,-0.0,0.23188524,-0.0,0.04547197,0.19706038,0.12795947,0.29981357,-0.122690275,0.060236886,0.17958331,0.13054854,0.0,0.0,0.268353,-0.03215896,0.0,0.007741907,0.11638734,0.1250594,-0.032997794,0.0,-0.06880138,0.0,0.016156357,0.1342379,0.16306736,0.05244314,0.12089541,0.100992255,0.028832018,0.1379217,0.0,0.06085459,0.0,0.016695855,0.08540899,0.2594088,0.012455066,0.15106176,-0.08254833,0.26816294,0.09021385,0.01157865,0.0
AAACATTGACGGGA-1-dorsal-1,0.24692757,0.15332216,0.06791204,-1.1096929,-0.08822415,-0.07687066,0.0,0.31004205,0.016951827,0.027192898,0.1485559,0.12220744,0.30265403,-0.08672589,0.08950634,-0.023566948,0.14064898,0.12651983,0.13518405,0.23734115,0.012811953,0.15955323,0.01756962,0.0,0.08709681,-0.0,-0.011532904,-0.09837303,0.20272021,0.0,0.1702792,0.19035915,0.034018524,0.0,0.06346628,0.09473415,0.22896999,0.029798338,0.024188858,0.1596155,-0.09649946,0.06325979,0.23473598,0.0,0.23610272,-0.0,0.18200992,0.010561381,0.03992348,0.0
AAACATTGGAACTC-1-ventral,0.07973481,-0.06541902,-0.030283399,-1.1096457,-0.0246148,0.07779645,-0.15428174,0.11877551,-0.017853115,0.26862743,0.12248869,0.135194,0.109466314,-0.29605985,0.1528605,0.14472856,0.0,0.17397831,0.0,0.18288751,0.26289275,0.0,0.027986709,0.027607573,-0.055124894,-0.08683218,0.15876654,-0.23373267,0.12971333,0.17074879,0.07173262,0.42846966,0.123331,0.16107185,0.08282594,0.08888358,0.0,0.17712465,0.3068609,0.08664605,0.13096458,-0.0,0.34802932,0.28488436,0.116902836,-0.1113338,0.19209668,-0.044095848,-0.12501943,0.14981215
AAACGCACCATGGT-1-dorsal,0.21247225,-0.027754772,0.25148073,-1.1097032,0.04659651,0.12229221,0.13178499,0.052334767,0.23245636,0.37370783,-0.023875304,0.089966595,0.095829755,-0.018863745,-0.033216413,0.15642504,0.084131576,0.2074355,0.08794849,0.17740272,-0.025088126,0.08728673,0.12863597,0.109750375,-0.10175891,0.13038528,0.13077055,0.04340038,0.0,0.14525878,0.16525108,0.019573277,0.16773936,-0.0063635907,0.039547734,-0.020211937,0.067840844,0.16717316,0.042193577,0.17442076,0.016604595,-0.036502153,0.1482401,-0.0,0.107005864,0.13990055,0.030245347,0.09277747,0.045629602,0.0861385
AAACGCACCATGGT-1-dorsal-1,0.1431524,-0.0035717092,0.23460223,-1.109706,0.0,-0.0,0.15496884,0.07941461,0.24776405,0.20191312,-0.010833277,0.09026511,0.16929297,-0.03429267,0.02547477,0.082609266,0.13167544,0.123665415,0.08666976,0.12952499,-0.0,0.09866251,0.17678203,0.20127751,-0.1253144,0.26313457,0.056301784,0.09159404,0.0,0.13521308,0.0,-0.029170847,0.065798774,0.0787454,-0.040882763,0.069924794,0.19992316,0.16190301,0.03862036,0.024458738,0.05739287,-0.045286685,0.20635751,0.084808186,0.0,0.08108322,0.0,0.08791704,0.0,0.0
AAACGCACGGTCAT-1-ventral,0.050968595,0.12574382,0.26716524,-1.1096611,0.007893365,0.12249778,0.086003706,0.16157605,-0.027335022,0.05320892,0.2540862,0.1482653,0.32444757,-0.16504468,0.29123554,-0.13490346,0.0,0.27437797,0.20490569,0.28955454,-0.041429073,0.17936608,-0.12090465,0.06805978,0.22335732,0.12850522,-0.06048322,-0.17579225,0.2967785,-0.10816495,-0.14294426,0.031972095,0.05887911,0.11960789,0.17173536,0.15760085,0.0,-0.118760474,0.08906382,0.0,0.14616053,0.13661422,0.2687795,0.10334748,0.09957735,-0.15977032,0.043514874,0.15904847,0.03948615,0.19247355
AAACGCACGGTCAT-1-ventral-1,0.08364604,0.12157888,0.32723206,-0.0,0.121212654,0.1186457,0.111698754,0.24023741,0.03982574,0.14524056,0.28463596,0.19926907,0.27963603,-0.08848442,0.2605241,-0.16612822,0.053269513,0.1271062,0.1810449,0.249887,-0.0046811504,0.11403232,-0.14837384,-0.0,0.23019537,0.037182588,-0.085733734,-0.21712297,0.26116836,-0.10415442,-0.055623587,0.0011035717,0.057969693,0.15836734,0.15252922,0.07901126,0.08794718,-0.01071824,0.040641,0.14384708,0.14121038,0.14691572,0.29037026,0.05792839,0.12775725,-0.14272286,0.055298083,0.13242885,0.09239293,0.09503661
AAACGCTGACACGT-1-ventral,0.08099485,0.052484438,0.25999856,-1.1096716,-0.14498645,0.23369128,-0.035438538,0.0,0.034766678,0.078194775,0.16591756,0.042769928,0.41958708,-0.14330441,0.053122047,-0.0,0.2519923,-0.03325734,-0.006021394,0.25504467,0.0006740044,-0.025871994,0.02069994,0.012595985,-0.06642872,0.14098634,-0.016906792,-0.023879144,0.0,0.033820383,0.0,0.033136953,0.17976968,0.288099,0.07119888,0.1573866,0.25222865,0.33318463,0.006352117,0.016458444,0.31143254,0.030762471,0.15289827,0.13894565,0.11524958,-0.0,0.023600945,0.26692247,0.116776615,0.07440579
AAACGCTGACACGT-1-ventral-1,0.11815484,0.0,0.19812685,-1.1096796,-0.13053286,0.123837136,-0.011399985,0.20308614,0.023000332,0.12704611,0.003526985,0.11245165,0.34817076,-0.11527201,0.23437336,-0.13481869,0.27958643,0.0,0.011470915,0.17922656,-0.06482873,-0.01202696,0.22322486,0.09325617,-0.12041139,0.051976427,0.033058878,0.072103605,0.103609644,0.037831314,0.041784227,0.064283095,0.19267665,0.19864078,0.070360996,0.065320715,0.15842982,0.28320628,0.15013288,0.063609906,0.336897,-0.036023855,0.09523733,0.22010708,0.0,-0.15320991,-0.017379522,0.22371636,0.16019647,0.11500682
AAACGCTGGATACC-1-dorsal,0.0,0.080774195,0.11475863,-1.1097062,0.019529197,0.047725935,0.0,0.2836605,0.10997407,0.019220455,0.15786563,0.23521325,0.0,-0.11444046,0.022821775,0.028182626,0.21822318,0.1447282,0.018828213,0.20384686,0.042028323,0.0,0.0,0.040633515,0.05286299,0.016375607,0.007386866,-0.036607917,0.046629835,0.09664627,0.2126852,0.08751843,0.07096858,0.23897994,0.0,0.17824852,0.0,0.030204428,-0.031286016,0.19547719,-0.027590064,0.0,0.0,0.056820083,0.14232968,-0.013342765,0.276447,0.13075009,0.11138731,0.0
AAACGCTGGTCTTT-1-ventral,0.09585325,0.04722172,0.0,-1.1096919,0.086996,0.07914166,0.052900374,0.07353285,0.16110437,0.04172254,0.09242201,0.15615521,0.22230655,0.064650394,0.08913943,0.015970776,0.11869893,0.23087718,-0.0166897,0.10351973,-0.020088885,0.21359523,0.029156499,0.09661573,0.0,-0.09655158,0.082638234,-0.0,-0.050792895,0.077859595,0.2676356,0.012727112,0.21947649,0.1348355,0.10867306,0.0,0.08459619,0.06163596,0.0594951,0.12910016,0.021108765,-0.15688698,0.15763989,0.12723063,0.016518066,-0.15631022,0.43208593,0.1981451,0.05375129,0.04288736
AAACGCTGGTCTTT-1-ventral-1,0.038226802,-0.016481811,0.2029266,-1.1097046,0.043673977,0.14433852,0.104861125,0.0250306,0.0,-0.067448154,0.15961216,0.0,0.25923544,-0.012455848,0.013737812,-0.0573455,0.0,0.18203819,-0.05826937,0.1076951,-0.07751233,0.22507304,-0.01967066,0.13962491,0.04317076,-0.09279993,0.13415742,0.08744263,0.043848068,0.092137314,0.19706745,0.0,0.18821037,0.23569244,0.13966349,0.14514416,0.06621132,0.076128714,0.0,0.0,0.023938242,-0.05717364,0.22360253,0.12480507,0.09228514,-0.030652883,0.33336502,0.16615936,0.14854911,0.07049654
AAACGCTGGTCTTT-1-ventral-2,0.0,0.04724293,0.11775191,-1.1097014,0.07582006,0.18941483,0.032751016,0.06690736,0.1632795,0.055061,0.2101396,0.15545571,0.23541883,-0.07442779,0.13286334,0.0049401657,0.029560018,0.2213759,-0.034942627,0.0,-0.060842834,0.21752939,0.03141107,-0.015787417,0.17490922,-0.06735643,0.09531303,0.09587654,-0.02330886,0.053369477,0.0,0.044140656,0.16921844,0.0,0.048868723,0.14856005,0.0,-0.006805857,0.12853114,0.11412749,-0.003417002,-0.025501385,0.15663204,0.11167307,0.02422971,-0.060526136,0.38620362,0.14502794,-0.022298232,0.15913194
AAACGGCTAGTCGT-1-dorsal,0.15282124,0.16149677,-0.09643681,-1.109653,0.15263122,0.38971603,-0.08415753,0.063765615,0.1945447,0.28208044,0.17810535,0.09633274,0.34603557,-0.029770602,0.1875835,-0.09632098,0.012533413,-0.031543706,0.17707047,-0.14415053,0.031210475,0.04344958,-0.069386564,-0.06936153,-0.0,0.014981901,0.041039865,-0.047483776,0.009716928,0.07996922,0.1251361,0.08847048,-0.022605725,-0.0,0.08284632,0.16667601,0.0,0.1463215,0.1541498,0.15174566,0.27205753,0.26806167,0.31403625,0.14677681,0.11830234,-0.28935593,0.3017062,0.028907476,0.23313056,0.1700067
AAACGGCTTCATTC-1-ventral,0.0,0.04308471,0.12959729,-1.1097009,0.05368014,-0.060046118,-0.0,0.16743225,-0.0,0.075051256,0.0,0.09144081,0.23014957,-0.109250024,-0.027351514,0.050402377,0.091403216,0.09487958,0.17783783,0.109403655,0.16399385,0.25310004,0.04753319,0.17745873,0.0,-0.037194096,0.06831116,-0.06721106,0.107776225,-0.026495855,0.08332657,0.13292019,-0.0,0.29521483,0.17855844,0.12580769,0.18361486,-0.0387713,-0.053998433,0.0,0.08979716,0.17276758,0.027284574,0.22074237,0.111735344,-0.05786393,0.0,0.057619326,0.1176882,0.03398443
AAACTTGAACGGAG-1-ventral,0.14657508,0.122714266,-0.0,-1.1096625,0.13136458,0.077912696,-0.02539317,0.15637216,-0.0010994409,0.017986944,0.23210362,-0.01588126,0.06158213,-0.1379602,0.42339787,0.22279468,0.31738928,0.008956649,0.09408353,0.0,0.13161851,0.3819487,-0.0516269,-0.036899447,0.0,-0.07023686,-0.0011479193,-0.014378628,0.17340112,-0.0055413116,0.13673137,0.11741814,0.04243018,0.1452511,0.24997312,0.2425928,-0.015240445,0.14898358,-0.21340755,0.0,-0.06792698,-0.10829032,0.3144572,0.1224492,0.16951045,-0.1184247,0.21799709,0.03474845,0.10970222,0.17785762
AAACTTGATAGCGT-1-dorsal,0.2432985,-0.036980048,0.1770207,-1.1096992,-0.05319152,0.110660054,0.11696646,0.23242433,0.17181805,0.044391878,0.1715765,0.06715816,0.2773023,0.043190107,-0.013187395,0.103461936,0.11385163,0.107472256,0.013029245,0.16270341,0.06111146,0.1604775,-0.08387354,-0.10171891,-0.024251344,-0.0,-0.0,0.08521212,0.0,0.06832036,0.09315617,0.089615785,0.07224078,0.16211158,0.10203985,0.0,0.04358349,0.0,0.0,0.033457227,0.020112766,0.27823937,0.15001692,0.12851287,0.16202438,-0.12552911,0.25692087,0.25033838,0.00016054347,-0.012879703
AAAGACGATACTCT-1-dorsal,0.13776842,0.0,0.03209935,-1.1097082,0.059474003,0.10096867,-0.0071495115,0.017020017,0.0,0.19986722,0.0,0.19146974,0.1809444,0.04898223,0.017400278,0.12261846,0.1219406,-0.007023282,0.10925671,-0.11626476,0.052366152,0.16589168,0.015404564,0.1448547,-0.08487536,0.23670882,0.0,-0.0502191,0.10215668,0.1613272,0.0,0.12323726,0.20740372,0.0625967,0.00528507,-0.064391494,0.122879125,0.1405992,0.23351915,-0.010272794,0.19414116,-0.013935699,0.25731665,0.121597946,0.10709068,0.014354596,-0.031934317,0.11742395,0.14191568,0.037987538
AAAGACGATACTCT-1-dorsal-1,0.090236604,0.13941114,0.13154948,-1.1097023,0.028928619,0.1366509,-0.047754515,0.10437888,0.12912346,0.20108663,0.21475056,0.14286315,0.069646984,0.0049960534,-0.008416507,0.023629475,0.09822571,-0.0046546594,0.100864805,0.039908,0.02450131,0.14566581,0.097620055,0.20169282,-0.061262053,0.22718333,0.0,-0.1517696,0.0,0.16343527,0.1607844,0.12836444,0.28502065,0.042266037,0.025235837,-0.024731426,0.11173636,0.1649956,0.11981853,0.018184712,0.2723568,0.053755436,0.2534092,0.041103993,0.03131246,-0.04298376,-0.0,-0.0073134243,0.1314272,0.11952732
AAAGATCTGAGGTG-1-dorsal,0.21619673,0.0,-0.00041491457,-1.1097145,0.07144192,0.086116515,0.0411423,0.14797835,0.13639267,0.110889874,0.056110628,0.0,0.12937523,-0.0007624759,-0.012142195,0.10191575,0.21324308,0.07072876,0.039346766,0.1541766,0.14876121,0.08782389,0.06560661,0.054338355,-0.061800417,0.19128683,0.17120007,0.05433316,0.11564904,0.2626073,0.0039027177,0.014165876,0.20314673,0.118147485,0.04647151,0.015834091,0.091665,0.19443572,-0.0077554258,-0.0196645,0.20162763,0.04119075,0.19843659,0.032536943,0.04936552,0.123390704,-0.029722786,0.07893171,-0.041566957,0.05769165
AAAGATCTTGCACA-1-ventral,0.13762881,-0.04211161,0.06749244,-1.1096772,0.06490671,0.22428282,0.06281802,-0.025651522,0.03144145,0.009863393,0.044773962,0.078175224,0.009777739,-0.24609435,0.21455154,0.11174794,0.22322302,0.18603267,0.12338012,0.15637693,0.26615873,0.0,0.0,0.14892675,-0.0,0.093294404,0.08387808,-0.14624622,0.19641364,0.0044059716,0.16951315,0.076473,0.034845356,0.18067198,0.19282088,0.11981615,0.16228862,-0.009555288,0.020730129,0.07910815,0.0604399,0.14520375,0.24578288,0.24723591,0.2710586,-0.15016007,0.32012922,0.014885259,0.014623711,0.0
AAAGCCTGAGGTTC-1-dorsal,0.0,0.0,0.11859216,-0.0,0.009824767,0.14668345,-0.07137663,0.0,0.1573584,-0.036667917,0.12106173,0.11733162,0.0,-0.11129605,-0.061134104,0.19034131,0.14700529,0.23944429,0.14780743,0.0,0.11244039,0.06646547,0.017171983,0.012945426,0.031546067,-0.07066488,-0.09676285,-0.076220766,0.090725265,-0.013431178,-0.0020553006,-0.032764543,0.16992342,0.0,0.10287354,0.21733795,0.05249158,0.05719072,0.013820306,0.110170975,0.056328718,0.09688033,0.20710608,0.22870718,0.15330686,-0.10077424,0.3140159,0.15355283,-0.111982696,0.020425407
AAAGCCTGAGTGTC-1-ventral,0.15474337,0.03507143,0.07191604,-1.109669,-0.03017545,0.115805835,-0.123139165,0.11842715,0.0037753999,0.043999184,0.12542048,0.16648468,0.2596306,-0.13690154,0.16675738,0.012290619,0.24235865,0.07134639,0.15544482,0.09505507,0.048787612,0.19244927,0.077962704,-0.041277412,0.07950906,-0.16150674,0.19200566,-0.2067009,0.30102804,0.0,-0.04722516,-0.09229561,0.092466794,0.0,0.11611036,0.0,0.23708272,0.2346247,-0.06938034,0.09993267,0.27675396,-0.0,0.12498311,0.0,0.18683113,0.035981636,0.11348647,0.019976662,-0.0029220185,0.035467014
AAAGCCTGGTAAGA-1-ventral,0.1906232,1.0923272,-0.49116036,-1.1068403,-0.45149183,-0.49095857,-0.18803206,-0.1651207,0.54659367,0.052890897,-0.08995891,-0.31908956,0.25561184,-0.27728048,-0.44347242,-0.275828,-0.05461607,0.55309963,-0.41464418,0.20632382,-0.0,0.5720112,-0.0,0.4545169,-0.0,-0.4071022,0.15530658,-0.23234428,-0.33174026,1.0999976,-0.2156257,-0.30010965,0.3772608,-0.39706796,1.5872586,0.15219381,0.780537,0.873513,1.1385314,-0.19194697,0.26513836,0.43336725,-0.0,1.1086648,-0.1818041,-0.097187035,-0.29222238,-0.2665466,-0.61696947,1.6221895
AAAGCCTGGTAAGA-1-ventral-1,0.008504896,1.3040802,-0.54321283,-1.1065094,-0.46467048,-0.48192635,-0.07089926,-0.25416926,0.4332783,0.04088013,-0.08618203,-0.24887769,0.25492343,-0.2043756,-0.4431479,-0.2737976,-0.19300634,0.4480804,-0.35228348,0.2386447,-0.1978824,0.6693097,-0.4046149,0.38351905,-0.35787517,-0.0,0.15941554,-0.0,-0.3629045,0.0,-0.31545767,-0.20925543,0.31378126,-0.36762485,1.6629243,0.114764206,0.7283822,0.0,1.2409642,-0.2978497,0.034814008,0.3888195,-0.41323784,1.1875492,0.020068305,-0.2547757,-0.06543464,-0.0,-0.614856,1.7286689
AAAGCCTGGTTTCT-1-ventral,-0.02365503,0.0,-0.019482309,-1.1096896,-0.0338714,0.032694645,0.014853272,0.22061506,-0.007627673,-0.00965529,0.18853492,0.20914175,0.2853395,-0.14412543,0.2146523,-0.0,0.19535553,0.35761666,0.1812092,0.13138755,0.108916566,0.17017682,-0.025631852,0.07053417,0.19179499,0.07248323,-0.13343978,0.11440403,0.1260944,0.123803504,0.07172411,0.14228913,0.036901418,0.15315238,0.09578796,0.05400692,0.15955561,0.022855183,-0.040334266,0.009004048,0.12754531,0.095425814,0.13387038,0.11870745,0.016672306,-0.038841367,0.0,0.12647921,0.0,0.0048817736
AAAGGCCTAACCAC-1-ventral,0.15881547,0.21481764,-0.064951316,-1.1097094,-0.057625245,0.3538004,0.0,0.032390177,0.18345279,0.26271027,0.09544635,0.078200385,0.1692284,0.117084764,0.06662755,0.07101156,0.0,0.11544473,0.16447486,-0.041397814,0.051559832,0.07904326,0.05724868,0.111061744,-0.022583142,0.19966649,0.055730447,0.09104417,0.053623512,0.0,0.13570198,0.055614453,0.13795115,0.053757753,-0.0,0.051155705,0.18189538,0.082531676,0.09014473,-0.0,0.14597963,0.059539985,-0.023789937,0.0,0.03830837,0.044481054,0.10610958,0.17815228,0.0,0.016511828
AAAGTTTGACACTG-1-ventral,0.10430677,0.06520952,-0.042994156,-1.1097018,0.03262648,0.11022449,0.09372499,0.20525892,0.12412568,0.1735896,0.22374097,0.0063788644,0.21927457,-0.0,0.3148491,0.17414187,0.15945445,0.15659356,-0.0055907173,0.08370627,0.082471676,0.2869123,0.054902446,-0.022114119,0.13528147,0.070022285,-0.05399989,0.025917517,0.11277104,0.087820694,0.0,0.0,-0.08464714,0.15886989,0.07666414,0.19452544,-0.023179386,0.074523754,0.056618225,0.062142644,0.22212394,0.02529743,0.04172927,0.2189382,0.09026853,-0.0,0.064153664,0.13525963,0.010515907,0.11651354
AAAGTTTGCTGACA-1-dorsal,0.052178208,-0.07332153,0.028081674,-1.10967,0.078527786,-0.0,-0.0738136,0.015186056,0.24163769,-0.020333795,-0.030359032,0.27483955,0.30836672,-0.19866899,0.0,0.18517014,0.0,0.082914956,0.031344455,0.035153873,-0.083216235,0.11560931,0.24036005,0.0,-0.017830664,0.06581658,0.0,0.0939837,-0.025893848,0.10420566,0.022625241,-0.071309544,0.15197554,0.33439466,0.0,0.23514365,0.16565049,0.265062,0.0,0.035280384,0.27241677,0.14019899,0.0,0.0677106,0.25780743,-0.120396554,0.010396789,0.06248721,-0.11220562,0.07318863
AAAGTTTGGACAAA-1-dorsal,0.031607535,0.014335262,0.19986698,-1.109697,0.11449099,0.07807477,0.07295374,0.25172836,0.099124104,0.157348,0.10170035,0.17459704,0.17958643,-0.048941113,0.117223255,0.021415759,0.0161474,0.15849723,0.16280963,0.1592956,0.0,-0.052284867,0.03351042,0.32679763,-0.07323762,0.13475135,0.049048502,-0.0563356,0.047486417,0.14218192,0.081210636,-0.004650487,-0.10092186,0.06400424,0.20809354,0.055642214,-0.046527453,-0.0,0.20640188,0.12791727,-0.02925959,0.093058765,0.36084214,0.15343356,0.0,0.14528382,0.03530031,0.04306831,0.2615079,0.027923092
AAATCATGGTCTGA-1-ventral,0.115822926,0.06860647,-0.0034391219,-1.109712,0.0,0.1604384,0.06928688,0.045360427,0.25144255,0.087729596,0.10360601,0.105860025,0.12454112,0.16592497,0.06871849,0.1402067,0.0,0.082971215,0.041025773,-0.024419297,0.07978446,0.0,0.0053756605,0.14620122,0.16737325,0.20703408,0.14627047,0.09216767,0.15511374,0.0,0.23080081,-0.08526306,0.0,0.0683112,0.08725858,0.09071051,0.16338012,0.030696936,-0.039183963,0.08333875,0.21783343,-0.03554212,0.13674426,0.07107078,0.04634869,0.0277418,-0.14605145,-0.030345123,0.047687996,0.08831869
AAATCCCTGACAGG-1-ventral,0.15000337,0.044433862,0.1849598,-1.1096951,0.017854253,0.13750431,0.13936229,0.1764126,0.16773316,0.12841325,0.15936431,0.0,0.30501202,-0.13555044,0.11580759,0.026245516,0.02377855,0.22081482,0.1828948,0.08213136,0.22451869,0.19432643,0.11594916,0.06958263,0.042489428,0.12104581,-0.0681254,-0.09045946,0.0,0.19967262,0.049219295,-0.012650291,-0.0103606125,0.19322795,0.2207618,0.06885071,0.020381777,0.059281405,0.014605577,0.073800735,0.09614719,-0.08965797,0.08588226,0.082517974,-0.10078908,-0.0969908,0.21923319,0.2467361,0.08723054,0.0
AAATCCCTGTTCGA-1-ventral,0.16083188,0.032624748,0.0,-1.1096749,0.14483657,0.023982704,0.031184,0.14297274,0.18502082,0.09843896,0.39448065,0.011650208,0.24744318,-0.0,0.0,-0.0058110557,0.06569779,0.1600774,0.07745984,0.22606246,0.10942082,0.1905226,-0.0024812752,-0.09769546,-0.06729861,-0.12070014,0.104299195,0.036100034,0.17848128,0.124829054,-0.119038425,0.1815267,0.11935498,0.23495172,0.10539016,0.10684099,0.12605117,-0.085177556,-0.027311314,0.37430516,0.12043819,0.042447824,0.25735962,0.19377951,0.0,-0.08940233,0.02817652,0.0,0.22310199,-0.020301409
AAATGTTGAGCAAA-1-ventral,0.18360765,-0.18257466,0.029841783,-1.1096698,0.041882094,0.1692725,-0.0,0.1930508,-0.061505176,0.1376198,0.07289832,0.013400267,0.34380352,-0.2587276,0.36549327,0.009975467,0.20215254,0.0,0.18768857,0.19216257,0.13009779,-0.057702135,0.043951575,-0.013023152,0.13121451,0.042509504,0.031737626,-0.057422522,0.22057313,0.19813232,0.23852868,0.021646747,0.0,0.28935993,0.21437795,0.06429653,0.17561543,0.11936932,0.056918845,0.057837564,0.0029003476,-0.0070956023,0.10586318,0.22091317,0.045103922,-0.08996845,0.08773738,0.05454666,0.1285114,-0.01671791
AAATGTTGAGCAAA-1-ventral-1,0.18551913,-0.20189206,0.2673885,-1.1096641,0.16552514,0.0,-0.055051513,0.24026072,-0.06804758,0.05731323,0.053063747,0.05974317,0.32024744,-0.0,0.30219844,-0.016795067,0.15672019,0.048137963,0.07016411,0.22213286,0.12930775,-0.10702313,-0.0,0.0088384,0.18342979,0.06445559,-0.0021727881,-0.0015552839,0.1412956,0.12773181,0.1941877,0.14655635,0.21321262,0.31310654,0.048739713,0.09696752,0.24412027,0.035957552,0.0,0.103862934,-0.016053054,-0.0658836,0.15415914,0.27711284,0.047117952,-0.03741483,0.11557638,-0.020982426,0.12686029,-0.004622009
AAATGTTGCCTGAA-1-dorsal,0.19654925,0.04972643,0.028763013,-1.1097306,0.10962994,0.105543554,-0.030485062,0.12327627,0.12924638,0.052714393,0.089624576,0.14401159,0.2026819,-0.0009102954,0.0052311686,0.04068753,0.04675537,0.050308485,0.049607698,0.09988577,0.115033194,0.13167381,0.107774645,0.09731011,0.05377898,0.0,0.07173706,0.038507763,0.070964545,0.053478908,0.052492715,0.08341548,0.090613075,0.12137097,0.1037137,0.096674606,0.109087676,0.1457665,0.15075797,0.104623474,0.114133984,0.08043719,0.22071846,0.039857198,0.20038328,0.0343264,0.10469447,0.032363884,0.053725246,0.07468688
AAATGTTGGAGGTG-1-ventral,0.12177299,-0.086448796,-0.047166415,-1.1096275,0.016334344,0.31883833,-0.13161819,0.25859827,0.3960826,0.3337317,-0.07094529,-0.060457062,0.09606313,-0.046307843,0.003370643,-0.10770858,0.22944604,0.2085858,0.06339097,0.0,0.23163836,0.009075913,0.11792416,0.17631498,-0.23729616,-0.030462677,0.060445085,0.022684386,-0.14588092,0.06936216,0.12522344,-0.061375897,-0.05688535,0.015733136,0.24384752,0.40784708,0.22082902,0.0,0.14144935,0.18986054,0.14622137,-0.0,0.45304394,0.12614776,-0.07409368,-0.032501552,-0.123798326,0.19258013,0.1957527,0.0
AAATGTTGGCTAAC-1-dorsal,0.0,0.16218358,0.0705043,-1.1096846,0.07530029,0.0,-0.0070187123,0.20569152,-0.006687575,-0.05867634,0.24781668,0.2517174,0.22000648,-0.28749806,0.13891107,-0.055712,0.0,0.26310638,0.031745095,0.0765544,0.029234532,0.11869039,0.09858275,-0.008143054,0.12754181,0.15981752,-0.042199496,0.061507188,0.0,0.037139155,0.0893471,0.2647285,0.13383515,0.2723164,0.11473385,-0.032186046,0.23625104,0.0,0.11533426,0.24758773,0.073791035,0.05674828,0.15618245,0.04303742,-0.018425519,-0.07069833,0.12818702,0.09612468,0.06739272,0.03098967
AAATTCGAAGCACT-1-ventral,0.07861984,0.0048276,0.033826336,-1.109696,0.018552568,0.10956874,0.0,0.15505669,0.13156623,0.26895043,0.07121939,0.04121787,0.16733938,0.072760284,0.08597184,0.048072837,0.05986874,0.07109362,0.108691625,0.12654907,-0.0,0.22042356,0.072181866,0.0,-0.05138523,0.3292464,0.20823854,0.0261687,0.037390012,0.021585107,0.16266009,-0.012750097,0.02084016,0.0,0.09309308,0.17166871,0.26298255,-0.03449162,0.011413449,0.091278225,0.0,-0.01608544,0.20160279,0.036477223,-0.028545594,-0.11709446,-0.046682227,0.14910693,0.19690134,0.16321863
AAATTCGATCAGAC-1-ventral,0.16457805,-0.060564216,0.04468445,-1.1096945,0.052624036,0.058690175,-0.08333134,0.07824716,0.13417909,0.020401819,0.25480384,0.09120326,0.094121344,-0.12704545,0.1625275,-0.021162828,0.21660186,0.0,0.15055938,0.26668972,0.16473937,0.13862316,0.08380699,0.04713015,-0.0,0.006362357,0.09468169,-0.08472456,0.15831746,0.055001996,0.12175249,0.21920168,0.13659729,0.19322865,0.09157529,0.040072337,0.17998011,0.074375525,0.14443643,0.11076906,-0.0036847594,-0.0,0.20880389,0.25296533,0.32352272,-0.06269243,0.06867318,0.13524446,0.040201697,-0.106522046
AAATTGACAAGTAG-1-dorsal,-0.029510459,0.03119322,0.14886816,-1.1097138,0.114431076,0.059868153,0.10830063,0.023297982,0.20692304,0.06563766,0.022243315,0.0,0.15526898,0.096723564,0.18045442,0.2595357,0.05128496,0.20648278,0.030360512,-0.003512303,0.060222283,0.25142348,0.12763053,0.110559225,0.02953171,0.03821591,0.0028998447,0.042576436,0.20877661,-0.07779036,0.16429183,-0.0,0.065535896,0.06752866,0.11681194,0.0,0.17138575,0.0,0.03289424,0.12598436,0.116616,0.11322555,0.15292278,0.08042931,0.042303026,0.016588992,-0.034304395,0.24758051,-0.0072037517,0.13028125
AAATTGACAAGTAG-1-dorsal-1,0.033124562,0.15087366,0.1423732,-1.1097189,0.086140685,0.15376335,0.20146917,0.09561872,0.14507079,0.036337834,0.04577043,0.2616682,0.04464007,0.05818777,0.13271528,0.077178605,0.055466615,0.12652144,0.09236479,0.02059611,-0.023008123,0.2148778,0.15788281,0.0,0.09811264,0.051896077,0.042075537,0.014579521,0.21467663,-0.0,0.23016754,-0.05616301,0.04836581,0.05662968,0.13422559,0.0,0.08111694,0.08908075,0.0008894379,0.093168005,0.09356927,0.13565022,0.0,0.13920206,-0.019492375,0.0,-0.008827448,0.0,-0.04476077,0.12989274
AAATTGACTATCGG-1-ventral,0.20270708,-0.102286875,0.13207372,-1.1096358,0.21177386,0.0,-0.03306376,-0.14126116,-0.0,-0.0,0.04155558,0.01882987,0.26763406,-0.24713199,0.23832391,0.084930934,0.3972406,0.16979241,0.00940457,0.21266381,0.30475786,-0.043092374,-0.04208459,0.035300124,0.064312056,-0.001323753,0.03715495,-0.25760677,0.18432552,0.26775262,0.1358365,0.120260835,0.09991121,0.3143606,0.16303656,0.0,0.18326648,0.006004568,-0.09157201,0.101886995,0.08716354,0.13359405,0.35063404,0.20890701,0.3286152,-0.16044167,0.2864836,-0.0,-0.17885077,0.0
AAATTGACTATCGG-1-ventral-1,0.17259274,-0.0,0.06444403,-1.1096629,0.1225228,0.12991533,0.020548297,-0.084972255,0.0057677594,-0.029921135,0.14501107,0.013998375,0.19597834,-0.18967701,0.18689747,0.12573865,0.3851994,0.06714688,0.1322229,0.26960582,0.26544118,-0.0,-0.028679637,-0.010387501,-0.0046688984,0.037534785,0.054832272,-0.19669448,0.16146906,0.0,0.1572301,0.16770196,0.16658561,0.2096735,0.2565986,0.19033615,0.13737662,0.0068757394,-0.11893604,0.12814833,0.05495157,0.1323367,0.24269821,0.23014523,0.35484114,-0.16647485,0.2687992,-0.031840738,-0.071431935,-0.04853176
AACAATACTTTGCT-1-dorsal,0.08626802,0.07696596,0.13763404,-1.109731,0.0103635555,0.06420096,0.12404312,0.0,0.0,0.08091535,0.2425226,0.026274506,0.0,0.002587206,0.13010475,0.0,0.013805475,0.13365394,0.10446049,0.06767828,0.087744564,0.12755233,0.031114016,0.097512715,-0.014602344,0.08785493,0.07332981,0.0,0.0,0.06720564,0.0,0.11791997,0.11116885,0.08918855,0.0,0.11084889,0.0,0.015268732,0.0,0.0,0.08972013,0.08166042,0.13863252,0.057007525,0.042690497,0.106490485,0.16643581,0.13783425,0.12618303,0.17402701
AACAATACTTTGCT-1-dorsal-1,0.15148818,0.09151641,0.15273742,-1.1097288,0.12974194,0.0989692,0.09027042,0.061114267,0.05068367,0.13884702,0.05434738,0.13230254,0.13466573,0.13229683,0.0,0.0472103,0.016313722,0.0,0.0,0.13469064,0.07435992,0.093652464,0.043857206,0.058660205,0.0,-0.0040427847,0.04737242,-0.04524774,0.17009737,0.04014581,0.006342667,0.1671972,0.17812239,0.08589808,-0.033747688,0.060080063,0.14516014,0.02489348,0.102295205,0.0,0.11348315,0.107218035,0.13278003,0.16081636,0.0,0.10656933,0.07150685,0.13853456,0.0,0.06975462
AACAATACTTTGCT-1-dorsal-2,0.1616158,0.10488017,0.12724943,-1.1097267,0.1346311,0.10888873,0.0070345113,0.0,0.01113587,0.18190798,0.110599734,0.0075169904,0.0,0.027763687,0.059082877,0.14272366,0.0,0.11715622,0.12008709,0.084692806,0.105007894,0.088526614,0.031300653,0.1326829,0.05569498,0.10220763,0.0,0.11553728,0.05868835,0.1754504,0.101125315,0.09032498,0.089971825,0.0,-0.042323537,0.03407638,0.17761777,0.0,0.040796466,-0.0027602913,0.05848371,0.009255658,0.15348876,0.024889974,0.0,0.032363206,0.0,0.12988864,0.10335128,0.09878184
AACACGTGGTTGGT-1-ventral,0.0373565,0.093759134,0.19056839,-1.1096764,-0.12372362,-0.005275144,0.034819786,-0.037811466,0.0121185025,0.001243651,0.18407021,0.29023182,0.1175941,-0.14130898,-0.05390982,0.014593867,0.15420267,0.19557099,0.26232433,0.42669806,0.06397066,0.07843952,0.16342862,0.022795334,0.11971754,0.10236176,0.09764329,-0.06153915,0.2507147,0.052656,0.17510574,0.072906084,0.13775028,0.34646863,0.17714234,-0.07313437,0.18462142,-0.012563732,0.024609765,0.116486125,0.04038075,0.03335938,0.061131123,0.0925648,0.30066133,-0.0,-0.075425446,0.13514338,-0.04973326,0.1977894
AACAGAGAGGATTC-1-ventral,0.26303303,0.068360604,0.19809753,-1.1096447,0.21424274,0.0,-0.08138743,0.23415929,0.022691298,-0.07224149,0.20106328,0.41084427,0.20796956,-0.24828051,0.089339554,-0.13216999,0.06603466,0.213485,0.04559634,0.08132567,0.2705355,0.18616278,0.24324219,0.041033164,-0.088308655,0.11268159,-0.06801804,0.084532365,0.07494307,0.052952897,0.12544523,0.118246086,-0.0,0.14727852,0.07860889,0.0,0.41014692,0.30672607,0.20321827,0.10287868,0.14476065,-0.0021885503,0.11524396,0.20103025,0.09660778,-0.20806552,0.14698051,-0.08993407,-0.028130015,-0.13509095
AACAGAGAGGATTC-1-ventral-1,0.28216258,0.08058278,0.26549798,-1.1096398,0.21272382,0.020380622,-0.1329728,0.27351758,0.078310825,0.007231923,0.22298913,0.3930113,0.19123957,-0.2406525,0.18931611,-0.068074405,0.020174993,0.17489506,-0.07250561,0.108514234,0.314799,0.25854552,0.17534727,-0.08177751,0.007738397,0.016191859,-0.13789602,0.0035984525,0.06485148,-0.061638623,0.25697085,0.059233513,-0.11333897,0.08807984,0.08805563,-0.022960108,0.31857145,0.32335377,0.26109275,0.18736406,0.21556652,-0.009524492,0.14683777,0.13942428,0.09800349,-0.13422477,0.061317697,-0.04681051,0.046860866,-0.16871831
AACAGCACACGCAT-1-dorsal,0.14453451,-0.007550253,0.14298159,-1.1096914,0.05439298,0.0,0.12589405,0.044885013,0.10993869,0.041654136,0.17433381,0.0042256634,0.0,-0.12660855,-0.043286484,-0.08173983,0.13348731,0.16701324,0.113092504,0.12168832,-0.006831024,0.20754361,0.1481465,0.0,-0.062394477,0.030892923,0.20641495,-0.12472438,0.08643832,0.1958865,0.007133058,0.11934776,0.1355958,0.060586162,0.26001054,0.08524875,0.11379753,-0.005769796,0.051539883,-0.078508325,0.0,0.13940534,0.48234954,0.1450186,0.14751081,-0.09309107,0.11559063,-0.0041282843,0.07226772,0.09391947
AACAGCACACGCAT-1-dorsal-1,0.046248347,-0.102192834,0.24721517,-1.1096982,0.0,0.0,0.08827148,0.1115742,0.13768014,0.0,0.20267835,0.06166663,0.27264518,-0.068128444,0.003366007,-0.14032523,0.114466555,0.0816954,0.058984272,0.114092536,-0.020234188,0.28461903,0.12712835,0.2519943,-0.019303363,0.073131196,0.15088719,-0.079091325,0.18163463,0.0,0.016366778,0.0957679,0.023000242,0.08339619,0.20732334,0.10080975,0.0,0.10392989,0.05752383,-0.07632892,0.18957014,0.08452167,0.43282944,0.06874354,0.07914043,-0.021532709,0.0,-0.010515452,0.18320593,0.07798139
AACAGCACGGTGGA-1-dorsal,0.14628759,0.123146266,0.061586298,-1.1096963,0.0,0.13209833,0.0,0.19522968,0.0,0.024314962,0.08628181,0.16942677,0.29942152,-0.16049254,-0.0,0.090140015,0.1354729,0.12762076,0.10021858,0.23917095,0.14620571,0.0,0.033714518,0.12465862,0.0018167248,-0.0992334,0.044200193,-0.04857918,0.122297786,0.11419767,0.15019545,0.045879778,0.09514789,0.12016504,0.10072416,0.034882907,0.0,0.15638551,0.09341044,0.030498443,0.02308996,0.06650075,0.37973472,0.22637229,0.14297271,0.06203521,0.24942388,0.1618152,0.08638753,-0.20625797
AACATTGATTCGCC-1-ventral,0.12167032,0.11007188,0.14595729,-1.1097103,0.034359783,0.17118819,-0.15747422,0.22223121,0.0408619,0.10263781,0.15999112,0.0,0.2619984,-0.08378069,-0.051900946,0.03229206,0.15351608,0.10886255,0.09079281,0.14257196,-0.0018606584,0.14771587,0.02602315,0.06442219,-0.0020666255,-0.075633466,0.04721855,-0.0,0.14348124,0.019711824,0.1592795,0.1376826,0.12087806,0.18622716,0.0,0.053297393,0.15301593,0.14725128,0.122915156,0.004175318,0.15917419,0.0,0.12072955,0.17533602,0.23645584,0.0038865749,-0.0019428466,0.22674131,0.018805606,0.06926606
AACCAGTGGCGATT-1-ventral,-0.007836819,0.14933172,0.08576185,-1.109678,-0.12681822,0.09687419,-0.0010800362,0.1795658,0.055278458,0.018869713,0.123310626,0.17415696,0.35273775,-0.039444104,0.14003786,0.0,0.2546326,0.19085011,0.1714589,0.17224532,0.04191057,0.2480658,0.0,0.22183843,-0.0,-0.047833126,-0.0688186,-0.091250345,0.07225272,-0.013067922,0.0066583566,0.14008741,-0.10965752,0.14606848,0.06943339,0.100260496,0.10850623,-0.13447696,0.071830966,0.102834724,0.11379776,-0.0,0.20313787,0.17622074,0.27076432,0.083531104,0.349435,0.16968402,0.19874528,-0.12411469
AACCAGTGGCGATT-1-ventral-1,0.032121092,0.124517605,0.19669989,-1.1096958,-0.068609916,0.19429125,-0.004850229,0.25364113,0.07521544,0.03789897,0.17098026,0.1021445,0.37166107,-0.06431169,0.107829794,0.10179662,0.23157197,0.08314485,0.18455622,0.13951299,0.043978296,0.0,0.0,0.13950646,-0.05039156,0.057012092,-0.052617326,-0.074432895,0.09355521,0.050185636,0.0,0.13645554,-0.045366354,0.08807148,-0.01652062,0.09098814,0.06929658,-0.07244077,0.10225088,0.06680826,0.03410774,0.031687073,0.24982096,0.09569913,0.17489994,0.008550577,0.24417175,0.25885186,0.13957006,-0.11914585
AACCAGTGTTGCTT-1-ventral,0.15647587,-0.025235284,0.0,-1.109674,0.032729182,0.15422787,0.032583177,0.1883809,0.09278854,0.035479948,0.4504473,0.35035524,-0.057683524,-0.19563583,0.09339969,0.030754425,0.0,0.16174568,0.09861531,0.2612674,-0.01345873,0.0571816,0.014908447,0.0,0.089016065,-0.020119151,-0.02167278,-0.021458931,0.20773223,0.01766101,0.16216284,0.0,0.041646346,0.28515956,0.09466113,-0.02201213,0.082647845,-0.1644167,0.18240112,0.034739695,0.0069266125,-0.018527111,0.17241122,0.0,0.0,-0.0,0.036194097,0.13538356,0.07839563,0.01434087
AACCCAGAAGAATG-1-ventral,0.29919302,0.0056319064,0.080792874,-0.0,0.04418877,0.6126363,-0.2320493,-0.031226477,0.0,-0.44831628,0.59734756,0.40764365,0.019117067,-0.27458948,-0.20834771,-0.47179848,-0.09363956,0.24328808,0.017725768,-0.0918452,0.015340887,0.17446642,0.19546804,0.059905402,-0.40191692,0.253334,0.014170463,0.0059724436,-0.078704625,0.16980888,-0.269324,0.4844049,0.2411777,0.3027629,0.38114437,-0.28131127,0.0,1.1543661,-0.21121205,-0.0,-0.07847217,0.05471979,0.046801005,0.57348037,0.43357283,0.029341953,0.036463354,0.48217162,-0.45963383,0.0
AACCCAGAAGAATG-1-ventral-1,0.3575706,-0.058171686,0.2501921,-1.1091772,0.05876439,0.6344058,-0.20176914,-0.08910371,0.27319825,-0.47104368,0.5933394,0.25030518,-0.011218787,-0.3090868,-0.065485306,-0.49549198,-0.04586081,0.2768529,0.03019641,-0.07475582,-0.054907337,0.1507178,0.06922369,0.16275088,-0.4179048,0.35056713,0.09857718,0.0,-0.015409192,0.048227224,-0.10066536,0.41279638,0.2711323,0.2351865,0.0,-0.2612942,0.0,1.1179522,-0.29314002,-0.30588508,-0.16200927,0.016642561,0.0,0.50216335,0.44102672,-0.005221632,-0.022651687,0.5950932,-0.37489873,0.0
AACCCAGATGTCTT-1-dorsal,0.037912983,0.020270238,-0.06987115,-1.1096859,-0.0,0.06957299,0.07788652,0.04339278,-0.06766611,0.11490205,0.118052356,0.0,0.14581493,-0.0,0.031413596,0.30046126,0.15268546,0.28646278,-0.0,0.23201998,0.033984732,0.043500792,0.1297808,0.06073573,0.016586864,0.0,0.15495653,0.12768994,0.17535965,0.029211579,0.13880369,0.22978804,0.13252045,0.24740349,0.27023137,0.08848304,0.020566981,0.020086175,0.006045484,0.20882505,0.13384123,0.16196561,0.11934186,0.0,0.048593383,-0.23594877,0.18704315,0.15287793,-0.11427727,0.13176851
AACCGATGTACTCT-1-ventral,0.009676641,0.027619623,0.18140936,-1.1096706,0.04737441,0.23945743,-0.011829735,0.13469481,0.2073087,-0.045524705,0.090777084,0.0,0.028453859,-0.21197028,0.35949466,-0.120726496,0.33445898,0.16387957,0.14864233,0.18712513,0.2522403,0.0,0.12973492,0.015411626,-0.0061272252,-0.030278035,0.0,-0.030798847,0.2543239,-0.05543689,-0.02739211,0.05952882,0.08157169,0.13498475,0.13749261,0.04619404,0.13352752,0.1483919,-0.09020442,0.15049179,0.19900689,-0.036307972,0.33620393,0.11452133,0.13675171,-0.108125746,0.08724607,-0.12238788,0.12825084,0.088715754
AACCGATGTTGTCT-1-ventral,0.08803034,-0.22450435,0.12996617,-1.1096493,-0.03830135,0.089367785,0.19664358,0.07327612,0.23657073,0.17708291,0.37030515,0.06605743,0.14402634,-0.22689979,0.0,0.24133167,0.21149503,0.025319135,0.29034373,0.39605865,0.0,0.18120305,0.17315938,-0.1735041,0.051503323,-0.05621374,-0.045009986,-0.1516578,0.0,-0.028826661,0.0,0.26863986,0.29003763,0.11177088,0.13429786,-0.022701357,0.10274395,0.02407236,0.1732377,-0.05094449,0.12798755,-0.06364452,0.2230125,0.15677175,0.0,-0.18100488,0.047728192,0.10841074,-0.0935787,0.19319575
AACCGATGTTGTCT-1-ventral-1,0.07018436,-0.0,0.19321236,-0.0,0.009622157,0.027548816,0.106599875,0.25750464,0.2386472,0.20886557,0.26364684,0.14696209,0.12354458,-0.11386792,0.33594388,0.12497973,0.19949046,-0.027438337,0.24530302,0.37693682,-0.0,0.15430178,0.16951469,-0.30024973,0.014036514,-0.012823013,0.010936472,-0.25028586,0.14205447,-0.045651797,-0.062756345,0.25466812,0.35948402,0.18241714,0.15361065,0.009392869,0.15632842,-0.026017562,0.0,0.13854377,0.11035452,-0.15026411,0.13265039,0.22959115,0.22104612,-0.20426294,0.018607797,0.07962505,-0.07533339,0.20229043
AACCGCCTTGCAGT-1-ventral,0.30638823,0.089274034,0.14926149,-1.1096563,-0.059010655,-0.0031499069,-0.106616154,0.19020014,0.09001378,-0.12660365,0.114450194,0.15623811,0.19541988,-0.059034895,0.25682,0.0,0.31175148,-0.02649208,0.13752925,0.27874815,0.13869885,0.027971419,-0.06903708,0.11168948,0.15804805,0.006520384,-0.1068859,-0.22325888,0.2692685,-0.009485417,0.40266588,0.0,0.17062587,0.26351643,0.13762116,0.03727734,0.26980898,0.05638052,-0.02107733,-0.024647448,-0.00469678,0.040743858,0.11896052,0.12517083,0.3245375,0.072518855,-0.1056754,0.13661253,0.0038277525,-0.09045972
AACCTTTGCCCGTT-1-dorsal,-0.08062118,-0.05013559,0.085315,-0.0,0.015891556,0.0,-0.0046305526,0.08516057,0.12258773,0.06229714,0.11283083,0.38488793,0.19502246,0.0,-0.15000224,0.18898425,0.15753752,-0.0053119,0.018766217,0.13323642,0.07623183,0.17765634,0.13395433,0.07877815,-0.0,0.12902264,0.2811991,0.05359862,-0.07814421,0.20627981,0.12220958,0.122287445,0.22192003,0.0,0.035552394,0.10570279,0.13119851,0.06505383,0.0,0.0,0.31814817,0.12356701,0.39900634,0.032711584,0.00023822818,0.10239313,0.029132098,-0.19846712,0.038973466,0.047469534
AACCTTTGGGAAGC-1-ventral,0.20848551,0.083447255,-0.026979845,-1.109679,0.08639033,0.064962156,0.031688172,0.08344734,0.19907211,0.0,0.29052427,0.063579224,0.16854608,-0.0,0.17537169,0.008994606,0.15578306,0.012276355,0.26881325,0.0,0.111876234,0.25137943,0.12236712,-0.034841567,-0.058566667,-0.13371302,0.0,-0.1327828,0.20629817,0.03335224,-6.357829e-06,0.2447449,-0.006686052,0.17135313,0.28162938,0.001877948,0.06412446,0.048145287,-0.023146339,0.23801029,0.021835288,-0.026384395,0.27535492,0.16953224,0.0,-0.14967799,0.032322463,0.0,0.108521305,0.14513713
AACCTTTGTATGCG-1-dorsal,0.06358352,0.12044867,0.008628517,-1.1096824,-0.019038454,0.07237522,-0.0,0.144943,0.16168885,0.039337445,0.23611176,0.16384697,0.2639191,-0.054977275,0.0,0.020271318,0.104514815,0.21237533,-0.0,0.1725619,-0.10451999,0.13960755,0.0,0.13750827,-0.04064441,-0.07110371,0.017879859,0.07406308,0.16368616,0.016173093,0.005341955,0.03201535,0.2574246,0.1778606,0.141929,0.33749077,0.3073104,0.09729369,0.03566754,0.0,0.21577932,-0.06410983,-0.00806835,0.031595025,-0.08870675,-0.07350167,0.28837675,0.12409277,-0.0054183938,0.050267525
AACGCAACATGTCG-1-dorsal,0.19436051,0.0009517331,0.0049280585,-0.0,-0.08529094,0.09324847,0.111229084,0.36346364,0.0,-0.02688216,-0.033159457,0.0870399,0.26402277,-0.09787573,0.08802972,-0.18418624,0.03904821,0.09967428,0.1657867,0.22358188,0.11030221,0.0,0.05255167,0.012049005,-0.009900995,-0.012761488,0.04800739,-0.19286872,0.19620131,0.045115076,0.19733573,0.15962864,0.14963645,0.16047116,0.13323225,0.17473702,0.06451735,0.15384632,-0.086909205,0.2148388,-0.052434143,0.119989716,0.28956366,0.0,0.11436937,-0.0,0.19882667,0.20253272,0.23781507,0.045668226
AACGCAACCCTACC-1-dorsal,0.2136584,0.07255349,0.0847008,-1.1096952,-0.080684364,0.048566476,-0.014308493,0.0,0.08863977,0.023532288,0.0,0.19279489,0.13145147,-0.10148824,0.062280383,-0.013199052,0.08231977,0.14089191,0.3195087,0.2635044,0.06935104,0.10386904,-0.04899568,0.035849597,-0.03835155,0.01635828,-0.02764384,-0.04931927,0.18440609,0.04627173,0.104908995,0.1533211,0.088383794,0.048117384,0.029349245,0.0,0.10640753,0.22536312,-0.0115396585,0.013316502,-0.004791353,0.086686805,0.3683461,0.19649383,0.0,0.08940097,0.12911196,0.00017798196,0.16645347,0.06373014
AACGCAACCTCAAG-1-dorsal,0.45742628,0.009173921,-0.13484108,-1.1095396,-0.08466429,-0.011729532,-0.13437378,0.32975549,0.30662298,-0.020195844,0.0712255,0.3576161,0.14853035,0.25232613,0.47678146,0.073269635,0.3436405,0.13389051,0.009958662,0.0083071785,0.25271642,-0.10762752,0.061343953,0.64643353,0.10056311,-0.14433914,-0.1396207,-0.089826256,0.08517129,0.1300573,0.13569082,-0.079143316,-0.17066386,0.13823359,0.352853,0.40062818,-0.16300593,-0.04002949,0.0,0.17395414,-0.15121295,-0.0271374,0.3435014,-0.040423077,-0.10084928,-0.0,-0.14609079,0.4615375,-0.036051605,-0.034541756
AACGCCCTAAACAG-1-dorsal,0.08900242,-0.078340374,0.05137086,-0.0,-0.09159956,-0.10103557,-0.12783515,0.041743137,0.11466209,-0.03050301,0.035810485,0.29629046,0.29623574,-0.13059166,-0.0018865534,0.18564606,0.14951731,0.2484914,0.019030448,0.13297918,-0.03092905,0.0,0.23119733,0.28523278,-0.17848863,0.11491185,0.0,0.0,0.06255509,0.11476022,0.14479585,0.052654445,0.22998258,0.09609054,0.17869814,0.32629785,0.025749672,0.19842972,-0.011285411,0.029849142,0.1962771,0.13461803,0.4520466,0.15657784,0.042942226,-0.14863174,0.114685535,-7.5168085e-05,0.05796204,0.09280825
AACGCCCTAACTGC-1-dorsal,0.22655304,-0.038849514,0.07905449,-1.1096952,0.019404288,0.15454619,-0.045342118,0.29084563,0.037796266,0.03564295,0.0807382,0.063518316,0.18969421,-0.090912454,0.005127788,0.0011086796,0.08836246,0.14000897,0.0,0.3661531,0.11728741,0.20028722,-0.047606762,-0.010847516,0.0,-0.0296851,-0.0,-0.08880589,0.2257927,-0.008550882,0.0,0.0,0.041363943,0.2047261,0.02638648,0.0,0.13483775,0.18963379,0.07815334,0.121681616,0.013348637,0.08670863,0.3038199,0.108883776,0.15242243,0.03191089,0.24638493,-0.0131350765,0.18056102,0.0
AACGCCCTAACTGC-1-dorsal-1,0.29662842,0.048066825,0.08069309,-1.109684,-0.06702688,0.1925148,-0.1009251,0.2820302,0.0,-0.05053772,0.19403727,0.03378187,0.08763756,-0.1708693,-0.11145678,0.01606606,0.12081521,0.0,0.12408272,0.25875294,0.10364288,0.23470198,-0.09770592,0.06404449,0.0,0.005784333,0.020636672,-0.029899016,0.19954112,0.050031707,0.14838594,0.16876775,0.07283365,0.15630972,0.07127936,0.02414172,0.14472482,0.38741374,0.059576955,0.077048145,0.023478087,0.1531648,0.2129223,0.07455815,0.05637997,0.034845646,0.3129998,-0.012642609,0.05244196,0.10713142
AACGGTTGAGGTCT-1-ventral,0.12975676,-0.07985983,0.16999158,-1.1097025,0.12682295,0.118252344,0.0,0.027311843,0.10750655,0.037632097,0.120189674,0.042400908,0.25821233,0.08331128,0.012942115,0.0021620013,0.0695674,0.08723035,0.016813999,0.26528192,0.09329447,0.12213469,0.013323659,0.30409002,-0.065913536,-0.032172006,0.0,0.020846006,0.0,0.06726559,0.17434613,0.05806634,0.10867957,0.14031197,0.0,0.11856935,0.18378179,0.15028705,0.0,0.1704183,0.0,0.019559683,0.37241742,-0.092645824,-0.07335961,-0.027419463,-0.02171841,0.012026264,0.07727578,0.16421917
AACGGTTGCTTGTT-1-ventral,0.056467075,0.09230012,0.38561612,-1.1096394,-0.08797275,0.0,0.075346544,0.20749754,0.102195695,0.17104717,0.14260627,-0.094226606,0.23440804,-0.15030722,0.47622687,0.008332067,0.0,0.0,0.09031435,0.074256875,-0.016376708,0.31973103,0.04882129,0.14561577,-0.045979224,0.1479364,-0.09417077,0.081525505,0.17649145,0.16572954,-0.11102889,0.26619717,0.035796955,0.19810934,0.2143851,-0.061486103,-0.101671755,0.0,0.023241678,0.26677808,0.06202506,-0.0029560593,0.09678869,0.14671469,0.17393748,-0.30829272,0.10970734,-0.102811724,0.14757387,0.20910595
AACGGTTGCTTGTT-1-ventral-1,0.058982622,0.0,0.30147737,-1.1096498,-0.14758548,0.018865462,0.095113575,0.0,0.0,0.19448872,0.15001602,0.010277986,0.22132628,-0.0,0.3907587,-0.09497663,-0.016515587,0.104098596,0.09042487,0.0,0.06481196,0.20538034,0.0,0.20289935,-0.0,0.03260703,0.013603225,0.016695121,0.1505175,0.20377032,-0.06763697,0.39182046,0.18291797,0.2456492,0.15230812,0.0,-0.06879999,0.036229182,0.078567624,0.34434456,0.0032225025,-0.00025020706,0.10127371,0.16161723,0.10270903,-0.26177487,0.1198718,-0.17317852,0.09293881,0.27587667
AACGGTTGTATGGC-1-dorsal,0.0,0.03551262,0.14020962,-0.0,0.042137917,0.18715826,-0.13966633,0.062069796,-0.073044635,0.08815696,0.114566885,0.1800253,0.15154591,-0.05153716,0.23598288,0.117759235,0.09566465,0.21483505,0.1422502,-0.13517778,-0.1748552,0.12711264,0.0878629,-0.024886,-0.11060549,0.18655252,0.093352884,-0.108240254,-0.019667879,0.042856764,0.17474777,0.24040961,-0.010156765,0.21559948,0.1168129,0.0950089,0.105315246,-0.01834108,0.365882,0.101127595,0.0,0.24359071,0.26075646,0.0,0.13737123,-0.20261726,0.056019854,0.27561036,0.077357724,0.1006902
AACGGTTGTATGGC-1-dorsal-1,0.21184404,0.03663134,0.0,-1.1096773,0.06666261,0.2929136,-0.07800189,0.056591667,-0.1126494,0.15780134,0.09540146,0.20244749,0.2994109,0.041815095,0.0,-0.08023468,0.104432456,0.13394232,0.18772452,-0.06757683,-0.09027184,0.04471951,0.044127315,0.08656306,-0.117514804,0.07602602,0.05704286,-0.0,-0.023139717,0.0049953414,0.10555799,0.34521946,0.030140141,0.15495574,0.010174526,0.0,0.11445459,-0.04927099,0.22802404,-0.0022836528,0.039790448,0.21993688,0.23590218,0.2568592,0.11178467,-0.12693505,0.088816255,0.38480055,0.0,0.0
AACGTCGAGGTGTT-1-ventral,0.16621393,-0.0,0.081009455,-1.1096805,0.121026225,0.12273455,-0.18056148,-0.04718615,0.26883227,0.15993442,0.0029601986,0.041526582,0.32455173,0.18124501,-0.064427726,0.1431049,0.023697073,0.0993341,-0.13041615,0.116561405,0.16947068,0.09566981,0.04049257,0.24608094,-0.015024742,-0.0114982,0.06897363,0.09698826,0.19361322,0.11400659,0.3478454,0.21269058,0.14513993,0.26567277,0.30461806,0.24945264,0.15622716,-0.095396444,0.0,0.008000496,0.12489777,-0.071229875,0.069547735,0.0126665095,-0.030140812,0.13281307,0.1151826,-0.08856595,0.017527128,-0.022894543
AACGTCGATCCCAC-1-ventral,0.12271633,0.13469246,0.05636235,-1.1097089,0.010460864,0.18037646,0.008726658,0.08043652,-0.0018658903,0.0,0.042124685,0.215782,0.11547956,-0.057312716,0.20558776,-0.09105007,0.1456385,0.05336718,0.011846722,0.20319131,0.07722588,0.22018695,-0.030680101,0.10532241,0.11282251,0.0,0.08834107,0.0,0.2180236,-0.048821308,0.12946874,0.09881755,0.2520311,0.16214819,-0.023511384,0.18368994,0.08052493,0.24142785,0.12735218,0.03923157,0.059456382,0.08660996,-0.045442253,0.0990499,0.07770141,-0.0,0.05898926,0.17302743,0.075936966,-0.0
AACGTGTGGAGCTT-1-dorsal,0.033853237,0.09752132,0.032246217,-1.1096852,-0.037249196,0.045453306,0.0,0.0,0.026253339,-0.0,0.11120601,0.053158388,0.2736818,0.10629786,0.308731,-0.035026737,0.029155493,0.07276175,0.13431855,0.20848069,0.0,0.068479665,0.12053678,0.16508971,0.11391238,-0.019877288,-0.051581465,-0.0,0.10013153,-0.02287547,0.0,0.12076693,0.10165592,0.26964837,0.20003155,0.293975,0.07707897,-0.04901396,0.09351057,-0.004344119,0.0,0.021775192,0.20988396,0.11805839,-0.11895915,-0.11938268,0.27941197,0.32500815,0.111090064,-0.02987557
AACGTGTGGAGCTT-1-dorsal-1,0.0,0.14966129,-0.06302443,-1.1096841,-0.06445375,0.08271728,-0.010551678,0.3111648,0.067977674,-0.076326005,0.11677758,0.054217976,0.0,0.087512314,0.37665734,0.069537,0.0,0.01068718,0.17294464,0.1529819,0.09126293,0.09909029,0.14173879,0.17455877,0.06250931,-0.01944383,-0.009352896,-0.11210012,-0.0,0.057196476,0.00491942,0.13137285,0.03347249,0.28829333,0.113916144,0.17152531,0.13475336,-0.005342232,0.16837938,0.065777004,0.0209582,0.115697056,0.19973756,0.08893134,-0.1049469,-0.044094328,0.3305689,0.12654743,0.0,0.023325095
AACGTTCTCAGAGG-1-ventral,0.13298194,-0.057880618,0.29816702,-1.1096593,-0.0,0.12918484,0.05179926,0.12403875,-0.06656985,0.0,0.0,0.06780307,0.29746512,-0.0,0.17339589,-0.039583977,0.0,0.12044979,-0.029457146,0.119793355,-0.0028387045,0.0,-0.08974327,-0.020892356,0.057254344,0.0550564,0.09767222,-0.05538378,0.50017464,-0.12631854,-0.0,0.3756291,0.08667416,0.12902531,0.08025699,0.16433823,-0.01500898,0.030963542,0.03120591,0.019812861,-0.04748391,0.09306572,0.35807377,0.120936,0.06923196,-0.027729075,0.13086016,-0.0003341834,0.01514968,0.34710476
AACGTTCTTCAAGC-1-ventral,0.05094006,-0.10016693,-0.006688039,-1.1096845,0.1825509,0.1823778,-0.03154331,0.10109057,0.066016495,0.05792029,0.2621151,0.052598834,0.0,-0.0075684655,0.12110421,0.15867946,0.16661596,0.18652691,0.19041769,0.2110319,-0.0597273,0.22316417,0.2709371,-0.038225982,0.054053202,0.10273325,0.046177868,0.092618145,0.13672349,0.064545125,0.14410605,0.15273397,0.06423151,0.16589087,0.22846411,0.02183127,0.0657239,-0.17317535,0.22278641,0.10254261,-0.0,-0.07837687,0.22281069,-0.0,0.03706795,-0.1695996,0.21839693,0.0144455675,0.13173708,0.09681755
AACGTTCTTCAAGC-1-ventral-1,0.044138823,-0.10567845,0.030777914,-1.1096774,0.104655564,0.14334339,-0.02374477,0.04167459,0.2534704,0.07469118,0.29525802,-0.0,0.21596381,0.011901425,0.25469002,0.21922672,0.19274202,0.29348966,0.045712758,0.2833341,0.0,0.0,0.16444309,-0.015702646,0.06768495,0.055025224,-0.087900035,0.0,0.13650608,0.0077980305,0.18557166,0.0678963,0.06558191,0.101387486,0.2259695,0.02676516,0.10423688,-0.18964683,0.11141676,0.14420848,-0.1035646,0.031851828,0.25842902,-0.107682355,-0.0,-0.0986147,0.22351724,0.055766895,0.0,0.11554047
AACTACCTCCAATG-1-ventral,0.22407535,0.04909752,-0.013178852,-1.1096935,-0.03358232,0.07158149,0.004926589,0.11710726,0.1366668,0.027834112,0.20173207,-0.023583837,0.2806893,-0.050003596,-0.1393403,0.044410307,0.03575804,0.20878018,0.27678743,0.1756896,0.22442858,0.23980609,0.017460354,-0.012234384,-0.044261947,0.012028325,-0.027210183,-0.065706246,0.2803255,0.0050241626,0.1563423,0.16728364,-0.051418014,0.11548404,0.046233702,0.27267334,0.15347928,-0.007956558,0.011325736,0.12589629,0.07265985,0.0,0.19352983,0.22638845,0.0,0.048239417,0.09032363,0.0,0.053106368,-0.04949199
AACTACCTCCAATG-1-ventral-1,0.0,0.032001458,0.0216018,-1.1096834,-0.043439668,0.017511915,0.08799157,0.065873116,0.0,0.041448377,0.27409533,0.022212682,0.3746067,-0.04398015,-0.18502568,0.0,-0.15904309,0.15307201,0.18456255,0.15093356,0.0,0.26501763,-0.015766488,-0.030980177,-0.0,-0.05043593,-0.0,-0.105750434,0.2548684,0.09346626,0.13904412,0.27358454,-0.022993818,0.10614144,0.12852839,0.2133617,0.16747756,0.07642094,-0.009364287,0.086732194,0.15797071,0.0,0.21810775,0.0,0.18331508,0.023907987,0.09925671,0.21185952,0.0,0.02405151
AACTCACTACCACA-1-dorsal,-0.06782234,0.022983788,-0.0,-1.1096733,-0.037353173,0.086991556,0.035240352,0.06569737,0.1959097,-0.020808712,0.2175947,-0.008089808,0.0,0.13928603,0.0,0.09488465,0.05857337,0.0,0.016370615,0.12386006,0.29312652,0.08325571,0.16599993,-0.041473445,0.1816987,-0.0,-0.21943146,0.09401851,0.23783003,0.19448178,-0.08414163,0.13511814,-0.05302767,0.13985997,0.2602591,0.09101397,-0.0,0.0,0.18372868,-0.06590492,0.04793423,0.007704948,0.0,0.07820702,0.02651358,-0.06918656,0.18824504,0.0,0.07217174,0.19139309
AACTCACTAGTACC-1-ventral,-0.039235223,-0.028706659,0.09902661,-1.1096903,0.042089295,0.26765096,-0.0,-0.09102584,0.10298216,0.2749587,0.042822443,0.118238665,0.058361594,0.0595277,0.2762416,0.046953652,0.24420756,0.14114854,0.14370346,0.15998669,0.18961091,-0.03916747,0.0015204649,0.21389768,-0.0598981,-0.1658908,0.046041563,-0.014300215,-0.020079348,0.049503725,-0.014264915,0.059295833,0.0,0.25997683,0.28454354,-0.0319014,0.1341225,0.10410823,0.15365237,0.11394523,0.20075212,0.16506775,0.28289145,0.15089622,-0.037302375,-0.035788815,0.14711995,0.0,0.07578435,0.09296275
AACTCGGACTAAGC-1-ventral,0.091256656,0.034886297,0.087978266,-1.1096959,-0.0192074,0.12269872,-0.0079831155,0.29981893,0.02091639,0.027029127,0.3078329,0.084833555,0.16881062,-0.08123564,0.1496759,-0.0026548572,0.17839918,0.03374773,0.10743208,0.29045945,0.009975616,0.17505702,0.12758358,-0.024127962,0.0,0.09138621,-0.028011402,-0.06449587,0.1405381,0.09843016,0.2157748,0.12036627,0.10353185,0.0,0.056104474,-0.0,0.15422371,-0.020745728,0.17753543,0.03313855,-0.015070638,-0.018167563,0.10759453,0.1823173,0.22849356,-0.14891553,0.0,0.17963229,0.2236182,0.076850325
AACTCGGACTACTT-1-dorsal,0.04873934,0.13577501,0.16363358,-0.0,0.028539708,-0.0646925,-0.10014574,0.0,0.06417416,0.13727163,0.0,0.259761,0.28018886,-0.01192689,0.13861528,0.103229016,0.10091387,0.10716605,0.32983637,0.16677074,0.019744147,0.21784526,0.06313156,0.10394995,-0.05813228,0.00048629113,-0.009820925,-0.13420662,0.15248805,-0.054356128,-0.07112411,0.12345992,0.06926009,0.19250341,0.19384047,0.16172184,0.0,0.065216675,0.0,0.17763074,0.069245465,-0.013241371,0.24608292,0.010302192,0.03443651,-0.05305807,0.21476671,0.054391127,0.19348086,-0.0053483914
AACTCGGACTACTT-1-dorsal-1,0.041624267,0.106642365,0.10628285,-1.1096946,-0.018371278,0.09933673,-0.2219487,0.14876309,0.14561988,0.09903425,0.19842085,0.21857123,0.29104516,0.07690682,0.10760427,0.14587973,0.0,0.0,0.22830968,0.1325991,0.044055443,0.12636639,0.025584823,0.14493771,0.0035590597,-0.004032387,0.016283737,-0.17839168,0.19753185,-0.051773656,-0.016239485,0.13688977,0.06530571,0.19593948,0.104652494,0.11940734,0.10747547,0.039833527,0.0,0.19259429,0.15674345,-0.015814107,0.2885224,-0.01718733,0.08277348,0.06953579,0.22711323,0.024042446,0.0,-0.055038866
AACTCGGACTTTAC-1-dorsal,0.07679468,-0.016350681,-0.0014490552,-1.1096861,0.054812975,-0.04356729,0.011535825,0.07480262,-0.04395896,0.1536022,0.0,0.28793117,0.20235829,-0.057534114,-0.04375524,0.3551551,0.20147048,0.090195365,0.025539333,0.20604621,0.13771231,0.023096727,0.04157656,0.16207299,0.069963574,0.0,0.23985973,0.27331084,-0.12892254,-0.0039476156,0.16858345,0.070023604,-0.036970314,0.028321123,0.074796915,0.009142277,0.17279556,-0.023970407,0.28242093,0.08933465,0.0,0.2675894,0.29656053,0.0,0.06657671,0.16579556,-0.061249208,-0.14006138,0.1098833,0.1036116
AACTCGGACTTTAC-1-dorsal-1,0.022966431,0.020741494,0.058482256,-0.0,0.016540542,0.02214607,0.076951884,0.027640132,0.14949124,0.21985136,0.026202174,0.0,0.21011151,-0.10038244,-0.071795456,0.22846863,0.09080023,0.23034428,0.040242434,0.08837414,0.07928855,0.0,0.07909793,0.11270606,0.108957164,0.237812,0.24828035,0.2585954,-0.02980537,-0.07914272,0.058464333,0.21594097,-0.055334438,0.027086487,0.026057774,-0.11357712,0.11278329,-0.051755246,0.3043601,0.119846255,0.1788287,0.2377682,0.30309314,-0.025586355,0.0,0.16479966,0.010344035,-0.18976788,0.04773005,0.1387138
AACTCGGAGAACCT-1-dorsal,0.11423711,0.012928178,0.0,-1.1097004,0.034133576,0.08293222,0.035798263,0.0,0.19737422,0.21529683,0.18411542,0.123317875,0.25528914,-0.008703868,0.025495665,0.19418532,0.08093298,-0.0071070595,0.12688036,0.13512422,0.08996747,0.09686934,0.0991379,0.25218084,-0.025825832,0.080382444,0.1744255,-0.045811933,0.20215784,0.0,0.0033054338,0.100572795,0.1753753,0.03835569,0.032724317,-0.015498931,0.14012311,0.0,0.2640534,0.09120292,0.0393431,0.071775444,0.31902277,0.0,-0.0045530004,0.12727118,-0.17585225,-0.120791465,-0.034561623,0.020895055
AACTCTTGGTGTAC-1-ventral,0.15646514,0.03209132,0.21009237,-1.1096867,0.08626195,0.14092803,0.032152534,-0.09895743,0.06302423,-0.01045545,0.05754975,0.0,0.3137689,-0.0,0.13501677,-0.118890144,0.33732045,0.14941126,0.11850637,0.3376953,0.16583806,0.031178111,-0.080677934,0.1234317,0.022402588,-0.035115615,-0.013409192,-0.16896011,0.2372242,0.09583744,0.037441302,0.069242425,0.060714692,0.18012817,0.20363636,0.05433824,0.16229154,0.029871328,-0.018059215,0.09127485,0.0029716622,0.0,0.3247286,0.19846918,0.28641382,0.003933799,0.1250863,0.07371711,0.09050939,0.036570616
AACTCTTGTCTACT-1-ventral,0.10118877,-0.0,0.25661263,-1.1096783,0.061736304,0.074430674,-0.031937163,0.08539048,-0.0036309164,-0.052682694,0.29312328,0.2520455,0.02035013,-0.24833621,0.20817354,-0.050938,0.16316445,0.16594686,0.02891404,0.008564004,0.023726748,0.3126923,-0.037338868,0.031517267,0.19907925,-0.0,0.029045044,-0.0,0.12083479,0.082213074,0.19299172,0.11015874,0.00035740438,0.22646369,0.17933996,0.16877133,0.0038783005,0.1643301,0.07786069,0.25638762,0.20918575,0.05173733,0.28032044,0.0,0.19758609,-0.083068214,0.13069144,-0.028046701,-0.0,0.14594372
AACTCTTGTGCGTA-1-dorsal,0.16299617,0.0,0.18043162,-1.1097178,0.03956274,0.04125498,0.0,0.101146325,0.13035838,0.034290172,0.084897235,0.075063795,0.2302144,0.08318543,0.13830318,0.008284053,0.0794954,0.13674675,0.049270302,0.0,0.0,0.104765564,0.17204037,0.14559528,0.10056415,-0.14122182,0.1919971,0.029307771,0.057164665,0.105802305,0.0679649,0.0229444,0.06409071,0.1641996,0.0,0.1541702,0.0,0.14561896,0.011842624,0.1435378,0.038234293,0.13530114,0.2762441,0.047614418,-0.019435817,-0.005262428,0.030532641,0.0,-0.0,0.044778094
AACTCTTGTTCGTT-1-dorsal,0.025521038,0.0,0.11301421,-1.109687,-0.011759202,0.06334989,-0.04792644,0.0,0.046559427,0.19675936,0.27895775,0.11707333,0.41153148,-0.13458928,0.0,0.13951716,-0.037636824,0.17725088,0.12553152,0.214859,0.06246303,0.0,0.09930095,0.11168357,0.21493879,0.091514274,0.0,-0.13958938,0.12555271,0.019659104,0.08868592,0.16028507,-0.076107584,0.23350151,0.10717589,0.13219407,-0.0,0.07156041,0.25486818,0.030986903,0.2232206,0.08925504,0.08724237,0.08854585,0.0,-0.20973088,0.14599109,0.13699958,-0.030776396,0.085313275
AACTGTCTCCACCT-1-dorsal,0.14998074,0.06700159,-0.030226046,-1.1097167,0.100632764,0.040839262,0.13311252,0.008165887,0.21971321,0.0,0.19436826,0.0,0.09435905,-0.017937025,-0.017913448,0.06549232,0.057622433,0.0,0.0077608563,0.1595388,0.1473672,0.08184685,0.08183371,0.19648421,-0.015585158,0.10909369,0.13779402,-0.03653222,0.13262126,0.24683039,0.12030635,0.03439571,0.0,0.11843865,0.0,0.11613758,0.08262809,0.06310667,0.1538899,0.051509406,0.083937354,0.0037858058,0.25977725,0.048692048,0.071563184,0.17908868,-0.05814142,0.1557432,0.1259972,-0.06160551
AACTGTCTGAATAG-1-dorsal,0.124651745,-0.018125907,0.16171047,-1.1096972,0.11077918,0.024064511,0.11243623,0.12128587,0.37381002,0.18738215,0.12167918,0.30240682,0.227302,0.02367346,0.015704442,-0.030363005,-0.0,0.091624685,0.046804763,0.06745282,0.04389066,0.06857419,0.033163488,0.25370502,-0.002999372,0.24847248,0.007077874,-0.03900899,0.21817204,0.21578957,0.109691344,-0.07033461,0.18316515,0.11355916,-0.039847694,0.13649586,0.03564309,-0.030653147,0.045732576,0.14706022,0.027987419,0.0,0.1831723,0.11125428,0.05034859,0.07474773,-0.14512335,0.0,0.08829401,0.027969658
AACTGTCTTTTCAC-1-ventral,0.13285099,0.2371279,-0.083789766,-1.1096936,-0.047073234,0.0,-0.0,0.11817239,0.0043217014,-0.04354762,0.0,0.105199456,0.18470374,-0.015291837,0.1256115,0.020267427,0.34574366,0.028935978,0.1640072,0.19163552,-0.06091244,0.35447338,0.05625751,0.0,0.08100661,-0.07553167,-0.08546638,-0.08179102,0.22203135,-0.027359527,0.11471798,0.09021119,0.18572682,0.0,0.10002568,0.0763116,0.12776114,0.27750492,0.012402705,0.057589345,0.100167625,0.0,0.0,0.058286607,0.051801026,0.03179201,0.044169515,0.11673839,0.14403476,-0.0101514
AACTTGCTTTCTAC-1-ventral,-0.045452386,0.0,-0.0,-1.1096421,0.1877782,0.22063807,0.028889006,0.08135266,0.15915073,-0.017783444,0.33152837,0.09820732,0.054657646,-0.24410819,0.34332868,-0.16217868,0.2716975,0.114147246,0.0835835,0.015006691,-0.11863192,0.05712076,-0.048831042,-0.0,0.12031733,-0.014955137,-0.11225787,-0.14721493,0.18528019,0.0,0.039792027,0.35659453,0.17889568,0.18169883,-0.101559766,0.17159285,0.10556189,-0.0,0.10110208,0.029481066,0.0017586331,0.05586236,0.46047226,0.26080766,0.28487518,-0.008041462,0.23538734,0.0,0.2320355,0.16762024
AACTTGCTTTCTAC-1-ventral-1,-0.0668988,0.0955358,-0.012595588,-1.1096591,0.0,0.16830485,-0.01328018,0.06988554,0.10897435,0.032367345,0.26907846,0.1468716,0.04169846,-0.0,0.34095114,-0.15560475,0.22188403,0.0,0.040343456,0.062473323,-0.10387786,0.09476767,-0.0,-0.11806343,0.058941893,-0.0017408531,-0.14278664,-0.14767402,0.20629808,0.17983352,0.09834358,0.43571228,0.17777543,0.1418269,-0.04832831,0.16194662,0.14730825,-0.12426682,0.11254709,0.08666244,-0.029963521,0.03627062,0.3593609,0.19164573,0.351942,-0.03396511,0.16554253,0.13244185,0.26513988,0.18227728
AAGAACGAAAGGCG-1-dorsal,0.0,0.011481896,0.054004274,-1.1096846,0.008419103,0.14292642,0.037960462,0.05236669,0.24254978,0.018573603,0.049810987,0.30761778,0.33192372,-0.11869663,0.034965277,0.11347171,-0.015947025,0.07610541,0.15578979,0.29363737,-0.020113721,0.29381797,0.22579446,0.09623908,-0.12738016,0.14256075,0.23177493,-0.039540533,-0.044092473,0.18194342,0.14761645,0.043237347,0.21412402,0.0,0.058480635,0.24212866,-0.0013913711,0.119910195,0.16507094,-0.053096812,0.118925884,0.037410576,0.32061267,0.08770403,0.004398165,-0.08253548,-0.08351154,0.047955815,-0.085397966,0.097920686
AAGAAGACCTGGTA-1-dorsal,0.20010686,0.041280337,0.20108825,-1.1096908,0.1509102,0.12373413,-0.06800261,0.053434025,0.010476469,0.08482758,0.20335823,0.12996985,0.18828617,-0.3300549,0.16760853,0.10776692,0.062920064,0.042195577,0.10957758,0.15463032,0.07344982,0.12913054,-0.06255759,-0.0011005667,0.0,-0.051232047,0.110852346,-0.08475397,0.16112514,0.012002426,0.18081945,0.07975294,0.092434056,0.0,-0.01580967,0.17307007,0.17346834,0.076562084,0.13229957,0.036096107,0.05534776,0.13421807,0.29771465,0.17452824,0.21931425,0.0474401,0.19654702,-0.022532675,-0.0022367637,0.087810166
AAGAAGACCTGGTA-1-dorsal-1,0.19593115,-0.028177634,0.24134926,-1.1096948,0.15711296,-0.012210475,-0.039218336,0.057866495,-0.0841911,0.029210301,0.09099941,0.14962788,0.11862495,-0.23821361,0.08736182,0.16402854,0.14064881,0.0,0.17506023,0.08134031,0.18503974,0.066653594,-0.075193584,0.0,0.107619025,-0.039045945,0.07696241,-0.064851046,0.2447329,0.063721724,0.21072845,0.07471568,0.09958599,0.21831934,0.050852574,0.048075654,0.053068426,0.28712162,0.16610968,0.028980248,-0.016163787,0.087204106,0.34489173,0.23706354,0.19010131,0.040203467,0.09304179,0.12598509,0.13402912,-0.010236701
AAGAAGACCTGGTA-1-dorsal-2,0.16970854,0.009130368,0.23876318,-1.1096933,0.15517485,0.06142631,-0.046916805,-0.0031428868,-0.0,0.09157599,0.1648966,0.17708546,0.0,-0.28792077,0.0,0.10878021,0.059712883,0.08689741,0.11685486,0.08798683,0.09054423,0.11145544,-0.058734752,-0.011271768,0.061868217,-0.07365247,0.14171201,-0.047529805,0.0,0.09388369,0.2221669,0.1460984,0.15094869,0.21058166,0.041563652,0.054597534,0.2316095,0.09859087,0.12253271,0.0,0.012842204,-0.020191804,0.26904336,0.19965494,0.2639612,0.026136572,0.0,0.03508208,-0.024888782,0.072917975
AAGAAGACTTCATC-1-ventral,0.12880929,-0.097352535,-0.021264488,-1.1096983,0.071993224,0.19412842,0.0,0.22329897,0.0,0.083732955,0.059175823,0.20049061,0.1449916,0.0043215686,0.0,0.046975434,0.03556166,0.0948044,-0.0,0.2615288,0.033032365,0.040113583,0.039009817,0.12916367,0.00864659,0.26557416,0.15354764,0.012137244,0.015024949,0.10543607,0.17041309,0.011132157,0.0,0.20874727,0.21040902,0.04134945,0.09902143,0.0363091,0.24131326,-0.08858794,0.13426109,0.053883836,0.09312377,0.1428548,0.101523675,0.16779983,-0.15726747,0.0,0.13029094,0.10474952
AAGAATCTAAGCCT-1-dorsal,0.092203654,-0.002725853,-0.112498276,-1.1096838,0.089128636,0.21491635,0.12942776,0.0,0.18004726,0.14898583,0.13114521,0.34532765,0.26277012,-0.08789123,0.046125595,0.2210197,0.11406051,0.058541972,-0.112953454,0.24756722,-0.08769731,0.1308206,-0.045406822,0.10067955,-0.18263917,0.20806107,0.049217995,0.16172078,0.010972719,0.19365543,-0.052998997,0.13172719,0.100926764,0.21042398,0.026125764,-0.15017702,0.19490027,0.1591264,0.26712948,0.098205395,0.088321984,0.13819064,0.26347554,0.017967805,0.056119837,0.1649743,-0.0,0.028500369,0.007045857,0.10173541
AAGAATCTAAGCCT-1-dorsal-1,0.06042027,-0.010332731,-0.16293322,-1.1096864,0.042291462,0.20178905,0.19483627,-0.10179076,0.0,0.14208835,0.0866281,0.22464673,0.159546,-0.037195154,0.09703339,0.2622177,0.22222182,0.030870646,-0.00029822192,0.31938952,-0.038835738,0.13680768,0.018001316,0.19936794,-0.17471288,0.09057292,0.10769326,0.14900565,0.12192122,0.3065443,-0.065436564,0.037967496,0.08816777,0.16101381,-0.065438025,-0.07476992,0.067597196,0.2479427,0.2908651,0.0011777092,0.10403576,0.10071502,0.28207883,0.11299903,0.054943033,0.056234494,-0.055964127,0.016937977,0.0,0.08529309
AAGAATCTATCAGC-1-dorsal,0.3336639,0.039217394,0.07397609,-1.1096905,-0.04065176,0.15960386,0.00898057,0.3269017,0.06827242,0.14029954,0.16565756,0.07982889,0.25004503,-0.0801468,-0.081753075,0.02772992,0.083782725,0.06557019,0.16656253,0.0,0.0,0.0,0.045450788,0.05537452,-0.17502083,-0.08713418,-0.0,-0.04976531,0.28155908,0.08908693,0.0,0.15536207,0.05319574,0.014210973,0.16664225,0.16230111,0.021197805,0.12645607,-0.03612386,0.107099004,0.03564583,0.120484106,0.296898,0.051671408,0.08095949,-0.017924177,0.25262028,0.0929953,0.19880332,0.01679156
AAGACAGACTGGAT-1-ventral,-0.010509359,0.11476855,0.26719278,-0.0,-0.029953388,0.24240813,0.042752568,0.014347228,0.021854773,0.18233864,0.108741425,0.044633303,0.2819663,0.20308919,0.032180607,0.19692057,0.24490973,-0.0,-0.012864538,0.061015893,-0.00019477474,0.21168362,-0.1225157,0.1374778,-0.017290115,0.06320205,0.12686919,0.1400805,0.14157647,0.14694671,0.014882473,0.26553053,0.10043292,0.21888065,0.12335234,-0.0072488524,-0.080867745,0.2127505,0.020722726,0.0691972,0.18579584,0.0,0.12691642,-0.004865329,0.05386256,0.0,0.10432117,-0.0,-0.0,0.13768947
AAGAGATGAACGAA-1-ventral,0.17832918,0.072651,0.042390283,-0.0,-0.027387673,-0.05942484,0.08861547,0.20974506,-0.0080890795,-0.020978319,0.10467747,0.22723004,0.4085154,-0.12282041,-0.08888265,0.10796657,0.11314689,-0.014592278,0.18700173,0.27365258,0.0,0.1895498,-0.027094021,0.0015037466,0.11872524,0.0,0.06761253,-0.12096134,0.1393773,0.07899502,0.1855597,-0.061873533,0.13425386,0.19741182,0.16081503,0.19948067,0.21930978,0.024722364,0.1257061,0.1668591,-0.06814924,0.046938404,0.237554,0.048765525,0.17260735,-0.13634954,0.21191266,0.128908,0.13833714,-0.024319954
AAGAGATGCCAGTA-1-ventral,0.00018372305,-0.001760059,0.13584505,-1.1096853,0.082163714,0.016277023,-0.0,0.13259901,0.0893302,0.08327267,0.19342813,0.064797804,0.24770366,-0.12274246,-0.007866423,-0.15694705,0.12860249,0.17405471,0.14404912,0.011417225,0.19254273,0.052040134,0.008538216,0.029884206,0.16820242,-0.13463604,0.104007825,-0.064076126,0.17966016,0.066215076,0.14810637,0.28613055,0.14120717,0.1199574,0.17753023,0.2045659,0.053427503,-0.0075541604,-0.10498365,0.20914848,0.08184989,0.15089323,0.29243985,0.27946723,0.21553905,-0.0,0.051761176,0.0,0.143986,0.0814775
AAGATGGACTATTC-1-dorsal,0.16235566,0.07857592,0.09268602,-1.1097018,0.1407046,0.048584647,-0.0,0.125442,-0.0,-0.037108596,0.0,0.13776305,0.21230292,-0.038075846,-0.07066025,0.100717925,0.0,0.11702668,0.14161873,0.26042238,0.06667614,0.18570916,0.088470705,0.08931317,0.14812909,-0.06936948,0.07491228,-0.09421866,0.10354197,-0.0411235,0.0,0.0,-0.09518286,0.22797602,0.22823904,0.14409184,0.09531199,0.05399515,-0.027606819,0.0,-0.0033218996,0.09475357,0.32607698,0.16047654,0.18862537,-0.059587628,0.10085689,0.13845235,0.009194895,0.08003832
AAGATGGACTATTC-1-dorsal-1,0.16099814,0.09793448,-0.04339821,-1.1097038,0.030162597,0.075141,-0.07451859,0.1251573,0.04844953,-0.0914879,0.16869275,0.18444742,0.25869277,-0.0037466818,0.022715556,0.11510585,0.17735006,0.0,0.2464714,0.20198159,0.0810733,0.0,0.0,0.1141923,0.104269326,-0.0,0.07015476,-0.0,0.0,0.031088704,0.11451139,0.0,-0.007868873,0.19761686,0.14546597,0.0,0.11609889,0.047831193,-0.016839903,0.059836622,-0.030837657,0.0,0.32193378,0.2046618,0.1717281,-0.05369061,0.20650746,-0.041203234,-0.015123288,0.06651966
AAGATGGAGACGAG-1-ventral,-0.054458052,0.07561013,0.1202892,-1.1096752,0.017141046,0.03533992,0.0348639,0.1482877,0.0,0.2128898,0.22129905,0.12565708,0.33800885,-0.11046238,0.16289912,-0.040006705,0.18364471,0.19092359,0.14215708,0.28625348,-0.05115231,0.22111313,-0.068885885,0.16735342,-0.04548404,-0.040238965,0.049300533,0.015588768,0.17408332,-0.0016822418,0.012696341,0.12040985,0.10066142,0.23227732,0.13999893,0.20772839,0.09071984,0.049435038,-0.0,0.0,0.14713311,-0.03946722,0.11310342,0.08956649,-0.0013313029,-0.12165547,0.23205522,0.14232053,0.250992,0.018899268
AAGATGGAGACGAG-1-ventral-1,0.04068321,0.10727075,0.13965714,-1.1096869,-0.0015155475,-0.0033992531,-0.002306435,0.087824866,0.124057025,0.15502854,0.286546,0.029680226,0.18975069,-0.13487671,0.0,0.070013,0.20942946,0.15819673,0.02624708,0.30699828,-0.085829966,0.232691,-0.009514425,0.1505428,0.01857924,-0.086227596,0.018714523,0.04119884,0.205531,-0.11154758,0.07328166,0.052521706,0.074881256,0.0,0.20760798,0.26742446,0.14322418,0.0,-0.10001441,0.18447986,0.21899123,-0.025397474,0.16196305,0.068194315,0.026245242,-0.12593806,0.038197227,0.0,0.0,0.0442643
AAGATTACCCATGA-1-ventral,0.1996951,0.044285405,0.07989109,-1.1096753,0.06358779,0.19375439,-0.015661716,0.059833877,-0.05151186,0.1698903,0.13239133,0.124006145,0.34058565,-0.0,0.1588871,0.15347806,0.14909849,0.01259779,0.29821822,0.0,0.1489794,0.10010276,-0.09481225,0.050180987,0.0,0.02636527,0.11813693,-0.19497329,0.109937586,0.16001718,0.18911517,0.016998323,0.10745774,0.0,0.05044189,0.15261184,0.1872945,0.018044045,0.0,-0.07526881,0.025509719,0.0022741987,0.15106155,0.25209272,0.19754496,-0.12811893,0.06990372,0.0,0.13150966,0.0905685
AAGCAAGAAGAGTA-1-ventral,0.01746484,0.17745367,0.038486883,-1.1097013,0.108260795,0.04538262,0.32199094,0.05408726,0.12300333,0.071700685,0.04263265,0.032170657,0.19678093,-0.011961063,0.20768644,0.045768894,0.03926068,-0.01569291,0.1581655,0.07577756,-0.17799702,0.1134597,0.22536074,0.10161247,0.0,0.06517772,0.3118335,-0.11508313,0.16274793,0.20050639,0.10260382,-0.022435918,-0.027051503,0.09486699,0.11756827,0.08122911,0.076914705,0.14523792,0.19147585,0.011690984,0.089887924,0.09704832,0.3511841,0.16415967,-0.025324028,0.07223685,-0.01043386,0.0,-0.043371256,0.15242079
AAGCCAACGAATGA-1-dorsal,0.13820139,0.14457016,-0.058931842,-1.109684,0.03353674,-0.018662678,-0.027018191,0.0,0.1753796,0.3013362,0.21240112,0.25279382,0.2400565,-0.042453542,-0.10941718,0.056579713,0.039629273,0.034915518,0.096876375,0.22873329,0.026143104,0.17424184,0.20506307,0.07813144,-0.10861941,0.0,0.15225033,-0.047231715,0.06508542,0.110329926,0.15706538,-0.00039339068,0.17871523,0.1272418,0.14053464,0.16427727,0.03675211,0.11692056,0.077769026,-0.2330398,0.16620539,0.18773916,0.26510814,0.15650415,-0.09299106,-0.115652025,0.0,-0.008639561,0.12720917,0.07893886
AAGCCAACGTTTCT-1-dorsal,0.10006125,0.08427812,0.109650396,-1.109668,0.0,-0.034603745,-0.11025535,0.09822477,0.19899726,0.26700464,0.08228304,0.0,0.401478,0.07991226,0.2424214,0.1371337,0.0,0.118404076,-0.065676905,0.0,-0.114542514,0.22394057,-0.062194932,0.12233911,-0.0,0.07092385,0.06422682,-0.0310323,-0.0249262,0.053798214,0.12774442,0.09610296,0.20696917,0.16558939,0.0,0.10288259,-0.05040394,0.20983371,0.3057593,-0.057070524,0.16590768,-0.14943375,0.29926467,0.14652845,-0.075966716,-0.13051352,0.12944454,0.09092687,0.09950911,-0.08278993
AAGCCAACTATGCG-1-ventral,0.1938831,0.01572208,0.09866445,-1.109692,0.0,0.0,-0.041429404,0.05034091,0.060353074,0.19281112,0.18872374,0.0,0.3528242,-0.0,0.06943627,-0.07642323,0.16305985,0.165972,0.075512774,0.090059645,0.13699377,0.23999454,0.003915719,-0.09219203,-0.006793407,-0.07354339,0.09858761,-0.025744041,0.31515884,0.096844554,-0.005386472,0.06646862,0.0148866,0.06235022,0.16373794,0.07075262,0.0,0.05380869,0.07919802,0.087132856,0.07844044,0.079120785,0.26162574,0.23077874,0.2713824,-0.22471091,0.099957146,0.026513414,0.13418783,0.086912684
AAGCCATGCCCAAA-1-dorsal,-0.018670958,-0.009789997,0.08289379,-0.0,0.11020371,-0.041130584,0.050452445,0.18557829,0.13867903,-0.028567713,0.0949659,0.17336184,0.13480826,-0.14343196,0.05882015,-0.079945594,0.25786844,0.043202203,0.099513434,0.1521841,0.04993059,0.0,0.21832736,0.124768615,0.12605491,0.32379106,0.2478645,-0.082194015,-0.123320624,0.2229851,-0.0023092164,-0.024074715,0.22403705,0.06811129,0.032562137,0.03329607,0.08997186,0.066007696,0.1869848,0.19695129,0.09792385,0.09143915,0.068999596,0.049592897,0.07429438,0.120120905,-0.0076871454,-0.021158325,0.24233197,0.15336362
AAGCCATGGTAAGA-1-ventral,-0.053036347,-0.12442152,0.23799872,-1.1096472,-0.08818779,0.319083,0.06969977,0.21582219,0.052206833,0.3078484,-0.00999219,-0.10417151,0.34219345,-0.3364176,0.12562533,0.15652128,0.26281235,0.17727317,0.15056166,0.06699704,0.15165888,0.24533309,0.028301395,0.109063834,0.046078384,0.0,0.0,-0.07574287,0.10490248,0.05052969,-0.061412524,0.17166722,-0.075145565,0.30227858,0.2608504,-0.013118784,0.026603417,0.1209458,-0.030786728,0.039952826,0.0841763,-0.092913315,0.1624026,0.06505573,0.09062841,-0.09754725,0.27065307,0.14829156,-0.045258205,0.27891785
AAGCCATGGTAAGA-1-ventral-1,0.0,0.017733661,0.0,-1.1096578,-0.13290565,0.27985314,0.15402338,0.18224132,0.026416639,0.28301835,-0.03157768,-0.10705544,0.36758944,-0.2663518,0.20518985,0.14946644,0.23234859,0.1461932,0.14970198,0.10734749,0.11321276,0.15157883,-0.07033183,0.0,-0.030700367,0.100425154,0.18328817,-0.08201076,0.11980355,0.0693813,-0.0,0.09985083,0.0007000069,0.30948123,0.2364785,-0.0,0.019793056,0.14394423,-0.0,-0.013691718,0.16564506,-0.15808026,0.18935747,0.14774498,0.08843617,-0.06999175,0.3104958,0.10739423,-0.08175625,0.15874429
AAGCCTGAGTGAGG-1-ventral,0.09313236,0.036290485,0.23036347,-1.1096702,0.119208984,0.0,-0.11297677,0.04295987,0.21359009,0.14278494,0.058675803,0.32559985,0.26664641,0.26514736,0.19338146,0.08409923,0.08559158,0.14635243,-0.11300226,0.14108402,0.0038288578,0.1438656,0.036714524,0.23625137,-0.28798887,0.0,-0.038731165,0.0,-0.007948413,0.18292405,0.016938278,-0.01332952,0.16100737,0.14287914,0.11938029,0.15718037,0.050885398,0.028623829,0.17733817,-0.053992804,0.10868774,-0.0,0.2265983,0.19886415,0.1055952,-0.23015685,0.030891454,0.11140564,0.19836368,0.05921284
AAGCCTGATTGACG-1-dorsal,0.056879193,0.040054914,0.15364453,-1.1097065,0.06743571,0.059515055,-0.028683014,0.10031426,0.0628714,-0.029956236,0.086643614,0.2085364,0.1904645,-0.12592992,-0.04132463,0.072383694,0.23459065,0.16343279,0.03169445,0.06114625,-0.016089678,0.17132975,0.11320061,0.23684956,0.024609633,0.26409122,0.14696752,0.11779896,-0.03876461,0.048885312,0.03976988,0.070859596,0.08166734,0.08669438,0.02869781,0.14035758,0.09957277,0.019597897,0.13895321,0.0,0.074666806,0.075466335,0.0,0.025324773,0.022729272,0.0,0.052951183,-0.07750114,0.1457081,0.25302574
AAGCGACTCTGATG-1-ventral,0.09471232,0.05534855,0.12368529,-1.1096889,0.025985118,0.21722549,0.048711136,0.2133311,0.01142602,0.22835119,0.13463984,0.10554095,0.18042998,-0.22900483,0.057292286,-0.0,0.17087679,0.062628135,0.030232703,0.2689806,0.17709239,-0.0,-0.06600466,0.011929937,0.029569792,0.0032079222,0.011733767,-0.067255765,0.036547493,0.03842736,0.06715961,0.14390674,0.14999118,0.23114146,0.16490911,0.0,0.28252298,-0.061284307,0.1882732,0.07058089,0.10365495,0.11233663,0.23183711,0.22898212,0.24872324,-0.050223537,0.25729933,0.068270184,0.018293751,-0.018759305
AAGCGTACTATGCG-1-ventral,0.099443585,0.08926149,-0.072805285,-1.1096944,-0.0,0.23012686,0.058194518,0.08036254,0.19955102,0.09611031,0.122441426,0.12124842,0.22982404,0.14213109,0.003820724,0.1397866,0.034062736,0.23123543,0.054074008,0.14025638,-0.036195718,0.17263524,-0.03884746,0.09716825,0.06339753,0.0,-0.01292699,0.11248825,-0.14064498,0.12801829,0.36960456,0.0,0.10583805,0.12179806,0.0,-0.07265177,0.018817246,0.09751372,-0.084896095,-0.008014508,0.0,0.021516094,0.14915295,0.096523315,0.1349522,-0.064302154,0.19747382,0.07829258,0.168171,0.14981195
AAGGCTACGACAAA-1-ventral,0.114159256,0.067934394,0.14844388,-1.109674,-0.041166082,0.23559041,-0.022429626,0.278822,0.030045684,0.13104494,0.08703814,0.14288074,0.09747618,-0.23663595,0.1396282,0.04203031,0.16573583,0.045265384,0.1565875,0.27013683,0.24943082,-0.00032868652,0.09692647,0.011432726,-0.009067258,-0.03800783,0.03132779,-0.030876996,0.17405577,0.033467345,0.1359109,0.2598138,0.1477934,0.15217742,-0.086566746,0.14787847,0.050514333,-0.11011283,0.24356836,0.0,-0.08973102,-0.03289097,0.33507708,0.12076808,0.14668922,-0.21696502,0.17952658,0.0,0.13136616,0.18344723
AAGGCTACGGTGAG-1-ventral,0.24753958,0.019217884,-0.02696905,-1.1096851,-0.0,-0.0435255,-0.031698547,0.30350932,-0.039053496,0.06494591,0.06607916,-0.0,0.24558143,-0.19655308,0.07039592,0.03549418,0.09128856,0.22439428,0.08574499,0.23220016,0.12038511,0.08303317,-0.0,0.092925094,0.10583787,-0.0,-0.0033169987,-0.12690055,0.22749835,0.0,0.19092897,0.1396374,0.160367,0.15348147,0.06406066,0.17611961,0.20684431,0.21270636,0.06226381,0.10900841,-0.052170094,0.16788352,0.26469415,0.1419692,0.13237512,-0.060664088,0.0,0.0,0.1189229,0.07713193
AAGGCTTGCTCATT-1-dorsal,0.25093958,0.12684895,-0.014299619,-1.1096915,-0.042170353,0.05521861,-0.05794287,0.22533506,-0.029996967,0.0,0.12976496,0.2020276,0.24952103,-0.099156104,0.10269371,0.22926183,0.067224935,0.19766885,0.04341807,0.13308048,0.0,0.14363332,-0.06355643,0.0,0.0,-0.037552185,0.0042166933,-0.094397075,0.23720713,0.17015827,0.1281536,0.04206077,0.03139549,0.25466672,0.054380186,0.07190852,0.008880472,-0.049857035,0.09398039,0.04231487,0.06817299,0.0,0.28111216,0.06301006,0.15205424,0.0035002332,0.34150502,0.01615321,0.19486345,0.03702814
AAGGTCACACTTTC-1-dorsal,0.08596141,0.14516884,0.15155284,-1.1096872,0.02413203,-0.10640503,-0.06819606,0.06961,0.16933464,-0.0,0.30825672,0.09365466,0.34968638,0.080582775,0.10132224,0.029925374,0.07832668,0.25416195,0.062620044,0.14425103,0.008310051,0.0917114,0.10835462,0.043415133,0.0,0.05656784,-0.08905941,-0.0,0.0,0.19444555,0.08995351,-0.039886966,0.15138476,0.0,0.082035996,0.06128733,0.18491839,0.006999858,0.0124192,0.074378386,0.11771015,0.14115733,0.19813035,0.08274485,0.051348574,-0.19571994,0.37474748,0.09075361,-0.008773804,0.080556445
AAGGTCACAGGGTG-1-ventral,0.14454645,0.05708224,0.25194073,-1.1096882,0.16692466,-0.0,0.1938224,0.06664498,0.020637454,-0.05389876,0.29993042,0.3550527,0.26591936,0.0,-0.0,0.053431768,0.0,0.057790224,0.18509911,0.2064709,-0.07664833,0.33458483,0.12493704,0.15955691,-0.003249513,0.012609968,0.05637504,-0.14792423,0.15576254,0.1999771,0.008955222,0.037670217,0.056096584,0.22224864,0.14648087,-0.09778758,0.12908,0.020319344,0.063948676,0.0,-0.02936125,0.037289232,0.15590426,0.10597793,-0.03703886,-0.116885245,0.2368878,0.088923365,0.022444578,-0.0020083454
AAGGTCACCCCTCA-1-ventral,0.0,0.010611147,-0.059082642,-1.1096829,0.072638944,0.07353581,-0.007580453,0.08025519,0.08855065,0.010659637,0.22134283,0.15079752,0.111842185,-0.19422896,0.0,0.025658136,0.3522232,0.08801145,0.23951928,0.15979986,0.12539397,0.20280279,0.039524928,0.052440383,0.009800063,-0.036614142,0.00786194,-0.13878578,0.1322398,0.0,0.23924178,0.3397242,0.043612927,0.0,0.0,-0.037554834,0.11995275,0.0,-0.17190748,0.099765666,0.06768232,0.13120492,0.27061448,0.11507002,0.0,-0.034503076,0.07917436,0.06128712,0.05384015,0.08673245
AAGGTCACTAACGC-1-ventral,0.16309188,-0.02362874,-0.04626857,-1.1097094,0.03920377,0.17827319,0.052243706,0.1691369,0.09400072,0.062791824,0.10610533,0.061363988,0.14952436,0.18291603,0.19870879,0.07639522,0.048566625,-0.07365909,0.024520656,0.14204103,0.0,0.0058383457,0.04731556,0.15749174,0.0110723665,-0.076164074,0.17733774,0.053196967,0.102565646,0.23576917,0.15033488,0.026287168,0.2273763,0.28190103,0.2655618,0.10322325,0.20424257,0.037005078,0.12889765,0.0,0.09127485,0.0,0.13404837,-0.016811954,0.05635718,-0.10044714,0.10694181,0.060078297,0.045185752,0.0043157036
AAGGTCACTCAGGT-1-ventral,0.09903347,0.12307867,0.03293765,-1.1097107,0.12765628,0.08441573,0.086242914,0.040901836,0.082272395,0.20404832,0.1285383,0.07937266,0.0,0.14807804,0.08621541,-0.018235248,0.1462625,0.07658319,0.11426322,0.23948963,-0.0033414366,0.1326659,0.0,0.05568752,0.2071784,0.042756937,-0.0004193518,0.039393265,0.12694754,0.06720894,0.0,0.29480386,0.0,0.10403935,0.17975463,0.017746646,0.15315768,0.13569933,-0.013522043,0.14799643,0.031021915,0.17317784,0.18140998,-0.05433937,0.26830694,0.027974447,-0.09569533,-0.020949246,0.050997123,-0.083792545
AAGGTCTGGGTGGA-1-dorsal,0.1969442,0.07860886,0.17104729,-1.1097033,-0.08067582,0.0,0.062166363,0.17654338,0.096094914,-0.05295767,0.17889814,0.008303912,0.22169109,-0.048590306,0.14872617,-0.06882469,0.10107988,0.15258193,0.09651764,0.22334406,0.12961403,0.0,-0.031517614,0.15476486,0.04653749,-0.099334724,0.044047136,-0.053668026,0.23303673,0.05671428,0.052206017,0.05389387,0.06273536,0.24902736,0.15194757,0.0793936,0.06762201,0.029342197,-0.07477734,0.0866233,0.09953969,0.13419767,0.34502366,0.10953194,0.1401594,-0.0061867638,0.20373796,0.0,0.12017605,0.07522557
AAGGTCTGTCAGTG-1-dorsal,-0.05022248,0.030417133,0.076936156,-1.1096953,0.07527867,0.008929956,-0.019645693,0.11070744,0.0,0.11645407,0.20587553,0.12252504,0.0,0.0,0.102578804,0.18941204,0.0,0.21343607,0.16947605,0.22617419,-0.040948063,0.1154795,0.035377212,0.0021339706,0.0,-0.03163901,-0.104021505,0.16243273,0.04025669,0.14958797,0.017084368,-0.015601119,0.0,0.14009649,0.13747689,0.027585644,0.13178572,0.030297965,0.20575406,-0.061220862,0.21268556,0.024476169,0.23459697,-0.10950771,0.16481106,-0.21359935,0.25444946,0.17506352,0.094718404,0.042570777
AAGGTGCTATCTCT-1-ventral,0.14931358,0.023942322,0.09479482,-1.1096739,0.027218988,0.13509174,-0.08389897,0.21526405,-0.027612979,0.20342226,0.15727057,0.28407153,0.21599817,-0.19078124,0.03979418,-0.030608444,0.0,0.17590885,0.16532758,0.35900757,0.21485676,0.11283317,0.05468153,0.03991158,0.1327385,-0.111968786,0.20520936,-0.17153026,0.21880999,-0.11882425,0.14996937,0.18759215,-0.019885765,0.21073826,0.10547467,-0.089866124,0.1384777,0.115753315,0.10280562,0.20207527,-0.0031909016,-0.0,0.18775246,0.0,0.025090832,-0.08325372,0.067189336,0.0531105,0.103836164,0.0
AAGGTGCTATCTCT-1-ventral-1,0.14282328,-0.02486302,0.08620816,-1.1096776,0.028773958,0.16414869,-0.09233767,0.25200018,-0.013760726,0.14712673,0.11727127,0.20188323,0.21718536,-0.24757306,0.0,-0.036374927,0.13917486,0.14398006,0.0890715,0.25977352,0.3099086,0.10866994,0.07130848,0.03582914,0.024554715,-0.13001847,0.1448501,-0.16809154,0.24526522,-0.028052066,0.0540403,0.1784211,0.09243055,0.17511404,0.15285735,-0.036177967,0.21061286,0.18758437,0.10706888,0.19078276,-0.008929703,-0.057037275,0.26838607,0.2094403,0.0,-0.03347695,-0.0069122184,0.09819751,0.09496121,0.20211242
AAGTAACTAGATGA-1-dorsal,0.020318711,0.06031321,0.15359092,-1.1097102,0.077699855,0.080764696,0.030045055,0.20340505,0.004736185,0.22215995,0.16527285,0.22554654,0.161348,-0.03147629,-0.038206846,-0.0026298894,0.0,0.16779238,0.07330634,0.16135943,0.05090236,0.0,0.019465173,0.22667399,-0.027538408,0.16989662,0.0,0.075442865,0.11895615,0.12165149,-0.018840764,0.03330934,0.018394904,0.13022302,0.17745128,0.15287122,0.04788977,-0.10336095,0.20727374,0.009309761,0.0,-0.0036831698,0.25961745,0.10530384,0.031228116,0.016892254,-0.0,0.03485717,0.18935506,0.118681565
AAGTAACTTCCTCG-1-dorsal,0.1409377,-0.025423435,0.0965262,-1.1096852,0.028724886,0.026734792,-0.047357216,0.0,0.09460354,0.16788723,0.014002377,0.1134071,0.24670333,-0.11060013,-0.010481411,-0.05174187,0.029032046,0.25860506,0.11987286,0.0,0.09341093,0.0,0.04625915,-0.020131867,0.047861256,-0.0,0.0071340348,-0.111315124,0.20405316,-0.04848805,0.19518062,0.16106491,0.080552585,0.18378434,0.12835702,0.16690262,-0.0,0.046794932,0.070221,0.12939078,0.0009643846,0.10372744,0.25579488,0.10258668,0.13154462,-0.05085932,0.0,0.12009565,0.16337629,0.034290195
AAGTAGGAGGACTT-1-ventral,0.3857424,-0.09345406,0.29700708,-1.109564,0.104926184,0.0,-0.14001377,0.08591833,-0.13016416,0.3226376,0.0,0.09613897,-0.014566316,-0.1548983,-0.16193311,-0.00639644,0.35231134,-0.10645688,0.23770049,0.24465491,0.02615644,0.27885062,0.17090756,0.06759275,0.09962149,-0.17697369,-0.029752389,-0.1502557,-0.07289476,-0.11980461,0.3580996,0.40081155,-0.022595724,0.1741557,0.2410949,0.048318483,-0.12775886,0.51775944,0.11834338,0.02603144,-0.09638489,0.19918028,-0.1701822,0.100709245,-0.0,-0.06824321,0.33424866,-0.03162629,-0.13579369,0.32270446
AAGTAGGAGGACTT-1-ventral-1,0.27305657,-0.09290007,0.3395067,-1.1095793,0.12660435,0.2850901,-0.20970696,-0.0,0.0,0.26656282,0.59750515,0.24409898,0.14555311,-0.15487738,-0.20415452,-0.039651398,0.3091879,-0.010454986,0.36916164,0.3050674,0.03443593,0.17721286,0.12852089,0.07640816,0.06319237,-0.17005524,-0.12068107,-0.15726236,0.011503639,-0.122379996,0.0,0.33853194,0.0,0.14115474,0.3994485,0.01496943,-0.12643933,0.39528918,0.06496986,-0.051709417,-0.19873455,0.2437494,-0.00757681,0.16304861,-0.026730169,-0.12772587,0.25978988,0.034261636,-0.1477747,0.2544293
AAGTATACGGGAGT-1-dorsal,0.117219314,-0.0,0.11240183,-1.10971,0.16924074,0.18686417,0.0805408,0.18619825,0.14420946,0.071440704,0.078377284,0.09754335,0.0,0.10964289,0.06996223,0.03558817,0.15065557,0.11932318,0.0,0.16733107,0.00045399703,0.04144762,0.05626706,0.19493194,0.033287954,0.15930092,0.22673585,0.13553676,-0.06245249,0.23970105,0.095078506,0.02181595,0.005845163,0.14941378,0.12731923,0.10760473,-0.11165421,0.1145522,0.0,-0.053260595,0.047272064,0.0017370408,0.35703936,0.07817949,-0.027518604,-0.009323094,-0.001838406,0.040583614,0.120256364,0.06711278
AAGTATACTCAGGT-1-ventral,0.0,-0.08324829,0.051123407,-1.1096213,0.0,0.16061993,0.045874394,0.07322585,0.22617617,0.3949874,-0.011380646,-0.23146717,0.3397069,-0.32454187,0.021221722,0.049096365,0.38124073,0.072342135,0.058730397,0.188326,0.4861159,0.07753235,0.07866066,-0.056899525,0.011755949,0.038170815,-0.0,-0.21488522,0.37098238,0.08067514,0.15903257,0.0,-0.005001426,0.18979302,0.0,0.16632627,0.24918236,-0.11578958,0.0946973,-0.123325855,-0.09059257,0.1413673,0.32009295,0.25676093,0.0,0.0,0.19665405,0.094839685,0.025890786,0.04214992
AAGTCCGAAGCGGA-1-ventral,0.045195233,0.103222534,0.2557815,-1.1096787,0.28034416,0.14980082,0.030359197,0.24822956,0.16809873,0.0,0.15950027,0.24885218,0.16198121,0.04429478,0.119712956,-0.0,0.14541979,0.11903751,0.12084347,0.02827924,0.0,0.33130035,0.22026993,0.033030204,0.005238884,-0.10384494,-0.19306938,-0.10175573,0.030231237,-0.009071165,0.050997797,0.0,-0.031640135,0.14081192,-0.0027278399,0.012864189,0.3189047,0.13528861,-0.116918884,0.14312074,0.0063358108,-0.0059123174,0.18110432,0.0,0.072188586,0.0086693885,0.21649171,0.16977374,0.12509044,-0.07192969
AAGTCCGAGAGGCA-1-ventral,0.12472071,0.026729038,-0.015154416,-1.1096818,-0.02880017,0.062568136,-0.01761794,0.010525965,-0.051796373,0.086301535,0.18428734,0.13776937,0.21236598,-0.22832374,0.06506688,0.13046888,0.29540533,0.15311956,0.18591726,0.26238573,0.09640719,0.2296576,-0.005097323,-0.06264276,-0.04309661,0.06307869,0.069196835,-0.13456558,0.0,0.112296894,0.22160304,0.13920586,0.036083188,0.1317881,0.17733064,0.0017070977,0.21463898,0.051319703,-0.068428256,-0.019876096,-0.061059333,0.13743035,0.34847066,0.19002518,0.2414168,0.11662123,-0.05386949,0.15007992,0.08838399,0.14383042
AAGTCTCTAGTGCT-1-ventral,0.102272786,0.13814935,0.053141586,-1.1096945,0.047357287,0.18026908,0.06814438,0.10915291,-0.06702477,-0.018010803,0.0,0.27393788,-0.001983444,-0.10403375,0.11144085,0.08705561,0.28170353,0.10700282,0.10506579,0.16219643,0.0059385435,0.14369616,-0.017163688,-0.044341356,0.14452162,-0.050681435,-0.04143695,-0.10219985,0.19698061,0.04372421,0.18886772,0.29000142,0.11055694,0.0,0.0983768,-0.04665527,0.10437818,0.0,0.16915388,0.1982722,0.032370057,0.17212388,0.32819307,0.037073925,0.23843764,-0.07113159,0.032288022,0.06110857,-0.017662512,0.08444215
AAGTCTCTGGATCT-1-dorsal,0.099171475,-0.007417401,0.093628176,-1.1097014,0.07421017,0.060504634,-0.008387831,0.24125354,0.0,-0.018302733,-0.0,0.26131183,0.21198857,-0.0,0.05826649,0.18291958,0.14172333,0.006715142,-0.039518543,0.14790617,-0.04091925,0.17200547,0.08539219,0.17226154,-0.1439851,0.0,0.0,0.14061865,-0.037870806,0.22083752,0.05085381,-0.048263673,0.16493411,0.19485424,0.13623582,0.25809726,0.16626498,0.049244627,0.22975664,-0.07257217,0.17590408,0.21614638,0.24642356,0.008491398,0.052225336,0.10398146,0.053577106,0.03943628,0.011198414,0.0
AAGTGCACGTACGT-1-ventral,0.24628066,0.00928505,-0.03291428,-1.1096892,0.051085904,0.0,-0.025011435,0.12028504,0.04163234,0.08065635,0.24897626,0.06990228,0.23108815,-0.0,0.16421296,0.038451247,0.0,0.17167467,0.076734744,0.15665716,0.060937308,0.057046693,0.080630146,-0.10172162,-0.06290761,-0.05061322,-0.01714978,-0.08216978,0.29344845,0.07108182,-0.0077784727,0.20811842,0.11772969,0.11478161,0.044415496,0.15127504,0.05239155,0.0,0.11071945,-0.080008246,0.25417084,0.0,0.1832037,0.3796565,0.13336577,-0.10059549,0.20311302,0.0,-0.114324234,0.0
AAGTGGCTCCTTCG-1-dorsal,0.23973739,0.15757178,0.14929856,-1.1097026,0.081574626,0.03326833,-0.0,0.2367476,0.04650392,0.08296912,0.22045572,0.11425011,0.14956844,-0.029045874,0.1055411,0.018126676,0.0,0.077270016,0.1683201,0.20145458,0.029739019,0.1287586,0.029191235,-0.0045029987,0.015342402,-0.058523815,0.010742484,-0.19946721,0.29683793,0.107087135,0.13824081,0.044126805,0.011477455,0.20567471,0.09348801,0.080012105,0.07572697,0.05824646,-0.017101103,0.06511947,0.075532034,0.06748412,0.36945447,0.17501037,0.04308108,-0.011843907,0.06911572,0.111880474,0.14963262,0.0
AAGTTATGACGACT-1-ventral,0.10846326,0.028022839,-0.154996,-1.1096821,-0.008384785,0.0,0.072693996,0.13415377,0.0,0.05227714,0.0,0.0,0.2501805,-0.09608302,0.26686874,-0.07016057,0.2062439,0.042508487,0.23581038,0.23461077,0.110981256,0.032995325,0.018305812,-0.034734543,0.1585124,-0.14971814,-0.039294694,-0.0,0.19829118,0.13237137,0.08274315,0.2668829,0.1964657,0.10511634,0.0,0.057485852,0.30069393,0.098791294,-0.1295997,0.03656013,-0.028431814,0.10880073,0.0,0.16702564,0.22304589,0.01708275,0.13890839,0.05604548,0.0,0.1716155
AAGTTATGACGGAG-1-dorsal,0.04324544,0.14971465,0.0,-1.1097025,0.095322154,0.046590257,-0.01859632,0.13886406,0.062804036,0.116515465,0.19633238,0.24215245,0.24121793,0.054434914,0.114974715,0.17089014,0.1341216,0.23185715,0.05298858,0.24122208,-0.0038108563,0.09233213,0.12095989,0.14523202,0.053136617,-0.036159027,-0.033756826,0.07608153,0.0,0.10518725,0.011897547,-0.04022201,0.06463244,0.09933696,0.12637492,0.07843817,-0.010524525,0.112496436,0.16369946,-0.0040387446,0.21573415,0.0,0.0,0.07229497,-0.0003912714,-0.0,0.31418997,0.11487695,-0.13536572,0.07191074
AAGTTATGCATACG-1-ventral,0.15768255,-0.0258157,-0.08003063,-1.1096754,0.00959235,0.38355285,-0.16220842,0.12983452,0.2801231,-0.0010244052,0.36263427,0.0174256,0.0,0.21960594,0.0,0.17409982,-0.034898125,0.17218544,0.036021374,0.0,-0.10353566,0.086202115,0.03467338,0.12746157,0.10010803,-0.082656614,0.098233126,-0.0042358376,0.0,0.0,0.3813115,0.15855008,0.143048,0.09427333,0.30611712,0.049380746,0.1997769,0.17371725,0.058836758,-0.10537969,0.0,0.01190811,0.19830139,0.08745033,-0.0019894044,-0.073780224,0.0,-0.07498337,-0.03317641,0.11820711
AAGTTATGGAGGCA-1-ventral,0.07170903,0.0734695,0.33743796,-0.0,0.10891734,0.11713292,0.16078423,0.22909151,0.0,0.1322256,0.04805735,0.0,0.0071152076,0.21227129,0.26011235,0.18907088,0.12748201,0.026742924,0.050376672,0.14413206,0.0,0.14849508,-0.082093544,0.19912854,0.05139362,0.10327489,-0.05621738,-0.034836,-0.0323436,-0.107246116,0.16263746,0.0,0.00076007104,-0.0,0.28429785,0.10765107,0.007877069,0.045362484,0.11663581,0.120927535,-0.068439186,0.0031269302,0.41430715,0.046649933,-0.012479624,0.03773922,0.062180717,-0.02033141,-0.016592145,0.0
AAGTTATGTAGCCA-1-ventral,0.09818682,0.025084,0.14182368,-1.1096902,-0.112054154,-0.076806284,0.047809467,0.16549027,-0.059058934,0.010469995,0.2871557,0.1480569,0.28768164,-0.19612731,0.1252972,0.0056241206,0.13523479,0.048790105,0.07010213,0.19497752,0.15578602,0.1404993,0.0,-0.017448531,0.028081281,-0.14452896,0.056817364,0.042273354,0.0,0.109931946,0.12200316,0.14700659,-0.038295325,0.29877263,0.068822876,0.1632572,0.18872309,0.14325702,-0.07245806,0.07531545,0.11253314,-0.0034903158,0.2623024,0.057572972,0.18810895,0.116335995,0.061680723,0.14016981,0.0,0.1338854
AAGTTATGTAGCCA-1-ventral-1,0.108672135,-0.024453932,0.19073951,-1.1096915,0.10843847,-0.017048651,0.011909534,0.12068085,-0.05955054,0.049617782,0.21081361,0.04125241,0.0,-0.09845244,0.11884705,-0.036754675,0.12538962,0.05458182,0.16832213,0.1910334,0.10668,0.19451429,0.032588378,-0.050962634,-0.020905072,-0.10833688,0.0037064778,0.0,0.23546432,0.107510544,0.20712422,0.08664845,-0.105953224,0.14275402,0.0,0.2052254,0.20590849,0.047823537,-0.0,0.045864057,-0.014518964,0.22031327,0.23872356,0.32571796,0.23544471,0.009765518,0.0,-0.0154721085,0.19075339,0.051816344
AATAACACTGCAGT-1-ventral,0.021758627,0.056859087,0.049106278,-1.1096934,0.040105596,0.14164087,0.11458978,0.10299827,0.046150487,-0.091090605,0.23817699,0.088606186,0.26740783,-0.09207342,0.1754906,0.061537478,0.015548257,0.0,0.24362506,0.19728504,-0.017802715,0.17980942,0.17649937,0.16910823,0.045043234,-0.16731879,0.044965677,-0.09773427,0.24738137,0.034880303,0.0112983715,0.16786438,0.041555814,0.0,0.20334855,0.0016832146,0.1433704,0.12418938,-0.0253633,0.09593222,-0.01250671,0.0,0.36818457,0.13127224,0.0,-0.04162994,0.22658782,0.108678475,0.051798493,0.036506973
AATAAGCTATGTGC-1-dorsal,0.0,0.072680995,0.15888985,-1.1096737,0.022166625,-0.04316615,-0.044079226,0.08071375,0.0,0.0,0.23440826,0.0,0.50029415,-0.051322516,0.043747105,0.0,0.052243073,0.30707747,0.08272269,0.33304977,-0.10296716,0.13191497,-0.06417884,0.07956715,0.22382963,-0.022639303,-0.002960894,-0.08655078,0.010046827,0.11008927,0.13063811,-0.0030289758,0.053138427,0.23043968,0.0,0.09588511,0.23829223,-0.0,-0.10438648,0.21737541,0.12596367,-0.007168585,0.20551236,0.0021915222,0.13184874,-0.0020128489,0.2005874,0.05332681,0.09317788,-0.06581711
AATAAGCTGTATCG-1-dorsal,0.04853133,-0.0,0.03307579,-1.1095804,0.18982509,-0.04636341,-0.08859416,0.0,0.055472746,0.50213015,0.0885178,0.14444926,0.076256864,-0.08972228,0.0,0.33763072,0.0,-0.019418797,-0.1251879,0.1300991,-0.027677152,0.4644174,-0.22191174,0.09528136,-0.121940516,0.15840034,-0.036282808,-0.035258733,-0.09697815,0.42285883,0.10726144,-0.0,0.09333326,-0.0018846327,0.3769466,0.14159356,0.13034882,0.0,0.0,0.011092329,-0.2333728,0.0,0.43049037,-0.32749808,0.012434697,-0.022118887,0.19045186,0.024844956,0.17042467,0.19487257
AATAAGCTGTATCG-1-dorsal-1,-0.0,-0.0,0.008584423,-1.1095667,0.13214748,-0.0956497,-0.112782255,0.31074658,0.05312719,0.5046067,0.12697479,0.13473924,0.15301052,-0.0,0.13992122,0.3242986,0.0,0.011878726,-0.18242028,0.15192723,-0.07224905,0.0,-0.21538305,0.11540507,-0.041082703,0.083578765,-0.049329005,-0.037793055,-0.15285876,0.4522806,0.34395495,-0.0469678,0.07443307,-0.042616993,0.36839423,0.17523754,0.1917642,0.24557616,0.2515548,-0.06463117,-0.22025374,0.08150752,0.40607342,-0.29811013,-0.0597624,-0.0,0.27801985,0.013528574,0.10450751,0.23942374
AATACCCTACCTAG-1-ventral,0.090614796,0.0,0.04677092,-0.0,0.18836814,0.12580669,-0.019796493,0.18213522,0.106868416,0.18544462,-0.0058880784,0.17315468,0.22180602,-0.07554114,0.20110439,0.11648625,0.1609772,0.15558939,-0.005336934,0.07160896,-0.0,0.11072134,0.08073624,0.0,-0.01299878,0.01653938,0.14241357,-0.21615784,0.123624004,0.04515637,0.34006616,-0.027440986,0.05387357,0.08234326,0.21428004,0.09974957,0.043262288,0.0835706,0.0,0.051866148,0.016055498,0.13693663,0.35940486,0.19296393,-0.025019381,-0.044939585,0.07404667,0.12814619,0.048472352,0.055566113
AATACCCTAGGGTG-1-ventral,0.037767243,-0.0,0.11800412,-1.1096827,0.05671491,0.09381245,0.068072826,0.10356437,0.28874612,0.0,-0.004463196,0.22929467,0.3146929,-0.11570249,0.05529576,0.081439875,0.15030766,0.15203562,0.01103597,0.008228492,-0.011182494,0.01915539,0.14048594,0.11016478,-0.1582681,0.0,0.0018756879,0.0737882,0.0038136006,0.0,0.016804086,0.04110499,0.18726207,0.23967698,0.14142054,0.05837174,0.0,0.14321797,0.083421975,0.27950636,0.18011382,0.094330035,0.4015948,0.1399679,0.021675358,-0.22551206,0.0,0.09347726,0.081376605,0.15664095
AATACCCTATACCG-1-ventral,-0.068326466,0.03888077,0.17539407,-1.1097046,0.17310278,0.27250877,0.0,0.23621857,0.10241641,0.1165978,-0.05917887,0.1791027,0.16436951,0.10110017,0.1990179,-0.036347907,0.080370314,0.08426297,0.08134308,0.122613035,0.14778383,0.038512778,-0.07559922,0.18892415,-0.003848937,0.06352778,0.12849215,0.029709747,0.044858564,0.12824632,-0.01289732,0.0,-0.10493663,0.096947305,0.091321595,-0.058606204,0.18207309,0.23901035,0.0,-0.033654306,0.01685166,0.057647713,0.3644329,0.08385374,0.10249096,0.08565033,0.11070992,0.04542539,0.04820919,0.044271942
AATACCCTATACCG-1-ventral-1,-0.011295876,-0.025022628,0.0,-1.1096942,0.25916898,0.34342372,0.122817785,0.28811285,0.14194751,0.26450738,-0.07061793,0.16223082,0.23533495,0.16380179,0.08960584,-0.056371428,-0.06517219,-0.0020222533,0.09315059,0.14364551,0.1279115,0.03052121,-0.014532673,0.14881565,-0.04885303,0.007154288,0.0872873,0.047981195,-0.060416464,0.09506418,0.00046124478,0.049449626,-0.078452036,0.0,0.08091151,0.008910403,0.18157563,0.2214508,0.10614872,0.05668573,-0.030903222,0.11519128,0.3449376,0.070602216,0.0104295425,-0.042455662,0.13065311,0.162382,0.14204375,0.0
AATACCCTCTTACT-1-ventral,0.19566621,0.07984395,-0.030773481,-1.1096935,0.07313613,0.23867606,-0.058312487,0.13916826,0.056594934,-0.09620303,0.34300095,0.014302566,0.15970346,-0.18981855,0.07528916,0.089468256,0.1773313,0.09756836,0.08042806,0.21614566,0.0,0.24889252,-0.05160047,-0.06337676,0.06499236,-0.029647484,-0.040359367,0.042246956,0.028449183,0.06890847,0.12452962,0.18264763,0.11578135,0.32369915,0.0045023034,0.09999969,0.10386386,0.083341815,-0.033417214,0.1682527,0.08289027,0.2093237,0.13213582,0.30301926,0.19321975,0.0018114349,0.069641456,0.10039941,0.024527486,0.07803826
AATACCCTGCCTTC-1-dorsal,0.2546145,0.049410626,0.00042207955,-1.109677,0.046040058,0.24516276,-0.029101374,0.03183971,0.20998064,0.13248245,0.0,0.029213106,0.0,-0.104659736,0.13307272,-0.081219345,0.11007108,0.1351652,0.075125,0.12692904,0.26460698,0.12978017,-0.095766984,0.2041035,-0.028589966,0.0,0.31719705,0.036867816,-0.0082582235,0.26795885,0.061920747,0.20679107,0.28515363,0.26082766,-0.17269361,0.0,0.01607953,0.13215876,0.003416464,-0.052380033,-0.058210827,0.07289327,0.107498825,0.120614596,-0.10953553,0.02654257,0.07397758,0.19846012,0.13651416,0.01363571
AATAGGGAACAGCT-1-dorsal,-0.031976767,0.0071937386,-0.07902642,-1.1095916,-0.110694505,-0.0745774,0.12951005,0.18674152,0.21902987,0.34470367,0.10822876,0.35598877,0.07477733,0.2893435,-0.044583414,0.3949721,0.0,-0.16940051,-0.13086519,0.34524924,0.038112007,0.0,-0.09523624,-0.08813236,-0.13237013,0.13718855,0.070399895,-0.3607835,-0.11955977,0.17272523,0.18829425,0.12268367,0.20600395,0.093398064,0.24529621,0.0790776,0.28082874,0.19946536,0.38991207,-0.06738272,0.12874007,0.029232213,0.34651077,-0.093484394,0.22211805,-0.2199338,0.020622905,0.26268163,-0.0,0.11632816
