,0,1,2,3,4,5,6,7,8,9,10,11,12,13,14,15,16,17,18,19,20,21,22,23,24,25,26,27,28,29,30,31,32,33,34,35,36,37,38,39,40,41,42,43,44,45,46,47,48,49
TTCACCCTAAACGA-1-ventral,-0.8487864,0.2688908,-0.7331259,-0.12719704,-0.23080164,-0.1080221,-0.46392456,0.6733363,-0.6290983,-0.0,-0.61715144,2.721611,-0.562612,1.561511,-0.7053998,-0.41579142,-0.0,-0.43522704,-0.15521038,-0.2939954,-0.17389835,-0.0,-0.542557,1.5680804,-0.50218976,-0.704314,0.8949825,-0.5342896,-0.24609713,-0.17319402,-0.7741035,-0.24852833,3.278314,-0.19018419,1.5183626,2.1820958,0.0,1.9865371,-0.3551016,3.4636128,0.8493425,2.3262103,2.3633168,-0.049260527,-0.49424392,3.1980312,6.2532544,-0.17810154,1.1376517,-0.31214464
CTTGAGGATGCTCC-1-ventral,6.860128,-0.30131528,3.4396522,-0.043488942,-0.069223315,-0.10815303,0.71932465,-0.41054925,1.9165589,0.0,1.6031055,-0.6899602,0.0,-0.567518,2.5011585,0.33536413,0.0,0.5738342,-0.0,0.042473678,-0.11249225,1.0087752,0.0,-0.55459934,0.0,2.7797973,-0.44122955,1.3828402,0.06797904,-0.0,3.3484578,-0.24933346,-0.70974815,-0.16659029,-0.57053196,-0.64616364,-0.64248663,-0.6101655,0.0,-0.7346932,-0.4465673,-0.6016653,-0.6421322,-0.15269704,0.0,-0.7415434,-0.0,-0.0,-0.53698206,0.22982392
TGGCACCTGCGAAG-1-ventral,6.7359767,-0.2985908,3.4622653,-0.031073889,-0.0,-0.13064332,0.77336156,-0.404007,2.0003743,4.3419085,1.5872502,-0.7009558,1.3368775,-0.6139772,0.0,0.3761566,0.18260457,0.6054564,-0.12699771,0.16643773,-0.06865581,0.87649107,1.3464228,-0.5629843,1.1371512,2.7631626,-0.4224086,1.2142758,0.17943333,-0.12913433,3.3348966,-0.24200335,-0.7417633,-0.10257013,-0.55217147,-0.6521236,-0.66818905,-0.6318189,0.2206206,-0.7423569,-0.4842663,-0.65337217,-0.6767667,-0.079023845,0.8395225,-0.72911453,-0.87353235,-0.082930334,-0.0,0.2879439
TATACGCTCCGTAA-1-dorsal,-0.9046813,0.2509257,-0.7728492,-0.11430171,-0.24817322,-0.08433343,-0.43422967,0.62048465,-0.6844313,-0.8222457,-0.6167828,2.8144507,-0.58620363,0.0,-0.73004913,-0.34425896,-0.24614759,-0.4053437,-0.12207926,-0.20576783,-0.0,-0.0,-0.5088102,1.6351724,-0.47886342,-0.7450744,0.85878414,-0.0,-0.2155677,-0.13341567,-0.77261513,-0.19631718,3.2024875,-0.23582818,1.6565725,2.2636645,0.0,1.8668154,-0.31321204,3.346845,0.97315264,2.23714,0.0,-0.117970444,-0.5034034,3.2659554,6.1447706,-0.17454751,1.2218853,-0.31630135
TTTCACGAGGTGTT-1-dorsal,0.04800681,-0.05039659,-0.5593483,-0.17023386,-0.4878284,-0.2715552,-0.54512244,0.0,-0.55993134,-0.0,-0.0,2.836586,-0.58885026,1.3957205,-0.39048415,-0.0,-0.3565838,-0.28556943,-0.33522832,-0.4363492,-0.3782495,-0.5219922,-0.4705353,1.5692302,-0.5973743,-0.0,0.0,-0.47464982,-0.32343164,-0.31450287,-0.48107672,-0.28151473,0.0,-0.16012716,1.4424146,1.9071771,2.1943278,0.0,-0.4057842,3.550766,0.6087547,2.1743708,2.3733883,-0.39687416,-0.5623595,3.1105256,7.0842695,-0.41233423,0.85362744,-0.33628035
TGCTAGGACCACAA-1-dorsal,7.1768794,-0.35120633,3.4829814,-0.13995278,-0.20623103,-0.20983836,0.7248849,-0.4394605,1.9201285,4.4536614,1.5513397,-0.6393638,1.3997442,-0.57020044,2.3540123,0.29189005,0.10201039,0.5774351,-0.21315284,-0.0,-0.11835232,0.8387575,1.2704848,-0.56461906,1.0766373,2.7940216,-0.46284288,1.1647828,0.05327864,-0.25311804,3.440441,-0.30533487,-0.6541968,-0.22406791,-0.0,-0.0,-0.62173617,-0.59366506,0.14450262,-0.66117597,-0.46794277,-0.0,-0.60340744,-0.11516114,0.84989554,-0.65005,-0.6551155,-0.19636321,-0.53080374,0.19072947
TACATAGAAGAACA-1-ventral,1.1951256,-0.295234,0.21101841,-0.0,-0.5597935,-0.4487057,-0.5817073,0.047811635,-0.5845322,0.58598626,-0.33588505,2.7899637,-0.5056134,1.0878105,-0.33577126,-0.46596682,-0.40260357,-0.4477276,-0.48994312,-0.35490203,-0.37586254,-0.41140193,-0.6126,1.1313609,-0.5927429,-0.3160147,0.2625414,-0.44689366,-0.29723287,-0.47794124,0.08698474,-0.3057772,3.2789102,-0.25510883,1.3953891,2.2398574,2.1286356,1.6868627,-0.1442143,0.0,0.0,2.059708,2.2314637,-0.45642868,-0.6424927,3.2385757,7.454591,-0.46618032,0.0,-0.49664414
TACTACACAAGTGA-1-dorsal,-0.8100215,0.0,-0.716841,-0.115627125,-0.0,-0.20556842,-0.4136768,0.54909086,-0.63080156,-0.7654005,-0.5990878,2.7513971,-0.5473987,1.5001239,-0.6373043,-0.39919466,-0.0,-0.37850884,-0.21915781,-0.27133757,-0.22814606,-0.50316805,-0.5434735,1.4561898,-0.5413677,-0.7370687,0.90646416,-0.0,-0.34522933,-0.0,-0.7218278,-0.2800919,3.2917933,-0.23432414,1.6065434,2.3202143,2.3337545,1.9041482,-0.34318456,3.4000735,0.69588745,2.2426357,0.0,-0.21173346,-0.48839122,3.331328,0.0,-0.16687778,0.0,-0.32603636
TGGTTACTCTGGAT-1-ventral,7.183675,-0.3228042,3.508177,-0.12254067,-0.21210136,-0.0,0.6057566,-0.42443925,1.8929343,4.506004,1.5655321,-0.58928204,1.4282744,-0.487761,2.6378505,0.08269241,0.04272332,0.5235548,-0.29291472,-0.0020410619,-0.3171673,0.8645139,1.2157516,-0.51205367,1.058123,2.7993019,-0.48298097,1.2738081,-0.0,-0.34076527,3.402925,-0.27621832,-0.54973006,-0.350843,-0.5252715,-0.58918434,-0.5797152,-0.5858574,0.0,-0.60531735,-0.42514583,-0.5918939,-0.5649028,-0.01606226,0.8806731,-0.65957636,-0.64407974,-0.18420923,-0.45703176,-0.051438943
CGAGGAGAGCCATA-1-ventral,0.0,-0.30677068,3.5493016,-0.12347474,-0.10468457,-0.088625155,0.71240836,-0.0,1.9586393,4.432864,1.5558374,-0.6810461,1.3783107,-0.0,2.4770732,0.2873815,0.0,0.57115674,-0.17021544,0.046670355,-0.19294098,0.9138165,1.2922233,-0.55574685,1.1006839,2.8667753,-0.47270823,1.2679236,0.054619297,-0.21761127,3.4287302,-0.23470522,-0.6912821,-0.22875099,-0.5538813,-0.61285186,-0.63506913,-0.58400583,0.07850091,-0.70595986,-0.44139963,-0.6268186,-0.6316898,-0.11319929,0.8795142,-0.69540054,-0.80310327,-0.07899808,-0.51944715,0.12196669
TATAAGACACGACT-1-dorsal,-0.8688817,0.0,-0.7451535,-0.11023522,-0.14703321,-0.19952099,-0.43794304,0.64869726,-0.6537779,-0.8123511,-0.6386276,2.8026493,-0.5720027,1.3358537,-0.6708818,-0.28799787,-0.28655133,-0.4108249,-0.21599227,-0.19285044,-0.15576072,-0.0,-0.55591786,1.5589317,-0.49779695,-0.72597927,0.90345746,-0.53902626,-0.304774,-0.25832072,-0.7379412,-0.2268676,3.3187644,-0.25305578,1.6072145,2.430169,2.1634529,2.003341,-0.29648623,3.4142525,0.0,2.263643,2.3855596,-0.0,-0.5236055,3.2889798,6.212337,-0.1475307,0.0,-0.0
CACAACGATGAGAA-1-ventral,6.780005,-0.2992258,3.4498873,-0.0,-0.10284365,-0.0962119,0.7518378,-0.41090026,1.9553782,4.342506,1.5831761,-0.69845104,1.4135191,-0.56402534,0.0,0.37947312,0.16265777,0.64339375,-0.1126002,0.08979897,-0.08664337,0.9455213,1.3000797,-0.5935077,1.0993043,2.8254752,-0.41916987,0.0,0.13387276,-0.0,3.3796687,-0.21252507,-0.72066057,-0.14415874,-0.5790945,-0.6239927,-0.6774239,-0.61306345,0.1569705,-0.74419886,-0.45782045,-0.6299851,-0.68126416,-0.08032448,0.9061668,-0.7421072,-0.8522705,-0.0892259,-0.5117197,0.18586183
GTGATGACCTGGTA-1-dorsal,-0.85177195,0.23258491,-0.7256278,-0.19813962,-0.21532199,-0.16829796,-0.45179117,0.6310319,-0.64497477,-0.7719891,-0.5914066,2.8078172,-0.57629454,1.506264,-0.7120501,-0.29531354,-0.26923254,-0.44045305,-0.24844117,-0.21372207,-0.21742457,-0.48703057,-0.58120185,1.5321579,-0.0,-0.69241625,0.7841566,-0.0,-0.2491777,-0.2536448,-0.772949,-0.23009752,3.213923,-0.20457448,1.5803754,2.3142538,2.331457,1.9455601,-0.29231775,3.3322382,0.851043,2.2992766,2.4456077,-0.1414252,-0.48331767,3.3320942,6.2636027,-0.14963865,1.0910048,-0.3053787
TATCAGCTGCGAAG-1-dorsal,6.4057283,-0.21726662,3.324212,0.015456396,-0.015232365,-0.011121962,0.8392627,-0.3860605,1.95359,4.20175,1.6121216,-0.7463505,1.442993,-0.60955477,2.484697,0.3692071,0.22692427,0.68645865,-0.024241343,0.19304614,-0.066578925,0.95263225,1.3855828,-0.5983765,1.1890618,2.7348201,-0.42041966,1.3833386,0.24833173,-0.053298607,0.0,-0.14231947,-0.7921496,-0.09823839,-0.54001546,-0.70369136,-0.71231574,-0.6431759,0.3193005,-0.8073763,-0.4317974,-0.66604453,-0.71230847,0.02459854,1.0085729,-0.8073726,-0.97187495,-0.0066214805,-0.47145456,0.3465037
CACTAGGAAAACGA-1-dorsal,6.8597007,-0.30786416,3.6044817,-0.25351003,-0.24145022,-0.20336735,0.6177027,-0.4640641,1.9414799,4.3509736,1.6646065,-0.62716764,1.4639722,-0.5941772,2.471683,0.3739437,0.1862349,0.61457485,-0.22068885,-0.12382786,-0.12139831,1.0209448,1.2991589,-0.557153,0.9811701,2.7710297,-0.41567162,1.224379,0.22540158,0.046108846,3.527964,-0.236998,-0.62934667,-0.25006542,-0.5571747,-0.6472375,-0.6343929,-0.6298401,0.053918034,-0.62109584,-0.5584843,-0.0,-0.65874463,-0.24294549,0.9414318,-0.68434757,-0.74837655,-0.23751022,-0.49997994,0.2699139
ACGATCGAGCTCCT-1-ventral,6.5354576,-0.18340205,3.3915722,-0.09611514,-0.0361585,-0.05003108,0.0,-0.39167592,2.0513196,4.2753425,1.6383727,-0.7408066,1.4219071,-0.5790496,2.5392928,0.41579846,0.0,0.67588603,-0.032250553,0.17873235,-0.0,0.0,1.311466,-0.56964743,1.1259978,2.7705903,-0.42966098,1.30908,0.16857383,-0.13608006,3.264633,-0.18892978,-0.7493275,-0.10860848,-0.5944226,-0.67850375,-0.6930949,-0.6224361,0.26172248,-0.0,-0.44324607,-0.67862606,-0.66582304,0.03594655,0.0,-0.7651679,-0.9401699,-0.051319666,-0.52908045,0.24070702
CCGATAGATCTTAC-1-ventral,6.8585396,-0.27662584,3.4177077,-0.102953985,-0.11419098,-0.103028424,0.7397337,-0.4349951,1.9290345,4.395697,1.562253,-0.7009001,1.3326733,-0.54082704,2.4932928,0.3260799,0.10067174,0.5991672,-0.13387084,0.07122267,-0.12600793,0.9057845,1.2897639,-0.0,1.1304044,2.827307,-0.42774117,1.261082,0.115118645,-0.099255845,3.359621,-0.20711297,-0.7307206,-0.16647492,-0.56419504,-0.6560311,-0.653351,-0.5965673,0.20583841,-0.74589354,-0.39798373,-0.6512657,-0.6637754,-0.06585439,0.92881286,-0.0,-0.8600898,-0.0,-0.52242446,0.16461624
CTTTACGACTGTCC-1-dorsal,-0.0,0.0,-0.6621099,-0.0059556966,-0.053323843,-0.1023186,-0.34084466,0.78591573,-0.68488413,-0.8304313,-0.62089616,2.7238593,-0.53726846,1.2202071,-0.6679669,-0.07107424,-0.0,-0.29192773,-0.3231184,-0.3011089,-0.20364842,-0.6591261,-0.5735387,1.5633981,-0.57397723,-0.6512459,0.6689324,-0.6369342,-0.33306235,-0.2908471,-0.8176512,-0.09774335,3.235171,-0.012332268,1.4118629,2.0742629,2.360884,1.908206,-0.08968215,3.3617744,0.84004086,2.2330203,2.5849013,-0.15172601,-0.5052743,3.2981818,6.3973207,-0.22214122,0.9174664,-0.349569
GACGATTGCTCTCG-1-ventral,0.0,-0.0,3.3913445,0.033623744,-0.06948677,-0.11939659,0.7388551,-0.39939883,0.0,4.3341384,1.4969752,-0.73531467,1.5357352,-0.605317,2.4832196,0.37374416,0.23769467,0.6873522,-0.13171184,0.16137543,-0.10209323,1.0541061,1.3241435,-0.57387173,1.1132714,2.82132,-0.44204673,1.3392477,0.20429254,-0.14215536,3.4107823,-0.20864475,-0.7699241,-0.18528204,-0.0,-0.6836752,-0.6808545,-0.6191393,0.26495558,-0.7892877,-0.40655053,-0.6505975,-0.668833,-0.028918916,0.9591902,-0.7671176,-0.9181717,-0.0,-0.5210379,0.29568812
TCTCAAACGGTCTA-1-ventral,0.0,-0.28032875,3.4528594,-0.022711357,-0.07900656,-0.11522479,0.7775985,-0.426708,1.9701015,4.3265924,1.5728533,-0.70360506,1.4008571,-0.0,2.5789123,0.3739045,0.1833556,0.6711228,-0.12806033,0.0,-0.12011045,0.89450437,1.3307134,-0.53091455,1.1501627,2.7821882,-0.4442755,1.2733418,0.10327002,-0.14319679,3.327849,-0.21336848,-0.72963816,-0.0,-0.0,-0.6548038,-0.67648923,-0.6212868,0.20654555,-0.72987145,-0.0,-0.65047914,-0.6708177,-0.11126691,0.0,-0.7446041,-0.86581725,-0.0,-0.52694905,0.1793036
TCGTGAGATGTCGA-1-dorsal,0.0,-0.33370456,3.4727256,-0.12359951,-0.19236366,-0.13846438,0.77959144,-0.44993886,1.8361773,0.0,0.0,-0.65029556,0.0,-0.60775447,2.5727437,0.35906586,0.107902855,0.65802777,-0.17475308,0.01275753,-0.108291514,0.82758516,0.0,-0.53065693,1.0590903,0.0,-0.487106,1.3349515,0.060322717,-0.2106211,3.425131,-0.25080675,-0.663753,-0.20702006,-0.5858157,-0.6556456,-0.6623059,-0.58490735,0.26327178,-0.68694395,-0.44899186,-0.6169873,-0.5788733,-0.15050617,0.9405113,-0.7162317,-0.7836382,-0.19911098,-0.55837095,0.2550648
CGAGGCTGACCTAG-1-ventral,6.680945,-0.2857957,3.3659344,-0.06494231,-0.10284292,-0.0947153,0.7826657,-0.420017,1.9493164,4.314269,1.593361,-0.7173392,1.42296,-0.60388833,0.0,0.32510406,0.18902835,0.6892933,-0.1312766,0.14055575,-0.085393,0.93105686,1.3424413,-0.577605,1.1703804,2.7910874,-0.45131236,1.2914579,0.17139296,-0.11403502,3.39069,-0.0,-0.7686454,-0.0,-0.5466745,-0.65049917,-0.6662352,-0.6192964,0.22370006,-0.7510857,-0.4211775,-0.6443801,-0.6691291,-0.102500126,0.93001884,-0.735736,-0.8803371,-0.060315,-0.52166575,0.0
CTAGTTTGATACCG-1-dorsal,7.0509996,-0.29581892,3.466581,-0.07603712,-0.0,-0.18586266,0.6495119,-0.4291912,1.8718994,4.5390654,1.5920156,-0.0,1.2807661,-0.5393949,2.431011,0.29375538,0.07875885,0.5677713,-0.13202734,0.012741404,-0.10815979,0.8198303,0.0,-0.5558373,1.1426204,2.794364,-0.41914245,1.1318692,0.045599855,-0.26011878,3.399451,-0.23958035,-0.6854795,-0.1777386,-0.0,-0.64896137,-0.63080025,-0.5812465,0.15869682,-0.70997626,-0.0,-0.630253,-0.6099419,-0.0743666,0.8376367,-0.67985314,-0.7883133,-0.13302255,-0.45287055,0.19803943
ATCGCGCTGCGAGA-1-dorsal,6.650688,-0.24814448,3.6447,-0.2091017,-0.1569801,-0.13432993,0.7210172,-0.2971532,1.8620305,4.527632,1.4180796,-0.6893701,1.5118434,-0.5488919,2.8009882,0.32169735,0.085054345,0.6899267,-0.29261404,0.0190642,-0.1318219,0.88726884,1.2219756,-0.575069,1.0805694,2.7468421,-0.28847125,1.2996498,0.047275227,-0.14013463,3.2619374,-0.2640595,-0.6627985,-0.0,-0.5536594,-0.666183,-0.6508931,-0.60372096,0.26732135,-0.7582095,-0.4597627,-0.58571684,-0.6577472,-0.101791225,0.97887677,-0.74611837,-0.8553861,-0.051876705,-0.5203566,0.20204952
AGTCTTACATCGTG-1-ventral,6.6244936,-0.2652561,3.3850923,-0.036064386,-0.0,-0.053504642,0.0,-0.39167365,1.9268461,4.3083916,1.587186,-0.72875,1.3779238,-0.0,2.5584142,0.3968686,0.23997837,0.6499869,-0.09265112,0.1064838,-0.07541498,0.9613866,1.338696,-0.57800347,1.1712414,2.7577708,-0.40797076,1.2851602,0.16334784,-0.12326705,3.370555,-0.1732209,-0.7611398,-0.13098359,-0.5853219,-0.66765934,-0.67709106,-0.63150936,0.23177783,-0.77340066,-0.45468327,-0.0,-0.69528484,-0.042694543,0.9592474,-0.7496582,-0.0,-0.040196843,-0.53893715,0.21527246
TTAGACCTCTTGGA-1-dorsal,-0.94849354,0.27035376,-0.7870908,-0.085846454,-0.16603266,-0.1285043,-0.44576222,0.694995,-0.6164427,-0.85102004,-0.5646502,2.6964798,-0.5930195,0.0,-0.71907884,-0.32463804,-0.2141087,-0.40606767,-0.13498387,-0.26659146,-0.17146674,-0.0,-0.56873035,1.5424594,-0.5387952,-0.7120863,0.8683451,-0.0,-0.0,-0.0,-0.78925765,-0.2439938,3.1052904,-0.13354553,1.6180205,2.3592923,2.2987335,1.9583992,-0.28501737,3.2989898,0.9444191,0.0,2.4367876,-0.18980947,-0.0,3.306561,6.0005975,-0.1926248,1.2068889,-0.24590844
AAGCCTGATTGACG-1-dorsal,0.0,-0.3085512,3.5075936,-0.12716049,-0.13247451,-0.135837,0.78897655,-0.40061554,1.9306517,4.318842,1.6590784,-0.69227475,1.4609644,-0.5455604,2.712273,0.2695359,0.14417249,0.65959483,-0.14517811,0.0,-0.15855718,0.0,1.3108402,-0.0,1.0651675,2.8118193,-0.464599,1.302808,0.117903024,-0.2009578,3.3843796,-0.22434315,-0.7008782,-0.14882591,-0.5740789,-0.63870543,-0.646121,-0.64518565,0.19608107,-0.7340241,-0.47552714,-0.62300193,-0.6402754,-0.06559028,0.8792413,-0.72816855,-0.83869755,-0.122550994,-0.5584954,0.16679549
TCCTATGATAGCGT-1-ventral,0.0,-0.2736934,3.4138923,-0.07598427,-0.078864165,-0.0995044,0.81353635,-0.36493295,2.0485735,0.0,1.5720954,-0.7411279,1.4668081,-0.5684037,2.560871,0.0,0.21435907,0.0,-0.084769,0.11584021,-0.09248608,0.0,1.3401107,-0.58908373,1.1521589,2.7797902,-0.42275015,1.2898355,0.1616433,-0.13398688,3.3576424,-0.22637025,-0.75949764,-0.12463908,-0.5966758,-0.66856694,-0.670061,-0.6205318,0.20737582,-0.76583934,-0.42565706,-0.6416098,-0.6944552,-0.07217354,0.0,-0.76213723,-0.0,-0.043037865,-0.5174974,0.30134606
CAGGGCACCTTGGA-1-ventral,6.5728903,-0.21951154,3.341108,-0.047995187,0.003993776,-0.038038228,0.0,-0.36333132,1.9683964,4.208485,1.5793303,-0.0,1.44772,-0.607903,2.5786116,0.0,0.1839375,0.7016994,-0.056910716,0.19907433,-0.07572274,0.9164198,1.3550078,-0.5654354,1.1089228,2.771021,-0.42267326,1.2287076,0.2334321,-0.0,3.302482,-0.15344866,-0.7787374,-0.14405987,-0.5614974,-0.6811745,-0.69132876,-0.6349,0.24781127,-0.7912836,-0.4555833,-0.6870271,-0.70414317,-0.06370598,0.9208032,-0.7789336,-0.93791896,0.028664967,-0.5237062,0.3337537
ATTCTGACACCAGT-1-ventral,6.3373976,-0.25384495,3.3409052,-0.056369044,-0.05202744,-0.020232864,0.90774804,-0.38783076,1.9442712,4.34974,1.6377742,-0.70904154,1.5120766,-0.6165629,2.589714,0.42971942,0.21372922,0.0,-0.17761192,0.075137466,-0.035669275,1.0776359,1.3112934,-0.57642484,1.2017066,2.8077157,-0.45206448,1.3028821,0.22348873,-0.14330189,3.3727415,-0.2019924,-0.7537147,-0.12436483,-0.5893905,-0.69512635,-0.7032459,-0.64147526,0.24903049,-0.79737556,-0.3984915,-0.6559945,-0.6802288,-0.044680372,1.0027615,-0.0,-0.92739445,-0.04300164,-0.538032,0.28746122
GGAACACTCCATGA-1-ventral,6.860253,-0.28670993,3.524003,-0.08665171,-0.12433761,-0.10983957,0.0,-0.0,1.9215678,4.3948426,1.5844802,-0.6994413,1.3913509,-0.56660086,2.4889832,0.28545067,0.0955459,0.56928426,-0.13770588,0.09011764,-0.12521526,0.86699146,1.2919923,-0.5217286,1.104642,2.8466551,-0.44463047,1.240311,0.11605471,-0.17925078,3.3819115,-0.0,-0.71451,-0.20862302,-0.5688237,-0.6292955,-0.6525018,-0.6138706,0.1714182,-0.7145596,-0.44750202,-0.65853864,-0.6550218,-0.06474694,0.88253,-0.6995746,-0.83542484,-0.0782917,-0.5154684,0.17266446
GAAATACTTCCTCG-1-ventral,6.867287,-0.35493913,3.4608307,-0.088072956,-0.14532275,-0.13223708,0.770663,-0.4018131,1.9089559,4.5456867,1.5241905,-0.67923516,1.3176088,-0.5762723,2.4355183,0.34888583,0.118154064,0.59583706,-0.1669913,0.11742268,-0.08319127,0.9104933,1.2688663,-0.53932995,1.1960181,2.7791133,-0.44082484,1.2832768,0.07795233,-0.14843485,3.2015076,-0.18264851,-0.69964045,-0.13958177,-0.0,-0.6804851,-0.62771726,-0.6243425,0.18192984,-0.73202217,-0.40417224,-0.63982224,-0.6842448,-0.021014545,0.0,-0.73865426,-0.83915156,-0.021311376,-0.51805824,0.20582771
CGCTAAGAGGCGAA-1-dorsal,8.172382,-0.54651535,3.3665044,-0.4685436,-0.32516745,-0.344666,0.21788326,-0.41235477,1.5811243,4.565639,1.3584384,0.13614318,0.0,-0.33471507,2.6000483,-0.316823,-0.2847834,-0.11539612,-0.38160154,-0.28887644,-0.47431618,0.37360296,1.0559814,-0.5165362,0.64941573,0.0,-0.3460193,0.81195384,-0.43234727,-0.27739844,3.3141265,-0.24842985,0.17731863,-0.5126458,-0.16365933,-0.23663615,-0.37981698,-0.32123065,-0.31709394,0.29076895,-0.5191902,-0.13046643,-0.36770365,-0.37505722,0.4615566,0.048691135,1.3856356,-0.3674,-0.32838055,-0.29451412
TGGATGTGAGCGGA-1-dorsal,6.916169,-0.3242649,0.0,-0.10543433,-0.10649033,-0.10078961,0.7983922,-0.41966686,1.9752718,4.34333,1.5194527,-0.6846896,1.3442249,-0.5785975,2.4837818,0.32782245,0.0,0.653242,-0.13858895,0.069885254,-0.14986634,0.8731368,1.285932,-0.57955545,0.0,2.837451,-0.43730235,1.2547212,0.07651947,-0.0,3.4321015,-0.23292424,-0.7233248,-0.15260518,-0.5777958,-0.63013846,-0.63981515,-0.6096356,0.20868471,-0.7188267,-0.0,-0.6442421,-0.6438176,-0.07594718,0.93538076,-0.70673156,-0.0,-0.10869702,-0.5147169,0.16793127
CGCCATACATACCG-1-ventral,6.607696,-0.25132227,3.415906,-0.033070713,-0.11099266,-0.06934431,0.89495623,-0.39626196,1.9883286,4.3211164,1.5573975,-0.7005971,1.4552804,-0.0,2.5438054,0.35160112,0.15375923,0.0,-0.12508035,0.087672874,-0.07643137,0.936178,1.278645,-0.56946,1.1443737,2.8219645,-0.45173582,1.3072209,0.0,-0.14265949,3.4175544,-0.25468776,-0.7382681,-0.102181904,-0.5920992,-0.0,-0.6680867,-0.6176321,0.13574469,-0.0,-0.0,-0.6618159,-0.66091675,-0.08834349,0.9563746,-0.0,-0.8958428,-0.058502093,-0.54982525,0.26720396
GCCGACGAGCTACA-1-ventral,6.7767744,-0.2751924,0.0,-0.036145717,-0.12494611,-0.114762925,0.7790345,-0.413766,1.963195,4.396198,1.6290256,-0.6920208,1.4591771,-0.5958238,2.5471911,0.34682807,0.15505672,0.0,-0.14971171,0.11561947,-0.090057194,0.9111602,1.275066,-0.5450946,1.0973213,0.0,-0.4161639,1.2445157,0.07463275,-0.17777576,0.0,-0.21705543,-0.7283597,-0.14251266,-0.57406825,-0.0,-0.67306864,-0.62673295,0.2138715,-0.7347688,-0.47988734,-0.64431125,-0.6548997,-0.13082916,0.9336626,-0.71644026,-0.85215306,-0.10573831,-0.5413474,0.2209282
AATGCGTGAACGAA-1-dorsal,6.7443404,-0.12940983,3.2785351,-0.058870714,-0.243281,-0.074081294,0.85143757,-0.0,1.8877954,4.4533505,1.2687215,-0.7096743,1.3602713,-0.5413279,2.2181652,0.5456758,0.22079638,0.61305934,-0.066865355,0.14698757,-0.18031453,1.0923772,1.2688767,-0.6427922,1.2059965,2.818136,-0.39578718,1.1012182,0.14332888,-0.37003857,3.6038022,-0.3070785,-0.78366745,0.0,-0.28748804,-0.6497851,-0.7311367,-0.6451388,0.31280562,-0.7579408,-0.5529566,-0.678084,-0.6472413,-0.0,1.0960912,-0.7184734,-0.8386502,0.116428606,-0.0,-0.033164024
CTCCGAACAACCTG-1-ventral,-0.91856474,0.31479084,-0.7864164,-0.10239728,-0.1519894,-0.0,-0.44708937,0.7564872,-0.62560695,-0.84663355,-0.5937653,2.7020247,-0.54304034,1.696317,-0.67189014,-0.23075873,-0.0,-0.44635972,-0.25045985,-0.23497927,-0.18464102,-0.51772386,-0.57167244,1.5419672,-0.5393582,-0.6981642,0.86848754,-0.0,-0.21440467,-0.24955884,-0.7744563,-0.23396188,3.213897,-0.21677747,1.7071697,2.3515825,2.3242373,0.0,-0.212686,3.3482275,0.90053576,2.2007782,2.20219,-0.27468663,-0.48557496,3.2606936,6.1311255,-0.17750588,1.28185,-0.33816916
GTTAACCTCACACA-1-ventral,6.8098273,-0.27954376,3.3894162,-0.035516024,-0.124677755,-0.13225357,0.0,-0.46086988,2.0267854,4.358346,0.0,-0.6911198,1.4104006,-0.5963217,2.454998,0.0,0.18256284,0.6261833,-0.13460863,0.11273315,-0.07908802,1.0041302,1.3516567,-0.5833271,1.1302892,2.783936,-0.0,1.2467817,0.12648353,-0.15225577,3.3867114,-0.0,-0.7252174,-0.18195604,-0.54880947,-0.65763026,-0.6710671,-0.6178498,0.17471272,-0.7539084,-0.4437986,-0.63200825,-0.65366656,-0.07451786,0.8888448,-0.0,-0.84241897,-0.061453253,-0.5159738,0.19107066
TTGTCATGGATAAG-1-dorsal,6.4118204,-0.0,3.4125185,-0.08207428,-0.121986605,-0.0,0.8342926,-0.4257666,1.9508941,4.2420535,1.6434727,-0.73642445,1.5167452,-0.58514136,2.5953023,0.37122318,0.16743787,0.69277954,-0.14430842,0.12608553,-0.0,1.0866439,1.3277228,-0.57138616,1.1009715,2.8209364,-0.4103278,1.3585286,0.18714833,-0.14032198,3.441375,-0.19309151,-0.7558026,-0.15223497,-0.5635895,-0.0,-0.6639928,-0.63873726,0.32127807,-0.77161115,-0.47692558,-0.6731581,-0.66567886,-0.017995238,1.0365838,-0.0,-0.92586637,-0.10007633,-0.518144,0.2777734
ACTTTGTGCAATCG-1-dorsal,6.7312417,-0.306683,3.4274497,-0.11204164,-0.07990619,-0.08471311,0.78314155,-0.4113396,1.9758826,0.0,1.577385,-0.6886338,1.4362572,-0.5815466,2.5656579,0.3462028,0.14106065,0.6354924,-0.12838411,0.07549657,-0.1091573,0.87611693,1.3247424,-0.5875776,1.0947337,2.8395717,-0.0,1.2154257,0.13909167,-0.14350839,0.0,-0.0,-0.725909,-0.13315155,-0.5679034,-0.6618922,-0.67119664,-0.62430197,0.15029868,-0.0,-0.47079924,-0.64261085,-0.6443017,-0.03720244,0.89982516,-0.0,-0.85836947,-0.08437713,-0.5166286,0.22753279
AGTTAAACGACGAG-1-ventral,7.4636126,-0.2998943,3.6735222,-0.14583197,-0.2739372,-0.0,0.5310522,-0.0,0.0,4.5810876,1.3636662,-0.5836838,1.3138796,-0.0,2.486626,-0.0,0.0015417736,0.46283787,-0.31064597,-0.13303499,-0.24811362,0.7580282,1.1905694,-0.48463282,0.89790505,2.8413074,-0.46607438,1.1897986,-0.022753213,-0.3092713,3.3505762,-0.23699066,-0.56015104,-0.27003926,-0.54130703,-0.5522427,-0.49099362,-0.5509605,0.10589163,-0.55400264,-0.42997032,-0.54152703,-0.56913596,-0.21769062,0.7671682,-0.5058706,-0.48761734,-0.18141608,-0.0,0.025513222
CAATCTACGGTATC-1-dorsal,6.560977,-0.24550141,3.4187865,-0.015973449,-0.023027593,-0.051671665,0.8313439,-0.3885672,1.9818904,4.2569222,1.658353,-0.0,1.4776212,-0.56151116,2.5604854,0.3655649,0.17666233,0.6485422,-0.123548515,0.14057498,-0.07332153,0.9603927,1.3166089,-0.5848515,1.1200296,0.0,-0.44462404,1.290293,0.12376097,-0.12406396,3.3174212,-0.1707797,-0.76464725,-0.12007999,-0.0,-0.6760313,-0.67563754,-0.62512124,0.0,-0.7805191,-0.41474926,-0.6570563,-0.7005035,-0.030873088,0.97163445,-0.76734585,-0.9268925,-0.06093522,-0.5156282,0.2582519
AATCTAGACGGGAA-1-dorsal,7.049288,-0.3568186,3.5654967,0.0,-0.17278665,-0.2263703,0.5004625,-0.41921645,1.930126,0.0,1.5299318,-0.5763106,1.2258478,-0.54433197,2.460961,0.23090933,0.11549207,0.46397415,-0.12704916,0.15522696,-0.23905769,0.9672046,1.3256223,-0.56360275,1.1032199,0.0,-0.4701618,1.1444676,-0.10322638,-0.13244021,3.4340408,-0.26687908,-0.0,-0.25533724,-0.57448775,-0.6455054,-0.63418114,-0.5621066,0.0,-0.0,-0.51928425,-0.617498,-0.0,-0.0,0.7818364,-0.7131211,-0.6859786,-0.13836113,-0.43586236,0.055396028
CTTTACGATCTCTA-1-ventral,6.834436,-0.3360208,3.5002644,-0.1395262,-0.0,-0.1695788,0.74445474,-0.46438962,1.9432988,4.44376,0.0,-0.67965716,1.5095298,-0.58997923,2.5388007,0.29266438,0.11825316,0.51940393,-0.15987946,0.06633593,-0.15283658,0.9211854,1.2106683,-0.55383694,1.045663,2.8986077,-0.46131837,1.281887,0.12012002,-0.20065838,0.0,-0.23172995,-0.7019598,-0.22417314,-0.5709153,-0.63402075,-0.65732324,-0.5874535,0.1473642,-0.66516644,-0.4519174,-0.0,-0.6066217,-0.14677592,0.9062031,-0.6833359,-0.76206887,-0.15921468,-0.5055207,0.17294875
AGTCGAACGAAAGT-1-ventral,6.7225366,-0.25902656,0.0,-0.045456294,-0.0988106,-0.07450323,0.7517821,-0.3967131,1.9642848,4.3241773,1.5673845,-0.72321045,1.4246025,-0.5686388,2.5217848,0.38585263,0.20511389,0.64302886,-0.13176793,0.12080531,-0.075302854,0.986231,1.3062245,-0.55948883,1.1401858,2.7668295,-0.43767115,1.2626408,0.1499943,-0.1638296,3.3749394,-0.2221811,-0.7551146,-0.19087978,-0.5602324,-0.6592283,-0.67529416,-0.6235917,0.24017522,-0.7692883,-0.43655974,-0.0,-0.6760819,-0.022305384,0.9155948,-0.7381453,-0.88924843,-0.05618215,-0.4994372,0.21899377
GAGTCAACGGCAAG-1-ventral,6.5233817,-0.25751275,3.4092457,-0.049622525,-0.07115781,-0.050900448,0.83283573,-0.4143613,1.9359366,0.0,1.6682653,-0.7215881,1.546417,-0.5806433,2.544723,0.3153171,0.20720649,0.65603036,-0.09008421,0.1323203,-0.046597723,0.9537287,1.3204772,-0.5819741,1.1327007,2.740843,-0.42449087,1.3095073,0.18681921,-0.14602251,3.3342817,-0.19766974,-0.769576,-0.10037807,-0.58244693,-0.6780449,-0.6804636,-0.6232245,0.24929452,-0.781296,-0.40893608,-0.67085063,-0.69253767,-0.07143962,0.0,-0.7720892,-0.9252101,-0.07354935,-0.48955444,0.32246786
TCCTAAACGAAAGT-1-ventral,-0.90338564,0.220555,-0.72454244,-0.11595482,-0.20830314,-0.16908328,-0.4761589,0.0,-0.6325511,-0.7942937,-0.6107765,2.6915917,-0.5098577,1.5836099,-0.6933816,-0.24611156,-0.30058068,-0.44539335,-0.20210916,-0.2655203,-0.12196568,-0.51206017,-0.57245255,0.0,-0.504406,-0.7433288,0.86911404,-0.52102625,-0.21086277,-0.26001674,-0.76721334,-0.24282484,3.185847,-0.2182595,1.6095932,2.2672293,2.3217058,1.9163059,-0.31468314,3.4862366,0.90417945,2.2691364,2.3869123,-0.16189504,-0.48860765,3.2302706,6.1875467,-0.20611969,1.3481448,-0.3162612
CACTGCACGTCAAC-1-ventral,6.6961384,-0.31220517,3.4937286,-0.089674264,-0.1061876,-0.07664542,0.81185824,-0.41256636,1.9742044,4.3301353,1.6289891,-0.0,1.327028,-0.5740788,2.4960325,0.39403772,0.1409701,0.6404995,-0.1558935,0.0042857896,-0.10293146,0.89326715,1.3870019,-0.5505638,0.0,2.8890836,-0.46769536,1.2321732,0.2969205,-0.16164993,3.3557885,-0.16005291,-0.70426446,-0.10800673,-0.55088013,-0.6240139,-0.67900825,-0.63550544,0.0,-0.76062703,-0.4831617,-0.6981996,-0.69506603,-0.22017175,0.97624177,-0.72210854,-0.0,-0.0,-0.5221901,0.0
CTGAATCTGCAAGG-1-ventral,0.0,-0.26943737,0.0,-0.03898124,-0.1579008,-0.09352234,0.712511,-0.41601276,1.9171392,0.0,1.5547023,-0.6882129,1.3973151,-0.59440094,2.5919847,0.4025547,0.17704713,0.69775814,-0.12881923,0.08726228,-0.16472003,0.8424297,1.3432304,-0.5491652,1.0832052,2.8039482,-0.43334028,1.3494828,0.02739342,-0.14371184,3.40258,-0.2148886,-0.71179295,-0.13188641,-0.57577175,-0.6578453,-0.6458973,-0.6175147,0.21927513,-0.7376923,-0.48832473,-0.6403077,-0.6595213,-0.10064986,0.83990496,-0.7235117,-0.0,-0.1019113,-0.5382355,0.18297279
TTCCTAGAAGTCGT-1-dorsal,6.8772497,-0.0,3.4120662,-0.11666861,-0.16187106,-0.09832449,0.791715,-0.4305959,2.0580442,4.3913207,1.4998897,-0.66436464,1.3690215,-0.5715111,2.5708036,0.29079998,0.1354051,0.6476306,-0.18714727,0.08175191,-0.15327607,0.82800287,1.3042278,-0.59648347,1.1013379,2.7655306,-0.46902177,1.3129724,0.10126711,-0.2161042,3.4347844,-0.28150916,-0.0,-0.19132258,-0.5497303,-0.6195906,-0.66641295,-0.598015,0.21213943,-0.7269708,-0.45573714,-0.6408391,-0.64015496,-0.041043032,0.9566044,-0.70610154,-0.7821767,-0.1529732,-0.524268,0.15846224
CTGTAACTATCTCT-1-ventral,6.8040123,-0.31926262,3.4831247,-0.08238448,-0.14105976,-0.1694194,0.8492375,-0.44545382,2.028744,4.514966,1.6029203,-0.68884397,1.4893575,-0.5747638,2.5128205,0.3041672,0.1285361,0.54364586,-0.1657904,0.070447676,-0.0,0.0,1.2396518,-0.54069203,1.1310903,2.7667842,-0.46211317,0.0,0.11793041,-0.1866913,0.0,-0.25852603,-0.6997851,-0.21972935,-0.53598344,-0.6439909,-0.64201444,-0.60321134,0.0,-0.72735393,-0.44956574,-0.6237833,-0.59056544,-0.14071624,0.8777658,-0.0,-0.8345608,-0.10248052,-0.5200171,0.22087772
GACATTCTGAGATA-1-ventral,6.3315034,-0.19504449,3.339322,-0.007254084,-0.020058222,-0.067544386,0.82048774,-0.39334506,0.0,4.2543,1.6966143,-0.0,1.5729845,-0.59001917,2.5438218,0.35546693,0.21197861,0.713133,-0.13483047,0.16427843,-0.0107969185,1.0269252,1.3617533,-0.5804338,0.0,2.7640765,-0.0,1.3289366,0.2593441,-0.06154531,3.2817633,-0.13760342,-0.7857722,-0.0,-0.5956964,-0.69768155,-0.6933606,-0.0,0.27604964,-0.806031,-0.41182327,-0.6838328,-0.69104886,-0.07240355,1.0046319,-0.0,-0.96081114,0.016899142,-0.52898765,0.31205583
AGGTGTTGGTGAGG-1-ventral,6.8180094,-0.0,3.4255602,-0.1006596,-0.14997748,-0.14271784,0.0,-0.40857947,1.9927145,4.348859,1.7590039,-0.6960454,1.2868402,-0.5797276,2.5899265,0.0,0.036042087,0.0,-0.1824856,0.007535584,-0.2096922,0.87747765,1.2859677,-0.5567597,1.0787499,2.89415,-0.4238219,1.2550161,0.17276862,-0.17831697,3.4725804,-0.2692493,-0.0,-0.22998963,-0.5633087,-0.6096537,-0.62472534,-0.6243482,0.081626795,-0.7305532,-0.46711984,-0.56954163,-0.6616896,-0.0,0.86666894,-0.679679,-0.8309578,-0.022818381,-0.51090044,0.16942528
CGAAGTACGGTGTT-1-ventral,6.507224,-0.22144677,3.3904965,-0.07369923,-0.0,-0.07605063,0.7993287,-0.42523327,1.9692689,4.3708262,1.5606083,-0.71902615,1.535717,-0.60520583,2.5125449,0.38599524,0.20587376,0.6980881,-0.14646637,0.11169856,-0.092178784,0.9540772,1.3393947,-0.56202006,1.1058346,2.8169422,-0.45279294,1.2694516,0.0,-0.119060814,3.3882194,-0.2205868,-0.7617418,-0.0,-0.575089,-0.66330266,-0.6913654,-0.6256729,0.2447394,-0.7830087,-0.4258386,-0.6775297,-0.6687425,0.007130272,0.0,-0.0,-0.0,-0.08266138,-0.5228541,0.26709688
ATCCAGGAATCTCT-1-ventral,6.7626877,-0.2743196,3.4734702,-0.1124545,-0.083167955,-0.11690544,0.7588746,-0.43083325,0.0,4.378082,1.6450325,-0.7082154,1.4105823,-0.5899331,2.5099766,0.29238918,0.13765658,0.0,-0.1738384,0.015623736,-0.1459596,0.9462589,1.3134673,-0.54418874,1.0906898,2.8024194,-0.0,1.2929677,0.09567281,-0.12850338,0.0,-0.23183678,-0.7113013,-0.18251817,-0.55533445,-0.64821106,-0.63440615,-0.61257553,0.1843247,-0.73216695,-0.43393615,-0.63251907,-0.64405537,-0.12847888,0.9071257,-0.71807003,-0.85056794,-0.0730702,-0.5529912,0.17987473
GTAGTCGAGGACAG-1-ventral,6.601091,-0.27113473,3.4124,-0.06977466,-0.0,-0.092008516,0.8013613,-0.38025552,1.9827147,4.300188,1.5969831,-0.7194959,1.4847237,-0.5929148,2.573987,0.39822558,0.1601203,0.70892537,-0.12868166,0.108634405,-0.10958215,0.96091324,1.3223681,-0.0,1.1097864,2.8074377,-0.44210336,1.2683482,0.15732881,-0.12475266,0.0,-0.0,-0.7501887,-0.10433091,-0.5838253,-0.6553408,-0.6674544,-0.61753684,0.21362022,-0.7729713,-0.4285279,-0.6667592,-0.0,-0.101762086,0.9863818,-0.76270884,-0.0,-0.05925947,-0.5206382,0.30631527
CATGGCCTTCGATG-1-dorsal,6.965685,-0.32528442,3.4437053,-0.07516146,-0.15129885,-0.1525018,0.73062104,-0.42159382,1.9220698,4.4124017,1.5474924,-0.67467046,1.3716998,-0.5412351,0.0,0.27745372,0.14154364,0.577109,-0.16485406,0.025960159,-0.14320056,0.9062577,1.3345295,-0.5649208,1.0885057,2.8415978,-0.45342487,1.2181294,0.09074635,-0.1946893,3.4145164,-0.23311113,-0.6893227,-0.20841838,-0.0,-0.6171105,-0.64404684,-0.59663576,0.1938744,-0.71153355,-0.45498857,-0.6337614,-0.64643294,-0.1498474,0.8641226,-0.66969043,-0.78367686,-0.15813126,-0.5393019,0.18369897
CGCATAGATGGGAG-1-dorsal,6.551353,-0.27299657,3.4198575,-0.049608618,-0.09756811,-0.099174984,0.79005986,-0.40789223,0.0,4.314989,1.6845729,-0.70352864,1.459872,-0.0,2.6208487,0.38597003,0.18260159,0.64173615,-0.13005972,0.1194876,-0.06670098,1.0112106,1.3436267,-0.0,1.1156172,2.8090394,-0.41705537,1.2744275,0.0,-0.13430497,3.2772696,-0.18316032,-0.7503804,-0.041880015,-0.6013958,-0.66843545,-0.6989599,-0.64349407,0.19000608,-0.76759195,-0.4537141,-0.6279762,-0.6989423,-0.060362753,0.87586564,-0.0,-0.90030265,-0.0,-0.56835073,0.34204912
GAGTCAACTGGAGG-1-dorsal,7.137507,-0.28775668,3.4896636,-0.032497913,-0.20236957,-0.21236242,0.75277126,-0.40701073,1.953111,4.342457,1.4019552,-0.60051274,1.3806715,-0.50279194,2.6137886,0.24354166,0.07422229,0.0,-0.22918212,-0.08125736,-0.28069675,1.0225621,1.3177866,-0.5449186,1.0411842,2.8958752,-0.5422417,1.2116917,-0.07639031,-0.19686177,3.3992536,-0.31727502,-0.5709298,-0.0,-0.5864729,-0.5888297,-0.6521914,-0.553185,0.09339545,-0.63568103,-0.43774685,-0.0,-0.0,-0.24200433,0.8927866,-0.0,-0.6580661,-0.079717174,-0.5404135,0.02371255
TATCGTACGAATCC-1-dorsal,7.121108,-0.2718894,3.3709726,-0.16579695,-0.20650652,-0.1922932,0.77633715,-0.43790972,0.0,4.6071653,1.2552968,-0.60905814,1.3405268,-0.50076205,2.548147,0.3597186,0.15917729,0.56326354,-0.13874869,0.17966582,-0.16021955,0.0,1.2960538,-0.5978188,1.1161494,2.7246702,-0.37881362,1.2804626,-0.0067330734,-0.28430694,3.3832045,-0.24467668,-0.7043666,-0.16274579,-0.50127137,-0.6378179,-0.6879559,-0.5883312,0.21127006,-0.6587515,-0.44636768,-0.6544735,-0.59208804,-0.16641445,0.8623717,-0.6624606,-0.764137,-0.24948002,-0.45062113,0.14320907
TATGCGGATCTCTA-1-ventral,-0.850381,0.18943188,-0.76962847,-0.082686014,-0.18543628,-0.033501122,-0.49527627,0.733718,-0.0,-0.82649213,-0.61231536,2.7350795,-0.6522532,1.6820965,-0.66498774,-0.32613564,-0.3202434,-0.44924968,-0.21401207,-0.26507956,-0.18125999,-0.5180946,-0.608875,1.3953378,-0.52206,-0.72066694,0.74687326,-0.55823517,-0.13364117,-0.21349272,-0.0,-0.20576896,3.1839476,-0.2285931,1.610626,2.3481305,2.4637854,1.8084779,-0.0,3.4869409,1.0368445,2.2811549,0.0,-0.0,-0.5505269,3.1289465,6.211922,-0.051140588,1.1104113,-0.32265234
CCGACACTCTGACA-1-ventral,6.7670555,-0.24830806,0.0,-0.0,-0.056312285,-0.08885927,0.6900604,-0.40195665,2.0306084,0.0,0.0,-0.7109881,1.435499,-0.57935995,2.5563295,0.31408036,0.09565395,0.6250649,-0.08780586,0.11173381,-0.096795894,0.95767915,1.3191638,-0.5803883,1.0934802,2.7391367,-0.4363579,1.2844722,0.057962324,-0.17368662,0.0,-0.25259727,-0.71751964,-0.15836531,-0.0,-0.62548614,-0.65447766,-0.0,0.13594379,-0.7431795,-0.49230632,-0.64103764,-0.6536993,-0.10811005,0.90174747,-0.0,-0.85263216,-0.10886703,-0.45918295,0.1965546
TGACTGGATTTGGG-1-ventral,6.922463,-0.25636682,3.4203558,-0.091455914,-0.13978118,-0.13701175,0.7396771,-0.42167884,2.0119278,4.3745785,1.5663708,-0.70208097,1.3488253,-0.57081294,2.4701695,0.325703,0.1564614,0.62776375,-0.0,0.104931965,-0.11844788,0.89032954,1.3090404,-0.5557386,1.0999072,2.8035853,-0.43618363,1.2163208,0.0,-0.17444195,0.0,-0.0,-0.71508515,-0.18642712,-0.5621211,-0.64282334,-0.65455097,-0.6131216,0.20826127,-0.71611816,-0.44285816,-0.6387966,-0.64231706,-0.14628683,0.851068,-0.6897001,-0.8240215,-0.0,-0.5163852,0.17349096
GTTCATACCCACAA-1-ventral,0.0,-0.27077565,3.4416995,-0.098853186,-0.09405726,-0.09177274,0.77944136,-0.41708332,1.9379154,4.355062,1.5384028,-0.0,1.3774599,-0.57450867,2.5471292,0.37125728,0.21420017,0.62418056,-0.0,0.0,-0.10426939,0.96497834,1.3494316,-0.5867962,1.1241798,0.0,-0.4439951,1.184622,0.14733106,-0.15186562,0.0,-0.22766154,-0.72326237,-0.17273493,-0.5636721,-0.6631665,-0.6623878,-0.6169931,0.2328441,-0.7463772,-0.44526982,-0.64594615,-0.65398896,-0.07280039,0.87194204,-0.7314677,-0.8628277,-0.10622661,-0.52148634,0.18031572
ATGACGTGGAATAG-1-ventral,7.2079134,-0.340868,3.4157815,-0.10983633,-0.09272662,-0.14834723,0.7558779,-0.42505735,1.8002851,0.0,1.3898453,-0.61883426,1.319849,-0.58398974,2.3724363,0.3791096,0.059362356,0.5845808,-0.25740308,0.0,-0.11107684,0.7340484,1.2750516,-0.59221786,0.0,2.73248,-0.41851038,1.1301297,0.16914272,-0.2289547,3.3743482,-0.21576181,-0.0,-0.19553663,-0.55880356,-0.64123917,-0.6102915,-0.5683165,0.23671018,-0.67317677,-0.4178565,-0.6241037,-0.6926098,-0.13048849,0.9763607,-0.6832079,-0.7279844,-0.0,-0.45201197,0.09562516
TGGTATCTGCCAAT-1-ventral,0.0,-0.0,3.5514672,-0.10500948,-0.11626973,-0.0,0.0,-0.42600012,1.9007661,4.5426645,1.5717142,-0.67144793,1.3551631,-0.58105946,2.5188282,0.0,0.083813705,0.63115907,-0.11496405,0.02142456,-0.16096103,0.8209714,0.0,-0.0,0.0,2.7575507,-0.4911362,1.2176641,0.12921584,-0.20556723,3.380369,-0.26595867,-0.7195624,-0.17403816,-0.5522354,-0.59004235,-0.6285826,-0.6058966,0.20405105,-0.7097867,-0.47387782,-0.61123055,-0.6230692,-0.12336493,0.8355781,-0.70197505,-0.7817397,-0.097891696,-0.49980304,0.23072855
TCCTAAACCCTTGC-1-ventral,7.016223,-0.32933006,3.4706838,-0.12483657,-0.1541292,-0.12397575,0.6796728,-0.40194222,1.9897308,4.404084,1.5685163,-0.68490815,1.3628664,-0.57184154,2.549265,0.32436875,0.06827006,0.53903913,-0.13398966,0.09206032,-0.16307427,0.7724711,1.2741631,-0.54914194,1.1140448,2.8346546,-0.43523407,1.1559922,0.009290858,-0.20248778,3.4590654,-0.18647698,-0.67321444,-0.2500937,-0.53858674,-0.6312243,-0.6075121,-0.57507145,0.13443346,-0.694665,-0.45051736,-0.6344152,-0.0,-0.14565825,0.78920287,-0.6684902,-0.77748835,-0.13230014,-0.51079327,0.16413824
CCAGGTCTCCTGAA-1-dorsal,6.669565,-0.2844172,3.4501705,-0.08300285,-0.0,-0.103062995,0.79455334,-0.4253285,1.887975,4.3247123,1.6177714,-0.710342,1.4624326,-0.58681244,2.5589106,0.36649752,0.0,0.6790397,-0.11588362,0.14277992,-0.09877344,0.8942169,1.2699519,-0.57703614,1.1381564,2.7639835,-0.41883326,1.3202043,0.15575019,-0.13763991,3.3105364,-0.18111826,-0.76276225,-0.16157939,-0.5772726,-0.67801696,-0.6502717,-0.6025999,0.23944609,-0.7728455,-0.45288187,-0.0,-0.6669394,-0.019073553,0.9505872,-0.7468323,-0.89769626,-0.015904441,-0.51669884,0.2762624
CACTGCTGTCGTTT-1-dorsal,0.0,-0.31639525,3.4047158,-0.009945433,-0.17327349,-0.13069531,0.6717027,-0.42089543,1.8849243,4.4168816,1.7004389,-0.66820437,1.5400023,-0.60073465,2.4763036,0.40377837,0.18762182,0.59101504,-0.1165349,0.084236994,-0.1484161,0.91816455,1.2978573,-0.6038333,1.1476684,2.9115205,-0.49010107,1.2770294,0.08108572,-0.17044021,3.4429398,-0.23809507,-0.711983,-0.17587629,-0.5793287,-0.6446435,-0.66024745,-0.61978567,0.0,-0.0,-0.45877665,-0.64266926,-0.65920556,-0.009115206,0.9213693,-0.75332516,-0.8253814,-0.13867272,-0.48865792,0.15469903
ACTGTGGACGTTGA-1-dorsal,0.0,-0.25414753,3.416773,-0.072439715,-0.08646588,-0.12271928,0.79942477,-0.4125374,1.9779202,4.3697042,1.6570933,-0.70663226,1.4822081,-0.55437547,2.5200937,0.39414483,0.18722019,0.6970243,-0.14471783,0.0948527,-0.07108119,0.9696722,1.2920231,-0.593368,1.1206614,2.8052635,-0.43857908,1.2567369,0.111039534,-0.16780747,0.0,-0.21301475,-0.7526439,-0.1536527,-0.58950037,-0.6492779,-0.6675271,-0.6447181,0.29920712,-0.75751406,-0.0,-0.65224427,-0.67438275,-0.036400825,1.0004373,-0.75644296,-0.90017563,-0.06272237,-0.5099122,0.2066764
TATGGGACATTCGG-1-ventral,0.0,-0.3001457,3.4233375,-0.06323596,-0.082325146,-0.13776356,0.73656815,-0.0,1.9169014,4.3639803,1.5544451,-0.69341487,1.4467474,-0.58351624,2.6544852,0.0,0.21477401,0.5746296,-0.1603416,0.08850837,-0.16890527,0.9899867,1.2877926,-0.0,1.1318194,2.79915,-0.46335673,1.2238129,0.073465526,-0.16589007,3.429068,-0.20133854,-0.7179106,-0.18617716,-0.56205887,-0.64283913,-0.0,-0.6215932,0.15581232,-0.71768725,-0.44876638,-0.6353513,-0.64556867,-0.0,0.8752843,-0.73375493,-0.0,-0.11473723,-0.5282556,0.20609538
GCACTAGACACACA-1-dorsal,-0.87610555,0.24149495,-0.74132186,-0.14339964,-0.25372586,-0.1928927,-0.44338453,0.62201434,-0.59007967,-0.8032796,-0.59244365,2.7342205,-0.543256,1.5849698,-0.67275035,-0.30400172,-0.28150216,-0.40307286,-0.21533881,-0.27628198,-0.19438241,-0.49143595,-0.53561836,1.5305462,-0.55506206,-0.7091998,0.8591736,-0.5391035,-0.26508638,-0.2491461,-0.7211157,-0.0,3.181608,-0.20753928,0.0,0.0,2.30968,1.9821068,-0.3379639,3.350677,0.879197,2.3107183,2.4275584,-0.19889316,-0.5145024,3.362993,6.211494,-0.20809983,1.0991796,-0.2693212
CGGACCGACAACTG-1-dorsal,6.62069,-0.22631408,3.373839,-0.09013368,-0.094432436,-0.081260145,0.823339,-0.0,1.9924797,4.279798,1.5914824,-0.72091526,0.0,-0.572745,2.624316,0.38993928,0.17600663,0.68226326,-0.12572183,0.125016,-0.08092563,0.94521797,1.3273947,-0.571309,1.1109601,2.8211098,-0.43843973,1.2704508,0.1899684,-0.14106943,3.3467321,-0.2278352,-0.7535262,-0.12835039,-0.57355046,-0.648799,-0.67829996,-0.63821685,0.22299568,-0.7625691,-0.4499951,-0.0,-0.6777614,-0.078099504,0.95487666,-0.7525293,-0.9008315,-0.0696677,-0.51572675,0.26766065
ACTTCAACCTATTC-1-ventral,6.9641237,-0.28850192,3.4998586,-0.09774023,-0.13382654,-0.12348997,0.70775044,-0.3964255,1.9095267,4.483911,1.5395752,-0.6699482,1.3885056,-0.5666341,2.579404,0.2422427,0.10822514,0.5670813,-0.14002165,0.015905766,-0.15987198,0.84117204,1.3084116,-0.5424921,0.0,2.7711077,-0.44693115,1.2138709,0.051095124,-0.17237107,0.0,-0.25662953,-0.690511,-0.0,-0.54362375,-0.6199801,-0.6284759,-0.61100644,0.12055204,-0.70864046,-0.47472915,-0.61481833,-0.6224062,-0.14661127,0.8910753,-0.6886446,-0.78206676,-0.14847319,-0.51354307,0.1443835
GAAGGGTGCTAGAC-1-dorsal,6.842335,-0.31764296,3.5077763,-0.032658048,-0.14178509,-0.119210154,0.6980436,-0.0,1.8753124,4.4382625,1.5067576,-0.6785078,1.3405769,-0.5916576,2.535036,0.31336406,0.14401165,0.6517978,-0.14575481,0.016512822,-0.0,0.94102985,1.2622169,-0.0,0.0,0.0,-0.43980336,1.2723697,0.08204327,-0.15254353,3.3558536,-0.2131482,-0.7088079,-0.17448929,-0.5737437,-0.6392836,-0.0,-0.6056042,0.1839759,-0.7272926,-0.46615317,-0.64386404,-0.64053196,-0.1224506,0.90359956,-0.72423565,-0.8406598,-0.0,-0.51558316,0.30354956
CGAAGGGAGGGACA-1-ventral,7.2465677,-0.30612364,3.4563243,-0.0,-0.18825936,-0.1711311,0.6404285,-0.41382077,1.8891659,4.469792,0.0,-0.59677744,1.2995241,-0.5585431,2.490717,0.16943069,0.121570565,0.49474904,-0.0,0.009250078,-0.23887397,0.8022786,1.3428704,-0.53627485,1.084202,2.8895555,-0.46244174,1.1854715,-0.00058313215,-0.19304733,3.465648,-0.22986823,-0.6403428,-0.19920126,-0.53567684,-0.5834731,-0.61828446,-0.5686477,0.072342426,-0.62842053,-0.42729723,-0.6057321,-0.6044376,-0.16258188,0.7668269,-0.67729926,-0.6726166,-0.0,-0.5249673,0.042859863
GCCATCACCGTAAC-1-ventral,6.6863227,-0.0,3.4255092,0.012416526,-0.0,-0.0930508,0.8284525,-0.42736048,2.0030842,4.285088,1.513438,-0.68510544,1.417968,-0.5888139,2.569637,0.305206,0.21190082,0.617017,-0.14376342,0.13845444,-0.0,0.96344596,1.3188354,-0.60133433,1.1304697,2.8014982,-0.43001547,1.2580166,0.0,-0.11662212,3.3287551,-0.1968931,-0.7553137,-0.09669629,-0.56573766,-0.68722177,-0.68607455,-0.5956536,0.20601025,-0.7643672,-0.4308904,-0.66852176,-0.0,-0.13176847,0.89405006,-0.73943096,-0.0,-0.10120035,-0.5020406,0.0
CTCCATCTCTGAAC-1-dorsal,6.72136,-0.27061835,3.3477547,-0.020336444,-0.045486823,-0.05998923,0.76488274,-0.40025315,1.9566051,4.346648,1.5654951,-0.693004,1.3933973,-0.6088035,2.4638238,0.26197323,0.17500542,0.58262146,-0.115364,0.12644812,-0.09552969,0.9435762,1.3809369,-0.54794294,1.2166376,2.7923877,-0.46413285,0.0,0.19047122,-0.08212918,3.332616,-0.16687778,-0.7621332,-0.11487074,-0.56434673,-0.6875188,-0.0,-0.6307214,0.0,-0.0,-0.45396715,-0.0,-0.6889972,-0.046499044,0.93413556,-0.74828774,-0.8807973,-0.008152989,-0.5188419,0.21058719
CATGAGACACACGT-1-ventral,6.71891,-0.0,3.406848,0.017662778,-0.04347828,-0.0,0.7995284,-0.37314078,1.9794916,4.3751636,1.5684212,-0.7067481,1.3458459,-0.60173607,2.4393194,0.31125557,0.0,0.6472895,-0.10471994,0.08142889,-0.08217925,0.9157047,1.350116,-0.58307046,1.222478,2.738093,-0.45856014,1.2038413,0.14187253,-0.10556169,3.3294144,-0.20750345,-0.7460504,-0.08341015,-0.56784844,-0.6707384,-0.67554826,-0.0,0.19011183,-0.75772065,-0.0,-0.64909345,-0.68891954,-0.07861502,0.9447726,-0.7609909,-0.89430285,-0.046403807,-0.5113979,0.31958824
TCATCATGAGTACC-1-ventral,6.718796,-0.28534287,3.3990846,-0.10303047,-0.079903014,-0.0769341,0.7646986,-0.0,1.9798665,4.3099246,1.6260287,-0.7066413,1.3740286,-0.5651591,0.0,0.3654851,0.15168144,0.6473366,-0.12030986,0.10148274,-0.0,0.9285793,1.351417,-0.56909394,1.1134496,0.0,-0.46916267,0.0,0.14102334,-0.12808132,3.3141623,-0.19295356,-0.74480563,-0.100080445,-0.0,-0.6708961,-0.64757174,-0.6102291,0.21716799,-0.75620097,-0.4291822,-0.6562465,-0.6780409,-0.060707267,0.95319873,-0.0,-0.88528055,-0.10667967,-0.52352285,0.22903349
CGGATATGGATAGA-1-dorsal,-0.89385724,0.26288033,-0.0,-0.10069397,-0.15896799,-0.0,-0.44362944,0.7104372,-0.6449436,-0.8318059,-0.60010463,2.7426775,-0.5761993,1.5280921,-0.7059137,-0.25828078,-0.22013904,-0.4185172,-0.19259076,-0.24334557,-0.19706303,-0.4849917,-0.574654,1.4851539,-0.52585834,-0.72966224,0.8080311,-0.5607804,-0.27020615,-0.15034716,-0.7725525,-0.22038454,3.27055,-0.0,1.5622294,2.2591672,2.3325188,1.9548839,-0.26773554,3.2981808,0.8976857,2.3121555,2.3741455,-0.16702375,-0.5125889,3.2473638,6.188174,-0.0,1.1793013,-0.2902904
AGCCGTCTTAAGCC-1-ventral,6.7423077,-0.31638822,3.3551474,-0.0,-0.09720902,-0.0,0.8083622,-0.4170073,1.7878366,4.334504,1.596795,-0.71249795,1.3476536,-0.5985407,2.4221914,0.25954998,0.1163512,0.5764121,-0.0,0.18015523,-0.09787196,0.9352815,1.2819761,-0.530288,1.162244,2.8389587,-0.43756396,0.0,0.22096144,-0.026846994,3.2866287,-0.11724611,-0.76204664,-0.09250085,-0.5912198,-0.69513506,-0.6341539,-0.649273,0.16977711,-0.7425261,-0.4607137,-0.64331627,-0.7148809,-0.008538101,1.0115587,-0.7619478,-0.9053024,-0.0,-0.5023918,0.23582743
CTCTAATGGGTACT-1-dorsal,6.646937,-0.4391528,3.45524,-0.07975777,-0.1627946,-0.17192067,0.7794709,-0.42959732,0.0,4.3143067,1.6857618,-0.66325283,1.3340303,-0.63919646,0.0,0.4311613,0.06456731,0.6793372,-0.15397741,0.09742239,-0.027281776,1.0449786,1.3608812,-0.0,1.1937779,2.9163344,-0.49837783,1.3620762,0.14743198,-0.26275882,3.2296276,-0.20651633,-0.672271,-0.15969655,-0.5831523,-0.58309305,-0.6234325,-0.6093023,0.26583287,-0.74318403,-0.5177857,-0.6328265,-0.63839304,-0.24091145,0.98908496,-0.7402263,-0.79602724,-0.15938105,-0.6130333,0.35419804
TTGGAGACTTACTC-1-dorsal,2.5296977,-0.116074756,0.57304245,-0.36928517,-0.0,-0.54837525,-0.5260562,0.2780555,-0.0,0.89575666,-0.36390346,2.6236567,-0.6030331,1.2408041,-0.07956552,-0.54405886,-0.0,-0.52492416,-0.41476926,-0.63451797,-0.0,-0.66919136,-0.4406485,1.1605482,-0.3698763,0.022615924,-0.031439863,-0.41037947,-0.5466896,-0.3414615,0.25333762,-0.4453233,3.3828418,-0.35388643,0.94235206,2.079242,0.0,1.5090162,-0.64134806,3.4525216,0.0,2.0127542,2.0949516,-0.0,-0.5206071,3.1232004,7.191448,-0.36773974,0.9314756,-0.5922259
AACCCAGAAGAATG-1-ventral,6.6719437,-0.23010997,3.5117602,-0.15132646,-0.1424616,-0.07403036,0.0,-0.44411755,2.0022118,4.305645,1.5720167,-0.72794694,1.3591863,-0.5581044,2.5678403,0.29285115,0.11567809,0.66570693,-0.16274248,0.09526816,-0.0978097,0.9783263,1.4116778,-0.585585,1.1004918,2.776019,-0.41129306,1.2669497,0.20827423,-0.13475849,3.4707744,-0.25618878,-0.7344367,-0.17035486,-0.54780203,-0.6570955,-0.6503338,-0.6239542,0.19980901,-0.74378973,-0.45824948,-0.64511985,-0.62619174,-0.048137642,0.87125397,-0.7449801,-0.87452114,-0.024564333,-0.49727198,0.1952702
AGTGACTGAGAATG-1-dorsal,6.892437,-0.29034403,0.0,-0.10839264,-0.0,-0.0,0.7062567,-0.40826264,1.9757583,4.3521233,0.0,-0.6881573,1.4434823,-0.5655398,2.5011885,0.31705183,0.15901902,0.0,-0.17041571,0.0,-0.11191335,0.9515706,1.3307236,-0.5545227,1.0808783,2.7959049,-0.4521239,1.2774729,0.07390963,-0.0,3.4119427,-0.0,-0.7179029,-0.20733193,-0.5345179,-0.63049465,-0.6568452,-0.6212058,0.15843141,-0.73582315,-0.44772977,-0.62338984,-0.6497372,-0.12606588,0.8853546,-0.6957981,-0.8196149,-0.12111704,-0.52748084,0.0
GAAGTCTGCGAGAG-1-dorsal,6.694529,-0.35242447,3.4817781,-0.23470972,-0.0,-0.09559539,0.7385569,-0.38724297,0.0,4.3040338,1.721318,-0.674767,0.0,-0.57825434,2.6890647,0.33678105,0.033447232,0.5927893,-0.07808017,-0.17860678,-0.26184666,0.88180906,1.2324268,-0.5174305,1.1572003,2.9195898,-0.36764637,1.2452148,0.030796943,-0.063592196,3.4529366,-0.20773903,-0.7119615,-0.21363372,-0.59223133,-0.60276616,-0.59201705,-0.615231,0.12853228,-0.69591784,-0.4434711,-0.6096387,-0.64166653,-0.0,0.9862524,-0.7763933,-0.8265847,-0.16300268,-0.51732326,0.0913722
TGAGGTACTGATGC-1-ventral,6.7180862,-0.2761657,3.4094064,-0.014489758,-0.120752655,-0.06614414,0.7749994,-0.38738114,1.9299487,4.319889,1.5782757,-0.0,1.3140402,-0.57350004,0.0,0.34953675,0.0,0.65896195,-0.06612241,0.09989426,-0.121395595,0.9264662,0.0,-0.5867028,1.150144,2.8208106,-0.43171898,1.2748257,0.11883357,-0.13920374,3.382159,-0.0,-0.7557469,-0.12579918,-0.57208914,-0.659849,-0.6676824,-0.60797656,0.22732209,-0.7675121,-0.46371636,-0.64680415,-0.6687611,-0.0713963,0.9354658,-0.7603748,-0.883574,-0.080492504,-0.52499413,0.2690172
CATCGCTGTGGTAC-1-ventral,6.799153,-0.30513355,3.4557576,-0.083395645,-0.0979768,-0.057829026,0.744088,-0.38212368,1.9582912,4.4069233,1.5516967,-0.70169944,1.3310965,-0.0,2.53022,0.33387703,0.15660147,0.55849767,-0.11169103,0.09406913,-0.11841649,0.9336626,1.3452195,-0.5616818,1.1036435,2.8467932,-0.4585826,0.0,0.12905745,-0.11527122,3.3509314,-0.21648051,-0.73088026,-0.16411802,-0.5744876,-0.63938046,-0.63370574,-0.5957674,0.1266729,-0.74889755,-0.43121764,-0.62210613,-0.6459568,-0.08076761,0.9001196,-0.7403553,-0.8592394,-0.073324315,-0.5526828,0.22665636
GACCATGATTAGGC-1-dorsal,6.840798,-0.31354302,3.41258,-0.02774987,-0.12983322,-0.16192557,0.73880893,-0.44073823,2.02401,4.4196806,1.5220616,-0.68760914,0.0,-0.0,2.523543,0.3313977,0.1782159,0.59637547,-0.13060875,0.06860412,-0.09639522,0.93855613,1.3148068,-0.5794504,1.0935291,0.0,-0.0,1.2137294,0.15053001,-0.16822617,3.3809557,-0.24095364,-0.6981461,-0.21134424,-0.55568033,-0.6580694,-0.6376802,-0.0,0.19531913,-0.71995693,-0.4669081,-0.6524701,-0.64254516,-0.12425582,0.0,-0.6940445,-0.8279295,-0.11857749,-0.53211325,0.0
GGATACTGGACTAC-1-ventral,6.517466,-0.28272724,3.4368372,-0.08944631,-0.0,-0.10367957,0.7797629,-0.42707035,0.0,4.3418117,1.6959965,-0.0,1.4666722,-0.0,2.6407783,0.3996298,0.15770817,0.6841282,-0.10900856,0.111041024,-0.106617816,0.9815082,1.3011603,-0.57381487,1.1038955,2.8102574,-0.44895896,1.2709678,0.18726964,-0.15246962,3.4374135,-0.21530643,-0.7360936,-0.14550819,-0.5899749,-0.6460036,-0.6615307,-0.6238841,0.24478227,-0.7631792,-0.45583528,-0.65397733,-0.6565874,-0.05379048,0.9037172,-0.75647676,-0.8889151,-0.113138035,-0.5190685,0.27646393
TTCCTAGAGTTGTG-1-dorsal,-0.80442417,0.27660647,-0.6989719,-0.1751729,-0.1978114,-0.0,-0.4341223,0.5460622,-0.6134434,-0.7812077,-0.6371508,2.7727268,-0.51563483,0.0,-0.64013296,-0.35234413,-0.24839549,-0.392258,-0.0,-0.21553293,-0.2621992,-0.53607804,-0.49896687,1.4429004,-0.0,-0.6760302,0.8051808,-0.5430612,-0.24507868,-0.25264126,-0.0,-0.3785433,3.2699144,-0.14968012,0.0,2.4587975,2.162877,1.9128323,-0.3438659,3.3895948,0.8331119,2.317047,2.4226558,-0.25379097,-0.54440933,3.3085396,6.365431,-0.22503318,1.1233006,-0.37516516
AAGCCAACGAATGA-1-dorsal,-0.9053866,0.34947065,-0.81967926,-0.21893376,-0.0,-0.041284166,-0.47198716,0.64150894,-0.71419966,-0.0,-0.5774721,0.0,-0.5342706,1.4997557,-0.678057,-0.0,-0.25107166,-0.41773203,-0.13662153,-0.17209968,-0.13845538,-0.47042802,-0.0,1.6220454,-0.0,-0.74115294,0.9108415,-0.5449757,-0.3111966,-0.08972857,-0.7681615,-0.1785789,3.2843719,-0.2581935,1.4919676,2.3222888,2.196893,1.8653517,-0.36542457,3.452641,0.9021777,2.3565238,2.3429422,-0.06228421,-0.4283,3.1589012,6.095785,-0.18478455,1.1317354,-0.3272337
CCTGAGCTGGAGGT-1-ventral,6.817168,-0.2839907,3.4284856,-0.06798917,-0.12829596,-0.08079357,0.7378035,-0.39777035,1.9539162,4.4129395,1.5898924,-0.7080592,1.4677936,-0.5858615,2.5053418,0.33955863,0.15597308,0.63288045,-0.0,0.056856442,-0.0,0.87406635,1.3118949,-0.5512069,1.1142173,2.7778306,-0.45264757,1.223851,0.15537544,-0.15440623,3.3148708,-0.21283905,-0.71552444,-0.0,-0.5691297,-0.6576522,-0.65864307,-0.60423833,0.16795513,-0.73798925,-0.42708564,-0.6543703,-0.652343,-0.05814718,0.93531585,-0.7436946,-0.8519972,-0.078507535,-0.0,0.1796193
ACAGTGACTTCTGT-1-ventral,6.8450413,-0.28513208,3.4448419,-0.043612786,-0.12392694,-0.119575664,0.69430554,-0.4204837,2.02439,4.306762,1.6323308,-0.6678099,1.3724333,-0.6274658,2.5379155,0.31931743,0.15887208,0.597232,-0.15816014,0.07405859,-0.09846012,0.950589,1.2745609,-0.0,1.1303172,2.8519673,-0.45391104,1.2985216,0.14281747,-0.16264652,3.2983186,-0.21757299,-0.7135512,-0.19682826,-0.5928813,-0.64401275,-0.663089,-0.5959719,0.16982837,-0.7301326,-0.40482125,-0.64405054,-0.0,-0.07406182,0.8998463,-0.72402126,-0.83743244,-0.09349526,-0.52927643,0.23297074
ACGCACCTTGTTCT-1-ventral,6.5735674,-0.0,3.520261,-0.059126552,-0.089518495,-0.047295295,0.76760364,-0.37072694,1.9551735,4.2853045,1.547153,-0.72852665,1.4559015,-0.596596,2.5681212,0.3744603,0.0,0.6455563,-0.058713425,0.0,-0.11468994,0.0,1.3304521,-0.0,1.1520691,2.835334,-0.43796402,1.3111792,0.1285731,-0.0,0.0,-0.18836235,-0.7478395,-0.14248219,-0.5748336,-0.64819115,-0.6665445,-0.63094646,0.21499175,-0.77333724,-0.4468461,-0.65004367,-0.6790703,-0.098046996,0.9221855,-0.0,-0.9035433,-0.047128532,-0.517588,0.26542825
AATCAAACCTGGAT-1-ventral,7.8451915,-0.519553,3.4061487,-0.16148938,-0.28405482,-0.29710215,0.30982545,-0.38506496,1.6157504,4.923117,1.2839696,-0.49459267,0.95142555,-0.0,2.2328448,-0.05561405,-0.0027083028,0.0,-0.18855546,-0.1954949,-0.3536161,0.6502961,1.1237612,-0.48704466,1.0866004,2.6608136,-0.5358808,1.2224272,-0.14917421,-0.2954192,3.4151545,-0.21907927,-0.0,-0.27839768,-0.5154237,-0.53476256,-0.34071422,-0.38172272,-0.12588799,-0.40911397,-0.39983004,-0.42782727,-0.5081581,-0.2640949,0.5318463,-0.43473595,0.19126967,-0.23498629,-0.49248427,-0.2286466
GCCACTACGGTTAC-1-dorsal,-0.9847704,0.34506148,-0.84420246,-0.053957704,-0.1041664,-0.050483413,-0.4270851,0.79370755,-0.6493545,-0.88344735,-0.6271728,2.6357727,-0.55253375,1.7019808,-0.72974855,-0.23209175,-0.1939483,-0.40687495,-0.14109229,-0.13152236,-0.15129124,-0.48336682,-0.5529511,1.6041758,-0.51774174,-0.77785033,0.0,-0.54026955,-0.2016596,-0.16981257,-0.8183154,-0.22226281,3.1373162,-0.0,1.664521,2.3220077,2.3213203,0.0,-0.2210478,3.2438686,0.972145,2.1986332,0.0,-0.15006265,-0.4770685,3.2296283,5.7590766,-0.095427044,0.0,-0.2746298
GGTACATGTCACCC-1-dorsal,6.575977,-0.32123527,3.4484363,-0.0,-0.075729825,-0.050645806,0.7354398,-0.35964635,1.927793,4.2410398,1.5813055,-0.735809,1.4314291,-0.57034564,2.5662222,0.38008294,0.20746352,0.58383876,-0.09579619,0.14188981,-0.087679364,0.9758295,1.3760192,-0.53470623,1.1747351,2.8410096,-0.4302611,1.3388168,0.14845327,-0.1280384,3.3267343,-0.18379503,-0.75136775,-0.13782455,-0.5714407,-0.6730803,-0.65697044,-0.63576466,0.28122228,-0.0,-0.46447715,-0.0,-0.67498875,-0.04927463,1.000599,-0.76068777,-0.9297756,-0.049731668,-0.47663438,0.27805504
GGGCAGCTAACCGT-1-dorsal,6.8157654,-0.27432072,3.537226,-0.0,-0.082844436,-0.12108836,0.71110713,-0.40136325,1.9489895,4.434311,1.5306511,-0.6788739,1.3586757,-0.55353594,2.5680013,0.0,0.14408748,0.6062641,-0.11203455,0.0,-0.0,0.8512263,1.334831,-0.591895,0.0,2.7528973,-0.43491453,1.1850486,0.1004285,-0.0,3.4332492,-0.0,-0.73509526,-0.0,-0.5520603,-0.6373151,-0.0,-0.60650337,0.20927794,-0.71214014,-0.45669255,-0.62763864,-0.6651174,-0.11091789,0.0,-0.7176665,-0.8297662,-0.11007097,-0.47132608,0.17469311
GCTAGATGGTACCA-1-ventral,6.800188,-0.31214225,3.5163689,-0.11913254,-0.09866132,-0.09579123,0.7350539,-0.39779955,1.9675742,4.3448114,0.0,-0.67902607,1.3614255,-0.5708693,2.5552351,0.3023941,0.0,0.6716951,-0.15042199,0.0,-0.13138282,0.88404477,1.2894163,-0.5481998,0.0,2.8351674,-0.45036873,1.2701168,0.10777385,-0.14846498,3.3356423,-0.2136069,-0.73490727,-0.18549834,-0.56700945,-0.0,-0.66771126,-0.6126955,0.16177805,-0.72313267,-0.44348407,-0.6624477,-0.6569788,-0.0013859405,0.89612186,-0.7270623,-0.8417607,-0.14229795,-0.50827545,0.22085582
GTGCCACTTGTGGT-1-ventral,6.7220993,-0.2758186,3.4344683,-0.05245262,-0.05401274,-0.0,0.75857097,-0.40547717,1.9652588,4.2980504,1.5452164,-0.7207773,1.4421593,-0.56206006,2.6050825,0.33988035,0.0,0.66308296,-0.14721586,0.0,-0.09930743,0.9614336,1.3601751,-0.5711488,1.1071079,2.7879403,-0.43365613,1.2442715,0.16318394,-0.14087538,3.3612137,-0.23002255,-0.73960036,-0.13139772,-0.55435634,-0.64840066,-0.65453744,-0.6284782,0.19485041,-0.7585679,-0.0,-0.63933456,-0.68197656,-0.09867252,0.9341219,-0.74772215,-0.8772656,-0.05048944,-0.5190587,0.22362784
CTCTAATGGATACC-1-dorsal,-0.88227314,0.28885168,-0.77210575,-0.116921335,-0.19391173,-0.15916726,-0.5104145,0.72760177,-0.62806463,-0.8092636,-0.6463475,2.786737,-0.5760723,1.6273792,-0.71209943,-0.23008123,-0.25402528,-0.4262482,-0.20523582,-0.16096686,-0.18321608,-0.5224184,-0.0,1.557587,-0.51867884,-0.7189833,0.78835887,-0.5676079,-0.2772885,-0.14997861,-0.73363024,-0.30861485,3.1388633,-0.2358993,1.568223,2.3544607,2.2640548,1.9866257,-0.24216865,3.3803406,0.8047835,2.2254615,2.3307495,-0.114531524,-0.51220435,3.292187,6.195073,-0.19612797,1.2490374,-0.3286866
AGCGGCTGGGAGGT-1-ventral,7.0055375,-0.26996708,3.4254224,-0.03840321,-0.13045444,-0.0,0.71163607,-0.41474682,1.8739463,4.422212,1.5154643,-0.659211,1.3138705,-0.602839,2.5317044,0.2957783,0.0,0.5172007,-0.12844828,0.0,-0.1310342,0.90885067,1.2737805,-0.579343,1.1077629,0.0,-0.41166294,1.1582357,0.101923056,-0.12564003,3.4226768,-0.19415419,-0.7169857,-0.2014965,-0.5716839,-0.65721,-0.64797455,-0.58331627,0.15138566,-0.70958704,-0.48878646,-0.0,-0.6563013,-0.08050191,0.8551699,-0.6807726,-0.80157405,-0.11193004,-0.52015555,0.0
AACAGAGAGGATTC-1-ventral,7.248526,-0.40470582,3.5583577,-0.0567119,-0.20266779,-0.0,0.0,-0.42774612,1.8389148,4.6553874,1.4381984,-0.5990232,1.1986154,-0.5241749,2.510434,0.272315,0.07553654,0.5659959,-0.21965167,-0.075483985,-0.14171456,0.7445858,1.2011855,-0.5664649,1.1327116,2.7820845,-0.48850805,1.0749166,0.047272746,-0.17956066,3.3500545,-0.22712523,-0.62238437,-0.21739629,-0.5400138,-0.60788834,-0.54614294,-0.5880119,0.04934881,-0.6111585,-0.48570994,-0.60046643,-0.0,-0.25094655,0.7759688,-0.60306746,-0.6322725,-0.25140652,-0.527451,0.21002956
TCGCACACGTTGCA-1-ventral,6.902978,-0.26464412,3.5145094,-0.06762571,-0.14131315,-0.12585098,0.70666534,-0.43437615,1.9257911,4.390466,1.5528513,-0.0,1.3790299,-0.0,2.5443566,0.30878878,0.17227945,0.563983,-0.11420026,0.09163145,-0.14125037,0.9144063,1.3069521,-0.5669329,1.1527209,2.8020961,-0.46590304,1.2189666,0.08701197,-0.16304997,3.3542945,-0.23342703,-0.7088806,-0.1902901,-0.54477274,-0.654278,-0.0,-0.5999321,0.1454629,-0.7087431,-0.45020252,-0.0,-0.64470536,-0.11854828,0.8444555,-0.70893085,-0.8135808,-0.11558891,-0.5043919,0.1828382
ATTATGGAGCCTTC-1-dorsal,-0.9121441,0.24961694,-0.7791925,-0.14746322,-0.1940828,-0.1375674,-0.44547877,0.61609626,-0.6551323,-0.82631075,-0.5832573,2.7518182,-0.5638981,1.6919565,-0.6908474,-0.24295186,-0.30376905,-0.4217497,-0.22517735,-0.2209727,-0.14454882,-0.5014183,-0.5978488,1.6100117,-0.53951895,-0.7335047,0.0,-0.5063109,-0.26632178,-0.14990535,-0.7711278,-0.2002726,3.236709,-0.17463055,1.5792582,2.2811925,2.2468896,1.8581938,-0.0,3.4106512,0.8765397,2.2651267,2.3766255,-0.14905883,-0.4654709,3.2981157,6.0789456,-0.17063314,1.1888336,-0.288169
TGAGCTGAAACGAA-1-dorsal,6.9095907,-0.30600953,3.4224367,-0.0,-0.0,-0.17808405,0.7005636,-0.4405539,0.0,4.4583607,1.6253849,-0.6761447,1.3510145,-0.56902266,2.518876,0.32865283,0.15521783,0.6167703,-0.1340949,0.09363476,-0.13115546,0.8987679,1.2306445,-0.5516078,1.1159598,2.840093,-0.48739702,1.1825671,0.05292421,-0.1392358,3.4029164,-0.2144511,-0.0,-0.2024899,-0.545726,-0.65775436,-0.64706475,-0.6072417,0.17764182,-0.71267235,-0.47104558,-0.6290181,-0.6355794,-0.13101234,0.85394996,-0.6814663,-0.8033113,-0.08784374,-0.5218306,0.21849915
TCTACAACTCGTGA-1-ventral,7.0710974,-0.30806264,3.4540958,-0.026986137,-0.1259694,-0.1624942,0.655209,-0.0,1.8311619,4.527647,1.488367,-0.0,1.2651532,-0.5334398,2.506902,0.20384401,0.0,0.55164945,-0.17215186,-0.036743153,-0.16637181,0.8520363,1.3541763,-0.5545119,0.0,2.8097959,-0.47206384,1.1582597,0.13370688,-0.17579755,3.425112,-0.0,-0.66150975,-0.17316303,-0.52504975,-0.6108117,-0.61240953,-0.5990931,0.15712845,-0.69183356,-0.51054496,-0.6318117,-0.6653045,-0.0,0.80740297,-0.0,-0.7657305,-0.14397423,-0.5293151,0.07210204
CAGCGTCTCTTGAG-1-dorsal,6.577841,-0.24161333,3.4042645,-0.04721019,-0.13200787,-0.101613075,0.8413175,-0.0,2.01894,4.3274784,1.7828412,-0.7215859,1.3303572,-0.6030217,2.6040657,0.3071077,0.13351887,0.6891132,-0.14604066,0.08173165,-0.14910957,0.89807945,1.3129336,-0.53109163,1.1170735,2.8144178,-0.4324137,1.2622967,0.2156361,-0.15025531,3.4749606,-0.22583942,-0.0,-0.19116297,-0.55093616,-0.6546328,-0.0,-0.6436806,0.15618327,-0.76456827,-0.0,-0.626081,-0.63897324,-0.0,0.93499255,-0.73434895,-0.8925172,-0.027125744,-0.53959966,0.17313813
CACCCATGACTCTT-1-ventral,6.696928,-0.26223224,3.4017525,-0.066816084,-0.096033886,-0.07221302,0.77493143,-0.39176673,2.0051117,0.0,1.6130476,-0.7229278,1.4471539,-0.5748173,2.4947524,0.371454,0.15390287,0.6256577,-0.08254555,0.090413116,-0.085897714,0.9345011,1.2985132,-0.5658118,1.1253648,2.7611272,-0.43551117,1.271872,0.16248155,-0.13455266,3.354872,-0.20347741,-0.770217,-0.108597286,-0.5639712,-0.67379373,-0.65842074,-0.62026453,0.24676403,-0.77265954,-0.0,-0.66193604,-0.6757269,-0.05377187,0.9373478,-0.7620769,-0.90003115,-0.06513106,-0.4976388,0.28446817
TAACAATGTATGGC-1-dorsal,6.397168,-0.22932822,3.365273,-0.0,-0.018424591,-0.014101798,0.8275009,-0.4237618,2.0490007,4.228338,1.6517291,-0.75850505,0.0,-0.59162927,2.6122148,0.368193,0.0,0.69483197,-0.07572996,0.14932829,-0.08710021,0.0,1.367609,-0.0,1.1107465,2.7938602,-0.4412591,1.2770503,0.21526296,-0.0,3.3102887,-0.19894065,-0.7784987,-0.12111857,-0.5878414,-0.0,-0.65774924,-0.63335454,0.2906712,-0.7968579,-0.43481344,-0.6616368,-0.6572252,-0.0034474665,0.9895126,-0.7782057,-0.0,0.04492328,-0.52067316,0.2505187
GGTCTAGAGGTGGA-1-dorsal,6.338996,-0.20139125,3.2843113,-0.0,-0.0,-0.016791424,0.8774559,-0.3811336,1.970228,4.231567,1.6132597,-0.7530133,1.5478818,-0.6083404,2.68204,0.4879204,0.247901,0.0,-0.008636382,0.19408315,-0.070469715,0.0,1.3448745,-0.61395246,0.0,2.7805426,-0.37731445,1.2479506,0.16598623,-0.0,3.2722545,-0.22314802,-0.80317724,-0.09644959,-0.6014829,-0.6693567,-0.69555414,-0.6307492,0.37081364,-0.8050643,-0.42859584,-0.6795488,-0.70965564,0.005584707,1.0275756,-0.7992949,-0.9544567,0.021919824,-0.4868628,0.30957603
TGAGTCGAATGGTC-1-dorsal,-0.85231453,0.22771204,-0.7346186,-0.08515504,-0.18531641,-0.16029306,-0.4700416,0.65340257,-0.6242245,-0.78123343,-0.5931648,2.7421556,-0.53048295,1.4906774,-0.6638482,-0.0,-0.25363797,-0.0,-0.2858358,-0.0,-0.0,-0.4627524,-0.58622456,1.449875,-0.5581989,-0.6979402,0.0,-0.534173,-0.26913744,-0.1801585,-0.75845706,-0.2757746,3.3244748,-0.20113112,1.5797487,2.3773916,2.2770185,1.8470381,-0.3390629,3.390609,0.0,2.3045025,2.4590428,-0.2143503,-0.5610274,3.3565745,6.262525,-0.17709376,1.048069,-0.26687598
TTTCGAACTCATTC-1-dorsal,6.634854,-0.27305928,3.3833714,-0.006891092,-0.10360116,-0.06267614,0.84540796,-0.39490074,1.9939739,4.281578,1.494226,-0.7149191,1.4903965,-0.58267635,2.4421012,0.3562013,0.17942648,0.61944586,-0.0,0.12232692,-0.084626615,0.950358,1.3351984,-0.5771196,1.1991594,2.8540542,-0.0,1.2900062,0.13993582,-0.08164943,3.3281877,-0.1714294,-0.76054835,-0.10496815,-0.58194834,-0.6592251,-0.6803444,-0.6327562,0.2482202,-0.0,-0.0,-0.664444,-0.6703217,-0.09258317,0.9267324,-0.7719222,-0.90171605,-0.020171802,-0.5540515,0.30091268
TAGCATCTTCCTTA-1-ventral,6.752102,-0.24849072,3.4900522,-0.096512906,-0.0812363,-0.11308598,0.7988296,-0.40069395,0.0,4.2945523,1.5705553,-0.7129952,1.3777623,-0.55381334,2.5184278,0.344691,0.1550596,0.65642124,-0.08398447,0.0,-0.08328246,0.90755296,1.2830676,-0.5635568,1.1293035,2.7869806,-0.4200085,1.3212122,0.090642095,-0.14723659,3.3412514,-0.21790114,-0.7501993,-0.17364423,-0.5704221,-0.64002305,-0.6672911,-0.61343247,0.21441066,-0.7602546,-0.44297433,-0.63005376,-0.6537017,-0.0,0.8921576,-0.73148733,-0.8968793,-0.06417242,-0.52502906,0.2673959
TGGATCGAGCTTCC-1-ventral,6.6377745,-0.28373608,3.3662472,-0.08971241,-0.06403148,-0.07610454,0.8159104,-0.40924126,2.013098,4.34304,1.593858,-0.7157694,1.3494881,-0.60007733,0.0,0.3866143,0.15531777,0.0,-0.11953653,0.13033152,-0.08680265,0.0,1.3914887,-0.57847357,1.1716317,2.8071175,-0.4008841,1.3060961,0.15577811,-0.072143346,3.2572093,-0.2146774,-0.7497833,-0.1304963,-0.58129394,-0.6726619,-0.6485717,-0.6296933,0.18204582,-0.75595146,-0.42657682,-0.6759805,-0.6663455,-0.023103224,0.0,-0.74682665,-0.9126025,-0.085062586,-0.51904976,0.20187315
TGGATGACGCGAAG-1-ventral,6.7934785,-0.0,3.4386458,-0.11020191,-0.08904424,-0.10846867,0.7790325,-0.4060434,1.9874984,4.3756394,1.5196732,-0.70036757,1.3992543,-0.57208145,2.4385011,0.39031628,0.107825406,0.60981333,-0.09437707,0.09926063,-0.08764685,0.0,1.3425848,-0.56587565,1.1071129,2.8332348,-0.4283251,1.1952075,0.0,-0.13151905,3.4208753,-0.16429307,-0.7219985,-0.09168241,-0.5643801,-0.6657008,-0.65681523,-0.62484545,0.13492163,-0.74702805,-0.47065082,-0.6504124,-0.67218876,-0.14963794,0.8904669,-0.7362703,-0.86124665,-0.09740207,-0.4780675,0.26459944
GGAGGCCTCAGCTA-1-dorsal,-0.8801147,0.27210116,-0.7638852,-0.14230451,-0.11313896,-0.13043788,-0.45126686,0.60483384,-0.64648676,-0.76538527,-0.6142087,2.8166177,-0.59382284,1.5319059,-0.7134607,-0.2995266,-0.2859141,-0.4563449,-0.06556141,-0.2185023,-0.23887159,-0.52873933,-0.54568577,1.4069575,-0.48916593,-0.71146476,0.9604058,-0.5616553,-0.30719003,-0.16719402,-0.7330267,-0.17150469,3.2089944,-0.22171776,1.5585477,2.3711789,2.2470784,1.9600611,-0.0,3.4357407,0.7607996,2.2095447,2.4642181,-0.17624088,-0.55316824,0.0,6.271327,-0.1329636,1.070553,-0.37293687
GAGATCACTTCTAC-1-ventral,-0.8567453,0.19530661,-0.778326,-0.17500845,-0.24129657,-0.09483265,-0.45109427,0.6345471,-0.6574488,-0.79108965,-0.58436376,2.831229,-0.576471,1.6450596,-0.6992669,-0.31438974,-0.2709279,-0.44427556,-0.19042493,-0.20290163,-0.19084693,-0.5333517,-0.5379385,0.0,-0.46886832,-0.6919413,0.8370115,-0.49941835,-0.2329865,-0.26892,-0.7723913,-0.24489345,3.2850122,-0.2387015,1.5943998,2.2426877,2.3524804,1.8652321,-0.30943826,3.375502,0.75532305,2.258637,2.3647375,-0.08138021,-0.4938753,3.2150044,6.294959,-0.15892375,1.2019557,-0.3173309
AGCTTTACTACTGG-1-ventral,6.7897987,-0.27602172,3.4903731,-0.10236959,-0.12463908,-0.08757181,0.7517706,-0.4214248,1.9403123,4.361318,1.5239689,-0.0,1.4129319,-0.58714247,2.5920794,0.34659937,0.13610739,0.0,-0.14652564,0.08447979,-0.14556277,0.91771704,1.2720107,-0.5698095,1.091522,0.0,-0.46421027,0.0,0.09888593,-0.15752317,3.3743799,-0.0,-0.719472,-0.15736693,-0.59341633,-0.6355329,-0.6253697,-0.63253534,0.19082983,-0.72777665,-0.47932184,-0.62966716,-0.0,-0.13463412,0.9252782,-0.7223477,-0.8376534,-0.083088346,-0.5183177,0.20586002
GGAATCTGGTGCAT-1-ventral,6.8064575,-0.29310876,3.4116058,-0.070682764,-0.119823754,-0.109826595,0.7271049,-0.0,1.9539124,4.394449,1.6057193,-0.70190614,1.4266393,-0.5449952,2.4977798,0.35960135,0.16446823,0.56385744,-0.1328428,0.105273664,-0.12597615,0.9365489,1.300881,-0.56658775,1.1211358,2.7935236,-0.0,1.2883892,0.11419532,-0.13835576,3.3781517,-0.19804718,-0.73231035,-0.17096838,-0.5688646,-0.65463084,-0.65152234,-0.6273655,0.1837153,-0.72736865,-0.4632305,-0.6397542,-0.6469152,-0.11419442,0.0,-0.7273526,-0.85215515,-0.07053402,-0.0,0.20013377
CTATACTGTAGACC-1-dorsal,6.8955235,-0.35658982,3.3941941,-0.053264435,-0.094957754,-0.11881378,0.7442603,-0.37813625,1.9140279,4.3094716,1.4692024,-0.684657,1.4201615,-0.5201701,2.434734,0.5032685,0.26642367,0.72321194,-0.17542185,0.115439005,-0.14271207,0.9866007,1.3297012,-0.6347888,1.0680252,2.8349402,-0.49254498,1.2567843,0.17644215,-0.24308304,3.2322772,-0.0,-0.7356084,-0.05094588,-0.5862708,-0.6562626,-0.6493066,-0.6354271,0.3137272,-0.7833142,-0.45363382,-0.5995403,-0.680806,-0.0,0.85694265,-0.7470934,-0.84626305,-0.11067861,-0.49575093,0.23194721
GTTATGCTAACGGG-1-ventral,7.156465,-0.2873832,3.5124214,-0.04933397,-0.11947878,-0.0,0.65123624,-0.44517672,1.8693676,4.444625,1.4633672,-0.62677574,1.2951192,-0.57329077,2.4981198,0.18404534,0.08935152,0.6052163,-0.19003285,-0.0008514193,-0.19437572,0.84028167,1.3186214,-0.54476035,0.0,0.0,-0.44349486,1.1312597,0.04942467,-0.1627954,3.371838,-0.19983578,-0.666612,-0.23295702,-0.53963816,-0.0,-0.62923557,-0.61220396,0.123220526,-0.6705989,-0.4735254,-0.62008214,-0.61390203,-0.12807,0.86022913,-0.67388815,-0.7345939,-0.15805371,-0.49189094,0.15246983
TTATGGCTTTGGCA-1-dorsal,6.803196,-0.36244607,3.3966556,-0.03946424,-0.20281276,-0.18813683,0.9199025,-0.44966957,1.9361321,4.2505693,1.5826386,-0.69226587,1.540542,-0.66121304,2.4669812,0.48166668,0.072811134,0.5953338,-0.12180587,0.06068371,-0.10666828,0.8176838,1.251282,-0.54940516,1.1265154,2.9037616,-0.443966,1.2525502,0.20091663,-0.22367346,3.3889968,-0.101096965,-0.7261248,-0.10697617,-0.5730297,-0.686351,-0.5911381,-0.56929845,0.0,-0.7180019,-0.0,-0.6640976,-0.62971324,-0.19722417,1.0381826,-0.7365646,-0.8113903,-0.098399654,-0.5755989,0.16987497
CATCTCCTTCTCTA-1-ventral,-0.9174392,0.2837932,-0.7522668,-0.15638842,-0.23227124,-0.12660736,-0.4327945,0.64194703,-0.65854454,-0.851205,-0.588592,0.0,-0.0,1.5291016,-0.0,-0.25735253,-0.28959593,-0.42998567,-0.15244716,-0.25049588,-0.15183423,-0.0,-0.6087845,1.5756742,-0.56004196,-0.7186652,0.87118787,-0.5076214,-0.208536,-0.1842185,-0.0,-0.22514695,3.192766,-0.18611021,1.5677016,2.30111,2.2752872,1.9221377,-0.22803745,3.2984385,0.9175456,2.3462858,2.3850477,-0.1584624,-0.0,0.0,6.12744,-0.1897849,1.1466347,-0.2575303
TGATTCACCTTGTT-1-dorsal,-0.0,0.35828677,-0.0,-0.14065412,-0.17304686,-0.09169592,-0.39235622,0.6972732,-0.66200155,-0.0,-0.0,2.7282796,-0.54818547,1.655639,-0.6860272,-0.29367322,-0.23157306,-0.42950183,-0.17129713,-0.2170706,-0.0,-0.44285795,-0.5690961,1.6064622,-0.5576338,-0.74912405,0.8460024,-0.0,-0.23721114,-0.18727025,-0.7997127,-0.22730789,3.2044744,-0.1452007,0.0,2.384685,2.252738,1.9580984,-0.0,3.2749393,0.93417716,2.205529,0.0,-0.1444877,-0.0,3.2231634,5.986509,-0.1751933,1.2807957,-0.2616775
GGGATTACGGATTC-1-dorsal,-0.9043099,0.25624257,-0.79438174,-0.0,-0.1853968,-0.13158832,-0.4416748,0.6953086,-0.0,-0.8530407,-0.6153836,2.7061443,-0.58711207,1.6534511,-0.0,-0.29240423,-0.2541853,-0.43521592,-0.0,-0.2408049,-0.19574246,-0.5521899,-0.51838255,1.5585407,-0.4807822,-0.71968764,0.82800245,-0.51126957,-0.22875695,-0.10338168,-0.75055766,-0.23148948,3.2004848,-0.15849578,1.554555,2.2351081,2.3035836,0.0,-0.3021925,3.3529592,0.9085087,2.2517004,2.4361115,-0.10213932,-0.46154416,3.3037596,6.1514406,-0.20828453,1.1310216,-0.3225883
TCAGGATGTGCCTC-1-ventral,6.660645,-0.30700275,3.4658508,-0.02619982,-0.083205834,-0.096224286,0.77553135,-0.40098774,1.9303299,4.2630157,1.5846097,-0.7109267,1.4433657,-0.5794821,2.5495105,0.37684333,0.2040948,0.65540844,-0.0,0.11451889,-0.08723564,0.9268593,1.3010528,-0.5936631,1.111027,2.8107228,-0.4255765,1.2598386,0.21594292,-0.11008846,0.0,-0.20119119,-0.747004,-0.15588152,-0.5887762,-0.65824527,-0.6620791,-0.6280007,0.1777411,-0.7560085,-0.47436973,-0.65199536,-0.680278,-0.09000355,0.9970835,-0.7525633,-0.88658893,-0.083692476,-0.51072407,0.21098945
GGCTAAACTTCTTG-1-ventral,6.6375747,-0.2679835,3.363748,-0.019634698,-0.08204739,-0.0,0.8081542,-0.38624913,1.9702082,4.2584558,1.5473201,-0.71892387,0.0,-0.6068953,2.5001228,0.33301044,0.21805486,0.6720339,-0.07138001,0.1408363,-0.082593694,0.95923066,0.0,-0.5710157,1.1607394,2.7472274,-0.42039117,1.3224837,0.15639038,-0.0995038,3.427738,-0.18720025,-0.7724233,-0.1409934,-0.57442534,-0.69372517,-0.65487254,-0.6462641,0.24448957,-0.0,-0.4532182,-0.66551596,-0.69116914,-0.0,0.929002,-0.7639166,-0.0,-0.0,-0.4885267,0.2731284
CACCGTACGTTGTG-1-ventral,6.852422,-0.3020326,3.5107713,-0.10377434,-0.109028555,-0.14363933,0.7599887,-0.3974973,1.9462187,4.436887,1.5591915,-0.6813651,1.3969499,-0.551965,0.0,0.0,0.12566534,0.5956355,-0.17037618,0.10598926,-0.12581117,0.873121,1.3280265,-0.57910365,1.0878643,2.7943847,-0.45606226,1.2556293,0.080644,-0.19242917,3.400835,-0.21584472,-0.70954835,-0.19305567,-0.5674165,-0.62948084,-0.6151311,-0.0,0.1955388,-0.0,-0.48084348,-0.6381433,-0.6434139,-0.10710399,0.9034551,-0.7022906,-0.81311893,-0.1361043,-0.5358686,0.18622993
TAATCCACGCATCA-1-ventral,6.9006424,-0.30089983,3.4861174,-0.055928763,-0.11019144,-0.11104578,0.6874618,-0.4249416,1.8754811,4.459571,1.5448257,-0.6883971,1.3620955,-0.57338566,0.0,0.38582942,0.09587736,0.62551844,-0.1308116,0.14826098,-0.08055244,0.9206428,1.360274,-0.6414593,1.142675,2.6808043,-0.46447307,1.2815102,0.2257983,-0.0,3.2312975,-0.0,-0.7115466,-0.0,-0.5671059,-0.6681052,-0.625624,-0.6020629,0.26184276,-0.74363494,-0.4491646,-0.647663,-0.6423507,-0.0,0.81730187,-0.7174924,-0.0,-0.06628712,-0.47087505,0.25745925
CGAAGTACAAGGCG-1-dorsal,6.754654,-0.0,3.4441104,-0.056526333,-0.0749145,-0.07331199,0.8035296,-0.4029498,1.9690272,4.367059,1.5776126,-0.6971072,1.4142402,-0.58868486,2.5006516,0.31534874,0.17619482,0.6297223,-0.0,0.037882745,-0.095560424,0.8632229,1.3576117,-0.558093,1.1173215,0.0,-0.44369534,1.2056013,0.12637678,-0.14143123,3.425763,-0.20648983,-0.7166425,-0.20514648,-0.5610212,-0.63779694,-0.6634791,-0.6341974,0.24471688,-0.7555487,-0.45759442,-0.6405027,-0.6713901,-0.04069282,0.90118635,-0.73351353,-0.8649451,-0.08540737,-0.5191158,0.16497219
TCAGAGACCACTGA-1-ventral,0.0,-0.2407098,3.4760025,-0.04212393,-0.08585122,-0.12217191,0.70032495,-0.422813,2.0054708,4.399651,1.5066185,-0.68761146,1.3110564,-0.5559401,2.5525742,0.29709578,0.12354822,0.54770136,-0.19440837,0.0,-0.14232808,0.94811267,1.4273436,-0.58329225,1.066514,2.9033706,-0.4779576,1.1734843,0.13297494,-0.22131166,3.3825572,-0.2090992,-0.0,-0.0,-0.54511225,-0.0,-0.6388064,-0.600767,0.17418684,-0.0,-0.0,-0.65789765,-0.65156806,-0.112649605,0.87064445,-0.6769932,-0.8035989,-0.0,-0.56382936,0.14515153
TATGCGGATGGTCA-1-ventral,6.891415,-0.27838126,3.472999,-0.09288205,-0.14763257,-0.12663305,0.7519091,-0.4316001,1.9592154,4.4248757,1.5552868,-0.6771077,1.3778108,-0.56973726,2.5296805,0.32349068,0.12936637,0.55165577,-0.0,0.019138323,-0.12712042,0.8970256,1.3334807,-0.5640894,1.1043674,2.8046477,-0.41624242,1.1731523,0.0,-0.19012816,3.4289756,-0.23753504,-0.70515263,-0.19829467,-0.5403117,-0.63354427,-0.6372497,-0.58554447,0.14965147,-0.7200962,-0.47036466,-0.6238046,-0.6294791,-0.12205813,0.8506809,-0.7172331,-0.81968683,-0.079489484,-0.5296712,0.15203099
CATTAGCTGACAGG-1-dorsal,6.754613,-0.21764557,3.2170575,-0.03202604,-0.09061655,-0.011668206,0.7769742,-0.40978342,1.7712166,0.0,1.3790636,-0.0,1.4812926,-0.5426431,2.7865646,0.36595088,0.19073185,0.56649464,0.00593197,0.24100325,-0.25764143,0.91773754,1.5268698,-0.5829924,0.0,2.7432683,-0.0,1.2183058,-0.026456052,-0.15067612,3.35905,-0.28076538,-0.75676304,-0.22485158,-0.532788,-0.7014959,-0.69838154,-0.6416767,0.14726572,-0.7654287,-0.37958795,-0.6394241,-0.67959327,0.03366861,1.0470686,-0.758385,-0.83678085,-0.09193461,-0.4486047,0.007751154
AGGATAGAGTAGGG-1-ventral,6.653388,-0.26950505,3.478902,-0.069878235,-0.043987237,-0.0,0.79440135,-0.40086398,0.0,4.2874765,1.538959,-0.71509314,1.4142495,-0.5964863,2.5223436,0.450821,0.17652777,0.69192463,-0.09119233,0.14189509,-0.11887577,0.0,1.3174791,-0.58303493,1.1189805,2.8135839,-0.43310267,1.2168655,0.16399987,-0.1256156,3.2633433,-0.1972188,-0.7652389,-0.07808745,-0.55269474,-0.6631167,-0.6600205,-0.63643205,0.25966418,-0.7738237,-0.0,-0.0,-0.6855663,-0.065793596,0.9415966,-0.75467664,-0.9092076,-0.081208415,-0.51854867,0.25078872
AGAGCGGATCAAGC-1-dorsal,6.3898435,-0.2684041,3.4714904,-0.09894411,-0.09332021,-0.07098463,0.7884177,-0.0,1.9566847,4.2662344,1.6732706,-0.73360246,1.5292459,-0.61212385,2.5844874,0.4178,0.24517862,0.0,-0.105722554,0.13034639,-0.08211037,1.030324,1.3445264,-0.57586193,1.1129054,2.8119586,-0.0,1.2655746,0.24278477,-0.0,3.3382905,-0.16547562,-0.76758295,-0.10134969,-0.614688,-0.70033723,-0.6791841,-0.0,0.31936544,-0.7881651,-0.4684304,-0.66779745,-0.66038144,-0.0191572,0.0,-0.77117044,-0.9183207,-0.016551482,-0.5364528,0.0
GGGAAGACGGGCAA-1-ventral,6.856439,-0.2778839,3.48489,-0.11374706,-0.15722442,-0.14014477,0.76326084,-0.39739358,1.9468157,0.0,1.568676,-0.68607837,1.3917271,-0.5616418,2.5043426,0.35667393,0.13501349,0.5961465,-0.14339468,0.049983267,-0.0,0.8819534,1.3342563,-0.0,1.1427958,2.814133,-0.47754642,1.2091681,0.084254794,-0.0,0.0,-0.21411234,-0.68671715,-0.14795436,-0.56310827,-0.0,-0.6440168,-0.6099686,0.19031806,-0.7199136,-0.4597947,-0.63846815,-0.64737713,-0.14349574,0.8602462,-0.7177732,-0.0,-0.109389625,-0.52164966,0.16235995
TAGATCCTAAAGTG-1-dorsal,0.0,-0.25125518,3.370507,-0.06645832,-0.18009862,-0.1796161,0.0,-0.45148847,1.9278443,4.437487,0.0,-0.63826907,1.3376675,-0.5877243,2.4366055,0.33422104,0.0,0.60610205,-0.2181291,0.0,-0.07397321,0.0,1.300912,-0.58332247,1.1304755,2.85152,-0.4156195,1.0808995,0.06788358,-0.23221175,3.5715137,-0.2673695,-0.6061454,-0.0,-0.5213302,-0.65545446,-0.668237,-0.0,0.06398188,-0.675682,-0.45489293,-0.62250686,-0.61091346,-0.101623476,0.82510424,-0.67215455,-0.69428116,-0.16145004,-0.5511124,-0.007641713
ATTCAGCTGTATGC-1-dorsal,6.735016,-0.2623321,3.5350032,-0.07256634,-0.06734776,-0.051360793,0.7943591,-0.33176723,1.9691176,4.2861547,1.5501972,-0.7062112,1.3057032,-0.0,2.5788074,0.3082808,0.17651159,0.6702387,-0.079822876,0.091144264,-0.095670626,0.8682075,1.3210158,-0.0,1.142002,2.7778974,-0.4149686,1.2654905,0.19096458,-0.16434902,3.2890706,-0.0,-0.73945826,-0.12579004,-0.0,-0.66788465,-0.6654917,-0.6309282,0.19054718,-0.75793004,-0.48810896,-0.6627654,-0.67140585,-0.05693959,0.86469114,-0.75217205,-0.90066504,-0.05155431,-0.50569993,0.22375602
ATAGCCGATCGCAA-1-dorsal,6.9368873,-0.3880442,3.5568516,-0.07402103,-0.17054346,-0.14100811,0.7666476,-0.40118212,0.0,4.346346,1.5310705,-0.0,1.2422626,-0.58610135,2.5675387,0.28999668,0.09821389,0.5889352,-0.16214868,-0.04114264,-0.1588393,0.9089146,1.3303785,-0.59095466,1.1120361,2.8691812,-0.47477683,1.207511,0.118386336,-0.22535768,3.453555,-0.26087332,-0.0,-0.17674467,-0.55973375,-0.6237469,-0.0,-0.0,0.07061896,-0.68152404,-0.45096406,-0.5979257,-0.6433333,-0.13894287,0.9278038,-0.70113075,-0.7357582,-0.0,-0.5331303,0.13769172
GATTCGGATCATTC-1-dorsal,2.0628147,-0.0,0.21955106,-0.4020033,-0.4855553,-0.40546253,-0.5349275,-0.03405975,-0.0,1.0107698,-0.45303988,2.6868398,-0.0,0.6747339,-0.5027131,-0.5228856,-0.50024945,-0.5250339,-0.2927506,-0.5342946,-0.3684191,-0.3874671,-0.23926438,0.0,-0.39077654,-0.015653372,-0.006187426,-0.0,-0.30239013,-0.0,0.3000702,-0.52092093,3.4475663,-0.4000301,1.1859175,0.0,1.9598522,1.8145739,-0.35010186,3.0890584,0.36895368,1.7711648,2.4146476,-0.0,-0.7153157,0.0,7.6287613,-0.0,0.6564558,-0.65513957
ATCCATACTTCTTG-1-ventral,-0.8923664,0.24926238,-0.76536936,-0.13903439,-0.20434493,-0.10113312,-0.43057853,0.6198289,-0.65375006,-0.8343653,-0.6223762,2.8024592,-0.5704294,1.584683,-0.69119006,-0.2771766,-0.22893588,-0.44544137,-0.18057142,-0.27129745,-0.0,-0.5100222,-0.5603816,1.5345136,-0.53431565,-0.7234975,0.8489986,-0.5252184,-0.0,-0.18735562,-0.7694087,-0.19628976,3.254899,-0.13885392,1.6187408,2.3427122,2.3160334,1.9514142,-0.32201132,3.4201112,0.80225086,0.0,2.411651,-0.0,-0.4447984,3.2284193,6.1100826,-0.19644414,1.1333638,-0.30812794
TTGAGGACGTGTAC-1-ventral,6.725049,-0.29447055,3.4585485,-0.10500352,-0.09340485,-0.085935466,0.0,-0.0,1.953687,4.350079,1.5623147,-0.7092859,1.3632728,-0.58117497,0.0,0.33862874,0.16439962,0.63908243,-0.10942155,0.0,-0.0,0.938487,1.307041,-0.5497823,1.109393,2.8037093,-0.41977334,1.2106977,0.15918289,-0.10644728,3.405692,-0.19125502,-0.0,-0.0,-0.57263565,-0.65517,-0.6691376,-0.6103746,0.21368466,-0.758266,-0.42852113,-0.6327053,-0.67683566,-0.051865514,0.91368335,-0.7318007,-0.8802624,-0.047322184,-0.5412527,0.26278442
TCCATAACAAAAGC-1-ventral,6.7764344,-0.26100543,3.3931773,-0.051971346,-0.08556817,-0.0,0.75571156,-0.4026294,1.9551284,4.343287,1.5509516,-0.6982274,0.0,-0.5869737,2.5508063,0.32957903,0.17742644,0.0,-0.12269948,0.03962666,-0.08499722,0.96197844,1.3313309,-0.5820407,1.1982783,2.768525,-0.456183,1.2164577,0.1288082,-0.19022611,3.365931,-0.21712562,-0.0,-0.1377256,-0.54228693,-0.6465452,-0.6686682,-0.5972382,0.20251709,-0.75357246,-0.4408789,-0.6465872,-0.6778678,-0.08479132,0.95003796,-0.7436717,-0.86822635,-0.031626027,-0.51867974,0.21322143
GCCAACCTGTGTAC-1-dorsal,-0.84026754,0.24165133,-0.73578817,-0.15484367,-0.15224683,-0.14854756,-0.4719988,0.5423967,-0.63562906,-0.79627305,-0.60928065,2.8016644,-0.5539866,1.6204315,-0.6751185,-0.30791655,-0.27465695,-0.45573622,-0.23327564,-0.2591338,-0.1633958,-0.53577554,-0.5543773,1.5029565,-0.52984375,-0.6813418,0.8327899,-0.0,-0.2674328,-0.2009425,-0.0,-0.2624725,3.2251716,-0.18704912,1.6101933,2.3069367,2.2781622,1.9105293,-0.34714106,3.3823347,0.79486716,2.2414992,2.3651824,-0.14753972,-0.5004481,0.0,6.3369765,-0.20634261,1.0779026,-0.26518056
AAGATGGACTATTC-1-dorsal,6.9057646,-0.32971153,3.4376101,-0.11219813,-0.1418041,-0.08962287,0.0,-0.40183797,1.9096633,4.458999,1.6067486,-0.6621305,1.3455755,-0.0,2.5442278,0.33955988,0.12675141,0.5760574,-0.0,0.09158635,-0.10877086,0.9046059,1.295067,-0.57245666,1.1379989,2.7882757,-0.45788616,1.1642444,0.0,-0.15267155,3.4032228,-0.22722246,-0.0,-0.21250236,-0.5688502,-0.6125834,-0.65576,-0.61879754,0.17699222,-0.71050817,-0.47797775,-0.6372236,-0.6442317,-0.0731804,0.8562711,-0.0,-0.80278426,-0.12333195,-0.5166486,0.1666544
ACTACTACCTACGA-1-dorsal,7.661605,-0.36300805,3.68963,-0.26545182,-0.2956082,-0.33177677,0.381809,-0.53998876,1.7912102,4.6102934,1.4057133,-0.50313365,1.391134,-0.44533506,2.396941,0.15485162,-0.010545917,0.28804043,-0.24118881,-0.14254114,-0.30220756,0.0,1.0326144,-0.3638834,0.6990816,2.9052057,-0.4992317,0.82192767,-0.12307373,-0.41861603,3.391521,-0.3874481,-0.33854374,-0.48930866,-0.42059323,-0.44527334,-0.6153567,-0.36117557,-0.03809929,-0.0,-0.36848447,-0.5426285,-0.44518313,-0.2083813,0.67441696,-0.479086,0.0,-0.18667023,-0.4764026,-0.1351244
CCGCGAGAGATACC-1-dorsal,6.1186175,-0.22495496,3.2963884,0.014265015,0.06144671,0.013177545,0.914779,-0.34531528,1.9825248,4.1331267,1.6106262,-0.77612567,1.5483111,-0.60710037,2.5207794,0.49526018,0.25117865,0.72562945,-0.07840177,0.22907102,-0.008115172,1.1056324,1.3570544,-0.60209054,1.2019252,2.771653,-0.36550364,0.0,0.22929767,-0.08280622,3.2968485,-0.13948911,-0.795579,-0.027400587,-0.57903516,-0.6915817,-0.7181697,-0.681169,0.34950086,-0.83784556,-0.46477076,-0.68121475,-0.710807,0.12319924,1.0282158,-0.83222544,-0.98715657,0.07667693,-0.55207574,0.23512019
GAATTAACACCAAC-1-dorsal,-0.90047616,0.26908335,-0.7980654,-0.15763707,-0.12902525,-0.07512278,-0.41082078,0.58923316,-0.64725214,-0.8194272,-0.64066905,0.0,-0.5537969,1.5322825,-0.6949658,-0.29975608,-0.20774141,-0.48629364,-0.15386748,-0.23080045,-0.20768848,-0.5442142,-0.50157505,1.4567853,-0.5048119,-0.0,0.85533065,-0.0,-0.18861103,-0.19989875,-0.0,-0.1870415,3.1846397,-0.20024393,1.5402088,2.323226,0.0,1.9097929,-0.0,3.4254112,0.8255848,2.1936712,2.3361356,-0.045144826,-0.46681678,3.319846,6.1867666,-0.16193165,1.1918612,-0.33133653
AGTTGTCTGTCTTT-1-dorsal,6.8837075,-0.31118566,3.4569304,-0.0,-0.13630888,-0.0,0.75481504,-0.4248239,1.9947914,0.0,0.0,-0.6799849,1.4018594,-0.5988546,2.5512955,0.30581167,0.10469323,0.62738216,-0.15357667,0.07764959,-0.13270868,0.87411964,1.3396556,-0.56680816,1.1131843,0.0,-0.4343508,1.2330196,0.087108746,-0.16355535,3.3947172,-0.22273608,-0.71193427,-0.16016775,-0.56200296,-0.6430363,-0.648839,-0.61416674,0.08452419,-0.7181848,-0.47347414,-0.66143614,-0.6513764,-0.066474676,0.9867645,-0.721392,-0.81475055,-0.08417918,-0.49380788,0.16604295
TAGAATTGACTAGC-1-ventral,6.5718293,-0.22552611,3.377037,0.0027486684,-0.121224396,-0.06363856,0.7383046,-0.38115793,2.0318937,4.2596235,1.6372631,-0.74193746,1.469885,-0.54039556,2.6228728,0.34658632,0.22044924,0.6767743,-0.1380439,0.0,-0.10759288,0.0,1.3134153,-0.58419544,1.0815209,0.0,-0.42094126,1.2823619,0.16275151,-0.1443767,3.2867775,-0.22023216,-0.7695397,-0.18932377,-0.0,-0.66588694,-0.6953939,-0.6261028,0.0,-0.76577413,-0.47969437,-0.68983006,-0.67461467,-0.06124742,0.92187023,-0.7561289,-0.89393145,0.09188664,-0.4551973,0.20226291
GTAAGCACATGACC-1-ventral,6.8551545,-0.24601288,0.0,-0.14676042,-0.15872857,-0.080433756,0.0,-0.4328481,0.0,4.3983607,1.616241,-0.67835355,1.4447494,-0.5734394,2.5577075,0.3668438,0.14467943,0.0,-0.13673817,0.1361844,-0.09837581,0.8933002,1.2637869,-0.5741097,1.1111611,2.7644112,-0.44910333,0.0,0.09654385,-0.20781386,3.357374,-0.2457034,-0.6959517,-0.16276148,-0.0,-0.6311741,-0.66093856,-0.6215792,0.1817887,-0.0,-0.0,-0.64876014,-0.646674,-0.0701399,0.89020395,-0.7143509,-0.8326492,-0.10600912,-0.5236249,0.13460153
ATTTCTCTGTCATG-1-dorsal,6.803867,-0.27332002,0.0,-0.067057945,-0.093837515,-0.10934724,0.78444815,-0.41096193,2.0072498,4.3187146,1.5483423,-0.7057392,0.0,-0.5638746,2.4954677,0.0,0.0,0.57827055,-0.09521074,0.107392855,-0.0,0.0,1.3673383,-0.6190755,0.0,2.7969573,-0.4448467,1.2557303,0.19070514,-0.19007346,3.3565836,-0.20715913,-0.7317699,-0.1484083,-0.56839126,-0.6545813,-0.6453728,-0.6156517,0.21825746,-0.74992275,-0.44306076,-0.66795367,-0.6583066,-0.0,0.9097471,-0.7326456,-0.86488014,-0.09099484,-0.50065297,0.160488
GAGAGGTGACTCTT-1-ventral,6.501341,-0.26719353,3.4367843,-0.022840898,-0.09023448,-0.0779236,0.79702437,-0.39383572,2.0193195,4.280587,1.6171417,-0.72812396,1.4181043,-0.585884,2.5437124,0.40478808,0.21083151,0.7277607,-0.07623779,0.13852757,-0.06808758,0.9805366,0.0,-0.5999323,1.0967025,2.788493,-0.42828402,1.2956805,0.24634556,-0.090932384,3.340807,-0.18419823,-0.7701848,-0.1350422,-0.5744328,-0.67479885,-0.6803408,-0.62336344,0.21245705,-0.7850961,-0.4460478,-0.6482253,-0.6762835,-0.114275955,0.0,-0.7656987,-0.918819,-0.059260134,-0.0,0.3059156
CGCGGATGTAAGCC-1-ventral,6.781553,-0.30480823,3.4937782,-0.06327331,-0.08875192,-0.11465874,0.771202,-0.41813734,0.0,4.363094,1.5666088,-0.68882394,1.4213321,-0.59858906,2.6055267,0.34317258,0.1699578,0.6758576,-0.14500175,0.106408454,-0.13470863,0.90796614,1.3036169,-0.5567188,1.1609286,2.78066,-0.0,1.1909481,0.104652,-0.1607383,0.0,-0.0,-0.7096756,-0.17012054,-0.57058203,-0.6284512,-0.0,-0.60335886,0.17369069,-0.7414423,-0.0,-0.6411255,-0.65054303,-0.06830792,0.8683768,-0.73162574,-0.8480737,-0.12899174,-0.5597635,0.1945446
CAAATTGACTCTCG-1-ventral,7.720036,-0.47951728,3.5704637,-0.106367074,-0.42033046,-0.0,0.39832884,-0.6125166,2.0097039,4.8851724,1.1680045,-0.18115349,1.0559913,-0.465243,2.1286707,-0.12564659,-0.23301259,0.0,-0.4864691,-0.045497153,-0.31454346,0.5892524,0.82515985,-0.4710493,0.839579,2.6109324,-0.48724443,0.0,-0.42414567,-0.52044046,3.430635,-0.57494414,-0.2647557,-0.26974422,-0.34208676,-0.20757279,-0.23766717,-0.38361624,-0.255687,-0.1168261,-0.48372245,-0.1924903,-0.124980286,-0.39759386,0.53417355,0.13227178,1.1553427,-0.29896393,-0.6120254,0.070040844
TACGTACTTCTTCA-1-ventral,2.3945043,0.016327469,0.4164971,-0.3853208,-0.5627427,-0.27565765,-0.5442157,0.19839086,-0.4738782,0.58551645,-0.2236516,2.586423,-0.44033965,0.8759899,-0.12247894,-0.65940946,-0.40200308,-0.0,-0.34891078,-0.5920906,-0.6176378,-0.0,-0.39171526,1.1086749,-0.0,-0.031536687,0.14051415,-0.4072835,-0.0,-0.43439165,0.43325,-0.38525888,3.1915786,-0.42737478,0.99830604,1.9328051,2.0930212,1.6362325,-0.4361264,0.0,0.39195016,1.960179,2.2765124,-0.5328166,-0.47135183,3.0947142,7.3625607,-0.47930494,0.87215567,-0.627218
CCAATTTGGATAGA-1-ventral,0.0,-0.27453703,3.5229526,-0.07292271,-0.08798242,-0.13060868,0.0,-0.38588625,1.9124562,4.4538474,1.5844649,-0.6966362,1.3801188,-0.60444766,2.516119,0.29232606,0.0,0.6177255,-0.059004165,0.089250594,-0.16027702,0.0,1.3864409,-0.5509722,1.2039974,2.7703345,-0.4486391,1.2545696,0.15085,-0.0,3.2613006,-0.0,-0.7325308,-0.17264989,-0.0,-0.6366564,-0.685325,-0.60061085,0.1729269,-0.72323483,-0.4211502,-0.64754915,-0.6518722,-0.079792015,0.8616179,-0.76270974,-0.87984353,-0.034606855,-0.52857995,0.29204452
TCAAGGACAGAGAT-1-ventral,6.7081842,-0.25540915,3.4297366,-0.0,-0.058169037,-0.0,0.7813323,-0.39250812,1.963606,4.41646,1.5551116,-0.70343834,1.4454477,-0.5736383,2.5099638,0.34317538,0.23823524,0.5802756,-0.118398935,0.057785995,-0.06679456,0.8822742,1.34834,-0.54764766,1.1178706,2.8078682,-0.0,1.1659203,0.0,-0.09025316,0.0,-0.15978086,-0.725279,-0.1922785,-0.5844049,-0.6722147,-0.6685719,-0.6179636,0.1508597,-0.0,-0.45653406,-0.65585816,-0.6702386,-0.016977523,0.9445987,-0.7472036,-0.87999004,-0.05452607,-0.56248045,0.0
ACGTTTACGTTGAC-1-dorsal,7.3850307,-0.0,3.590065,-0.11556838,-0.28854954,-0.0,0.5549817,-0.0,1.9019622,4.694083,1.3618385,-0.4853347,1.084798,-0.6333563,0.0,0.120436504,0.086954504,0.43995312,-0.21456587,-0.13219199,-0.31564164,0.7009961,1.2606368,-0.5831985,1.0054746,2.7747164,-0.4741955,0.0,-0.030919977,-0.13657239,3.418515,-0.24626045,-0.597228,-0.21821837,-0.504722,-0.5495705,-0.5171566,-0.57867277,0.07062101,-0.50638175,-0.45266452,-0.548735,-0.0,-0.18320587,0.72380453,-0.57024586,-0.34930092,-0.19495302,-0.0,-0.0349168
GGATGTTGGGATCT-1-ventral,6.675632,-0.30594522,0.0,-0.057041716,-0.067457825,-0.120420925,0.0,-0.36890343,1.9829814,4.324282,1.586906,-0.7179512,0.0,-0.6004391,2.6112998,0.35486692,0.21643993,0.6236432,-0.06854634,0.11268821,-0.09235389,0.9295016,1.3019254,-0.57448363,1.1903282,2.7821252,-0.41610825,1.229399,0.13732542,-0.12853205,3.329046,-0.17713362,-0.75815326,-0.14407729,-0.5685844,-0.6690257,-0.0,-0.0,0.0,-0.7565504,-0.42897397,-0.0,-0.6857129,-0.0,0.90884954,-0.7546947,-0.8901243,-0.047171183,-0.48786968,0.0
ATTGTCTGGGTGAG-1-dorsal,6.476563,-0.0,3.5793211,-0.02681931,-0.106650464,-0.044457253,0.8950065,-0.4227292,1.9547524,4.120611,1.6110353,-0.71232754,1.4077562,-0.5764376,2.6986825,0.4074046,0.16847777,0.7159872,-0.14505161,0.12916484,-0.055538088,0.99960303,1.2715485,-0.6165489,0.0,2.8371444,-0.4645898,1.38691,0.26975086,-0.11658278,3.384067,-0.0,-0.7302402,-0.14052948,-0.59222597,-0.6702068,-0.65672904,-0.66487634,0.0,-0.0,-0.5077155,-0.63417965,-0.6729905,-0.082538135,0.0,-0.747671,-0.8963393,-0.0234184,-0.59616053,0.2853855
CACCGTTGCGGGAA-1-ventral,6.6502457,-0.27127963,3.4383743,-0.01918581,-0.037309,-0.0,0.8334588,-0.3809629,2.0047803,4.3233895,1.5874889,-0.72681755,1.4002987,-0.0,2.578775,0.25955406,0.17139056,0.6111477,-0.10681511,0.10985211,-0.09692007,0.90981,1.3412982,-0.5440675,1.0779687,2.7814233,-0.4066718,1.2298639,0.18992369,-0.101048686,3.3766098,-0.20118953,-0.7521625,-0.15666671,-0.59142154,-0.0,-0.67700034,-0.61626965,0.20861556,-0.76203847,-0.45873982,-0.66609913,-0.6757274,-0.12465517,0.9419817,-0.74928683,-0.8931661,-0.039356023,-0.514824,0.26665077
GTACTACTAGGAGC-1-ventral,6.822895,-0.2602116,3.337233,0.007921027,-0.030415788,-0.11804064,0.77434635,-0.0,2.0384645,4.335413,1.5762067,-0.7132933,1.4220959,-0.5320982,0.0,0.32335415,0.19986968,0.6501229,-0.14596006,0.09872248,-0.09275172,0.9320036,1.2470984,-0.6020199,1.129996,2.7525344,-0.44123068,1.2882572,0.012986346,-0.16800994,3.390456,-0.2038067,-0.71622396,-0.14293063,-0.5538313,-0.6559091,-0.6730701,-0.6180027,0.16071622,-0.7527845,-0.4490695,-0.6518796,-0.6576167,-0.058761574,0.9196784,-0.0,-0.0,-0.0465958,-0.5051948,0.16456498
TGTGGATGGCGATT-1-ventral,6.8560824,-0.30297577,3.4445455,-0.09213587,-0.092890926,-0.13093247,0.7462069,-0.43621442,2.0116682,4.3862624,1.5931764,-0.0,1.405831,-0.5724086,2.4495463,0.25042382,0.154122,0.6297251,-0.11302717,0.14292681,-0.039780937,0.8253855,0.0,-0.5724089,1.0884112,2.7961712,-0.43963918,1.2794565,0.05665405,-0.0,3.406675,-0.24787612,-0.7126746,-0.17830041,-0.5724279,-0.65940934,-0.6573797,-0.6268839,0.14495175,-0.7058962,-0.4225108,-0.0,-0.6553719,-0.10951394,0.9311563,-0.7051804,-0.830566,-0.0,-0.0,0.15619516
TGATCGGACGGTAT-1-dorsal,6.7689576,-0.30462676,3.3567724,-0.06315059,-0.015285877,-0.0,0.7201357,-0.4366888,1.8436353,4.361341,1.7191176,-0.70827794,1.4635997,-0.5974221,2.5495558,0.2752422,0.08772339,0.56270945,-0.13468558,0.037091013,-0.13243636,1.0440181,1.314295,-0.55008155,1.1288359,2.8231785,-0.41275078,1.2526958,0.19036037,-0.21399426,3.3507884,-0.18351139,-0.6786265,-0.24215885,-0.5096101,-0.60588837,-0.6906429,-0.6046179,0.25902942,-0.74037516,-0.46127963,-0.6680776,-0.68397933,0.014520636,1.0351262,-0.0,-0.86299217,-0.1930217,-0.4985793,0.14160632
CCTATAACGTAGGG-1-dorsal,6.6466584,-0.25232938,3.4151866,-0.0,-0.097311474,-0.062621504,0.79109114,-0.40956247,1.9370257,4.2908187,0.0,-0.72011185,1.4795175,-0.5606358,0.0,0.3349743,0.0,0.65056235,-0.1204651,0.0,-0.0896681,0.0,1.3270952,-0.5654882,1.1370844,2.8154974,-0.43478623,1.2479558,0.19743328,-0.0,3.4111876,-0.0,-0.75547886,-0.0,-0.0,-0.6670132,-0.6654499,-0.6517644,0.24450786,-0.7608775,-0.4787034,-0.0,-0.65949667,-0.057008006,0.0,-0.7512143,-0.89431447,-0.012418429,-0.53593004,0.2421897
GGGAAGTGTGTGAC-1-ventral,6.8303523,-0.3212843,3.4081254,-0.08436402,-0.09859403,-0.0,0.7635782,-0.4258664,1.9672128,4.52567,1.5892162,-0.6738297,1.4226453,-0.0,2.5601397,0.2877462,0.12871179,0.6274212,-0.13137354,0.097611584,-0.10521154,0.85207736,1.3395714,-0.5638959,0.0,2.7478063,-0.4688383,1.2015079,0.08603711,-0.16546144,3.3080184,-0.22406805,-0.6966113,-0.10320763,-0.54502517,-0.6468864,-0.67852336,-0.59683067,0.22344922,-0.73435795,-0.42338222,-0.6326248,-0.6855833,-0.07492119,0.81213105,-0.0,-0.83650947,-0.13188952,-0.0,0.21603326
AGTGTGACGTATCG-1-dorsal,-0.8517423,0.3172212,-0.7122403,-0.1549505,-0.19090031,-0.16721945,-0.44282836,0.62102056,-0.6254197,-0.8224957,-0.6219891,2.8032482,-0.57891726,1.5540057,-0.6711175,-0.3244894,-0.25701192,-0.41939962,-0.1993692,-0.26663822,-0.20221314,-0.52888787,-0.5475545,1.4752744,-0.54837286,-0.7071809,0.8233525,-0.5642126,-0.30662632,-0.18147933,-0.7289822,-0.23759075,3.1993961,-0.25240105,1.5416915,2.3949623,2.3283403,1.8779821,-0.2706777,3.3792603,0.0,2.2873874,2.3507173,-0.0,-0.5218712,3.2500613,6.3066435,-0.17394537,1.1253415,-0.2988581
TACATAGAAGACTC-1-ventral,6.598046,-0.26069683,3.4606962,-0.0,-0.120515235,-0.11865564,0.73891973,-0.4328765,1.950372,4.3464165,1.5935185,-0.70585084,1.537856,-0.6004415,2.6185722,0.356449,0.16029929,0.0,-0.10908081,0.11713981,-0.060270034,0.98948133,1.2800059,-0.5452267,1.1027172,2.828334,-0.0,1.259262,0.17708816,-0.16993974,0.0,-0.1925442,-0.7281599,-0.20278098,-0.580813,-0.64722925,-0.67760605,-0.6084898,0.23210417,-0.7361761,-0.41579083,-0.0,-0.67121655,-0.06527093,0.9304022,-0.74435085,-0.0,-0.07393407,-0.5428226,0.0
CCATCGTGTTCTGT-1-dorsal,6.950784,-0.31745887,3.4739764,-0.11698823,-0.14681208,-0.15554488,0.6865539,-0.0,1.9190779,4.4356933,1.5790261,-0.66366833,1.371319,-0.5723826,2.5296395,0.2533042,0.11305695,0.58351743,-0.16349529,0.053799603,-0.14642379,0.8597062,1.2769843,-0.53152215,1.1177837,0.0,-0.46099678,1.1913203,0.017264139,-0.13555667,0.0,-0.2446641,-0.68093026,-0.24686457,-0.55005944,-0.0,-0.62495863,-0.602652,0.14415647,-0.69577897,-0.4766807,-0.63311386,-0.6392351,-0.112417415,0.93061095,-0.67001504,-0.7829395,-0.12350626,-0.5260453,0.2049837
ATACGGACGTATGC-1-ventral,6.744972,-0.27061608,3.4460335,-0.087905996,-0.085706845,-0.11495915,0.7179966,-0.3783287,1.966446,4.3470855,1.6767702,-0.71653104,1.3981656,-0.56786925,2.4806638,0.37088397,0.0,0.6503736,-0.1053081,0.10509569,-0.0775673,0.90380734,1.3207726,-0.56771827,1.1042999,2.747555,-0.42142174,1.3333192,0.12493884,-0.14260492,3.3565092,-0.17949694,-0.74435276,-0.0,-0.57388467,-0.66010225,-0.6623798,-0.6203701,0.16866662,-0.75315344,-0.0,-0.6430581,-0.6901537,-0.0,0.905722,-0.7502426,-0.87097776,-0.06293324,-0.51597273,0.19612122
GACGCTCTTCGCCT-1-dorsal,6.965283,-0.31939092,3.4515512,-0.0821213,-0.12106631,-0.13069583,0.7125893,-0.46161357,1.860979,0.0,1.5975862,-0.6528827,1.3765241,-0.58596075,2.479671,0.0,0.13845906,0.64464813,-0.0,0.07588336,-0.12269365,0.89486164,1.2623401,-0.0,1.1146901,2.77216,-0.43801495,1.1985011,0.031899713,-0.18844406,3.4621217,-0.21991618,-0.7037526,-0.16154635,-0.56534624,-0.65168077,-0.649723,-0.5961351,0.15091814,-0.7133467,-0.47790438,-0.6237937,-0.62300736,-0.1350787,0.90543264,-0.68075436,-0.77614224,-0.12178534,-0.5227188,0.15006712
ATGTACCTTCCTCG-1-ventral,6.562191,-0.33415538,3.3626359,-0.08976401,-0.11319386,-0.14146289,0.8965403,-0.4026299,1.9363729,4.3500676,1.6652256,-0.7128901,1.397915,-0.59406096,0.0,0.468722,0.19606042,0.0,-0.055691008,0.16504249,0.037238467,0.8911613,1.334892,-0.5962793,1.1507425,2.9487,-0.47770423,1.2322052,0.25575435,-0.20387743,3.2500465,-0.16897957,-0.716837,-0.12720692,-0.54461694,-0.6987288,-0.0,-0.6079813,0.2287028,-0.7754408,-0.43443814,-0.66174704,-0.635955,-0.124244295,0.0,-0.7459416,-0.9078242,-0.07554631,-0.55004,0.27898607
GGACGCTGTGCTGA-1-dorsal,0.0,-0.35980922,3.4204752,-0.07577373,-0.118944585,-0.13668796,0.6532224,-0.0,0.0,4.3518796,1.58725,-0.65213287,1.1215528,-0.54232645,2.4414482,0.0,0.13680618,0.5895938,-0.111680895,0.0,-0.0,0.87519,1.3873252,-0.60672325,1.0927088,0.0,-0.47388253,1.3362333,0.059051782,-0.2065611,3.3069768,-0.1892339,-0.6451521,-0.0,-0.57648134,-0.6555907,-0.6476238,-0.0,0.0,-0.68275595,-0.47228572,-0.634121,-0.64957637,-0.14359143,0.8634649,-0.7056286,-0.74789554,-0.10894478,-0.53704226,0.13066973
AGGAACCTGTTGAC-1-ventral,0.0,-0.27997237,3.4543204,-0.046546992,-0.09660324,-0.09013984,0.7656796,-0.3919217,1.8988578,4.349727,1.5196218,-0.682502,1.3498635,-0.5753275,2.5063448,0.3789265,0.17765266,0.64082813,-0.1291281,0.096572295,-0.051961545,0.85459024,1.3254645,-0.0,1.1899196,2.7818446,-0.43262357,1.2716492,0.0,-0.12716997,3.3532019,-0.19951662,-0.7317727,-0.1650564,-0.5750705,-0.6657601,-0.0,-0.6202864,0.19898768,-0.73838145,-0.46648875,-0.6528526,-0.6983679,-0.06066455,0.97787625,-0.7421329,-0.8756326,-0.06700039,-0.5029626,0.23690337
CAGGCCGATGCAGT-1-ventral,7.9275584,-0.44995865,3.2146149,-0.3878481,-0.32820326,-0.39114657,0.31709617,-0.5130943,1.565385,4.9852066,1.2216719,-0.128048,0.99154466,-0.47110665,2.3064167,-0.16852167,-0.0,0.27041072,-0.36054122,-0.22982135,-0.23934618,0.41805378,0.9193707,-0.42256847,0.6207587,2.8554428,-0.43438926,0.9896332,-0.120533906,-0.49373007,3.334037,-0.45237836,0.009713836,-0.46345156,-0.5148325,-0.20556252,-0.30534098,-0.0,-0.24843256,-0.030574005,-0.60456264,-0.41828826,-0.08708279,-0.32687256,0.71465594,-0.034886003,1.167697,-0.48786405,-0.46800065,-0.18530609
CATCAGGACGTCTC-1-ventral,6.6035643,-0.22866316,3.3876095,-0.096079715,-0.07334339,-0.10124293,0.66506416,-0.42122877,2.1548176,4.3316145,1.4704915,-0.6894501,1.5463098,-0.59541535,2.4681096,0.44901088,0.19773252,0.6131468,-0.15684308,0.103360884,-0.07462568,0.752931,1.3444016,-0.5692172,1.1894193,2.7848117,-0.47172636,1.5052154,0.122788206,-0.18878646,0.0,-0.16738667,-0.70686054,-0.24081416,-0.56615317,-0.6941901,-0.6419941,-0.60557276,0.107923135,-0.0,-0.48833784,-0.67332965,-0.6674438,-0.0,0.92218375,-0.69079536,-0.0,-0.105325654,-0.57722586,0.2935481
GAAAGCCTTCTTAC-1-ventral,6.903054,-0.30558535,3.4365358,-0.110521585,-0.13631265,-0.0,0.73287886,-0.39962426,1.9357793,4.4640274,1.6096072,-0.6814953,1.3689543,-0.57743293,0.0,0.3182806,0.08123112,0.625503,-0.15573959,0.092264004,-0.12480233,0.80032235,1.327892,-0.5292489,1.0953361,2.756475,-0.4451675,1.1703713,0.082652785,-0.1753984,0.0,-0.22800355,-0.0,-0.19230406,-0.536074,-0.0,-0.6291623,-0.60559183,0.16353647,-0.0,-0.47779444,-0.6574185,-0.63304615,-0.14767283,0.8788194,-0.67786163,-0.7992143,-0.15589264,-0.54377484,0.18883935
TCCACTCTGAGGGT-1-ventral,7.0846257,-0.3273429,3.4241474,-0.1440153,-0.1449256,-0.13744295,0.753321,-0.0,1.8843094,4.408184,1.4916048,-0.6495747,1.3080211,-0.6011386,2.5963507,0.30903208,0.110805504,0.5826925,-0.18496276,0.047007088,-0.16533336,0.0,0.0,-0.5525876,1.1013948,2.8507485,-0.48053724,1.0746151,0.086379685,-0.18986736,3.4603431,-0.15898944,-0.67098,-0.22331841,-0.51521164,-0.62484527,-0.633025,-0.5623386,0.08874515,-0.6695892,-0.0,-0.6190009,-0.6226759,-0.12972978,0.79373074,-0.6743491,-0.7494782,-0.14776853,-0.5446907,0.18891074
