,0,1,2,3,4,5,6,7,8,9,10,11,12,13,14,15,16,17,18,19,20,21,22,23,24,25,26,27,28,29,30,31,32,33,34,35,36,37,38,39,40,41,42,43,44,45,46,47,48,49
AAACATACCTACCC-1-ventral,0.12624854,0.23148277,-0.14557388,0.21982497,-0.04743742,0.14715454,0.11870467,0.40267122,-0.079084836,0.18477477,0.18389408,-0.031529006,0.053697344,-0.1264914,-0.03756775,0.14013234,0.08830773,0.068568036,-0.20159987,-0.0,0.263026,0.07485459,0.30905026,-0.18995073,0.11104789,-0.14240849,0.0,0.0,0.09531251,0.17355396,0.08009939,0.18496655,0.101155505,0.33271962,-0.17584218,0.3611495,0.29271445,-0.10685782,0.13534011,-1.1097039,-0.16900924,0.0,0.0,0.18845734,0.0068658013,-0.060821842,-0.16270082,0.2214798,0.0,-0.0
AAACATACGCGGAA-1-dorsal,-0.0106926765,0.1886622,0.10184453,0.13776787,-0.0,0.25953558,-0.054489378,0.15025431,0.07770885,0.21249595,0.15360287,0.23155777,0.3098119,-0.30784258,-0.08360062,0.15720373,-0.06669727,0.22654909,-0.115999654,-0.004684263,0.11065053,-0.0019849672,0.20940107,0.05456557,0.2625181,-0.02456897,-0.0062551103,0.12307787,0.3359686,0.11148664,0.20306072,0.168065,0.023966383,0.19973221,-0.19404101,0.31467637,0.1461407,0.055223554,0.083075196,-0.0,0.15035737,0.16358191,0.033550106,-0.031699408,0.004404966,-0.006907384,0.034254517,0.360224,0.050411534,-0.03639857
AAACATACGCGGAA-1-dorsal-1,0.13606432,0.18349381,0.094060704,0.005988893,-0.05801764,0.3116335,-0.036356848,0.26786953,0.078491755,0.23386435,0.028743556,0.25263417,0.3318893,-0.0,-0.04285051,0.27958718,-0.06724715,0.12096938,-0.09019998,-0.023031699,0.06372092,-0.001691911,0.21327496,0.095199965,0.2465391,-0.051023103,-0.0,0.31708705,0.3231223,0.14044319,0.19778438,0.08791969,-0.0073923008,0.12940207,-0.0,0.42663044,0.18486865,0.05761749,0.0,-1.1097316,0.024745582,0.10323274,0.0145366965,0.025752064,-0.06731133,-0.071008675,0.045713518,0.30340934,-0.020101337,-0.028346911
AAACATACGGTCTA-1-dorsal,0.0,0.17248434,0.0,0.16251305,-0.15038636,0.0,0.100657985,0.15532999,-0.0,0.17176169,0.42353037,0.03652116,0.11770958,-0.22130556,0.10654558,0.18903127,-0.013468067,-0.05553756,-0.043158732,-0.057966977,0.025074769,0.15642342,0.25619352,-0.019405551,0.27624395,0.19308016,0.11172759,0.22126697,0.103361316,0.12244393,0.32570767,0.07300781,0.14122984,0.13808116,-0.114565164,0.25329342,0.2860381,-0.11899551,0.19948974,-1.1097383,-0.05461938,-0.15423365,0.30264682,-0.021143226,0.058434702,-0.111822225,0.034955665,0.0,0.2306785,0.13148527
AAACATACGTTGAC-1-ventral,-0.008639164,0.12941603,0.07845985,0.21082735,0.11061691,0.016524598,0.110600986,0.3678302,-0.069156356,0.0,0.30279115,0.16466261,0.021724267,-0.14264743,-0.18436737,0.18626226,-0.0,0.29662696,-0.127727,-0.012969242,0.364194,0.0738649,0.22186849,0.049312133,0.15715484,-0.040581826,0.08547956,0.21703157,0.13868955,0.087224506,0.12296179,0.27782866,0.16624445,0.25153834,-0.04744411,0.16363928,0.15636091,-0.15621212,0.068515085,-1.1097441,0.11100845,-0.014041928,0.18716879,0.066350974,0.11680463,-0.056241423,-0.128844,0.23266952,-0.04408214,0.07479675
AAACATTGACGGGA-1-dorsal,0.14970906,0.0,-0.13340473,0.137285,-0.09226528,0.17380084,0.11825899,0.26320302,-0.0,0.27879676,0.23527037,-0.06504966,0.033532634,-0.18907104,-0.16361152,0.27290398,-0.004458229,0.07806822,-0.09018594,-0.03246195,0.32007688,0.15045892,0.22232473,0.028445035,0.28914407,0.053805053,0.058188405,0.3128985,0.2178823,0.0,0.17723772,0.2592842,-0.032842822,0.27870998,-0.06529457,0.16090241,0.0,-0.039120782,0.18630667,-1.109734,0.021208243,0.008478591,0.1583254,-0.012645126,-0.17037413,-0.1122533,0.0,0.22505139,0.0,0.020743825
AAACATTGACGGGA-1-dorsal-1,0.08905997,0.17062075,-0.09426581,0.1146328,-0.08300232,0.16971846,0.1443514,0.21145916,0.0038602743,0.28304335,0.10170415,-0.0037859548,0.014107464,-0.13015701,-0.18691753,0.30412954,-0.036866665,0.07477002,-0.11537168,-0.09665722,0.38773972,0.16649397,0.21387053,-0.020409625,0.29485023,0.10386956,0.008227325,0.0,0.0,0.098953605,0.25825998,0.1950724,0.028011436,0.24287811,-0.0481689,0.20459303,0.17670685,0.017235309,0.065124,-1.1097398,0.0,-0.015708342,0.080279574,0.05165112,-0.0346758,-0.0,-0.03827989,0.31932965,0.1106762,0.009317821
AAACATTGGAACTC-1-ventral,-0.042842828,0.25951773,0.06596114,0.23501806,-0.2161699,0.075334564,0.052274924,0.326203,-0.20557815,0.11922784,0.0,-0.0,-0.0873928,-0.19432268,-0.14213337,0.14351723,-0.03882885,0.23838942,-0.080343686,0.15640749,0.35180947,0.0,0.21247399,-0.016054843,0.22521894,0.0025797968,-0.04559676,0.4293611,0.12042457,0.3119577,0.28116712,0.22266825,0.08142825,0.39385563,-0.25509703,0.1630835,0.17417322,-0.035635766,0.055709474,-0.0,0.18661986,0.003334644,0.21747898,0.10581753,0.0,-0.09082291,-0.0,0.34353748,0.010308342,0.0110056335
AAACGCACCATGGT-1-dorsal,0.11341715,0.14801964,0.021211311,0.16441517,-0.03718449,0.40217793,0.064419374,0.2203193,0.075775355,-0.00041657026,0.23032616,0.09507538,0.11880617,-0.12392356,-0.10036449,0.269182,-0.11270027,0.09789379,-0.019370781,0.0329291,0.1235653,0.05375143,0.15393089,-0.07576499,0.29763132,0.06333881,0.0,0.17105782,0.26494554,0.037306715,0.14073727,0.09634507,-0.05261627,0.17498603,-0.08979434,0.0,0.06665765,0.09414006,0.15110119,-0.0,0.063582525,0.036496267,0.17325671,0.024429172,0.037473746,0.023966594,-0.020216638,0.23072588,-0.020089349,-0.025131902
AAACGCACCATGGT-1-dorsal-1,-0.010074245,0.18417454,-0.016548436,0.068045124,0.022302462,0.32193667,0.012839549,0.17842837,0.11759972,0.04480351,0.0,0.036133636,0.12007691,-0.08286291,-0.021826692,0.14052297,0.018769285,0.027182924,0.0049522854,-0.11249615,0.21303451,0.08910387,0.22311623,-0.13781111,0.31089705,0.0324211,0.13912223,0.316066,0.16651227,0.07726826,0.17603911,0.09671445,0.043816056,0.19544,-0.11402932,0.31613204,0.10524597,0.13599247,0.12835664,-1.1097709,0.073759034,0.07335072,0.0,0.049183108,-0.013850531,0.03741892,-0.02526184,0.17894976,0.0,-0.046646927
AAACGCACGGTCAT-1-ventral,-0.05266713,0.27746114,-0.03327635,0.15478362,-0.040543545,-0.106486216,0.21251225,0.3366549,-0.12529996,0.058273654,0.14202592,0.11526115,0.07800897,-0.2583727,-0.1870256,0.26086804,0.012952897,0.3235412,-0.032027498,-0.09553976,0.34949017,0.13617541,0.15339577,-0.02628161,0.0,0.0882289,0.12671074,0.37902734,0.117836915,0.0665604,0.23259833,0.31548765,0.0,0.5110287,-0.22223169,0.10480383,0.31484398,-0.11908764,0.07922181,-1.1096941,0.11361935,-0.17272355,0.28415433,0.12981668,0.1006149,-0.0,-0.14899182,0.15691967,0.16628577,-0.025320055
AAACGCACGGTCAT-1-ventral-1,0.11762827,0.18989447,-0.115990184,0.09578806,-0.12314903,-0.08410057,0.21842815,0.37906906,-0.05208711,0.0,0.10290015,0.0,0.123330876,-0.16561535,-0.15804517,0.24483906,0.09114478,0.25292554,-0.029464895,-0.06133921,0.0,0.14338382,0.14503899,-0.06547405,0.3431009,0.17322509,0.16351166,0.33295318,0.064860396,0.0,0.24010542,0.32982987,0.06886648,0.42283124,-0.13568772,0.09936335,0.27859807,-0.13614085,0.06832538,-1.1097082,0.100460775,-0.20831414,0.24320404,0.08507816,0.03060226,-0.051567953,-0.25415012,0.14284949,0.19452122,0.0027024914
AAACGCTGACACGT-1-ventral,0.12607105,0.0020603712,-0.12454405,0.2944341,-0.10579904,0.20884909,0.048737936,0.0,-0.07249409,0.22204424,0.0901235,0.11566663,0.13856423,-0.09042879,0.040200833,0.0,0.061239764,0.0,-0.0,-0.049029592,0.10240637,0.010817995,0.23591335,-0.0,0.1143418,0.008253641,0.108734705,0.5386187,0.04425687,0.16657628,0.058889102,0.27792105,-0.017503899,0.3840868,-0.20916145,0.31961736,0.20721307,0.10624196,-0.011904703,-1.1097293,0.14421213,0.050727826,0.1139938,0.08002402,0.050170653,-0.08762366,-0.027807754,0.2801348,0.0753472,-0.064827606
AAACGCTGACACGT-1-ventral-1,0.06885681,0.056803986,-0.12739679,0.0,-0.10848973,0.20938027,0.12351577,0.34120452,-0.03606154,0.29409286,0.028181972,0.12190505,0.046832964,-0.02049698,-0.0,0.12884009,0.0546107,0.19526681,-0.18470533,-0.14359488,0.16762245,0.083406135,0.0,-0.055368878,0.2392908,0.0,0.21123743,0.43276012,0.065594874,0.12407074,0.055840135,0.220977,0.044726294,0.30343583,-0.19872004,0.0,0.0,0.0,0.14408271,-0.0,0.24248125,0.0065206448,0.0879741,0.016093196,0.0,-0.084915765,-0.06578512,0.22513781,0.09013458,-0.07492775
AAACGCTGGATACC-1-dorsal,0.0,0.0,0.040931113,0.12749246,0.057676677,0.12367153,0.15781285,0.27989045,-0.06389307,0.0,0.17214912,-0.002856321,-0.039762262,-0.0,-0.15476419,0.18933327,-0.06552047,0.094538026,-0.13163143,-0.0,0.3919228,0.19910873,0.13809185,0.1393534,0.28123334,0.006777649,0.006548957,0.3340145,0.0,-0.0052363346,0.21717781,0.14572486,0.054200344,0.28500837,-0.10533644,0.19438866,0.16956602,0.030173069,0.04707566,-1.1097363,0.11247176,-0.06319112,0.22952184,0.0,-0.044590436,-0.010890696,-0.049725045,0.0,0.120586835,0.07189239
AAACGCTGGTCTTT-1-ventral,0.06402558,0.22969343,0.04415343,0.23894061,0.0,0.0,-0.12168858,0.31140363,-0.061208542,0.09917998,0.46673504,0.07059906,0.10164962,-0.23974513,-0.03873898,0.12706642,-0.076976486,0.0789059,-0.0778846,-0.08548181,0.26505613,0.22762701,0.24374813,0.0,0.29458478,-0.0,0.19601816,0.2608828,0.0,0.15181495,0.3137764,0.16319619,-0.0834067,0.27885792,-0.0,0.3143873,0.17548116,-0.0,-0.06689708,-1.1097282,0.0,-0.047751933,0.08930067,0.08780717,-0.06885476,-0.086321965,0.05886532,0.17220636,-0.055369604,0.1009675
AAACGCTGGTCTTT-1-ventral-1,0.08388573,0.14042339,-0.038173266,0.0,-0.00035372048,0.1383842,-0.0,0.3655332,-0.13620146,0.12465678,0.0,0.063945115,0.0968688,-0.0,-0.054597195,0.101272404,-0.12241828,0.07589618,-0.034002002,-0.0,0.3166252,0.18005763,0.2184035,-0.010845529,0.26602352,0.062506646,0.17234702,0.17482255,0.2660445,0.07130851,0.18142907,0.13784155,-0.09402818,0.0,-0.19032659,0.2830637,0.20177117,-0.01520998,0.117054015,-1.109738,-0.00276698,-0.025442177,0.063611716,0.2272195,0.017229691,-0.00720501,0.07914944,0.27229336,0.057737406,0.003269373
AAACGCTGGTCTTT-1-ventral-2,0.0,0.12717068,-0.05163716,0.21942432,-0.04212267,0.09918039,-0.038550366,0.3454657,-0.038226448,0.09085204,0.440031,0.09414484,0.17050453,-0.24457733,-0.050066248,0.06268836,-0.0,0.027663229,-0.086536475,-0.023751194,0.24889612,0.17045774,0.15018588,0.11267163,0.30998775,-0.051424902,0.10533808,0.28507867,0.13201122,0.0,0.2343281,0.15253538,-0.075732805,0.28205386,-0.161698,0.27387133,0.18225951,0.028740702,0.18009806,-1.1097385,0.049630653,0.01764435,0.20267504,0.158461,-0.016945735,-0.047193702,0.04218442,0.19801271,-0.015331574,0.022842273
AAACGGCTAGTCGT-1-dorsal,-0.044060353,0.1351338,-0.042253934,0.22504126,-0.12055159,0.21773252,0.14728348,0.20330776,-0.06484449,0.0,0.24021852,0.018435279,0.15769508,-0.25317365,-0.0,-0.080929734,0.07625443,0.4229962,-0.19336496,0.15532471,0.0,0.0,0.0,-0.06708397,0.0,0.0,-0.013466544,0.41838858,0.044461966,-0.054441758,0.25955132,0.32097778,-0.0,0.18361919,0.03628332,0.21118686,0.22354816,0.047413364,0.0,-1.1097076,0.0,0.078689136,0.3874744,0.09101349,-0.007774764,-0.18422578,-0.07827944,0.09803319,0.050010428,0.042628467
AAACGGCTTCATTC-1-ventral,0.15949588,0.26615122,-0.06644395,0.0,0.060503237,0.14172444,0.14613268,0.2978288,-0.0,0.2509693,0.09132608,0.09605575,0.046047714,-0.20609744,-0.21719444,0.18550552,-0.16793285,0.21244374,-0.14777774,-0.097398765,0.4179286,0.15839638,0.066341914,0.07247266,0.22022358,0.11262705,-0.013821788,0.26740924,0.098717794,0.0,0.09289679,0.0,0.008898502,0.21551871,-0.0134705175,0.20410505,0.31678426,-0.0,0.15617964,-0.0,0.097420625,-0.0033358072,0.22123645,0.08514048,-0.0,-0.07270608,-0.004084375,0.0,-0.062687,0.074834056
AAACTTGAACGGAG-1-ventral,0.20417115,0.36025986,0.158967,0.25201046,-0.11676915,0.0,0.24423607,0.5185353,0.059256513,0.15153472,0.273467,0.01106836,0.084316865,-0.18747483,-0.2832055,0.06540168,0.10858183,0.0,0.12837525,-0.11754977,0.45760995,0.0,0.22619697,-0.061348084,0.15860045,0.04832039,0.21044077,0.3245311,-0.06770048,0.17470278,0.14256223,0.0670669,-0.05424387,0.25538972,-0.23609805,0.16861194,0.25765935,-0.08452694,0.15968694,-1.1096907,-0.072656676,-0.033483043,0.2508868,0.021949718,-0.15692572,-0.09281046,-0.13637808,0.12827376,0.10070615,-0.11571368
AAACTTGATAGCGT-1-dorsal,0.0758384,0.18884055,-0.098582044,0.19810195,-0.18150754,0.20787466,-0.0025680994,0.0,0.18818928,0.36368456,0.24668565,0.033837005,0.1502313,-0.21704556,-0.16642903,0.32868308,-0.0846986,0.17908944,-0.04737801,-0.03214333,0.311627,0.39397526,0.116638385,0.02287316,0.31163862,0.14688502,0.11107026,0.26670372,0.21655366,-0.08148975,0.06834668,0.0,-0.09573447,0.108779,-0.14440127,0.2151287,0.27216116,-0.05907761,-0.06527676,-1.1097128,-0.0,-0.037065946,0.27674848,0.030923877,-0.028405985,-0.039881073,-0.027371448,0.25535187,0.06939742,-0.031975973
AAAGACGATACTCT-1-dorsal,-0.04368557,0.20368244,-0.012911956,0.10375743,-0.0,0.24719794,0.042306826,0.18431094,-0.0,0.09526262,0.19690247,0.13383545,0.21116403,-0.21501416,-0.07047481,0.08090065,-0.06023586,0.0,-0.13949871,-0.028862292,0.15633872,0.0,0.3482414,0.051271908,0.19746858,0.11037741,0.15177365,0.0,0.1539397,0.07631015,0.21383901,-0.043579344,0.15616758,0.17923184,-0.06715033,0.0,0.11499423,0.066983916,0.11828414,-1.109767,0.037068214,0.11146441,0.15181164,0.058280885,0.049097918,0.0,0.03730586,0.0,0.09768309,0.020177945
AAAGACGATACTCT-1-dorsal-1,-0.0,0.18413486,0.0145586915,0.20737627,-0.07353293,0.32548898,0.08593483,0.24819113,-0.13492611,0.13553086,0.0,0.064799815,0.18395768,-0.12873094,-0.050192278,0.13095944,-0.08730823,0.19781058,-0.11596005,-0.0069013573,0.15305603,0.11818447,0.43191215,-0.0322232,0.19600157,0.023123594,0.06429093,0.16277897,0.25858042,0.0741415,0.27400848,0.0077264924,-0.0079529155,0.11100334,-0.0,0.19707522,0.2012644,0.06039958,0.09686569,-1.1097488,-0.010480484,0.03487438,0.15579998,-0.05414089,0.104460604,0.01940121,0.024352869,0.39451155,0.036020014,0.053073958
AAAGATCTGAGGTG-1-dorsal,-0.068163544,0.18307896,-0.09141763,0.09767695,-0.108512245,0.25513196,0.0,0.0,-0.030834412,0.12592909,0.23618351,0.15650117,0.15963982,-0.1130785,-0.03414227,0.22732313,-0.1158523,0.0,-0.0033638875,-0.03345198,0.22061652,0.08096698,0.21654363,0.002857364,0.0,0.13110809,0.0,0.2524782,0.33225006,0.12422015,0.16056873,0.06943946,0.13327657,0.16558392,-0.14979714,0.33084017,0.1504361,0.12270335,0.12058514,-1.1097544,0.08394297,0.056548666,0.16253541,-0.028272869,-0.042860113,0.029105892,-0.06694284,0.36706886,0.0628145,-0.04604353
AAAGATCTTGCACA-1-ventral,0.13232967,0.35451484,-0.019736424,0.50486857,-0.08179671,0.07700068,0.07587287,0.4825279,-0.0,0.21304521,0.22928394,-0.020867322,0.013151215,-0.2467814,-0.29314572,0.22638506,-0.14060724,0.0,0.07476403,-0.048960913,0.26627967,-0.0049287085,0.25727287,-0.016587311,0.12731047,0.021533657,0.046244163,0.35384944,0.12669364,0.23485489,0.046784565,0.19833888,0.042996995,0.24277778,-0.071099535,0.21849087,0.13682286,-0.12154282,-0.052347846,-1.1096997,0.14949888,0.089304924,0.0,0.17506991,-0.0,-0.054906476,-0.11715982,0.12385066,0.024921564,0.037260875
AAAGCCTGAGGTTC-1-dorsal,0.0,0.18318282,0.011010146,0.12287959,-0.086468995,0.17685656,0.04729264,0.2842693,0.07077015,0.0,0.23067455,0.0,0.044466354,-0.25343743,-0.177619,0.3263467,0.026319057,0.08826847,-0.028682949,-0.054497655,0.29322523,0.1682124,0.0579276,0.14668415,0.24480659,0.0362236,0.13659304,0.25016895,0.19127548,0.03247292,0.10641562,0.22133082,-0.06624308,0.26929584,-0.14510208,0.2627392,0.17411749,0.0,0.06696451,-1.1097507,0.13489805,-0.06190552,0.14038278,0.07354458,-0.056730844,-0.009776355,0.02619939,0.0,-0.036704145,0.085164405
AAAGCCTGAGTGTC-1-ventral,0.15020865,0.07010879,0.020671695,0.3638159,0.046319295,0.26235873,0.112114035,0.4574697,-0.1815129,0.36335304,0.29864988,0.20538872,-0.07220918,-0.10606581,-0.3234572,0.0,0.02852712,0.15776877,-0.24463648,0.01788842,0.33494318,0.049452677,0.2159608,-0.03772663,0.09770827,0.049617454,0.35270104,0.3758611,0.10929358,0.103973955,0.068620495,0.15107071,0.02032055,0.2729034,-0.0,0.18888512,0.2337127,0.010351391,0.029601043,-0.0,0.043856446,0.013235742,0.22867167,0.04503016,-0.03581047,-0.0,-0.08107384,0.0,-0.15757422,-0.04432771
AAAGCCTGGTAAGA-1-ventral,1.3391675,-0.10610329,0.35778457,0.16862674,-0.2689711,0.7992961,-0.09962162,0.6167838,-0.3301448,0.22134665,-0.19995518,0.33985397,0.17896439,-0.5637899,-0.19018736,-0.0,0.54308337,-0.009497404,-0.35830295,0.0,0.49312907,-0.16259028,-0.22707431,-0.0,-0.1011477,-0.28492352,-0.24476437,-0.021508535,0.3196199,-0.16393013,1.5529408,-0.22399704,-0.21233083,0.030468583,0.7846323,0.4389437,-0.121872365,0.039532438,-0.17249347,-1.1086481,0.10093242,-0.058708988,-0.0,-0.0,0.0,0.0,-0.26804832,0.021345451,-0.33974147,0.09943601
AAAGCCTGGTAAGA-1-ventral-1,1.2758098,-0.1375929,0.27141315,0.2724805,-0.37313846,0.91029894,-0.0,0.72029585,-0.0,0.15744655,-0.0,0.33278808,0.0,-0.5313991,-0.12783383,-0.18016484,0.56634754,-0.2725351,-0.3525264,0.2470412,0.39778593,-0.21778122,-0.24252932,-0.08705901,-0.027678743,-0.33052427,-0.15818907,-0.03919277,0.30399597,-0.104735166,1.5130886,-0.1787013,-0.25348645,-0.0542295,0.0,0.0,-0.06512689,0.017229829,-0.1574129,-1.1086417,0.045305658,0.12536627,-0.0,-0.21160498,1.1032743,0.1446977,-0.33569536,-0.017581781,-0.31367517,0.17411028
AAAGCCTGGTTTCT-1-ventral,-0.029335752,0.34190318,-0.0,0.018026842,0.03488048,0.053136837,-0.055269666,0.3519203,-0.06838686,0.18889627,0.23108321,0.0739004,0.046619903,-0.21574114,-0.1861379,0.21993028,0.010404641,-0.024116835,-0.122940145,-0.09252118,0.3882391,0.28595623,0.10582948,0.10304827,0.37034252,-0.023448138,0.22577389,0.21205188,0.04369213,0.0,0.07202438,0.28073657,-0.15644266,0.38127533,-0.0,0.05328847,0.2912742,-0.041106213,0.06807918,-1.1097,0.096486956,-0.06149683,0.03510165,0.41416618,-0.039903257,-0.031675696,-0.07193565,0.4570854,0.15174128,0.033759102
AAAGGCCTAACCAC-1-ventral,-0.092718735,0.0,-0.18919608,0.0,0.04228126,0.17151214,-0.07652005,0.33394662,-0.04909039,0.020649828,0.47914064,-0.039873723,0.057842664,-0.12203171,0.14725411,0.04293229,-0.02872487,0.033364892,-0.13112678,0.0118822735,0.20313719,0.047797374,0.34375033,0.054357693,0.20208138,-0.061518885,0.19722414,0.27781302,0.1375455,-0.13656881,0.23665236,0.11933432,0.029733174,0.0,0.08539298,0.26802108,0.105725475,0.15090376,0.08651695,-1.1097355,0.015809925,0.0,0.0057917754,0.14819852,-0.030001272,-0.062390435,0.043182094,0.0,0.06618771,0.0564548
AAAGTTTGACACTG-1-ventral,0.07014689,0.2537931,-0.0,0.207914,-0.09430919,0.22147883,0.11873407,0.0,0.00076692144,0.09888092,0.0,-0.069908105,0.07362245,-0.19979604,-0.13950627,0.07873569,-0.07953578,0.15688887,-0.02200769,-0.030697783,0.28546,0.18658702,0.18529893,-0.023426084,0.18215539,-0.06958127,0.0,0.4407702,0.105116256,-0.0,0.055265207,0.19980532,-0.06633302,0.43309492,-0.1393142,0.0,0.23570754,-0.056888927,0.16888288,-1.1097268,0.17013682,-0.07814858,0.06072452,0.30303806,-0.013589131,0.034359943,-0.031891998,0.0,0.096778035,-0.0067581735
AAAGTTTGCTGACA-1-dorsal,0.019442974,0.26010212,-0.037786566,0.12114011,-0.06691973,0.34495768,0.021804912,0.36690784,0.0,0.11483327,0.09070098,0.24910222,0.16657363,-0.12428927,0.00548025,0.17929995,-0.11552282,0.23599169,-0.0,0.022207532,0.111499384,0.0,0.13857019,-0.023345286,0.10814526,-0.02021061,-0.15078585,0.11129251,0.0,0.11866258,0.2950813,0.08955989,0.1474306,0.13957182,-0.15984271,0.33655772,0.04870781,0.026894234,0.13601959,-1.1097548,0.008908014,0.0,0.11927778,0.13047206,0.0043432335,0.0,-0.064924695,0.2200851,0.14402446,-0.0
AAAGTTTGGACAAA-1-dorsal,0.0020664434,0.17039904,-0.050484076,0.14067575,0.034980096,0.210858,0.07604122,0.11206762,-0.08163976,0.10890418,0.0,0.03573887,0.064345784,-0.123915344,-0.0017535688,0.27372217,-0.13504201,-0.02691514,0.10923901,0.19273348,0.1313146,0.26277342,0.19978271,0.14849691,0.0,-0.087443195,-0.08669039,0.35283825,0.15761384,0.0829039,0.35527238,0.19928572,0.1333775,0.19836383,0.0072809104,0.24904917,-0.0,0.069488734,-0.027276412,-1.1097628,0.13522346,0.048654117,0.19642474,0.040179957,-0.0334645,-0.028586918,-0.06305503,0.20322837,0.057648864,0.0
AAATCATGGTCTGA-1-ventral,0.06689174,0.17008434,-0.026849708,0.118543096,-0.07642018,0.1321961,0.0041387603,0.21049762,-0.07857528,0.13864647,0.42218038,0.06332597,0.13514239,-0.055432256,0.0,0.097181834,-0.005433096,0.010526082,-0.017492706,0.008634325,0.11481385,0.08774659,0.26524565,0.05969995,0.19077398,0.120019786,0.0,0.24552867,0.20787492,0.028125785,0.15053278,0.067710295,0.22683357,0.2420551,-0.08177341,0.24274546,0.23130798,0.0,-0.0,-1.1097771,0.10792957,0.028889123,0.041855715,0.046567664,0.0,0.0019228418,-0.034440957,0.1911178,0.038816705,0.059784546
AAATCCCTGACAGG-1-ventral,-0.09824793,0.19656496,-0.03406763,0.00025511617,0.040118158,0.04378354,-0.0,0.2198622,0.044304106,0.06478306,0.19087853,0.07163367,0.019589262,-0.12502466,-0.10358003,0.2187351,0.0,0.10971178,-0.13403927,-0.0,0.33192214,-0.00112017,0.10272439,-0.12182044,0.13999212,-0.01427975,0.14220099,0.51140195,0.22267024,-0.042225987,0.20136264,0.1500384,0.0,0.2738768,-0.0,0.32385477,0.25007987,-0.055119794,0.2597649,-1.1097317,0.3053437,-0.053889886,0.001988767,0.19745152,0.024456909,-0.05493151,0.03238401,0.31459767,0.0,0.074380435
AAATCCCTGTTCGA-1-ventral,0.13220233,0.25770888,0.01960736,0.15152186,-0.035936303,0.11414827,0.03248065,0.30108735,-0.121056244,0.23892134,0.17027307,0.089726605,0.10016093,-0.14540282,-0.0,0.30531693,0.0007524052,0.102617025,-0.065539815,-0.03896985,0.5060955,0.14230037,0.2647869,-0.035032697,0.18977894,0.14112945,-0.003377398,0.49464792,0.18454215,0.0,-0.030574866,0.12221753,-0.020926397,0.0004562177,-0.14659047,0.140616,0.36490652,-0.009958413,-0.0,-0.0,0.21396376,-0.009998746,0.19174096,0.13747993,-0.0967141,-0.06971836,-0.16082221,0.33370304,-0.08153399,-0.05473667
AAATGTTGAGCAAA-1-ventral,0.18607108,0.056302007,0.07362414,0.0,0.031709515,0.12351308,0.09641705,0.43217683,-0.05614248,0.11739203,0.2539758,0.14169805,-0.08560592,-0.120959885,-0.10250099,0.24269792,-0.0,0.14101632,-0.09007772,0.01276535,0.11742606,0.0,0.12252896,-0.0,0.0,0.23007594,0.15793328,0.3906656,0.07115709,0.18251489,0.21520023,0.316733,0.053729575,0.17103289,-0.06664455,0.20699343,0.1293577,-0.12858033,0.092620894,-1.1097435,0.046329353,-0.13612483,0.21726795,0.11809283,-0.0,-0.0,0.09230833,0.17546797,0.11093641,-0.0
AAATGTTGAGCAAA-1-ventral-1,0.07566365,0.16924374,0.021593343,0.28629827,0.0012933877,0.12012442,0.15648137,0.3969754,-0.09798236,0.0,0.0,0.17511752,0.004824272,-0.14502102,-0.18603034,0.18791617,0.02164289,0.15488152,-0.14860618,-0.004448626,0.06684501,0.12916791,0.0,-0.07962552,0.0,0.104056984,0.12831005,0.43933877,0.063559674,0.11996008,0.18923704,0.23508698,0.03188462,0.28806528,-0.14642021,0.3046382,0.18968286,-0.09461191,0.17032263,-0.0,0.09441379,-0.14994,0.2676326,0.14304762,-0.14217734,-0.17789537,0.07300947,0.17209943,0.12275068,0.010988332
AAATGTTGCCTGAA-1-dorsal,-0.088416144,0.24958968,0.14107883,0.0127619095,-0.012665922,0.2673057,-0.012201138,0.2140086,0.09407309,0.21476549,0.19159476,0.17430711,0.22825167,-0.18700601,-0.19019605,0.06921944,-0.08962234,0.13636872,-0.0,-0.0870757,0.18990228,0.098535895,0.35559425,0.040937416,0.18404137,-0.0907394,0.10896273,0.19068342,0.23892616,0.025346695,0.20261471,0.14960392,0.026039433,0.1969903,-0.11342208,0.26218966,0.11448294,0.17060581,-0.0449982,-1.1097488,0.0025821147,0.11541105,0.20022552,0.11061224,0.11483375,-0.06753763,0.032695368,0.30493385,0.08706578,-0.0081471605
AAATGTTGGAGGTG-1-ventral,-0.015406344,0.12580743,0.026586665,0.2830938,-0.14055154,0.41972324,-0.06294655,0.24968198,-0.0028885736,0.08944613,0.2668357,-0.043222245,0.15414952,-0.28820384,-0.09199169,0.2109273,0.012683484,0.22685751,0.085234016,0.2645248,0.24563043,-0.0,0.053570367,0.20352323,0.13570894,0.03486335,-0.19361788,0.35197148,-0.064037114,0.01813983,0.102027774,0.23763573,0.09813133,0.100879356,-0.0837287,0.2636404,0.2217106,0.040750045,-0.086432435,-0.0,0.18915723,0.16628279,0.14287426,0.097886235,0.08863221,0.013953635,-0.018375186,0.15130565,0.05222474,0.058121692
AAATGTTGGCTAAC-1-dorsal,0.04059115,0.2674347,-0.009364883,0.03674709,-0.0,0.19911927,0.086633466,0.46860904,-0.1205112,0.10121708,0.2585584,0.067034684,-0.12258517,-0.19883242,-0.18318428,0.2442853,-0.010363593,0.18281248,-0.0,-0.109692946,0.0,0.11806399,0.18576972,-0.002235704,0.23031153,0.00849295,0.18091716,0.2486722,0.104146756,0.24588847,0.17469743,0.17618458,-0.039421853,0.3104263,-0.1644573,0.3017841,0.3459851,-0.13506281,0.13414669,-1.1097028,0.102279134,-0.16770701,0.057223614,0.28705558,0.03443674,-0.12055153,-0.04415466,0.26592,0.0,-0.036837064
AAATTCGAAGCACT-1-ventral,0.10767336,0.29146117,0.0031755161,0.22487588,0.020773668,0.12795472,0.039529514,0.31544232,-0.06732623,0.0,0.1524671,0.15092558,0.1793291,-0.18211605,-0.09599183,0.0,0.019142807,0.0,0.0034611176,-0.060394607,0.32951754,0.0926278,0.0,-0.0131367985,0.23776858,-0.079103775,0.012755498,0.22522469,0.21541178,0.08922396,0.20362043,0.0,0.2434116,0.075788945,-0.0,0.0,0.12478058,-0.011780527,-0.0,-1.1097534,0.10150404,-0.03033327,0.17878656,-0.067712404,0.033062022,-0.074220635,0.0046436656,0.12579861,0.08383729,-0.011105803
AAATTCGATCAGAC-1-ventral,0.14807788,0.19241318,-0.0035331647,0.0,-0.0,0.06848195,0.15427063,0.3990529,-0.06155246,0.20625864,0.14914252,-0.03983809,0.019616514,-0.22077397,-0.09933936,0.16602413,-0.11469232,0.098521955,-0.05746961,0.004259729,0.23203635,0.008760765,0.3584717,0.035652123,0.020095265,0.07563832,0.0,0.4205697,0.16891746,0.23838747,0.17226212,0.21698147,-0.084939934,0.0,-0.0,0.17793182,0.22231367,-0.1238774,0.0037267557,-1.1097254,0.09610782,0.028094072,0.28188974,0.083396696,-0.07340518,-0.046270624,-0.06733233,0.23523189,0.13510181,0.007855892
AAATTGACAAGTAG-1-dorsal,-0.09725042,0.26956475,0.16120237,0.0,0.011256785,0.21037461,0.07405762,0.0,-0.0047286353,0.16703142,0.38539222,0.17847009,0.053747263,-0.1930586,-0.19122681,0.17631976,0.016855644,0.13624758,-0.071372524,-0.0,0.094060026,0.2758576,0.20911059,-0.045880478,0.22209923,-0.021334888,0.08253494,0.1405365,0.020538615,0.11642054,0.29796457,0.12358505,0.12536062,0.23375487,-0.020091733,0.07993003,0.15644273,0.053988587,0.0,-1.1097596,-0.023098456,0.038558587,0.23290159,0.08103549,0.0011863891,-0.011654166,0.1744264,0.07304593,0.09728458,-0.0228154
AAATTGACAAGTAG-1-dorsal-1,-0.03561742,0.32600817,0.13708785,0.09106812,-0.1488281,0.23056202,0.06984653,0.16830997,-0.005840527,0.15876745,0.34849906,0.12892619,0.10566948,-0.16668214,-0.1319019,0.12356823,-0.014985867,0.11124706,-0.18210359,-0.030334659,0.1951176,0.2651151,0.26594436,0.028014483,0.2939561,0.006069363,0.0,0.23632406,0.008696434,0.06492111,0.2726396,0.11789041,0.07842865,0.23872885,-0.011477471,0.066152364,0.13308917,0.0,0.15122652,-1.1097577,-0.021020308,0.08052696,0.15241279,0.0,-0.029540792,-0.019514296,0.055596508,0.061029356,0.09634128,0.034997787
AAATTGACTATCGG-1-ventral,-0.0154225705,0.26159024,-0.08227329,0.3844384,-0.26591435,0.28611648,0.210737,0.0,0.0,0.150676,0.19862036,0.20190392,0.03503838,-0.23311192,-0.16459061,0.22606595,-0.1105547,0.07564059,0.023757113,-0.01535568,0.2696939,0.07503521,0.18460847,0.083659425,0.042842828,0.081413805,0.01070475,0.30698785,0.0,0.2707505,0.12798914,0.20038834,0.0035546557,0.32253814,-0.059527956,0.30015916,0.05259024,-0.17875116,0.0051038135,-1.1097021,0.22015825,-0.13319202,0.3507721,0.2569138,-0.046960052,-0.14732818,-0.041805707,0.059796568,0.045938686,-0.0
AAATTGACTATCGG-1-ventral-1,0.123212345,0.28325126,-0.021661654,0.34916636,-0.0,0.201222,0.16951297,0.31299388,0.06500747,0.25462756,0.16130233,0.15979597,0.0047724694,-0.0,-0.19068348,0.28845742,-0.15473671,0.18519634,-0.032427378,-0.0,0.24063253,0.03400079,0.0,-0.04634175,0.07952529,-0.025797488,0.046633497,0.25556487,0.20012026,0.2624932,0.14345935,0.26388773,-0.00039902,0.30256337,-0.07215103,0.0,0.15333405,-0.23144618,0.09728996,-1.1097041,0.15908872,-0.14190397,0.40732378,0.23048402,-0.042423278,-0.13786489,-0.04705575,0.060032517,0.07302863,-0.021419792
AACAATACTTTGCT-1-dorsal,0.054625794,0.30901748,0.08844169,0.0725497,-0.004570087,0.20826648,0.06297946,0.25676048,0.17957887,0.103488356,0.11504554,0.21908164,0.1298594,-0.27665722,-0.22526345,0.05999787,-0.03674037,0.08651715,-0.07579784,-0.0,0.27616158,0.14926454,0.17085257,-0.06365617,0.16169423,0.067927636,0.070645764,0.28669074,0.35998446,0.0,0.15210205,0.100026004,0.00055434805,0.32843643,0.014173965,0.17958514,0.17842439,0.063195005,-0.008214911,-1.1097488,0.014085456,0.0,0.12989259,0.041243162,-0.056322817,-0.07150578,0.1273465,0.32961115,0.14078651,-0.0
AACAATACTTTGCT-1-dorsal-1,0.010861755,0.2671282,0.08196253,0.059583668,-0.0,0.16261673,0.009582188,0.27020684,0.037459057,0.07863825,0.0,0.23140381,0.11593122,-0.22923723,-0.16261499,0.0,-0.04084978,0.15220289,-0.0,0.014541154,0.27933308,0.12285443,0.27762645,-0.0077017816,0.17118643,0.030177316,0.14722441,0.17975475,0.231597,0.026706243,0.18907976,-0.0027581058,0.06260171,0.25923294,-0.01659698,0.19284868,0.2032986,-0.021823183,0.0358637,-1.1097629,0.0,0.024629641,0.17073615,-0.03887925,-0.007520517,0.00706467,0.04885726,0.32416248,0.08996303,0.010750468
AACAATACTTTGCT-1-dorsal-2,0.0,0.28960878,-0.0065702205,0.050268993,-0.048351157,0.17210029,0.034484558,0.23579629,0.079301156,0.108301215,0.1353787,0.18957856,0.13685659,-0.13857186,-0.1861971,0.11178423,-0.0,0.099008396,0.030295245,-0.070306994,0.26318944,0.09236842,0.2875727,-0.08637515,0.17611273,0.01593226,0.09247563,0.20850879,0.29852474,0.062179826,0.0,-0.028499499,0.0057425355,0.30929792,0.035249606,0.0,0.22296664,0.0,0.00270192,-1.1097564,0.120577976,-0.102212764,0.18097955,0.0219197,-0.028433338,0.049502198,0.14712442,0.31663778,0.11718395,0.0039931554
AACACGTGGTTGGT-1-ventral,0.17413498,0.20332298,0.056399826,0.0,0.07931319,0.09078833,0.15693556,0.36613134,-0.1334562,0.21844816,0.157218,0.032879993,0.07485089,-0.2560278,-0.21313973,0.126319,0.09771512,0.15943141,-0.059178542,0.0,0.22366998,0.22756386,0.2696222,0.001900072,0.13204709,-0.010560023,0.14110047,0.370354,0.16742009,0.25099403,0.0894467,0.32567775,0.07026331,0.23870553,-0.17007285,0.23022892,0.2845433,-0.12874922,-0.057570208,-1.1097277,0.093298994,-0.0249211,0.1791563,0.022503238,0.013226126,-0.047279995,-0.0,0.12182804,0.012885457,-0.03234261
AACAGAGAGGATTC-1-ventral,-0.040380295,0.21688412,-0.20978796,0.26757357,-0.06561286,0.22017802,0.28959638,0.22551398,-0.060141485,0.09493805,0.0,-0.06527371,0.11606255,-0.0,-0.22472289,0.26002124,0.14069949,0.12800148,-0.17647168,-0.06429004,0.40959138,-0.015146667,0.050828595,-0.016753808,0.13987502,-0.11811694,0.0,0.0,0.0,0.1892096,0.18132572,0.0,-0.08967559,0.11337784,0.057927627,0.364613,0.0,0.15478842,0.091714725,-1.1096733,0.086265005,-0.19844905,0.08432123,0.61059654,-0.10732115,-0.11174242,-0.07593036,0.29240873,0.0,-0.06651369
AACAGAGAGGATTC-1-ventral-1,-0.005103946,0.22929226,-0.15493049,0.11407452,-0.0,0.0,0.29212442,0.20357257,0.00714877,0.09990234,0.16314259,-0.058528915,0.0798727,-0.22419547,-0.23299178,0.24336639,0.19635952,0.10374064,-0.19520727,-0.07606851,0.4627551,-0.06079992,0.0067006345,0.060750216,0.20415479,-0.1506542,0.11096415,0.2881942,0.17563541,0.27097657,0.0,0.30848616,-0.009177063,0.0,0.14898999,0.26871273,0.26013932,0.053827472,0.15166193,-1.1096835,0.042257525,-0.16051446,0.0056848265,0.5796143,-0.098076664,-0.18117455,-0.0053630937,0.2758829,0.16181363,0.007041279
AACAGCACACGCAT-1-dorsal,0.072813995,0.24397701,-0.058506,0.21670568,-0.0,0.33050898,0.017287314,0.0,-0.06523067,0.13400568,0.0,0.12622353,0.32552162,-0.25979063,-0.20074567,0.23870994,-0.08979546,0.18499959,0.03777525,-0.018309554,0.19628277,0.0919626,0.36831042,0.061621413,0.0,-0.032230288,0.01591115,0.26148745,0.15598948,0.026204687,0.26566246,0.08857693,-0.05010671,0.108740054,-0.0,0.2754414,0.10402077,0.002649853,0.14084344,-1.109727,0.06337147,0.060853448,0.2165221,4.8594343e-06,-0.12669452,-0.023362704,0.0052399067,0.38395423,-0.00502348,-0.06520656
AACAGCACACGCAT-1-dorsal-1,0.034614958,0.28090158,-0.07529789,0.124509834,-0.0,0.32722804,-0.025141837,0.26764482,0.07088451,0.03494678,0.20330516,0.095163375,0.300889,-0.1991513,-0.09511107,0.19290419,-0.012273392,0.16365191,-0.037920278,0.0052975495,0.24454612,0.0,0.2922023,0.0135332765,0.1715084,0.022941725,0.03733936,0.25804818,0.12974079,0.11291225,0.26396772,0.10429703,-0.026585462,0.1445321,-0.11677968,0.0,0.0,-0.04035334,0.18618058,-1.1097412,0.075333044,0.071715936,0.27507478,-0.048210293,-0.1272648,-0.018431611,-0.058126055,0.35697803,0.04866858,-0.0
AACAGCACGGTGGA-1-dorsal,0.069291435,0.0,-0.0,0.15890095,-0.0,0.16061573,0.024798,0.29171503,-0.038913757,0.2600447,0.0,0.01917176,-0.009461641,-0.0,-0.17102303,0.299948,-0.063628495,0.111489095,-0.032300223,-0.09815316,0.29689,0.17233151,0.25913572,0.0048822085,0.3080919,0.038389776,0.011870187,0.32543406,0.11120866,-0.012949573,0.2947569,0.0,-0.03466348,0.20419103,-0.11414277,0.21434106,0.17343675,0.111160286,0.08653117,-1.1097378,0.08127038,-0.05325768,0.12800908,0.1491494,-0.1606318,-0.061028536,0.06409749,0.33810234,0.09024565,0.0029902824
AACATTGATTCGCC-1-ventral,0.14995946,0.0,-0.12599356,0.22902535,-0.18697998,0.05124504,0.0,0.40746585,0.040591653,0.21915253,0.16534027,0.16104876,0.12765194,-0.2303303,0.010640406,0.0,0.019979995,0.11496934,-0.18842228,-0.068182684,0.20826977,0.034165375,0.36281592,0.080507964,0.17206676,-0.094101764,0.14770481,0.3623365,0.14511335,0.15181108,0.1430745,0.20270221,0.017275969,0.2654378,-0.09720008,0.15016161,0.3325547,-0.0,0.14168127,-1.1097262,0.12646335,-0.0,0.125698,0.067816265,-0.06561677,-0.0411133,-0.12320221,0.0,-0.026648311,0.0
AACCAGTGGCGATT-1-ventral,0.03541889,0.3211831,-0.06688542,0.0,-0.14295374,0.06974491,0.0,0.09279008,0.031289298,0.0,0.14614344,0.0025049308,-0.048326854,-0.21408215,-0.12286008,0.2782874,-0.03631016,0.00390682,-0.17238738,-0.034645136,0.25357938,0.28534362,0.21755241,0.005583432,0.23046552,0.012792254,0.18238997,0.40062922,0.13935095,0.1754166,0.095078655,0.0,-0.04972551,0.23717593,-0.09959135,0.18768382,0.0,0.07800202,0.21270469,-1.1097398,0.16240518,0.052226346,0.27496198,0.059452392,-0.013461776,-0.07488357,0.048103053,0.22964379,-0.009763241,0.12090451
AACCAGTGGCGATT-1-ventral-1,0.08107891,0.28230482,-0.057125226,0.10611601,-0.15829511,0.06357315,0.1357186,0.11922416,0.06914207,0.23218109,0.1382266,-0.005957882,-0.0014278624,-0.17347874,-0.08066449,0.27163574,0.07882203,0.041332968,-0.2240495,-0.0027020774,0.26541376,0.24882132,0.24614738,0.05062721,0.22332156,0.018592589,0.0,0.0,0.1158594,0.13916467,0.037630618,0.13518813,-0.013027854,0.2558138,-0.173056,0.14238119,0.39235935,0.07650748,0.0,-1.1097406,0.109891124,0.076118276,0.2463579,0.0675091,-0.073549554,-0.07274111,-0.06953478,0.2245569,0.051312886,0.10389473
AACCAGTGTTGCTT-1-ventral,0.05070169,0.16501634,-0.014914739,0.15379114,-0.084399454,0.06412365,0.22004798,0.0,0.05657839,0.024949342,0.069042094,-0.054827467,0.0,-0.22071488,-0.32789642,0.18638103,0.115832545,0.0750384,-0.030410623,0.0,0.0,0.09108579,0.0,-0.022974478,0.16924144,0.112455145,0.07333552,0.0,0.1954078,0.18678898,0.28279552,0.30484784,-0.004223784,0.1820276,-0.09258403,0.20742391,0.42126638,-0.07226063,-0.038720306,-1.1096964,0.18273222,-0.17628393,0.2985531,0.0,-0.15267903,-0.10839065,-0.0,0.3303771,0.13085037,0.047741834
AACCCAGAAGAATG-1-ventral,-0.29520234,0.032280415,0.54508936,0.29784244,-0.20135656,0.1502356,0.24434462,-0.23312828,0.0,0.18705261,0.117833845,0.23034997,-0.15184774,-0.037550066,-0.15091288,-0.14906129,-0.3377084,0.14887913,-0.0,0.006832348,0.0,0.04521399,0.532498,-0.36353523,-0.11535996,-0.007880529,-0.20397432,0.9180061,-0.09477245,0.82891583,0.5040567,-0.045513645,-0.33271208,0.2888896,-0.06521523,0.43984354,0.17223491,0.24714093,0.12428895,-0.0,0.0,-0.11988203,0.15747842,0.30625448,0.06793817,0.38967335,-0.23607719,0.27915913,-0.115121745,-0.0698538
AACCCAGAAGAATG-1-ventral-1,-0.1599843,0.059101094,0.0,0.27191383,-0.3035382,0.23572163,0.206917,-0.0057960222,0.13137746,0.35437447,0.11390679,0.28589964,-0.26868874,-0.09461079,-0.08324458,-0.21597499,-0.36118007,0.037536044,-0.31750178,-0.090376936,0.0,0.16022879,0.40013683,-0.22039911,-0.049145557,-0.101179086,-0.3399224,0.8197931,-0.038110815,0.85594916,0.5165928,-0.010606978,-0.2865814,0.251361,-0.15349269,0.4855122,0.09013118,0.18650214,0.12467214,-1.1093659,0.27170172,-0.1343906,0.117209665,0.28513896,0.0,0.46893775,-0.40064707,0.42969662,-0.14986503,0.020490961
AACCCAGATGTCTT-1-dorsal,-0.023578936,0.0,0.15484457,0.12722155,-0.07346432,0.19710037,0.18186715,0.33008793,0.00546835,0.0,0.12953548,0.17567399,0.0,-0.0,-0.27898267,0.14611617,-0.03624307,0.0,-0.10835291,-0.0871257,0.19950227,0.271109,0.22309104,-0.03700018,0.20300747,0.016357837,-0.14365575,0.22024307,0.39916682,0.09492195,0.26290324,0.04627806,0.026113069,0.42713434,-0.1666277,0.28611082,0.18395779,0.10641352,-0.034319825,-1.1097223,0.21567918,-0.035135087,0.07630705,0.07910018,-0.048423413,-0.047823723,0.18636099,0.13621914,0.060956273,0.12286731
AACCGATGTACTCT-1-ventral,0.13092831,0.18357019,-0.05159153,0.48087734,-0.10954215,0.214198,0.21466233,0.53421104,-0.14220993,0.0,0.27003407,0.13695534,0.056644104,-0.0,-0.24467283,0.16444734,0.024831707,0.075205974,0.045905787,0.035857882,0.0,-0.04647593,0.17468962,0.16057888,0.22296672,0.004256409,0.09839408,0.19661196,0.0915438,0.15612063,0.04261104,0.0,0.013589835,0.22766207,-0.0863925,0.13207015,0.0,-0.07636064,0.07302888,-1.1096925,0.106202245,-0.09978176,0.15108539,0.029817514,-0.0,-0.02196683,-0.14369482,0.3387009,0.0,0.032254964
AACCGATGTTGTCT-1-ventral,-0.032254327,0.1487204,0.054719605,0.37973538,-0.24543783,0.4171423,0.17266357,0.46668622,-0.040767327,0.3120239,0.0,0.04193186,-0.0,0.051472843,-0.2477377,0.10825621,0.2858996,-0.034815803,0.08928475,-0.07163962,0.46399456,0.10457588,0.46932766,-0.089195706,0.29906714,-0.015514428,0.17143267,0.13138215,0.19122589,0.07997842,-0.11281941,0.12556328,-0.021628672,0.15309533,-0.30452055,0.15601997,0.09197061,-0.0,0.10630447,-1.1096572,0.18685421,-0.028613145,-0.09248151,0.17171867,0.079561606,-0.19275434,-0.123783424,0.37844795,-0.01723561,-0.0
AACCGATGTTGTCT-1-ventral-1,0.024323689,0.2591084,-0.081802875,0.26789737,-0.1873566,0.420814,0.14258972,0.55454105,-0.055824786,0.30192536,0.21859065,-0.009958016,-0.068416,0.15193301,-0.1800816,0.15449412,0.23857422,-0.15997411,0.0,0.009437733,0.52277917,0.076194234,0.44134566,-0.15303433,0.3634472,0.0,0.12499034,0.17616655,0.2461255,0.013429449,-0.12757203,0.08124095,-0.06163783,0.18665649,-0.33970875,0.22804701,0.09318545,-0.07286695,0.08300402,-1.1096454,0.048911117,-0.04862918,-0.029099055,0.14765319,0.09320612,-0.15856571,-0.12920433,0.46645683,0.02146971,-0.018214718
AACCGCCTTGCAGT-1-ventral,0.10929339,0.087244615,-0.029890407,0.22216,-0.061966516,0.16364466,0.0,0.30368462,0.15370096,0.26451075,0.23965032,0.02001832,0.030442424,-0.1998208,-0.10074676,0.16095383,0.14330706,0.04800152,-0.13137388,-0.07587029,0.087345496,-0.0,0.24149044,-0.040577587,0.10689424,0.19385502,0.17230672,0.20201987,0.0,0.17113107,0.101958714,0.22687376,0.07983575,0.1865148,-0.18594763,0.13865337,0.2568607,-0.08737392,0.3294476,-0.0,-0.13122772,-0.011040238,0.1982325,0.10312542,-0.04803287,0.033765197,-0.08293768,0.28194314,0.047466714,0.08101869
AACCTTTGCCCGTT-1-dorsal,0.0,0.0,-0.1564924,0.23386563,-0.06569339,0.36967716,-0.0215592,0.07581211,-0.1203392,0.16623841,0.28595483,0.17241146,0.34913912,-0.26921248,-0.1279072,0.24481015,-0.04375935,0.18217514,0.02586474,0.0,0.0,0.0,0.21806018,0.12746407,0.20988458,-0.09506167,0.0,-0.018292269,0.15773243,0.08245764,0.26296598,0.26556444,0.058306515,0.18596558,0.007505744,0.24107152,0.13839725,-0.01837598,-0.08480351,-1.109735,0.11794948,0.14020301,0.107674114,0.039116744,0.075194806,0.018559562,-0.07440197,0.34648725,-0.010852019,0.0
AACCTTTGGGAAGC-1-ventral,0.044785686,0.20711486,-0.012226768,0.2563918,0.0964188,0.15758161,0.052615687,0.2787378,-0.010135771,0.17423165,0.19754143,-0.0006309483,0.16446063,-0.16528733,-0.18972602,0.20782512,-0.041370396,0.10363093,-0.07901166,0.10544734,0.38083827,-0.037143297,0.17047803,-0.0,0.17476298,0.11818042,0.008380699,0.3621415,0.078990765,0.2083347,0.11866742,0.23945059,-0.06220063,0.24346344,-0.068603694,0.10668103,0.24277171,-0.08322412,0.043781046,-1.1097362,0.24225004,0.07907877,0.29686493,0.02679335,0.024604058,-0.17144237,-0.21412916,0.19209252,0.0,0.07826972
AACCTTTGTATGCG-1-dorsal,0.13844982,0.1100923,-0.009206865,0.16107786,-0.0,0.16572532,0.090949886,0.2593432,-0.0,0.281517,0.13332132,0.11995044,0.07942775,-0.10409799,-0.0054734284,0.12061959,0.0056859977,0.07277568,-0.0598434,-0.1502108,0.0,0.010327698,0.0,-0.08808798,0.28043386,-0.0,0.12526572,0.18854809,0.29836664,0.13174462,0.110584356,-0.039216746,-0.0917538,0.0,-0.18506773,0.0,0.18834251,0.09959596,0.08156591,-1.1097345,0.13577433,0.0,0.04565558,0.0,0.17485012,-0.1203941,0.08748671,0.17920081,0.029883776,0.098748155
AACGCAACATGTCG-1-dorsal,0.0,0.15276083,-0.05274276,0.26467204,-0.101567246,0.13579488,0.18973114,0.39327806,0.10251538,0.2842159,0.0,-0.09357963,-0.050939985,-0.20974186,-0.20585313,0.25983277,0.10436431,0.18211302,-0.16609657,-0.0,0.40147117,0.19359964,0.16764662,0.067171715,0.25609028,0.0,0.024084942,0.2755125,0.13664015,0.061155636,0.099293016,0.19925582,0.104951344,0.0,-0.13328156,0.17205645,0.12207114,0.018260177,0.04693968,-1.1097255,-0.026551023,-0.042743355,0.19284137,0.0,0.0056999014,-0.10267695,-0.0,0.25426292,-0.0017691985,0.08780176
AACGCAACCCTACC-1-dorsal,0.1534127,0.24239384,0.020757506,0.081341036,-0.0,0.16935115,0.0803264,0.3748001,0.1372749,0.21779814,0.13617815,-0.09095418,-0.013988482,-0.216366,-0.19008386,0.23181482,0.0,0.0548001,-0.08884106,-0.073337294,0.0,0.097596824,0.22682716,0.09574134,0.2502517,0.0,0.08741477,0.23344342,0.15014195,-0.027794244,0.23064473,0.10662301,-0.028900439,0.24232659,-0.09985818,0.06906944,0.14669223,0.062421758,0.17596288,-1.1097351,-0.036418173,0.041299414,0.23292427,0.12793005,-0.060380105,-0.10772076,-0.0686835,0.34593025,0.073804736,-0.023232633
AACGCAACCTCAAG-1-dorsal,0.06717089,0.12085319,0.06741273,0.01781535,0.007218396,0.046599664,0.08921859,0.18625566,0.09939165,0.0,0.086278826,0.09255024,0.046527036,-0.039298207,0.026507221,0.2279205,0.086705245,0.15729399,0.09992676,0.0,0.14849578,0.031082053,0.0,0.11651364,0.0,-0.0013000435,0.040082302,0.15086661,0.08822144,0.08374541,0.034616955,0.16803166,0.1345669,0.0813702,0.066065036,0.05468053,0.10508338,0.07952056,0.05936834,-1.1098068,0.16580893,0.0669827,0.15584542,0.0,0.03789956,0.0,0.15996169,0.06395657,0.07380861,0.086673744
AACGCCCTAAACAG-1-dorsal,0.026515016,0.20630416,-0.07259011,0.120410495,-0.09303232,0.0,0.0,0.23832603,0.081905894,0.0,0.11995138,0.2208396,0.0,-0.19743212,-0.049345296,0.19434655,-0.14058968,0.1958323,-0.0,-0.0,0.19415364,-0.040854152,0.2568864,0.07507061,0.124922805,0.07827845,-0.022045242,0.2378379,0.0724361,0.18042187,0.3913383,-0.009769864,0.10631806,0.0,-0.09536187,0.0,0.13914824,0.06991645,0.059105717,-1.1097493,0.0,0.12839115,0.22088052,0.0,-0.018308297,0.019281007,-0.04161603,0.18119994,0.044030774,0.0005487022
AACGCCCTAACTGC-1-dorsal,0.16152264,0.18592323,0.04350484,0.21205416,-0.14269796,0.12856352,0.1480912,0.42533612,0.14816044,0.1670253,0.15335798,-0.031165814,-0.073226824,-0.38704497,-0.27372018,0.26396513,-0.0421385,0.19001651,-0.16774204,-0.0,0.49065453,0.089856,0.16071005,0.0,0.2608197,0.11080216,0.089483775,0.25779283,0.21835187,0.04700448,0.0,0.19438925,-0.0,0.23011585,-0.13515553,0.13397655,0.18778825,-0.078197725,-0.012631218,-1.1096879,-0.03060235,-0.0458522,0.30956674,0.039271373,0.0005953221,-0.06650793,-0.0035100514,0.3905539,0.043838464,-0.018483268
AACGCCCTAACTGC-1-dorsal-1,0.0,0.14811066,-0.014840829,0.24598336,-0.0,0.19595343,0.14603338,0.37110943,0.15396187,0.18790674,0.16355817,0.10555417,0.020572465,-0.28358805,-0.19045731,0.2695179,-0.15820292,0.13833804,-0.0,0.037786383,0.40931743,0.05723345,0.12066274,0.110804744,0.21937226,0.08362247,0.059507273,0.0,0.23059468,0.124445654,0.25191405,0.1888947,-0.051787034,0.0,-0.13282895,0.2717337,0.18270235,0.0017968774,0.04780079,-0.0,-0.0,-0.059399676,0.27624503,0.07650763,-0.1283506,-0.05458713,-0.057983864,0.28091156,0.01849552,-0.07292284
AACGGTTGAGGTCT-1-ventral,0.033292726,0.18318719,0.11842341,0.29144382,-0.0039768885,0.0,0.03697032,0.37182254,0.06673987,0.011566435,0.21383193,0.14246666,0.21119699,-0.27610397,-0.09577122,0.3769137,-0.0,0.0,0.1784281,0.014457894,0.2900306,0.117525056,0.28809634,0.043788422,0.2343625,-0.064854026,-0.104953125,0.13094553,0.094844274,-0.028653543,0.15441361,0.04490376,-0.10753076,0.09343143,0.018451981,0.24420312,0.14184323,-0.0,-0.012713208,-1.1097314,0.0,0.0,0.2534114,0.15811874,-0.0,0.03720206,-0.0,0.334424,-0.08075357,0.031001875
AACGGTTGCTTGTT-1-ventral,0.06581156,0.20805725,-0.12692015,0.11939705,-0.093815066,0.26441208,0.2353634,0.45897102,-0.09907087,-0.016062127,0.18594994,0.03873075,0.0,-0.1669652,-0.13304234,0.30331448,-0.029347474,0.030935548,-0.0,-0.087630756,0.40093678,0.23729911,0.18530796,0.028181996,0.0,-0.046487387,0.0,0.3364952,0.1053126,0.066154726,-0.06804871,0.05948689,0.011282183,0.23001888,-0.07556028,0.22831368,0.1921545,-0.15461458,0.20775014,-0.0,0.27333504,0.065248184,0.092734925,0.0,0.1680216,-0.18888342,-0.11716624,0.29984105,0.14092539,0.0
AACGGTTGCTTGTT-1-ventral-1,0.22793397,0.22032985,-0.10253119,0.018258937,-0.028188031,0.0,0.1656996,0.5593804,-0.07420269,0.052691367,0.21098827,0.077694274,0.2537755,-0.1438674,-0.09608713,0.24197234,-0.0,-0.041104227,-0.28158545,-0.08861946,0.33893394,0.261183,0.16227564,0.09447742,0.1563222,0.02149325,0.15183835,0.30951127,0.111836016,-0.038055778,0.07890685,-0.010954539,0.012089958,0.0,-0.06374704,0.0,0.16929266,-0.17554131,0.20265892,-1.1097116,0.0,0.053712357,0.0,0.17003934,0.07637261,-0.15131468,-0.114481054,0.22352514,0.0792345,0.105496794
AACGGTTGTATGGC-1-dorsal,-0.09926889,0.0,-0.11707002,0.17366023,-0.0,-0.019613704,-0.060710512,0.45354876,0.011165395,0.024722936,0.18098207,-0.015018384,0.120272115,-0.07756406,0.08098409,-0.13649929,-0.19855699,0.20490201,-0.16772099,0.17539251,0.30691707,0.438527,0.2681552,-0.019896826,0.13678278,0.023313591,0.1395731,0.5527961,0.0,0.24376069,0.24366404,0.21071605,0.045597687,0.0841706,-0.011418463,0.2358198,0.11744428,-0.085870095,-0.040490694,-0.0,0.0,0.35945854,-0.14802821,0.15312341,-0.071035296,-0.033280123,-0.018005107,0.255927,-0.004750755,-0.009381175
AACGGTTGTATGGC-1-dorsal-1,-0.056849193,0.2149846,-0.108766824,0.17116423,0.020642646,0.010991465,0.012301137,0.0,0.023381094,-0.020916065,0.23117438,0.045412634,0.119158484,-0.146764,0.22494671,-0.091145836,-0.20368405,0.20746146,-0.0,0.12505934,0.3044665,0.4537002,0.18385825,-0.031642385,0.110497326,0.08911834,0.09981386,0.47818875,0.0,0.0,0.34921184,0.0,-0.016433928,0.0,-0.050568715,0.23976758,0.1818989,-0.0,-0.049085684,-1.1097171,0.052731454,0.24426326,-0.057680544,0.0,-0.15857035,0.09453905,-0.044784877,0.20356502,0.05897286,0.003261533
AACGTCGAGGTGTT-1-ventral,0.015845427,0.08566944,0.07458864,0.2253663,-0.0680697,0.23560788,0.05974384,0.17251183,-0.037346482,0.076884665,0.3727977,0.0,0.20321903,-0.18864089,-0.07601361,0.31060326,-0.010235973,0.13398694,-0.123937465,0.02464076,0.024871435,0.20527855,0.22755612,0.075623184,0.28224775,-0.16574119,0.06291992,0.07158384,0.0,-0.001979934,0.12256726,0.05711805,-0.029675763,0.25853375,0.04330586,0.40479857,0.2318499,-0.02361768,-0.053534046,-1.1097449,0.097843535,0.055307616,0.18823753,0.09458137,-0.05850388,-0.09177374,0.115505695,0.24887569,0.0,0.14585982
AACGTCGATCCCAC-1-ventral,-0.04576319,0.20821573,0.08374309,0.2419427,0.0,0.18128337,0.045903858,0.3637475,0.06571766,0.04835221,0.2339191,0.007468206,0.19382888,-0.18154119,-0.091420546,0.16660987,0.0,0.19229741,-0.0,-0.12664285,0.19123378,0.11313585,0.43707404,-0.020447241,0.0,-0.03029585,0.11209046,0.49123168,0.16161062,0.031339537,0.08094395,0.023298148,-0.0,0.22521727,-0.035507813,0.29192623,0.15377705,0.008190668,0.06103184,-1.1097306,0.19174378,-0.074599855,0.16095391,0.12783961,-0.045024555,-0.01299474,-0.030735334,0.20816815,-0.09906293,0.0
AACGTGTGGAGCTT-1-dorsal,0.10325961,0.2373183,0.038326345,0.0,-0.19348444,0.12086844,-0.03288713,0.3045786,-0.057530206,0.32550314,0.045761127,0.0,-0.103620425,-0.11560792,-0.04987386,0.1898515,-0.007956095,0.04656897,-0.069112845,-0.067110725,0.2132331,0.21753475,0.2061481,-0.017414492,0.0,-0.0,0.0,0.2975977,0.16364874,0.09845543,0.2006418,0.20828386,-0.020813348,0.337079,-0.08835727,0.102394246,0.100674875,0.017317604,0.22640511,-1.1097378,0.013901741,0.061369367,0.1763124,0.0,-0.0,-0.12620568,0.18774407,0.23353055,0.3558578,0.13486464
AACGTGTGGAGCTT-1-dorsal-1,0.030718071,0.16503403,0.06953964,-0.023292238,-0.118437216,0.18806727,-0.019616619,0.29067683,-0.08462125,0.29278946,0.06430495,0.10015437,-0.05737828,-0.122406624,0.011177921,0.2032067,-0.04665812,0.029542977,-0.07504536,0.038725223,0.22237557,0.20147493,0.1936957,0.12158446,0.20844844,-0.09612276,0.053788763,0.30104905,0.0,0.15419526,0.15325804,0.1955377,0.0018253674,0.36537397,-0.10954102,0.06879551,0.17879431,0.010674882,0.0,-1.1097454,0.038659226,0.107382834,0.08923088,-0.02277997,-0.1302155,-0.12514704,0.19785888,0.2468855,0.0,0.0779284
AACGTTCTCAGAGG-1-ventral,0.0006508869,0.17568086,-0.08963598,0.12145364,-0.09329564,0.024341773,0.120471165,0.504862,0.048499644,0.17009225,0.2548296,0.0,0.049975786,-0.30417478,-0.22949518,0.08764054,-0.072675414,0.1877952,-0.030337242,0.00547592,0.2771436,0.14036673,0.2770798,-0.14708155,0.30056006,0.08713418,0.13956769,0.18729454,0.04427793,0.27154514,0.016637355,0.0,-0.062415734,0.28893912,-0.18535118,0.3012677,0.34613755,-0.19952562,0.29180998,-1.1096618,0.0,-0.09711061,0.43553746,-0.07073303,0.07890624,-0.06389731,-0.28095824,0.0,0.23085847,-0.111225255
AACGTTCTTCAAGC-1-ventral,0.0,0.18121536,0.025288997,0.035567183,-0.03214194,0.17717464,-0.018062394,0.44016045,-0.022653475,-0.076432824,0.28860983,0.048306867,0.07566492,-0.22296079,0.052877486,0.33832008,-0.15357667,0.08706769,0.13243392,0.036793783,0.0,0.16527422,0.36243206,0.011283731,0.14844441,-0.117340825,0.0,0.1830285,0.0,0.11800837,0.21594259,0.08183039,-0.1017703,0.25617567,-0.036548376,0.25918412,0.18241781,-0.2633474,0.09539392,-1.1097227,0.16503093,0.03984294,-0.014509427,0.19692978,-0.039842993,-0.027999349,-0.051621,0.15015882,0.037795886,0.13271587
AACGTTCTTCAAGC-1-ventral-1,0.046026275,0.21335544,0.050314564,0.0028362582,-0.03682534,0.20783675,-0.03488296,0.48735774,-0.055663057,-0.044188898,0.3028698,0.08347386,0.0020306476,-0.123101674,0.014127767,0.3037229,-0.055514045,0.017357295,0.039088,0.009877988,0.509243,0.27072516,0.34980112,-0.046596132,0.0,-0.14577329,0.1615279,0.2441898,0.14372481,0.0,0.26094896,0.1125052,-0.012447305,0.2696838,-0.0,0.0,0.14811014,-0.31805974,0.094292544,-1.1097051,0.11584709,-0.03264156,-0.063506365,0.16376731,-0.08120643,0.09350816,-0.100713044,0.13828564,0.101419985,0.103231564
AACTACCTCCAATG-1-ventral,-0.007899073,0.0,0.056388453,0.12667467,-0.2268227,0.22115396,0.09967474,0.17720795,0.0,0.29580763,0.2731324,0.0066919546,-0.07079449,-0.21941133,-0.27041066,0.28369096,0.09656574,0.15466887,-0.0,0.0010768449,0.43079755,0.33019987,0.18410148,-0.11691372,0.42992607,-0.0,0.0,0.43550238,0.22346404,-0.054427125,0.08787013,0.25277317,-0.0032686526,0.0,0.020047348,0.20122975,0.23951863,-0.081657834,0.0,-1.1096914,0.15328583,0.02286537,0.1304893,0.04905441,0.029887823,-0.1003788,-0.06396877,0.2783535,-0.12351427,-0.042849384
AACTACCTCCAATG-1-ventral-1,0.03998741,0.21695815,0.0,0.16092752,-0.22892623,0.12677275,0.025196342,0.3478525,0.18668725,0.3808405,0.4407798,-0.08118471,-0.033124954,-0.20631003,-0.31749395,0.37951624,0.0064088944,0.0,-0.21350305,-0.021733113,0.36153278,0.18731499,0.22723356,-0.075489685,0.0,-0.03244473,0.068487294,0.43437007,0.21500461,-0.07371658,0.1982536,0.20916583,0.004871016,0.20992902,0.0996656,0.19780168,0.0,-0.13473465,0.11874229,-1.109671,0.06777741,0.07101704,0.0,0.012769807,-0.06434156,-0.1758888,-0.08157598,0.21172558,-0.08472357,0.018573934
AACTCACTACCACA-1-dorsal,0.08601444,0.16628256,0.31002888,0.054584857,-0.19576351,0.24669363,-0.017480984,0.38953024,0.13586342,0.24438517,0.296078,0.038632303,-0.006759432,-0.01720488,-0.13230516,0.18963982,-0.045119856,0.1330577,-0.0,-0.027815238,0.2485895,0.16537918,0.0,-0.028565396,0.06899083,-0.08244078,0.06976421,0.18276018,0.13784537,0.11889199,0.23003474,0.025332663,-0.0046890313,0.39581218,-0.1960236,0.2041533,0.17664795,-0.084305145,0.06350929,-1.1097289,0.17456745,0.032741874,0.21951994,0.12286113,-0.18441267,-0.09451443,0.08456246,0.0,0.22535083,0.015975991
AACTCACTAGTACC-1-ventral,-0.033209324,0.23974097,0.10832537,0.36422494,-0.09397454,0.31382304,0.0,0.33253127,-0.06547418,0.0941802,0.19238897,0.18741612,0.11167972,-0.13840272,-0.058821045,0.11117472,-0.0,0.13992943,0.13438556,-0.04608658,0.16039889,0.15434606,0.384267,0.062343903,0.088218436,-0.14672558,0.1400296,0.2008307,0.14587751,-0.028950574,0.18514666,0.040158782,-0.031926103,0.16448689,-0.06273773,0.10553584,0.18629271,-0.017897686,-0.0090659335,-1.1097395,0.18428399,-0.0,0.29948273,0.19996181,-0.16396397,-0.15711778,0.0,0.14807408,0.0040564523,0.15653916
AACTCGGACTAAGC-1-ventral,-0.0011617608,0.18011877,-0.06829282,0.0,-0.11177779,0.13300169,0.15692665,0.36003205,0.051090285,0.011209395,0.0,-0.09358896,0.05782917,-0.18182914,-0.15101671,0.15703012,0.05150573,0.17194663,-0.08280847,0.07492948,0.117300525,0.15885414,0.39253923,-0.09351294,0.13241298,0.12406885,0.14687991,0.41494906,0.11905488,0.2606239,0.067448735,0.31037372,-0.077495314,0.26205882,-0.20282322,0.17340672,0.33927205,-0.06407029,0.046724018,-1.1097293,0.013036729,0.17195988,0.0796424,0.17741568,-0.10993488,0.0,-0.038442284,0.3536805,0.039414722,0.06155368
AACTCGGACTACTT-1-dorsal,-0.016737912,0.15065669,-0.06299291,0.12111868,-0.110967495,0.15398948,0.13226378,0.18802306,-0.081495054,0.32624412,0.0,0.083813846,0.13059199,-0.3716461,-0.20206372,0.20169356,-0.0,0.1617887,-0.11558348,-0.08543247,0.50107616,0.050693415,0.20920874,0.029012347,0.2760479,-0.04711913,0.1697913,0.3025907,0.31461528,0.0,0.20732792,0.11107513,-0.03452884,0.30883765,-0.07766095,0.16508493,0.20588906,-0.0025538604,0.16379407,-1.1097013,0.24302666,-0.038070284,0.19962719,-0.11177381,0.038896408,-0.06895542,-0.0720036,0.23064797,0.0,0.06789528
AACTCGGACTACTT-1-dorsal-1,0.09548133,0.20099247,-0.030479565,0.038601298,-0.10704571,0.0,0.13367413,0.0,-0.017605226,0.30799314,0.1309124,0.03798736,0.122733235,-0.26880956,-0.10717194,0.22212707,-0.08618984,0.037828743,-0.0,-0.0,0.3875307,0.049237926,0.19975147,0.05125177,0.36273614,-0.0704525,0.12551561,0.28742695,0.23583993,0.04297255,0.11148099,0.022253305,-0.0,0.28092837,-0.102802716,0.16356184,0.29168808,0.10200885,0.13424246,-0.0,0.21932796,0.14170118,0.0,-0.0,0.12039833,-0.06927067,-0.06071111,0.2438352,0.1551388,0.09177555
AACTCGGACTTTAC-1-dorsal,-0.056198176,0.15379906,-0.027831396,0.11200983,-0.17606477,0.26342213,0.06370408,0.07227585,0.116573624,0.21432419,0.14645359,0.10204071,0.14173387,-0.2160393,-0.0471237,0.0,0.04260009,0.008639131,0.10525338,-0.030993622,0.33138987,0.0,0.24315158,0.023653971,0.120312005,-0.0,0.09801943,0.06507266,0.0,0.03482352,0.0,0.072273314,0.11882353,0.03250666,0.10825951,0.24074797,0.06933138,0.038234573,0.016660724,-0.0,0.252494,0.12900071,0.073320895,0.0,0.020834362,-0.021854773,-0.14412357,0.40037966,0.16911474,0.027700018
AACTCGGACTTTAC-1-dorsal-1,0.036572598,0.21244073,0.08076807,0.08075822,-0.1265241,0.22169891,0.023205655,0.23900646,0.0039634192,0.18348621,0.14931388,0.24851383,0.12996008,-0.20340483,-0.10210925,0.055180185,-0.0,0.08795862,0.0732748,0.03176278,0.0,0.13392127,0.0,0.080942914,0.012258689,-0.010834999,0.055526443,0.035599984,0.0,0.08596426,0.29392436,0.057331275,0.13018599,0.08077961,0.04651903,0.0,0.0,0.0742512,0.03827903,-1.1097665,0.10343326,0.09943697,0.08347539,0.08614154,0.04648186,0.0,-0.15957926,0.46530393,0.19800882,0.044104043
AACTCGGAGAACCT-1-dorsal,-0.010003779,0.22550248,0.150137,0.23515184,-0.020080607,0.20117989,-0.09481768,0.09617006,-0.058594946,0.07766065,0.2056465,0.114131264,0.08977705,-0.0,-0.0,0.21375626,-0.03318257,0.008554103,-0.043709014,0.003602687,0.19652718,0.05241708,0.21284865,0.0,0.0,0.0,0.122301616,0.20831378,0.07940778,0.030091844,0.23076087,0.113502234,0.16063993,0.11684834,-0.017204948,0.20101555,0.113697514,0.05055164,0.0061951997,-1.1097713,0.10125309,0.09095877,0.10705645,0.115416445,0.08322985,0.09223771,-0.16839254,0.35696706,0.14592198,0.07959557
AACTCTTGGTGTAC-1-ventral,0.05589404,0.21535073,0.06664004,0.4591179,-0.0,0.1700542,0.06932685,0.2976411,-0.021730067,0.20951052,0.241443,-0.0022789505,-0.037502915,-0.22560552,-0.14287645,0.15773502,-0.08194984,0.124888465,-0.04749285,-0.026639502,0.20367423,-0.0521642,0.18749586,-0.055349473,0.16014743,0.07239241,0.15801083,0.26295114,0.0,0.22009204,0.21204565,0.25212988,-0.0,0.17615037,-0.06985605,0.328508,0.1399139,-0.07680993,0.0,-0.0,0.03289746,0.0,0.34490335,0.15019056,-0.0014047491,-0.066175066,0.009468695,0.096581765,0.13369578,0.038717747
AACTCTTGTCTACT-1-ventral,0.16937992,0.28213048,-0.16958,0.2864919,0.07684431,0.17217161,0.27818948,0.38303208,-0.0781095,0.14068674,0.0,0.040405262,0.17456362,-0.2648077,-0.0,0.12001219,-0.03863785,0.17710878,-0.09637548,0.02749915,0.2818697,0.14535551,0.20144394,-0.044969257,0.24494341,-0.0012250079,0.14481981,0.22958933,0.13338363,0.1095489,0.07065329,0.2632395,-0.061496764,0.23044023,-0.0,0.19975296,0.45167282,-0.041026477,0.0,-1.1097168,0.0,-0.11614317,0.18922883,0.15317261,-0.10551692,-0.0,-0.16184059,0.11364858,0.024036046,-0.06570293
AACTCTTGTGCGTA-1-dorsal,-0.09654337,0.28691244,0.12622422,0.16247688,-0.14001358,0.2426853,0.088724524,0.3286213,0.004316978,0.10213682,0.22255222,0.20556912,0.161505,-0.14282751,-0.044218834,0.28094286,-0.10696378,0.0,-0.052342217,-0.0,0.26362285,0.02493168,0.21752417,0.02829667,0.0,-0.04377789,-0.08891901,0.25092524,0.1642871,0.07979808,0.2706979,0.14334285,0.07447827,0.14760816,-0.096588336,0.17436567,0.16952132,0.06371677,0.082050346,-1.1097511,0.016499445,0.09258793,0.0,0.07223269,-0.07524888,-0.09450456,-0.005344285,0.29533875,0.08320382,0.00033169988
AACTCTTGTTCGTT-1-dorsal,0.02369183,0.26685202,-0.0069894395,0.14068472,-0.09697047,0.22031327,0.08377225,0.25114217,0.012113697,0.19262381,0.048626944,0.052123502,0.0,-0.3538314,-0.19572417,0.19521457,-0.073617764,0.1450858,-0.13034324,-0.05774644,0.22978294,0.15568098,0.2760127,-0.10135989,0.17242661,0.015141547,0.014298041,0.4126101,0.35843286,0.01733583,0.22746757,0.19837852,0.034161404,0.29373118,-0.093392864,0.31331947,0.22529812,-0.075605646,0.1865304,-1.1097167,0.26713142,0.021910163,0.17492603,0.0,-0.07629269,-0.022689834,-0.06415891,0.1628649,0.16161211,0.018643431
AACTGTCTCCACCT-1-dorsal,0.10228002,0.2834861,0.009702689,0.22715718,-0.07679701,0.302903,0.09494392,0.14540641,-0.015442372,0.06408128,0.12117654,0.068183206,0.0474851,-0.1529454,-0.025339525,0.2555835,-0.0,0.1678639,-0.089328825,0.045262378,0.0,0.093476504,0.27832648,-0.04414426,0.28427348,-0.0089981165,0.045949027,0.25348362,0.27997005,0.03602686,0.031790618,0.10231496,0.11317524,0.1515444,-0.054235727,0.31200963,0.17264815,0.0,0.0,-1.109763,0.072098404,-0.0137582095,0.15650065,0.072657034,-0.0,-0.0,-0.024875272,0.2731876,0.0390691,0.006070005
AACTGTCTGAATAG-1-dorsal,0.022199437,0.0,0.039209176,0.11046331,0.036562145,0.19104145,0.037849937,0.07641986,0.020714127,0.14245398,0.077272385,0.04019783,0.14698406,-0.12050285,-0.15121646,0.0,0.061952926,0.25078616,-0.028064582,-0.014530487,0.08354391,0.12409306,0.3239785,-0.077310674,0.2343758,0.081804015,0.096458204,0.34035304,0.071301796,0.013972985,0.21325521,0.12642731,0.18896382,0.0993228,-0.07410315,0.0,0.10227557,0.12996082,0.002133391,-1.1097733,0.0009533101,0.048159596,0.12450357,0.10799777,0.0,0.0010845521,-0.04042076,0.30925384,0.10646869,-0.021295218
AACTGTCTTTTCAC-1-ventral,0.20870596,0.17402239,-0.0,0.20077941,-0.020852355,0.10703357,0.1383604,0.3508958,0.13618562,0.049043752,0.079390466,-0.05017506,0.002992029,-0.10291213,-0.04069759,0.22756235,-0.044372413,0.0,-0.0,-0.05161617,0.21191332,-0.0,0.40954807,-0.008743605,0.20736092,-0.1335758,0.20081982,0.33881488,-0.0227552,0.030662484,0.17391753,0.08044576,0.0,0.28552797,-0.19903317,0.0,0.0,0.091406755,0.13192211,-1.1097182,-0.1335817,0.13807228,0.303922,0.21573031,-0.09448284,0.01880912,0.0,0.22623728,-0.014906923,0.07747898
AACTTGCTTTCTAC-1-ventral,0.16885597,0.3607674,-0.12713592,0.014695472,-0.21956947,0.18274204,0.18786395,0.3807253,-0.1327781,0.22710972,0.21241994,0.08335637,0.091740794,-0.11995243,-0.0,0.048516676,-0.106895834,0.18067907,-0.22414374,0.2549705,0.2838041,0.0,0.56473964,-0.010625853,0.17894858,0.0,0.15227218,0.22460733,0.072503924,0.32088044,0.19494691,0.17297667,-0.15350296,0.54337794,-0.17551489,0.18157747,0.31517935,-0.20478237,0.06861913,-1.109669,-0.0,0.019462904,0.17045535,0.11341535,-0.016714005,-0.11930075,-0.1830988,0.0,0.0670084,-0.06870886
AACTTGCTTTCTAC-1-ventral-1,0.103351034,0.28297472,-0.10640423,-0.0008951956,-0.18913032,0.15455882,0.10599601,0.0,-0.0677183,0.26833516,0.24715485,0.0628831,0.06901527,-0.10543526,-0.0,-0.0042737196,-0.12911665,0.21977161,-0.18334423,0.32571444,0.18190326,0.28724658,0.46151584,0.020893283,0.121582426,0.20265137,0.10735547,0.19473381,0.027487913,0.2806958,0.17516549,0.1831349,-0.089093186,0.47201332,-0.15506844,0.0,0.0,-0.23142233,0.21154746,-0.0,0.10439506,0.0026086885,0.099591546,0.14226454,0.0,-0.117381416,-0.119172536,0.10473783,0.053742755,0.0032442892
AAGAACGAAAGGCG-1-dorsal,-0.01960887,0.14953552,-0.10425528,0.19314682,-0.113262475,0.32917958,0.03792849,0.30939892,0.03493295,0.02160716,0.15352121,0.11378822,0.21812847,-0.22488005,-0.18677017,0.15219353,-0.033492513,0.13617055,-0.043563712,0.10251219,0.22131832,0.05987594,0.1770905,-0.09168864,0.19597532,-0.023644038,-0.017918812,0.33653754,0.1784304,0.078351445,0.22282799,0.12894487,0.08521518,0.08955522,-0.11040105,0.4114728,0.043057833,0.14783022,0.028120968,-1.1097363,0.07563021,0.3252521,0.0,-0.046310294,0.033536527,-0.07878794,0.0,0.2928696,0.24947922,-0.00759946
AAGAAGACCTGGTA-1-dorsal,-0.023469793,0.0,0.0,0.0,-0.014033649,0.11587726,0.19024837,0.39472446,-0.0452639,0.24131098,0.29796374,0.09262175,0.04409331,-0.31428167,-0.0,0.10839719,-0.07294397,0.30802906,-0.06547299,-0.029694308,0.170107,0.14798486,0.13345143,-0.051578287,0.15202132,0.0,0.17247923,0.34230167,0.20806588,0.1266055,0.14094402,0.28433886,-0.03600293,0.1666605,-0.108712584,0.23189186,0.27324125,-0.065460205,0.0541214,-1.1097125,0.064398825,-0.071994536,0.29729763,0.10142697,-0.01700898,-0.13386422,-0.072991654,0.2950261,0.12069988,-0.018699965
AAGAAGACCTGGTA-1-dorsal-1,0.04062294,0.12924252,0.11727956,0.2747733,-0.047248207,0.11240418,0.18090735,0.40209556,-0.07244336,0.3096115,0.24085464,0.07549695,0.0904383,-0.26480106,-0.21457587,0.0,-0.016392007,0.28504065,-0.08629574,0.0,0.23582552,0.104585454,0.18235412,-0.086775094,0.18963394,0.0,0.055582944,0.28310797,0.22819668,0.22718418,0.17460471,0.0,-0.035121176,0.15146181,-0.08159227,0.20720235,0.28564996,-0.09939261,0.050249062,-1.1097286,-0.010293127,-0.03788498,0.28807247,0.051893927,-0.080290444,-0.061549082,-0.10634549,0.24508163,0.0107098045,-0.028933685
AAGAAGACCTGGTA-1-dorsal-2,0.0010902269,0.16327818,-0.026813084,0.29525805,-0.01641757,0.0,0.22281979,0.33999798,-0.03614366,0.2725465,0.21224993,0.124163784,0.04969041,-0.2612383,-0.20398101,0.102247156,-0.052798856,0.2474769,-0.065878965,0.031673644,0.15644673,0.032921493,0.155987,-0.034742624,0.0,0.2219301,0.16504143,0.28413495,0.3456385,0.041475065,0.15785794,0.25039625,-0.0,0.16747433,-0.12493744,0.24283616,0.16765334,-0.08428905,0.009605016,-1.1097353,0.071027786,-0.13461974,0.0,0.14061978,0.041092135,-0.100690134,-0.04135099,0.24037908,0.10308949,0.0007472188
AAGAAGACTTCATC-1-ventral,0.031683333,0.16185232,0.08718944,0.10864033,-0.081788905,0.0,0.12801741,0.097697005,0.059217513,0.21459049,0.124748744,0.0,0.08448159,-0.086701185,0.15803017,0.08254605,0.033044174,0.12859404,-0.14954713,0.20102763,0.0065603857,0.12481355,0.113852575,0.13609205,0.12775381,-0.011747679,-0.1895949,0.14848082,0.2749419,0.06125688,0.21481639,0.07254077,0.17974067,0.22330418,-0.13425596,0.29420397,0.013201954,0.07846061,-0.005403029,-0.0,0.12763721,0.02680792,0.08922704,0.15512024,0.013387096,0.027433274,-0.1262396,0.44960517,0.104162455,0.15314454
AAGAATCTAAGCCT-1-dorsal,0.19548917,0.0,-0.047939356,0.12619063,-0.06545901,0.3275717,0.029189223,0.12571847,-0.08263416,0.16757417,0.089135416,0.0,0.18700664,-0.18751396,0.09448271,0.25366813,-0.09355459,0.15875255,0.009251055,0.15155405,0.11033781,0.2305276,0.20699698,-0.029461319,0.0,0.015855445,0.12220175,0.19691348,0.21411271,0.11479278,0.12865338,0.1705454,-0.011124016,0.13311896,-0.13408324,0.3423874,0.074787825,0.08911333,-0.045119062,-1.1097499,-0.05926086,-0.07221845,0.31363812,0.11836714,0.0,-0.13994563,-0.08360711,0.3566043,0.049600247,-0.015120176
AAGAATCTAAGCCT-1-dorsal-1,0.16454194,0.075802475,-0.117301814,0.050270416,-0.1910923,0.36935523,0.1097371,0.12649176,-0.13841954,0.17438926,0.08533259,0.27300113,0.18064497,-0.15947111,0.0,0.29804564,-0.17170298,0.04704917,0.008031201,0.0,0.16567002,0.12781984,0.22740096,0.017914409,0.20539047,-0.05556577,0.20540965,0.21439977,0.0,0.049560536,0.16002558,0.1391139,0.0067720646,0.13143525,-0.18153277,0.2853259,0.055516943,0.15348864,0.092692934,-1.1097378,-0.09445065,0.06810388,0.2514441,0.15444785,0.2117033,-0.12118956,-0.067359805,0.3175882,0.03445109,-0.025562646
AAGAATCTATCAGC-1-dorsal,0.012737053,0.17477132,-0.09340565,0.13226902,-0.20190802,0.19009832,0.17365016,0.2202807,0.18388769,0.21177593,0.23291679,0.032586224,-0.002605584,-0.164763,-0.05342583,0.31734785,-0.053794388,0.045912,-0.0,-0.058385402,0.4406704,0.20144162,0.0,0.0,0.27219516,0.068797305,0.0,0.37980896,0.105876334,0.0090161385,0.24359392,0.20469582,-0.05984088,0.0,-0.062256526,0.18795553,0.1562967,-0.02220505,0.13723668,-1.109733,0.09266373,-0.049046613,0.16648062,0.021697292,-0.0,-0.04100078,-0.047242776,0.22830331,-0.061425902,0.03690526
AAGACAGACTGGAT-1-ventral,0.018986497,0.134709,-0.052799385,0.3205759,-0.092329055,0.039021816,-0.04673084,0.30656028,-0.086102225,0.091251984,0.47998178,0.0,0.21208116,-0.2135947,0.10986962,0.04905984,-0.08263244,0.13152331,-0.027145943,-0.13492107,0.2977696,0.28087562,0.30381495,0.098468035,0.1763422,-0.14909665,0.0,0.23836102,0.0,0.051141318,0.0,0.06315168,0.051552217,0.18214728,-0.10110167,0.2716881,0.24270797,-0.095870234,0.0148855075,-1.109726,0.10449586,0.0,0.13993168,0.08256471,0.002548347,-0.0020680164,-0.08211752,0.3865949,0.017611533,0.05655495
AAGAGATGAACGAA-1-ventral,0.20328149,0.0,-0.04776869,0.13427629,-0.06864952,0.15110724,0.058962226,0.20644501,0.0,0.0,0.15020639,-0.13518143,0.08718009,-0.24207215,-0.11863762,0.2439972,-0.06068965,0.10192748,-0.05259653,-0.0,0.3157731,0.15596944,0.2073894,0.0016182248,0.2185821,0.0628818,0.089100406,0.33329022,0.23462956,0.0,0.2493702,0.40309358,-0.003709992,0.26983783,-0.13749044,0.2276832,0.16367973,-0.0608127,0.15296072,-1.1097293,-0.0,0.023513602,0.17283629,-0.019419128,-0.075020194,-0.096637614,-0.05534126,0.3014937,0.117842734,-0.07091397
AAGAGATGCCAGTA-1-ventral,0.21400526,0.2619586,-0.02959404,0.18485661,-0.20528616,0.21830177,-0.026699636,0.35137752,-0.07760366,0.0,0.15196456,0.0013079784,0.0,-0.10722114,-0.0,0.20656218,-0.05695979,0.1421603,-0.18811505,-0.04867309,0.3362534,0.26603812,0.17223206,-0.0,0.30301976,0.036586743,-0.06740405,0.33194852,0.07252205,0.11106976,0.20610447,0.26285723,-0.03222042,0.27702883,-0.03998333,0.109698415,0.3217475,-0.12147308,0.15662198,-1.109699,0.1869057,0.025262361,0.097677805,0.05285496,-0.047215823,-0.05251805,-0.05528861,0.23240845,0.06429476,0.022861337
AAGATGGACTATTC-1-dorsal,-0.009314617,0.1601734,0.032546468,0.21171193,0.0045201103,0.1962236,0.0,0.27275053,-0.0017978087,0.20394129,0.19298796,0.12450624,0.06654039,-0.18831207,-0.17624857,0.15233375,-0.07209348,0.11841235,-0.03704793,-0.007745624,0.42260832,0.18743797,0.25161347,0.056634434,0.19181833,-0.021352239,0.089476496,0.28476426,0.11151041,0.0,0.0,0.1711261,-0.07992155,0.19661637,-0.14414272,0.21396965,0.19035967,-0.05525536,0.053635374,-1.1097381,0.0067986883,0.01936815,0.0,0.04220948,-0.13250332,-0.15423669,-0.035643313,0.3164749,0.10412817,0.026299482
AAGATGGACTATTC-1-dorsal-1,0.14567298,0.3113597,0.05642115,0.2987246,-0.038760636,0.081111394,0.11172162,0.27313077,0.0,0.14254142,0.23811388,0.04393482,-0.011716486,-0.22463475,-0.21806353,0.26228622,-0.0,0.118181735,-0.029423436,0.06418327,0.321215,0.1568686,0.21124637,0.08134155,0.2713689,0.07914413,0.070781514,0.16541842,0.20032117,0.062985815,0.21546535,0.2658078,-0.0,0.18821843,-0.13825093,0.18021737,0.17428154,-0.032443672,0.01998461,-0.0,0.07894198,-0.020416513,0.0,0.054747425,-0.12007588,-0.18418035,-0.013446743,0.29542232,0.11099721,0.03116843
AAGATGGAGACGAG-1-ventral,0.28508005,0.18670535,0.028964195,0.27133718,-0.087517634,0.18825361,0.2644201,0.0,-0.1719508,0.17453635,0.25134483,0.09312311,0.1436758,-0.19315217,-0.116341785,0.37058058,-0.0,-0.0,-0.091235705,-0.25022614,0.42796153,0.14822263,0.26121342,-0.0015948217,0.0,-0.00015901195,-0.03139655,0.3509927,0.15674332,-0.16865367,0.07971725,0.13539694,-0.14533189,0.39748818,-0.15798907,0.324119,0.30378884,-0.0,0.12693372,-0.0,0.25315124,0.09277294,0.2204016,0.117419824,-0.0535008,-0.104702316,-0.0,0.07999198,-0.12511837,0.07975523
AAGATGGAGACGAG-1-ventral-1,0.27764288,0.19227238,0.048847545,0.30549008,-0.10087086,0.19531001,0.22944687,0.28434715,-0.18164384,0.12341794,0.27953532,0.0,0.14477918,-0.15264088,-0.15157938,0.32074374,-0.023479661,0.05437785,-0.13643226,-0.2191282,0.44578302,0.011902883,0.20359825,-0.035725106,0.20405413,0.068927415,0.04118482,0.0,0.095895156,-0.059169535,0.03161788,0.1386834,-0.0,0.0,-0.22239554,0.36195332,0.28881386,-0.103211805,0.1069607,-1.1096909,0.2372857,0.049263854,0.2125967,0.090115726,-0.03873428,-0.128832,-0.056977075,0.1709028,-0.08722293,0.053774435
AAGATTACCCATGA-1-ventral,-0.0,0.13324372,-0.061079334,0.42274782,-0.056597926,0.29094234,0.069145635,0.38497883,-0.0,0.0,0.3759999,0.053443797,-0.016386908,-0.22194149,-0.18508263,0.06824756,0.14119431,0.10786768,-0.104028255,-0.0,0.0,-0.006651746,0.23600335,-0.09592282,0.05097328,0.07068136,0.05547111,0.325537,0.0,0.17578961,0.16498002,0.3115047,-0.057730943,0.26577988,-0.0045677028,0.2374582,0.081765994,-0.09559883,0.18755685,-1.109713,0.09302255,-0.13690127,0.0,0.03393003,-0.0,-0.013568203,-0.09025945,0.2271372,0.05771686,-0.04844242
AAGCAAGAAGAGTA-1-ventral,0.067635454,-0.040926736,0.040474217,0.09820649,-0.018363265,0.29933697,0.0736653,0.34111002,-0.08037422,0.083125934,0.19514148,-0.08816726,0.0071709068,-0.13503453,0.03318497,0.085845426,-0.0034696527,0.17403921,-0.016355978,-0.051857237,0.2530324,0.094598874,0.32590482,-0.02117071,0.27249238,-0.018960105,-0.061698426,0.0,0.0,0.015129928,0.31258073,0.25672838,0.12838885,0.20883164,-0.07020129,0.29215682,0.09291836,0.0,0.07653678,-1.109749,0.0045972816,0.0,0.0,0.052104868,-0.059824124,-0.03286302,-0.1286324,0.20718203,0.1522052,0.0
AAGCCAACGAATGA-1-dorsal,0.07991017,0.039560363,0.0125278,0.042639613,0.006472469,0.23325181,0.06318293,0.16860062,0.0,0.0,0.2530195,0.14857194,0.26960826,-0.18330297,-0.13195647,0.114816695,-0.10152274,0.10321738,-0.08731061,0.055558685,0.0,0.10658103,0.30387202,0.07938164,0.14447014,-0.049150653,0.08217382,0.15053716,0.0,0.049126714,0.36968338,0.14494886,0.1733481,0.16934681,-0.20560437,0.26094413,0.09121119,0.14368251,0.028269293,-1.1097549,0.13142245,0.12783556,0.15469164,-0.0035313105,-0.07579532,-0.014515388,-0.0017321111,0.23243792,0.08659596,-0.0
AAGCCAACGTTTCT-1-dorsal,0.10341928,0.13142383,-0.033394497,0.16976415,-0.10888418,0.24429108,-0.0,0.2813657,-0.020209486,0.20488971,0.18125628,0.04382401,0.16747382,-0.18855639,0.07664844,0.15356769,0.00031198066,0.122075,-0.030734738,0.014824918,0.11916348,0.07665984,0.2596235,-0.033770535,0.13899976,-0.001512766,0.07370737,0.13843295,0.25913498,0.0,0.0,0.042646613,-0.035626292,0.052717235,-0.19195405,0.43563715,0.10215055,0.115634196,0.14628474,-1.1097568,0.15323524,0.096942164,0.27166927,0.018503875,-0.052687198,0.0031054476,-0.041402712,0.0,0.1418529,0.073975205
AAGCCAACTATGCG-1-ventral,0.111283496,0.2547878,-0.12922817,0.0,-0.13353361,0.12633656,0.15593168,0.35108843,0.008204369,0.21378662,0.2814582,0.020891247,0.22146308,-0.18514825,-0.24835594,0.16484085,-0.07072932,0.07849342,-0.1298321,-0.08095616,0.2869551,0.034341425,0.0,-0.032556653,0.09262568,0.08603848,0.13525392,0.39970672,0.18734564,0.029913528,0.25474125,0.29350957,-0.0572851,0.14261925,-0.11890922,0.18335125,0.30801296,-0.09689557,0.0008003662,-1.109717,0.0,0.018290415,0.29273418,0.08917921,0.026109783,-0.09009746,-0.09954479,0.20996287,0.02899988,0.047979847
AAGCCATGCCCAAA-1-dorsal,-0.019283693,0.0,-0.013739268,0.058976617,-0.085244715,0.30602634,-0.0,0.1897765,-0.060841776,0.012667292,0.0,0.17621504,0.16904943,0.008418776,-0.09681636,0.10594935,-0.0,0.08421141,-0.0,-0.039632324,0.08027098,0.04632171,0.17921525,0.08874832,0.08522788,0.042897336,0.11279653,0.21742244,0.14966606,0.18030949,0.18916734,0.12660521,0.17162128,0.4281047,-0.047871407,0.2636837,0.07905542,0.008881796,-0.01593166,-1.1097647,0.09065513,0.07849136,0.022955166,0.017628662,0.002417072,0.048833095,-0.020851627,0.44456258,0.101614594,0.072329484
AAGCCATGGTAAGA-1-ventral,-0.07806103,0.4425516,-0.06710708,0.36587936,-0.13278869,0.3602295,0.13749011,0.4584211,-0.10123969,0.10239888,0.14862992,0.2456291,-0.07470621,-0.16019292,-0.061312187,0.13887592,-0.0,0.0,0.008160158,-0.20004074,0.30376038,-0.082112424,0.16114813,-0.044476457,0.0,-0.046499703,0.0,0.3294651,0.27094463,0.012028093,0.16901352,0.085919715,0.003320931,0.21262753,-0.17537151,0.24265432,0.2017706,-0.08436892,0.36581388,-1.1096919,0.11170107,-0.2033198,0.0,0.06517804,0.018917166,0.03309889,0.037483037,0.30395174,0.09260614,0.032939937
AAGCCATGGTAAGA-1-ventral-1,-0.06589824,0.35762393,-0.081894934,0.37946683,-0.14270557,0.26768395,0.10576266,0.45351166,-0.10830303,0.0,0.07674525,0.0,-0.056224138,-0.18138297,-0.016492143,0.1031524,-0.12947077,0.17716256,0.015507987,-0.15000887,0.333169,-0.019093554,0.12740031,-0.07902119,0.042722665,-0.02816154,0.077155665,0.38554153,0.0,0.19236149,0.113886416,0.08574248,-0.02343052,0.29271007,-0.12539758,0.0,0.14486161,-0.09107173,0.27652815,-1.1097007,0.21186392,-0.18077175,0.27154282,-0.021345483,-0.042519968,0.056213904,0.002502944,0.28967634,0.0,-0.0
AAGCCTGAGTGAGG-1-ventral,0.053748164,0.24954994,-0.0,0.0,-0.19360796,0.0,-0.035059452,0.20850101,0.15574358,0.19387907,0.15019289,0.017371641,0.2616115,-0.21613732,0.015107543,0.169485,-0.019619467,0.11853714,-0.017223226,0.033596326,0.0,0.07636787,0.27201337,0.0,0.1749069,-0.08660317,0.06853847,0.305508,0.19956832,0.037911154,0.114322744,-0.04904946,0.07207696,0.053142987,-0.15946992,0.5171918,0.26015806,0.08070929,0.12432891,-1.1097367,-0.029523307,0.18896107,0.0,0.09227138,-0.09546048,0.07842889,-0.026975872,0.1811881,0.06586331,0.0
AAGCCTGATTGACG-1-dorsal,-0.016424656,0.1768634,-0.0527168,0.06410016,0.030287655,0.14746217,0.041499272,0.15716504,0.023945136,0.08274364,0.0,0.25429,0.15925325,-0.15239266,-0.0,0.15250508,-0.08203818,0.15318835,-0.04963736,0.076344,0.17092189,0.09181335,0.21475337,-0.036625996,0.12226411,0.029955562,0.05074019,0.0,0.19022575,0.07434341,0.2391932,0.08449866,0.21736033,0.22511797,0.009021482,0.27096048,0.13387144,-0.025271047,-0.013208257,-1.1097631,0.0,0.056784503,0.14406447,0.044579584,0.103462145,-0.18006372,-0.07818348,0.36867464,0.10093336,0.030750716
AAGCGACTCTGATG-1-ventral,0.16124037,0.29002026,-0.0044916077,0.17300746,-0.19283739,0.10856066,0.0,0.33737633,0.004179333,0.25995284,0.09766901,0.042228676,0.101937555,-0.23581406,-0.1815643,0.0028093988,0.08521766,0.12562786,-0.08398189,0.043358326,0.15637074,0.06311057,0.39065602,0.08852384,0.2679028,0.036995012,0.026844356,0.17212288,0.15890685,0.2051938,0.2829137,0.12168327,0.0022935537,0.2837512,-0.23272131,0.19978613,0.20356299,-0.0,0.0,-1.1097178,0.27575627,-0.15218173,0.3580288,0.10068142,-0.027482113,-0.14691685,-0.08503239,0.2996967,0.074472204,0.0
AAGCGTACTATGCG-1-ventral,0.013310053,0.2683138,-0.21660289,-0.003545483,-0.04420625,0.0,-0.016310614,0.4816576,0.005996654,0.078692,0.37595606,-0.035698947,0.075231,-0.20711952,0.10960082,0.08003909,-0.0,-0.006625653,-0.1290279,-0.07192969,0.2630728,0.036375906,0.33501145,0.042845476,0.15897176,-0.023754505,0.19627894,0.3338675,0.24785315,-0.003658997,0.2804665,0.08026625,-0.0,0.37998575,-0.17243479,0.5234256,0.23654167,-0.06015182,0.13666941,-1.109701,0.11047037,0.025599916,-0.038843423,0.06149963,-0.056275,-0.049795974,0.008295191,0.26561135,0.13701844,0.04617111
AAGGCTACGACAAA-1-ventral,0.023655321,0.12981406,-0.043116745,0.11640505,-0.09724485,0.17500983,0.097311385,0.38757396,0.078278735,0.17158455,0.21466967,0.069317535,0.038955674,-0.0,-0.09094437,0.21162245,0.022920616,0.1962802,-0.0,0.17598523,0.36490002,-0.04273375,0.31331077,0.069693364,0.26569712,0.065122955,0.0025549987,0.36058876,0.1559177,0.0935675,-0.05641759,0.25710797,0.06731205,0.0,-0.0,0.0,0.11746771,-0.058594216,0.124099255,-1.1097383,0.1758587,0.07476634,0.12749028,0.115241155,-0.03972491,-0.08681907,-0.20937987,0.106210165,0.0,0.05063365
AAGGCTACGGTGAG-1-ventral,0.07339797,0.21928152,-0.00011397733,0.096255295,-0.11858166,0.19829184,0.15414077,0.36657804,0.038142286,0.2914038,0.19765382,-0.12113903,-0.072567865,-0.13613847,-0.27199203,0.2684051,0.047846477,0.2240742,-0.18701951,0.0,0.2310587,0.1780576,0.0,0.01653385,0.25702947,0.14404847,0.0,0.24855544,0.0,0.010083633,0.19514644,0.35110077,-0.005010168,0.17994861,-0.21433786,0.21192265,0.2710759,-0.02832777,0.11903542,-1.1097133,-0.067083836,0.0057269013,0.243236,0.118230924,-0.089925796,-0.10278517,-0.060223144,0.2846777,-0.0006437302,0.05586473
AAGGCTTGCTCATT-1-dorsal,0.07833768,0.22730309,-0.039404765,0.057554577,-0.0,0.118262924,0.060185146,0.31357023,0.21360332,0.27953085,0.19071405,0.12388983,0.046800546,-0.24232237,-0.1849425,0.23722172,-0.090445414,0.21984012,-0.123646066,0.00835473,0.26145914,0.18663143,0.35159934,-0.032109752,0.15864827,0.07603829,0.13722384,0.2820432,0.22048362,-0.020374259,0.22647159,0.12235831,-0.061116222,0.18748243,-0.04067534,0.2375833,0.13078451,-0.0,0.09790814,-1.1097339,0.08360023,0.0032122808,0.22158107,0.020627653,-0.0,-0.19231082,0.03511147,0.3280949,-0.04207949,-0.0028722156
AAGGTCACACTTTC-1-dorsal,0.12080726,0.16899222,-0.10343459,0.0,-0.05483336,0.13746798,-0.05736444,0.3531479,-0.05611519,0.35773838,0.11714617,0.06741222,0.0815553,-0.24315014,-0.25153175,0.11876675,-0.11777872,0.04744477,-0.004143119,-0.10330876,0.43730724,0.11605095,0.19837256,0.0,0.21753606,0.02983891,0.05327661,0.29196012,0.31190863,-0.05147113,0.25074473,0.06057491,0.0,0.37977183,-0.09108279,0.0,0.0,-0.10785991,0.06669597,-1.1097214,0.12956183,0.17828932,0.17069754,0.08566596,-0.07095013,0.006202406,0.13381943,0.0,0.12346807,0.10192164
AAGGTCACAGGGTG-1-ventral,0.14747941,0.049951572,-0.024020407,0.13011499,0.13899201,0.060404263,-0.0044839913,0.33852148,-0.12744361,0.25255144,0.15586185,0.0,0.0,-0.24608243,-0.009757016,0.2265306,-0.0,0.10438654,0.06546085,-0.034573875,0.0,0.17671327,0.2531339,-0.004006624,0.25985923,-0.14104831,0.15105176,0.297525,0.1697019,0.0947309,0.2819323,0.1695347,-0.0,0.28696463,0.024981504,-0.009544426,0.13606429,-0.04434811,0.102930084,-1.1097332,0.0,0.031426378,0.30324957,0.10039735,-0.14005303,0.005868752,-0.11259192,0.17084457,0.0006482916,-0.076919466
AAGGTCACCCCTCA-1-ventral,0.16324355,0.32257003,-0.03083951,0.28091508,-0.018550158,0.14357056,0.18039854,0.33391345,0.016561098,0.255154,0.18588795,-0.0024668376,-0.039372314,-0.21527642,-0.13626158,0.14316142,-0.054079957,0.14394973,-0.12154997,-0.05903701,0.24670582,0.15123302,0.29340428,-0.0143526,0.15334266,0.0,0.119502515,0.27107036,0.10840008,0.19169325,0.17622052,0.23652755,-0.038150616,0.0,-0.17547238,0.057921723,0.1588283,-0.07163916,0.17160334,-0.0,-0.0066205533,-0.044260226,0.22534461,0.09710586,-0.04003108,-0.10026528,-0.06376678,0.34216258,0.038721025,0.13492419
AAGGTCACTAACGC-1-ventral,0.061014038,0.20554027,-0.006012321,0.1947553,0.00865803,0.13769019,-0.0055048205,0.256723,-0.054995816,0.05471006,0.34324083,0.12639156,0.21209137,-0.16600849,0.08944096,0.2524874,-0.036095582,-0.011424489,-0.017952854,-0.09720664,0.2504924,0.12997463,0.2581682,0.0,0.20195737,-0.108619735,0.011814738,0.3687144,0.105895326,0.054065447,0.17532212,0.040379293,0.09356379,0.17592146,-0.013062425,0.26023105,0.11409108,-0.07397937,-0.0044525997,-1.109763,0.059417978,-0.076181695,0.06698536,0.10430996,0.00238133,-0.0011492438,0.09666452,0.18916439,0.10421064,0.08724512
AAGGTCACTCAGGT-1-ventral,-0.062552094,0.3078733,0.22636506,0.1983091,-0.08134074,0.23240294,0.1494013,0.2974989,-0.024625065,0.0,0.26481733,-0.0244036,0.0,-0.0,-0.12589137,0.19036105,0.01504709,0.0522323,-0.1409134,-0.07690688,0.102711394,0.10683185,0.28562465,-0.078508,0.21926944,-0.02285282,0.050187673,0.23256518,0.21128568,0.07258895,0.19779783,0.049694747,0.009966386,0.2128621,-0.036354396,0.24111792,0.15479285,0.07594347,-0.0,-1.1097565,0.16692798,-0.0835638,0.15862925,0.088961996,0.0,-0.0,-0.044770375,0.19449447,0.23589596,0.08186454
AAGGTCTGGGTGGA-1-dorsal,0.08067666,0.0,-0.20425771,0.0010398279,-0.062264603,0.0,0.22143957,0.32087588,0.0,0.23264796,0.29685327,0.27831656,0.07579718,-0.23312438,-0.0,0.28099102,-0.10040833,0.07093678,-0.07162359,-0.16663797,0.4365854,0.14250256,0.26752812,0.024751864,0.1444399,0.074900605,0.13936502,0.21076532,0.14542213,0.019603787,0.1085242,0.1489864,0.04100836,0.26182574,-0.05276667,0.0,0.21258798,-0.006061263,0.14752452,-1.1097232,0.15092854,-0.024991037,0.16366304,0.06336349,-0.12142917,-0.09112597,0.046656456,0.1682512,0.06990436,-0.035009783
AAGGTCTGTCAGTG-1-dorsal,-0.040479902,0.34192178,0.0,0.049655907,-0.09725326,0.363382,0.0067452593,0.33907598,0.037327275,0.0,0.15369396,0.11888455,0.2005809,-0.20882879,-0.11146877,0.21694815,-0.13786383,-0.023623308,-0.026133988,-0.024994614,0.21259937,0.19302544,0.19534077,0.020241523,0.2561543,-0.039305557,0.0,0.22014812,0.25463736,0.10626801,0.31895137,0.09376179,-0.09261383,0.33102232,-0.26795402,0.08262012,0.27963197,0.030997872,0.08606949,-1.1097206,-0.01945436,-0.006347365,0.07654021,-0.049768426,-0.15611066,0.08309877,0.14009783,0.28710982,0.29413068,0.0074163578
AAGGTGCTATCTCT-1-ventral,0.0,0.11953828,0.16791265,0.27045134,-0.076759525,0.11848215,0.11973735,0.41924372,0.03259286,0.066200666,0.16311157,0.052806888,-0.04742457,-0.25698617,-0.20930907,0.15194386,-0.102298,0.12431351,-0.07889563,-0.0025775698,0.23972906,0.095756896,0.14469436,0.093557805,0.061077427,0.0,0.030284299,0.32489115,0.119000815,0.22282055,0.0,0.19469935,0.16521779,0.13768998,-0.15990569,0.2267733,0.0,-0.15421279,0.09897533,-1.1097363,0.09287453,-0.0053746835,0.26049283,0.14595993,0.022017,-0.013825364,-0.09132167,0.38442737,0.037542816,0.09032395
AAGGTGCTATCTCT-1-ventral-1,0.11036123,0.16417266,0.12104396,0.0,-0.033874977,0.1303367,0.17771907,0.45752177,-0.05089389,0.21637486,0.2002975,0.092725806,0.053134177,-0.2175569,-0.25545716,0.14632997,-0.1008861,0.13583411,-0.11002634,-0.018759768,0.20888531,0.06889074,0.1328408,0.12896734,0.043453112,0.100463815,0.028423408,0.3377862,0.10284906,0.266387,0.15305057,0.12816076,0.111346856,0.15134054,-0.0,0.0,0.0,-0.028240748,0.16564111,-1.109739,0.1016753,0.055031225,0.12503165,0.18261364,-0.009488597,-0.089871556,-0.05417069,0.36212787,0.008688867,0.045308802
AAGTAACTAGATGA-1-dorsal,0.12875937,0.12881984,-0.033345755,0.10700685,-0.10351778,0.21020989,0.10232629,0.27330565,-0.02173894,0.0,0.17358853,0.15706106,0.0,-0.13615675,-0.044540964,0.17789412,-0.1254501,0.07311133,-0.0,-0.012603734,0.2455789,0.14245743,0.18647118,0.0972429,0.18921664,0.0,-0.03280355,0.2509315,0.23852488,0.08370477,0.18521866,0.07532169,0.1640754,0.08654204,0.0,0.27902564,0.1538947,-0.046919387,-0.029381448,-1.109764,0.1693314,0.049393404,0.11520054,0.10326226,0.007433581,-0.027394164,-0.098041035,0.30059657,-0.007268191,0.018629557
AAGTAACTTCCTCG-1-dorsal,-0.06267952,0.11199859,-0.07733166,0.17212832,-0.028283862,0.14010039,0.16200458,0.0,0.0,0.2852687,0.2594122,0.13073842,0.08323269,-0.29281783,-0.17125091,0.20062864,-0.05013029,0.07907213,-0.13987356,-0.081615716,0.3184363,0.24868056,0.26728868,-0.0,0.29664183,0.09901006,-0.045715574,0.34511754,0.24762578,0.043145783,0.2153636,0.15820748,-0.0066623427,0.3190417,-0.17259467,0.0,0.12149291,-0.057108935,0.10510277,-1.1097168,0.07658623,0.017068684,0.0,0.025110843,-0.069540344,-0.11268179,-0.0,0.25748062,0.06754239,0.0
AAGTAGGAGGACTT-1-ventral,-0.121865146,-0.058195196,-0.09615448,0.0,0.14456517,0.10913361,0.0,0.11190501,0.04865261,-0.08955254,0.054756515,0.07347207,0.12623206,-0.033860475,-0.025656622,0.13187107,-0.15424107,-0.14704116,-0.17062433,-0.07422805,0.4717621,-0.0054129628,0.3264961,-0.15649234,0.17043443,0.058927245,0.024126574,0.22371103,0.18431382,0.20767371,0.42209893,0.2770753,-0.09816256,0.441096,-0.19855157,0.20333235,0.31335363,-0.22591744,-0.09595891,-1.109655,0.10391925,-0.0,0.36979753,0.16832852,0.062138833,0.13849872,-0.19055407,0.31092015,0.24125107,0.20968899
AAGTAGGAGGACTT-1-ventral-1,-0.05564968,-0.080963574,-0.053571135,0.4905611,0.14767249,0.109610945,0.35242012,0.1715656,0.06390488,-0.24890736,0.018617107,0.07146532,0.18767585,-0.1632868,-0.001364814,0.21717826,-0.20249388,-0.05632573,-0.15797795,-0.09925717,0.456193,-0.035660136,0.26695123,-0.05978174,0.3270469,-7.0267255e-05,-0.045991477,0.0,0.09428632,0.30648127,0.46195868,0.32712284,-0.04400346,0.32874915,-0.14100459,0.20910218,0.45945853,-0.336695,-0.06614864,-1.1096245,0.018956438,-0.23805301,0.44947305,0.1680959,0.14062795,0.10622775,-0.19592252,0.12743723,0.18336548,0.19371639
AAGTATACGGGAGT-1-dorsal,0.20844999,0.0,-0.06496271,0.08231455,-0.02862904,0.0,-0.08029673,0.19993247,-0.017032757,0.10449913,0.10644861,0.08257796,0.085040614,-0.104181044,0.07055836,0.18356296,-0.06201784,0.03138313,0.12002099,0.09284993,0.11961075,0.15593547,0.23368686,0.070920244,0.24613298,0.07074788,-0.05186823,0.24270673,0.19924046,0.0038244743,0.20186642,0.007880513,0.08871919,0.21270873,-0.07654137,0.3115174,0.17900504,0.12917092,-0.12219449,-1.1097637,0.031177312,-0.08290053,0.36979032,0.2115724,-0.11465517,0.011443716,0.0010267812,0.0,0.007906996,0.024138061
AAGTATACTCAGGT-1-ventral,-0.06484535,0.0,0.034136944,0.46180865,-0.0,0.27142397,0.12028593,0.0,0.07650718,0.3830585,0.23200476,0.2643034,-0.075760685,-0.20962782,-0.2694999,0.2722192,0.027852677,0.06735275,-0.06597175,0.07700468,0.0071719005,0.02696958,0.17102845,-0.049399473,0.07570338,-0.0,0.05406252,0.0,0.21292852,0.20075408,0.062483948,0.17495029,0.09483122,0.18623629,-0.0782011,0.081728436,0.18177338,-0.27600163,0.34301868,-1.1096793,-0.06317358,-0.03158457,0.34429643,0.02316316,0.024260065,-0.07127683,-0.025143359,0.36453968,-0.036790904,0.043852314
AAGTCCGAAGCGGA-1-ventral,-0.01976808,0.18485048,0.0,0.12741867,-0.015084148,0.012735307,0.050535776,0.29329532,-0.0939656,0.35227185,0.32332852,0.032824155,-0.0066873105,-0.24380162,-0.04616347,0.20974466,-0.0040401355,0.08727593,-0.19014572,-0.11564077,0.35401347,0.045009736,0.15250182,0.07324545,0.22392423,-0.1311152,0.22049019,0.31343943,0.08485997,0.2573563,0.016877359,0.19567996,0.03728269,0.13220868,-0.044071943,0.039136663,0.39885473,0.07143668,0.1889977,-1.1097257,0.00591846,0.04500424,0.0,0.2871556,0.033066817,-0.0064140563,-0.08932525,0.3255414,0.12666282,-0.02112382
AAGTCCGAGAGGCA-1-ventral,0.18176478,0.0,-0.020399889,0.26792106,-0.0070574554,0.084522225,0.044162318,0.4427756,0.0061611133,0.17403874,0.3279757,0.09247934,0.074184604,-0.21288568,-0.22546306,0.10546185,-0.011967288,0.07156221,0.020966208,0.016699778,0.14004526,0.14336187,0.24149047,-0.0,-0.01599696,0.05429772,0.17672932,0.36763656,0.16024268,0.21791698,0.15878496,0.2615476,0.074394554,0.11415469,-0.099970706,0.136322,0.26267815,-0.15945415,0.15730974,-1.109735,-0.08056124,-0.022954147,0.1677088,0.1328637,-0.14019145,-0.022975473,-0.025355222,0.0,0.06716733,0.0049209185
AAGTCTCTAGTGCT-1-ventral,0.0299609,0.21617027,-0.057470538,0.23004398,-0.20250905,0.15326765,0.22823481,0.2871613,-0.033388272,0.14685065,0.25839278,-0.010484126,0.04989547,-0.2107566,-0.124048926,0.17404659,-0.057150062,0.20599906,-0.14462657,0.09237359,0.32808432,0.20556924,0.31875178,0.1918094,0.10703434,0.0,0.09157446,0.2390817,0.10417694,0.16254939,0.039603796,0.3128082,0.0,0.2488799,-0.04876084,0.0,0.0,-0.15248737,-0.0045646564,-1.1097333,-0.03380067,0.0,0.1350332,0.0,0.032533836,-0.08451323,-0.10594541,0.27421653,0.032249648,0.03005648
AAGTCTCTGGATCT-1-dorsal,0.058504216,0.05895062,-0.084867746,0.11386672,-0.114832595,0.24483836,-0.061142713,0.2696673,0.012057238,0.15510271,0.1710357,0.24637817,0.315598,-0.22576134,-0.01618412,0.1558615,-0.042933825,0.14255464,-0.0029698347,0.09072802,0.1490873,0.019396363,0.19120531,0.05717341,0.22123729,-0.018499032,-0.0,0.1651244,0.0,0.112342104,0.26329398,0.06927277,0.08860876,0.25006232,-0.10503657,0.40152782,0.1954531,0.0027661317,0.028126862,-1.1097478,0.09598505,0.09786299,0.3087961,0.08419096,-0.120164625,0.008462593,-0.06082535,0.23640127,-0.0365901,0.08586617
AAGTGCACGTACGT-1-ventral,-0.01608352,0.22388676,-0.15274644,0.24872495,-0.0633753,0.2609137,0.0,0.242015,-0.054675013,0.32380655,0.17511985,0.22806804,-0.09964765,-0.07465714,-0.0,0.10525183,0.1270083,0.029726816,-0.15240563,0.013566295,0.43194515,0.2307474,0.22510935,-0.08707438,0.22545607,0.07227345,0.0,0.2302783,0.057688214,0.0,0.24811539,0.18850806,0.054036878,0.24581017,-0.0,0.15417257,0.33781055,-0.059115756,-0.07660615,-1.1097053,0.1176897,-0.06415553,0.28718337,0.121461086,-0.020053057,-0.1294758,0.028473927,0.37548763,-0.123561695,0.023899602
AAGTGGCTCCTTCG-1-dorsal,0.027538097,0.14660124,-0.015118851,0.090836324,-0.06275495,0.15614805,0.112702996,0.35887167,0.15537246,0.26149282,0.19847693,0.16009983,0.0071836514,-0.0,-0.15895718,0.32002875,-0.06719643,0.079925306,-0.0,0.03013779,0.3302625,0.12094087,0.22814946,0.05916527,0.23210543,0.015784822,0.18301395,0.26386932,0.17937207,0.11090805,0.21673302,0.28650576,0.015812377,0.18028973,-0.05810314,0.09334416,0.17328127,-0.009775626,0.16265486,-1.1097373,0.039059654,-0.1129065,0.2664362,-0.07939319,-0.0,-0.051549807,-0.09456576,0.19109483,0.04189393,-0.016283592
AAGTTATGACGACT-1-ventral,0.22362289,0.1641796,-0.073286295,0.18897681,-0.102514826,0.0,0.09565931,0.47782502,-0.11323453,0.28986394,0.3539965,0.03080398,-0.06490668,-0.08804924,-0.19851567,0.0,-0.0763817,0.17382315,-0.0,0.02412126,0.29322225,0.100634925,0.39669564,0.0,0.08709627,-0.022216573,0.0,0.24294455,0.07358888,0.0,0.09340111,0.35270667,-0.02799246,0.32152757,-0.15840624,0.21380085,0.23393676,-0.12590124,0.18378328,-0.0,-0.055890746,-0.0,0.12962247,0.08874373,-0.031440526,-0.015941594,-0.13876148,0.24011703,0.073176585,-0.02934827
AAGTTATGACGGAG-1-dorsal,0.0,0.16885155,0.0629674,0.10557066,-0.0,0.21192402,0.11975897,0.35910282,-0.04891952,0.0,0.29850268,0.23761867,0.05587269,-0.15777482,-0.21562101,0.29199132,-0.094849475,0.06212684,0.024767121,-0.04964438,0.23098308,0.22616182,0.12231562,-0.046273474,0.25166824,-0.0063594184,0.10151902,0.17031081,0.36039767,-0.0482497,0.21296611,0.055605665,-0.14500254,0.5001723,-0.112973325,0.22567572,0.20987602,0.057448428,0.032005005,-1.1097261,0.11039508,-0.102605164,0.11994645,0.011720509,-0.10070218,0.031729616,0.096661866,0.26286322,0.0878784,0.0045570815
AAGTTATGCATACG-1-ventral,-0.06430646,0.065310135,-0.037296217,0.24477458,-0.13199171,0.24568368,0.05341675,0.0,-0.12377852,0.16010027,0.51723707,-0.004982684,0.09659142,-0.18254651,0.16766761,0.0,0.032363117,0.19549751,-0.0844825,-0.06941345,0.0,0.08664091,0.41889036,0.02235426,0.21445885,-0.18567993,-0.0,0.23135322,0.21859437,-0.05105489,0.26358405,0.018881552,-0.09682212,0.24415636,-0.1577235,0.5171027,0.23953678,-0.056065984,-0.11871928,-1.1096861,0.016656047,-0.08170075,0.033323105,0.17039253,-0.0,0.0100058075,0.0463119,0.2316318,-0.0,0.12793484
AAGTTATGGAGGCA-1-ventral,0.030268403,0.29343212,-0.007530385,0.0,-0.15981053,0.13532966,0.18938679,0.41963595,0.102598295,0.05672011,0.2748382,-0.029178,0.17882478,-0.27021238,-0.0516314,0.0,0.13177319,-0.027359659,0.18335882,-0.14228874,0.30086687,0.056853488,0.2483634,0.08152368,0.15591046,-0.040723152,0.064561985,0.23542257,0.11231171,0.012381227,0.18097115,-0.0013425616,0.12691739,0.19550236,-0.047117803,0.31792733,0.27240768,-0.13829398,0.0,-1.1097323,0.12496299,0.02909263,0.14741106,-0.015309984,-0.044529308,-0.15536581,-0.07136438,0.19177619,0.30659205,0.08193026
AAGTTATGTAGCCA-1-ventral,0.033724852,0.32327202,-0.025334228,0.25625145,-0.10261218,0.115486525,0.11445749,0.4771562,-0.014357898,0.41688487,0.41094267,0.19359948,0.0055508898,-0.17258321,-0.27099705,0.29225245,-0.02670904,0.12775771,-0.08424336,-0.017462507,0.19340685,0.24831094,0.26243362,-0.16835505,0.2518473,-0.09984169,0.15067226,0.3116401,0.04136673,0.121414855,0.11701502,0.21024773,-0.01115799,0.20434949,-0.11050808,0.0,0.22860962,-0.0,0.17416216,-1.1096756,-0.08377308,-0.0,0.34760562,-0.00247154,-0.24264376,-0.08539584,-0.10944082,0.34628433,0.070789054,-0.016344257
AAGTTATGTAGCCA-1-ventral-1,0.19449596,0.22882573,0.006609195,0.15473536,-0.1367887,0.18648086,0.19342974,0.43991828,-0.05462223,0.41390154,0.37814948,0.18363012,-0.008585917,-0.10216263,-0.2956089,0.3366248,-0.05028725,0.043458205,-0.12029172,-0.07173161,0.29545626,0.18272196,0.15554878,-0.048435397,0.1662918,-0.058040623,0.0,0.30541,-0.12078591,0.08676636,0.14517419,0.0,0.06616078,0.22386478,0.011706357,0.08970938,0.20849265,-0.13865519,0.15113904,-1.1096933,-0.02310455,-0.11815721,0.31847852,0.09518257,-0.09880908,-0.14654478,-0.13646656,0.2751055,0.10707113,0.0
AATAACACTGCAGT-1-ventral,0.15819891,0.15335105,0.048781987,0.06316006,0.0049547856,0.12398725,0.0047375886,0.40594766,-0.1972853,0.15969937,0.19614387,0.00023657664,-0.012297101,-0.12579627,-0.11374355,0.2529071,-0.121467516,0.19261421,-0.0031818287,-0.08325399,0.375305,0.15815212,0.0,-0.076605484,0.25958055,-0.012273326,0.20443633,0.26485345,0.09721165,0.21477276,0.17156847,0.15280539,-0.058459576,0.27945393,-0.15814325,0.2641333,0.23674682,-0.1451042,0.1607893,-1.1097267,0.14543414,-0.016465519,0.21560964,0.14951733,-0.053847037,-0.035075083,-0.0,0.12035952,0.04084545,0.036471892
AATAAGCTATGTGC-1-dorsal,0.19753627,0.18802086,-0.032856863,0.0,-0.074805155,0.26361337,0.06368895,0.2993048,-0.23068582,0.23722085,0.1755945,0.010242343,0.09789946,-0.19495952,-0.15955713,0.44770354,-0.012117757,0.05710401,-0.07780102,-0.19330311,0.28152102,0.17623638,0.18751925,-0.08364142,0.22689582,0.0638994,0.058152318,0.20802842,0.26504797,0.027837936,0.18106912,0.1204154,-0.07773764,0.27507174,-0.15079048,0.31609523,0.34316146,-0.07108477,0.0,-1.1097034,0.13448355,0.09147516,0.23293096,0.050832484,-0.12554653,-0.19591631,0.101157315,0.18140471,0.10210325,0.0018341675
AATAAGCTGTATCG-1-dorsal,0.0,0.30467916,-0.005789664,0.0,-0.16557959,0.33301923,0.064921446,0.2566339,0.050696664,-0.027222833,0.165939,-0.0020394723,0.31374058,-0.012235973,0.06793793,0.2976548,-0.04849454,0.14551815,0.07334288,-0.001913839,0.17859483,-0.06586897,0.20706037,0.042646263,0.21984029,-0.0,0.0706574,0.2310784,0.122383125,-0.012800628,0.46786696,0.008877673,0.06564872,0.24297848,-0.12849319,0.4296195,0.044128053,-0.061107744,0.0,-1.1097143,-0.0040524537,-0.21267302,0.3153682,-0.17163913,-0.090934046,0.08394385,-0.14932474,0.14259513,0.08026744,-0.05670508
AATAAGCTGTATCG-1-dorsal-1,0.03674943,0.40243042,0.014129348,0.23157765,-0.24781235,0.35255802,0.14292221,0.0,-0.030683942,0.05188484,0.1607636,0.12837923,0.22185645,-0.0,-0.045705903,0.3433831,-0.054585077,0.0035565183,-0.037825905,0.05623721,0.23765999,-0.10207528,0.0,0.046476875,0.22825424,0.018843476,-0.05808208,0.3371055,0.17959048,-0.07736617,0.50224453,0.043616746,0.095933825,0.19060487,-0.22454488,0.41798124,0.0,-0.18930079,0.26415062,-1.1096818,0.023022916,-0.0,0.26440442,-0.12775077,-0.0,0.12587968,-0.1645632,0.21271563,0.11587527,-0.07305622
AATACCCTACCTAG-1-ventral,0.0405886,0.18734726,-0.051527556,0.2508644,-0.021786425,0.1712143,0.117354274,0.29426828,-0.10932804,0.11525782,0.20720543,0.074506655,0.0843695,-0.08263727,-0.045032833,0.2120114,-0.14618126,0.21313022,-0.0008087026,0.058052287,0.22562912,0.18265907,0.2060052,-0.015229384,0.2165369,0.005902255,0.11833995,0.2040331,0.14316908,0.00042873126,0.23774716,0.09497565,0.067886636,0.1748598,-0.1426742,0.23110004,-0.0060288776,0.038149636,0.084048375,-0.0,-0.00012702413,-0.0,0.28347546,0.1208182,-0.03536913,0.007792132,-0.06749332,0.24321729,0.13612124,0.06585298
AATACCCTAGGGTG-1-ventral,0.18100984,0.23167203,0.02694964,0.16616112,-0.1775033,0.4777286,0.08730373,0.0,-0.061620012,0.07287941,0.07308807,0.10401996,0.14837186,-0.11718889,-0.0797044,0.054989707,-0.0,0.21314298,0.05830058,0.023838447,0.24510004,0.0075038276,0.20241903,0.05370965,0.15462555,0.055061534,-0.08036667,0.036611326,0.11298912,0.0,0.24095263,0.14342791,0.00837221,0.0747635,-0.18715647,0.3601546,0.23780023,-0.040549308,0.23455217,-1.1097509,0.19232258,-0.017661452,0.06680575,0.13427633,-0.00616173,0.04108422,0.013806448,0.17577285,0.1072223,0.040574946
AATACCCTATACCG-1-ventral,-0.007903113,0.28301233,0.10802342,0.111315854,-0.033872925,0.25159827,0.05879437,0.18979333,0.0,0.007031548,0.15696855,0.026958726,0.0,-0.1460798,-0.005174081,0.114223465,-0.0,0.10382956,0.07864217,-0.02414008,0.26583552,0.3466708,0.22504038,0.017470023,0.16230078,-0.03017909,-0.0060255663,0.38890204,0.07903719,-0.11775103,0.20927046,0.0,-0.065876976,-0.0042661033,0.037079938,0.28545836,0.027294073,0.0,0.052165467,-1.1097394,0.11997215,0.036355026,0.33924243,0.17406498,-0.16037022,-0.19748384,-0.0,0.2969855,0.18857364,0.20101641
AATACCCTATACCG-1-ventral-1,-0.022589698,0.25883043,0.042210676,0.12995695,-0.028035047,0.28845295,0.027685307,0.18217374,0.0,0.11349156,0.22709201,0.08182725,0.23151375,-0.20324337,0.07163509,0.038951337,-0.11053655,0.10472415,0.03873029,-0.07067191,0.24224494,0.16511527,0.154481,0.010568269,0.06271071,-0.0479277,0.006438606,0.27257293,0.0419482,0.038104903,0.28681,0.14483273,-0.0,0.051436365,-0.00028000938,0.20446177,0.0,0.006581119,0.0,-1.1097597,0.10902645,0.17325445,0.32718742,0.13310924,-0.088705555,-0.0,-0.0047936044,0.3177516,0.0,0.17948234
AATACCCTCTTACT-1-ventral,0.075474024,0.2545519,-0.09911988,0.2788682,-0.11502565,0.011833406,0.20361017,0.3431567,0.04229951,0.16468604,0.16984911,0.13769622,0.014773588,-0.0,-0.19815797,0.15189889,0.04288757,0.1597078,-0.0,0.12083822,0.43864006,0.21579657,0.2942243,-0.044076975,0.2721334,0.105280004,0.02810314,0.0,0.1983605,0.13458213,0.13972454,-0.034875076,0.0,0.20272428,-0.26260114,0.30759233,0.33328024,0.10069963,-0.09719584,-0.0,0.08695983,-0.13503353,0.27473888,0.045443278,-0.08880503,-0.10504829,0.007478835,0.2930142,0.013753011,-0.051816307
AATACCCTGCCTTC-1-dorsal,-0.16748422,0.31372443,0.018464604,0.32410657,-0.02125846,0.2635865,0.052093633,0.0,0.014945952,0.10752404,0.1979562,0.0,0.0,-0.14671168,-0.07617143,0.0,-0.028266577,0.32029873,-0.08053634,-0.073694125,0.17497815,-0.04133695,0.26744908,-0.04690409,0.21429242,0.0,0.05145672,0.3071765,0.18264006,0.1490594,0.08609122,-0.0412837,-0.043527752,0.14334999,-0.1103586,0.2234914,0.123957954,0.12721026,0.12113195,-1.1097436,-0.023980739,-0.07777585,0.13271199,0.04966876,0.019769885,0.003555976,0.0,0.44684848,-0.021027658,-0.029725632
AATAGGGAACAGCT-1-dorsal,0.24410161,0.26468536,0.11349071,0.1326482,-0.22034872,0.35887817,0.16648571,0.047366235,-0.019613506,0.2672182,0.1719643,-0.0,0.33395034,-0.2083538,-0.04934967,0.19504414,0.07694741,0.18119538,0.046029042,-0.01711064,0.20269345,0.08597522,0.25726527,0.19234407,-0.048641697,-0.13732447,-0.030071339,0.15572813,0.30811596,-0.0,0.1908623,0.11518245,0.11981245,0.21962704,-0.31000462,0.34991792,-0.08991997,0.037858352,0.22248246,-1.10971,0.028527496,0.022277387,0.01565377,-0.0584256,0.077228844,0.050515335,0.0,0.0,0.24996683,0.0
