,0,1,2,3,4,5,6,7,8,9,10,11,12,13,14,15,16,17,18,19,20,21,22,23,24,25,26,27,28,29,30,31,32,33,34,35,36,37,38,39,40,41,42,43,44,45,46,47,48,49
AAACATACCTACCC-1-ventral,0.17566812,0.0,0.23790368,0.14738128,0.2635391,0.0774979,0.1774015,0.110948645,0.122437924,0.0,0.024406385,0.31300718,0.0,0.0,0.0,0.13936816,0.09295227,0.035417248,0.0667406,-0.11778296,0.0,0.049001206,0.26263684,0.055096786,0.20774484,0.22155334,0.10411841,-0.0075721084,-1.1095052,0.121665634,0.0,0.14134012,0.14584196,0.16656803,-0.12744719,0.040880688,-0.10962109,0.25172037,0.07561272,-0.19959988,0.19199081,-0.11991866,0.03201231,0.073951006,0.09653085,0.057802465,-0.04639043,0.21874906,0.074774094,0.20620722
AAACATACGCGGAA-1-dorsal,0.49049315,0.046494912,0.11314198,-0.011631516,0.11424635,0.23281552,0.041340083,0.012762783,-0.0,0.23269594,0.19347794,0.12234054,0.21446213,-0.14479214,0.23976661,0.12444439,0.2866387,0.13826671,0.22748074,0.09273437,0.15811798,0.050184034,0.35757107,-0.0,-0.018663406,0.18928835,0.1959831,-0.04270918,-1.1094838,0.034161456,-0.09075695,0.15708674,-0.054175723,0.0,-0.101399295,0.1613971,0.098925605,0.2505853,0.17747898,0.13955256,-0.0,-0.14842366,0.09633656,-0.110916965,0.33649093,0.17359494,-0.012660358,0.007656163,0.018613547,0.037836466
AAACATACGCGGAA-1-dorsal-1,0.5147219,0.067834355,0.050157037,0.13886218,0.036642272,0.16713707,-0.020053918,-0.043598283,0.015050546,0.18862212,0.0,0.102544986,0.31576845,-0.107182465,0.20949717,0.13835256,0.37500778,0.15153621,0.11098982,0.084608436,0.22384678,0.16250873,0.33667627,-0.012345646,0.06687823,0.08976033,0.1061903,0.12848675,-1.1094902,-0.045042172,0.069579534,0.0,0.1616242,0.07097997,-0.12449325,-0.004109211,0.047858328,0.33586335,0.15039591,0.06767537,0.0,-0.15485784,0.04784003,-0.0,0.13940236,0.13935074,0.06198946,0.07900068,-0.07203805,0.054736577
AAACATACGGTCTA-1-dorsal,0.36190763,0.0,-0.06640044,0.17966281,-0.0,-0.18768682,0.0,0.09152048,-0.097366706,0.13825755,0.30148906,0.12656051,0.22371368,0.1191856,0.051255673,0.06941646,-0.044168565,0.27371928,0.0,0.05560644,0.073234685,0.11500729,-0.021333562,-0.003589458,0.0,0.18641232,0.088058166,-0.0,-1.1094996,0.23489603,0.26167125,0.0017259644,0.15856726,-0.07460827,-0.08127014,0.05844674,0.08962101,0.19871446,0.12939247,0.22819251,0.047049135,0.0,0.24248648,0.08225244,0.14243543,0.17466618,-0.0681554,0.0,0.10825838,0.11210988
AAACATACGTTGAC-1-ventral,0.11021795,0.04359915,0.0,0.19311227,0.19392952,0.12912732,0.13623379,-0.0,0.11223289,0.18423803,0.012520473,0.22017868,0.0,-0.02170159,-0.05224301,0.012184552,0.0,0.26551932,0.079190865,-0.045704577,0.10913622,0.22654356,0.06013897,-0.005698138,0.0,0.2559532,-0.0223281,0.117126115,-1.109515,0.021041885,-0.006372995,0.25109428,0.011359462,0.1277557,-0.015442107,0.0,-0.0,0.0,0.0021794387,0.21945314,0.16460674,-0.027040113,-0.0,-0.030757323,0.24718113,0.1435202,0.264619,0.18732317,0.05640178,-0.014287698
AAACATTGACGGGA-1-dorsal,0.22771843,0.2759826,0.09839442,0.2841897,0.16513672,0.017738674,0.22725448,-0.0058503286,0.13773452,-0.01996663,0.0,0.14699,0.31736705,-0.07746107,0.0857516,0.0,0.17545022,0.21025151,0.19759421,-0.07976632,0.025858019,0.0,0.122148864,0.047698658,0.1483462,0.08863585,0.0554239,0.06879105,-1.1095198,0.01755143,0.061625313,0.33046237,0.0010374645,-0.08807017,-0.004724463,0.15771753,-0.021186009,0.097956344,0.17784433,0.06502559,0.1321115,-0.0,-0.047401324,0.0,0.1446414,0.17998473,0.0516834,0.19091018,0.010839321,0.1740161
AAACATTGACGGGA-1-dorsal-1,0.1524162,0.3102099,0.012688232,0.34493053,0.20433547,0.050897256,0.24057655,0.05156692,0.033125333,0.12254068,0.07397051,0.09608517,0.21737325,-0.026797852,0.030086253,0.0147164455,0.056207143,0.13205223,0.21406974,-0.03715767,0.013759459,0.116405934,0.19535394,0.11875448,0.11009318,0.1076905,0.09051732,0.21459943,-1.1095312,-0.03046632,0.012019153,0.25100043,0.06560127,0.087072805,-0.05121801,0.16263705,-0.018412273,0.08088762,0.1830275,0.06344149,0.0,-0.03354351,0.022829214,0.009248063,0.08828462,0.18740216,0.14661774,0.17723817,0.08790157,0.13176872
AAACATTGGAACTC-1-ventral,0.39028376,0.0,-0.024057562,0.19625065,0.15963109,0.0,0.34414706,0.0,0.25417355,0.2119751,0.068311624,0.063995935,0.0,0.0,-0.057109267,-0.020011267,0.26762092,0.16021392,0.098540075,-0.0058226455,0.1479586,0.26857352,0.15671137,-0.068440706,0.3092596,0.1910231,0.0,0.12351786,-1.1094828,-0.042018693,0.07247998,0.18293867,-0.16235378,0.08738627,0.0044361916,0.19961402,-0.08384288,0.37215185,0.12422688,-0.104027994,0.25590554,-0.1493956,-0.05687502,0.16148773,0.012399588,0.053001758,0.10230545,0.038551882,0.119657904,0.013554419
AAACGCACCATGGT-1-dorsal,0.19486816,0.08406575,-0.03273216,0.17807388,0.07076261,0.03740837,-0.03734231,0.08048906,0.09485307,-0.041742392,0.07940912,0.020583877,0.047918744,-0.10358301,0.02178128,0.19833207,0.1347086,0.124615334,0.17313215,0.07952557,0.29722682,0.11509401,0.046056263,0.14451511,0.15175337,0.14545071,0.31735247,0.19172172,-1.1095387,0.02841613,0.23048396,0.19973356,0.1199627,0.039807733,0.11957295,0.048842296,0.046257976,0.1366217,0.108167194,0.041277263,0.07037649,0.18713278,0.12931347,0.07766375,0.13641644,0.0,0.09359877,-0.01612948,0.05803721,0.1653666
AAACGCACCATGGT-1-dorsal-1,0.22610457,0.025243727,0.0042831236,0.20786884,0.122086026,0.04017043,-0.046346586,0.052608006,0.08061064,-0.0149959335,0.08514378,0.120491944,-0.009774169,0.046659164,0.1200403,0.20578521,0.118880965,0.16021746,0.09752471,0.08980649,0.32867244,0.07839031,0.10158163,0.09379679,0.11070587,0.16884883,0.22512998,0.1032532,-0.0,0.075201824,0.16246782,0.19227183,0.19471914,0.057041746,0.08381938,0.15340611,0.022588436,0.22876027,0.14689276,0.0,0.07427085,0.14833438,0.038346387,0.078074306,0.030503415,-0.008093649,0.016210908,0.076188,0.006330829,0.0
AAACGCACGGTCAT-1-ventral,0.13781446,0.10550644,-0.07484238,0.17731628,0.0,0.014557777,0.35967565,0.039400544,0.29677767,0.24230811,0.12165088,-0.064585745,0.1387724,0.057407208,0.0,0.09801966,0.16137402,0.1732869,0.29888177,-0.099071465,0.100756615,0.2891851,0.1533463,0.16731055,0.03949569,0.26626688,-0.02739317,0.03281235,-1.1094837,0.052591495,0.22398104,0.052198473,0.13681035,-0.072570115,-0.0373592,0.2584462,0.0,0.19149718,0.2531027,-0.00431988,-0.020447904,-0.20853773,-0.03385988,-0.13856557,0.25167978,-0.0021297403,0.2125837,-0.04351212,0.2866513,0.057039842
AAACGCACGGTCAT-1-ventral-1,0.13894373,0.04117186,0.0101869805,0.0,0.2573821,0.1088761,0.21743791,0.0027783217,0.0,0.3527448,0.19996119,-0.036489833,0.0,-0.0,-0.12310519,0.009280522,0.15979874,0.108915314,0.0,-0.025328532,0.13016705,0.2076965,0.0,0.0,0.15050076,0.31486335,-0.0,0.1135829,-1.1094985,0.09505869,0.08338422,0.12060039,0.14974809,-0.11279584,-0.045556627,0.2657238,0.049466442,0.2265872,0.19804768,-0.038601227,0.07439005,-0.11283518,-0.011067258,-0.11868378,0.2679123,0.008939261,0.0,0.039464064,0.25567865,0.12307185
AAACGCTGACACGT-1-ventral,0.32471845,0.0157412,0.012242397,0.0,0.393674,0.14934833,-0.10737367,0.05583425,0.069539495,0.2482462,0.14517352,0.20125334,0.25359568,-0.06938736,0.19513854,0.0008716269,0.12942758,0.36031023,0.2415258,-0.00024219355,0.15098685,0.0,0.09388017,-0.060697597,0.26504666,0.3111515,0.005247999,0.06751861,-1.1094941,-0.021294357,-0.044732098,0.0,0.0049570207,-0.056908995,0.087185755,0.19490322,-0.17170033,0.0,0.016707877,0.07681436,0.021679336,-0.043559738,0.0,0.08170077,0.1254663,0.15837483,0.06472204,0.1296003,0.06332393,0.31008178
AAACGCTGACACGT-1-ventral-1,0.3233529,0.088583186,-0.0,0.2105253,0.35013232,0.15440568,-0.052322417,0.08096078,0.054582518,0.21409667,0.15333119,0.24465592,0.22880563,0.0103380745,0.14501068,0.009594026,0.0,0.39581233,0.0989813,0.06830063,0.14240511,0.1302512,0.0714816,-0.05302436,0.2871499,0.12903388,-0.0047915513,0.21081562,-1.1095014,-0.026045376,0.041222293,0.082920484,0.04104207,-0.001078513,0.033613726,0.15326609,-0.14757077,0.13366416,0.05619295,-0.0,-0.008495583,-0.103722155,0.09218142,0.03218508,0.16681957,0.17008927,0.08438141,0.060226392,-0.036556657,0.0
AAACGCTGGATACC-1-dorsal,-0.021363828,0.31435916,0.04397006,0.28332213,0.14549938,0.0,0.20335364,0.053348113,0.078894325,0.08316839,0.25669572,0.018729916,0.20334652,-0.093412004,0.11646786,0.109272756,0.0,0.16667077,0.14547685,0.062255934,0.109724745,0.11578083,0.16182104,0.114909746,0.10182272,0.122943364,0.010539389,-0.08481867,-0.0,0.059125263,0.23514575,0.30914298,0.13112956,0.047106504,0.017703094,0.036625296,-0.124802925,0.26697123,0.0,0.070119195,0.07528675,0.014638732,-0.07401182,-0.10551791,0.16190948,0.10337239,0.14208908,0.044668574,0.040545497,0.20489708
AAACGCTGGTCTTT-1-ventral,0.0,0.19441122,-0.0,0.19886783,0.1227528,0.23142265,0.2260557,-0.0,0.1117039,0.06684328,-0.058691572,-0.012673074,0.18585871,0.102807455,0.23615275,0.09013537,0.14533818,0.0,0.07059346,0.12339023,0.021179006,0.13971147,0.2140865,0.015939772,0.1735832,0.0,0.18563235,0.18703173,-1.1095144,0.24131562,0.34368372,0.20362091,-0.04087786,0.18448097,0.0,0.040414173,0.034493912,0.0,0.06056697,-0.16835432,0.14940657,0.005811577,-0.08335273,-0.023941796,0.14125133,-0.0074928342,0.0013916774,0.011551944,0.046896946,0.20943272
AAACGCTGGTCTTT-1-ventral-1,0.16165386,0.15860449,-0.09356148,0.12693618,0.11334237,0.0,0.20767488,0.053182833,0.097492695,0.08160845,0.0,0.060658216,0.26001027,0.0,0.17187047,0.15981366,0.17448896,0.27036887,0.059234574,-0.010673205,0.11435464,0.15324703,0.19379535,0.038386673,0.17367454,0.089036666,0.06130356,0.15762416,-1.1095351,0.12292073,0.16396107,0.08665335,-0.0,0.057276133,-0.05070991,0.10586234,0.12705809,0.0,0.14552441,-0.07798785,0.23504336,-0.018661752,0.013443302,0.031557404,0.0,0.008684405,0.003151571,0.1505412,0.05009485,0.21633768
AAACGCTGGTCTTT-1-ventral-2,0.24144448,0.25161326,-0.06492555,0.24251163,0.1314133,0.15656838,0.0,0.011212268,0.059342057,0.07267285,0.077072814,0.0,0.0,0.1419338,0.2426231,0.14509282,0.106238455,0.24243832,0.09775939,0.040595453,0.0042046234,0.08740923,0.18619363,-0.06390936,0.14654046,0.09463737,0.116544686,0.22128996,-1.109514,0.20275463,0.23981409,0.13824004,-0.026239224,0.0781208,0.031640183,0.011597338,0.107576214,0.0,0.19239445,-0.11736539,0.13138995,-0.06902768,-0.12977052,-0.034264658,0.22309755,-0.0008238687,0.030495977,0.042949405,-0.0327907,0.22801325
AAACGGCTAGTCGT-1-dorsal,0.11164583,0.14995022,0.12658368,0.0648958,0.16619249,0.15774706,0.15647651,-0.0,0.0,0.38175133,-0.14479268,0.23958986,0.014877765,0.30252406,0.03365943,0.0,-0.019681124,0.3361122,-0.15259802,0.0,0.1733123,0.16373986,0.0,-0.07483794,0.33576313,-0.013474624,-0.10090795,0.029950118,-1.1094669,-0.004842414,-0.014201734,0.15161818,0.21449763,-0.027568871,-0.0119161615,0.3421,0.050272208,0.0,0.27096486,-0.0670247,0.042796053,-0.18752734,0.01166672,0.12975033,0.0,-0.0,0.19434029,0.05018933,0.066293135,0.00039286914
AAACGGCTTCATTC-1-ventral,0.147836,0.24322776,0.0960619,0.120535895,0.0,0.034661125,0.1463182,-0.03175961,0.0,0.0,0.18463078,0.10841244,0.15648232,0.14235696,-0.039362114,-0.03899197,0.29181105,0.26382264,0.20243496,-0.0226599,0.008333325,0.19345447,0.0,-0.005132225,0.060299784,0.20243798,0.009441174,-0.0,-0.0,0.06068945,0.027920911,0.16371107,0.12398179,0.0710264,-0.0533304,0.07179463,-0.12282015,0.27874452,0.11680129,-0.033970807,0.17969286,-0.017335018,-0.04275448,-0.0056558186,0.26881313,0.073086955,0.17100601,0.3474793,0.0,0.058054697
AAACTTGAACGGAG-1-ventral,0.22069444,-0.0,0.15489301,0.0,0.12687097,-0.17250347,0.31602132,0.060312834,0.34065533,0.25731826,0.03500457,0.0,0.32839382,0.05805908,-0.07741922,-0.00924223,0.14401281,0.26068148,0.1968906,0.0,0.14600545,0.0788471,0.0,0.04048727,0.27617,0.23553671,0.0048236633,-0.14003728,-1.1094728,0.058784325,0.18076266,0.17589244,0.0,-0.0108447345,-0.11874981,0.11279744,0.0077831005,0.0791336,0.088098615,-0.087948844,0.4029178,-0.17934157,0.017835744,0.083211154,0.07713277,-0.012762878,-0.0,0.16336578,0.13284194,0.31586292
AAACTTGATAGCGT-1-dorsal,0.0,0.27681395,0.016881227,0.13323551,0.26609313,0.033720274,0.1218239,0.07494137,0.17674023,0.15216732,0.24024306,0.0931268,0.26689744,-0.044180356,0.0,0.07468391,0.025301063,-0.0,0.010445255,0.06726437,0.04419162,0.0909643,0.17915452,0.1694508,0.040016305,0.2099819,-0.07416381,0.10965672,-1.1095159,-0.05684376,0.051291075,0.0,0.15729633,-0.067806646,-0.029760666,0.21303329,-0.07110517,0.14191526,0.2546516,0.002522386,-0.046236847,-0.043332182,0.058389347,-0.053735178,0.20308058,0.15846945,0.17416467,0.11580966,0.14936931,0.13822456
AAAGACGATACTCT-1-dorsal,0.339103,0.11505375,0.0030305858,0.03733329,0.1695884,0.06499993,0.013735854,0.022795636,0.0,0.0,0.0,0.1982337,-0.02200597,0.11739229,-0.039922066,0.2514593,0.057412785,0.111156836,0.16839346,0.011167937,0.27751902,0.1368668,0.0254477,-0.0,0.12803572,0.0,0.2723377,0.10211581,-1.109531,0.15848559,0.04486466,0.112895936,0.0640005,0.12469168,0.039160535,0.08618242,-0.028416185,0.28301394,0.23061596,0.11831771,0.12112194,0.14915024,0.0,-0.008248025,0.13163796,0.0,-0.028457643,0.016681494,0.07921246,0.06831071
AAAGACGATACTCT-1-dorsal-1,0.27756727,0.15728866,0.08394515,0.17463787,0.21110252,0.041489035,0.10724995,0.042179827,0.00427415,0.083182625,0.15650918,0.22499599,-0.016926859,0.0923407,-0.022644931,0.16252315,0.0,0.23587917,0.13804147,0.08195462,0.19597942,0.1582325,0.13735692,-0.0,0.1609797,0.20929907,0.27579054,0.0950923,-1.1095326,0.08627528,0.061219245,0.10850654,0.019876134,0.0,-0.01948264,0.049836006,-0.042421225,0.28325626,0.1987193,0.0,0.039843902,0.15549015,0.14301954,0.017106831,0.13516387,0.043584064,-0.027607283,-0.0,0.025674578,0.0036280025
AAAGATCTGAGGTG-1-dorsal,0.35337415,-0.0,0.04676818,0.15935892,0.0,0.15433198,-0.00029014217,0.06838679,0.07345883,0.009396313,0.1520942,0.0,0.04636725,0.010261466,0.07167255,0.038093634,0.21460491,0.072737895,0.09348939,0.1926398,0.23797609,0.040674683,0.0,0.040171467,0.007830132,0.17066796,0.15330619,0.11331555,-1.1095339,0.023153745,0.04287272,0.06478152,0.114677005,-0.05005625,-0.076346464,0.13098761,0.1141065,0.20492764,0.19675457,0.12810084,0.04869423,0.010229764,0.22505072,0.1646451,0.03264679,0.080827296,0.06160822,0.055731628,0.18827963,0.064112276
AAAGATCTTGCACA-1-ventral,0.13837403,0.054484915,0.035750553,0.18702452,0.17786725,-0.0957656,0.2737696,0.0,0.28522873,0.018467275,0.084904835,0.058754288,0.3436492,-0.06661389,-0.049429007,0.11035878,0.23314922,0.23934887,0.082538016,-0.07656866,0.11621071,0.10509807,0.074016795,-0.016609298,-0.07921749,0.31274995,0.018298788,0.17488568,-1.1094899,-0.09718074,0.045442063,0.21026081,0.044798613,0.13668314,-0.035605036,0.22130081,-0.0,0.16236764,0.18609492,0.005350978,0.4093054,-0.12645298,-0.032732487,0.02585919,0.07378387,0.056140777,0.28925943,0.0,0.24755453,0.19317028
AAAGCCTGAGGTTC-1-dorsal,0.12810287,0.3123927,0.049947716,0.18488553,0.21403247,-0.0075800554,0.23319988,0.017239159,0.13618347,0.16151492,0.15555401,0.029462984,0.0,0.06801464,0.13575105,-0.01163284,0.0,0.114164196,0.18334755,0.00017500173,0.01647167,0.12864661,0.15932116,0.19708177,0.12460466,0.13049407,0.012768015,0.036788113,-1.1095263,0.089928515,-0.096046,0.22409359,0.060730156,0.0794398,0.0,0.12669647,-0.07911179,0.13087767,0.22425422,0.10729512,-0.018919706,-0.12316956,0.07878941,-0.05166809,0.17396566,0.12518495,0.13834043,0.07099858,0.0,0.09262164
AAAGCCTGAGTGTC-1-ventral,0.24357504,0.09386484,0.22355536,0.19982271,0.097253785,-0.05122675,0.05754089,0.04456081,0.26890054,0.078787595,0.06544295,0.32298902,0.43409556,0.05903419,0.06466251,0.10474901,0.35372603,0.16676898,0.08719756,0.035199877,0.06876278,0.11434474,0.19392939,-0.03856593,0.27296367,0.08954214,0.0,-0.042041212,-1.1094943,0.20639867,0.06545801,0.18398203,0.06003983,-0.11096372,0.17082265,0.014024141,-0.22192499,0.0,0.03326596,-0.059839092,0.22936906,-0.02744337,-0.0036710503,0.011398797,0.038277872,0.0,0.18742764,0.19193587,0.045048952,0.096618265
AAAGCCTGGTAAGA-1-ventral,0.0,0.7782606,-0.17194821,0.115383156,-0.3895948,-0.0,-0.105112396,1.82177,-0.0707584,0.3588983,-0.062466066,0.8046273,0.028635295,-0.23231885,-0.32958007,0.24237676,-0.41129413,-0.042014655,0.07207999,0.78980035,-0.40263444,-0.20399134,-0.33788154,-0.3620206,0.9308478,-0.37673396,-0.038670238,0.17963089,-1.1051164,0.0,-0.13649948,-0.24697398,-0.6220016,0.22649455,-0.40855384,0.6930922,0.10910021,0.61694384,2.545276,-0.16504945,0.08521918,-0.0,-0.3018247,-0.55775446,-0.4749699,0.22677788,-0.0634714,0.32772478,-0.48096117,0.061179526
AAAGCCTGGTAAGA-1-ventral-1,1.24341,0.0,0.046354022,0.021779621,-0.5040747,0.124307625,-0.10159771,1.6239753,-0.17428392,0.18266325,-0.008917849,0.89620084,0.09968178,-0.36188617,-0.3208888,0.42074633,-0.0,-0.0043639876,0.24719588,0.7804766,-0.44418007,-0.11882279,-0.0,-0.477047,0.7698093,-0.0,-0.07871092,0.012891831,-1.1055764,0.0,-0.25960547,-0.29081133,-0.5701995,0.11751371,-0.24945228,0.46940348,-0.029176144,0.5137866,2.427643,-0.3302094,-0.2425733,-0.5691503,-0.3150263,-0.0,-0.2454993,0.3688447,-0.23177022,0.3106841,-0.42375553,-0.07298139
AAAGCCTGGTTTCT-1-ventral,0.23705594,0.0,0.06378543,0.2613193,0.29906252,0.28634644,0.031446714,-0.04871766,0.0,0.17327988,0.044433016,0.09697252,0.084625214,-0.07195963,0.12365132,0.05978297,0.07267145,0.14619586,0.043674182,-0.010887981,0.008495728,0.16870734,0.26073962,0.16679071,0.009951298,0.23029779,-0.055062838,0.110265784,-1.1095204,0.21238397,-0.08421964,0.15937707,0.050060064,0.18426663,0.023037361,0.16543958,-0.08547074,0.119200595,0.19804172,-0.033951536,0.11186521,0.07915701,-0.06796479,0.024845101,0.20471945,0.0,0.13165115,0.0,0.08040673,0.18587594
AAAGGCCTAACCAC-1-ventral,0.1580377,0.16840842,0.05091631,0.082973115,0.07463735,0.14134818,0.19138236,0.09403329,0.05854995,0.02274402,0.0,0.13370346,0.2037015,0.16488305,0.21887115,0.17605032,0.122694075,0.23459336,0.009122152,0.050037757,0.059693005,0.0,0.014521658,0.058006942,0.25753558,0.019365972,0.22580068,0.108994186,-1.1095254,0.09994188,0.14672859,0.22326782,-0.0,0.027522082,0.15821739,0.20284574,-0.074647665,0.29933318,-0.10445979,-0.0,-0.024741028,0.31027555,0.04263592,0.07127923,-0.0012842153,0.08533892,-0.010668636,0.11347378,0.12741922,0.10990535
AAAGTTTGACACTG-1-ventral,0.0016293469,0.007107552,0.1547609,0.1962889,0.17825161,0.12909521,0.1794127,0.025701905,0.10627897,0.0,0.052416578,-0.057409607,0.18884669,-0.026059749,0.1677954,0.036579184,0.023948262,0.17264497,0.06667375,0.15451743,0.06610203,0.08507667,0.33612478,0.09817509,0.0,0.21212389,0.17304818,0.0,-1.1095355,0.15539594,0.0500458,0.12135634,0.02479656,0.0,0.12571214,-0.029900407,-0.025733313,0.10926777,0.22554189,-0.0024352472,0.15070029,0.002059055,-0.0010873212,0.02382211,0.033097565,0.06509203,0.0,0.15925902,0.07761175,0.20887339
AAAGTTTGCTGACA-1-dorsal,0.39841178,0.0,0.26617324,0.23482586,0.19355156,0.19491902,0.021523574,0.042830285,-0.14013802,0.067023195,-0.016462142,-0.008730558,0.19988161,0.01800214,0.0046405694,0.16461378,0.22901596,0.36338285,0.08148773,0.25037935,0.0,0.07030997,0.029962039,-0.0,0.19767965,0.03252481,0.07108959,-0.14830066,-1.1094829,-0.107664734,0.1265013,0.0,0.18574896,0.10789998,0.008468157,0.081914335,0.08475439,0.1569165,0.31881228,-0.0,0.098889925,-0.1741273,0.08508873,-0.059961546,0.3554593,-0.010340678,0.15461859,0.14651051,-0.088339716,0.24411544
AAAGTTTGGACAAA-1-dorsal,0.28319335,0.19065182,-0.049679082,0.17604241,0.00014385002,-0.0099482145,0.2367553,0.01191605,-0.0,0.13502337,0.16096212,0.05706161,0.20431149,0.0393014,0.0,-0.04364014,0.0,0.3774075,0.013025623,0.21275061,0.15180899,0.05924001,0.13919349,0.0962173,0.0020275204,0.13720843,0.21511625,0.028726816,-1.1095225,-0.17987424,0.1662864,-0.007492238,0.06529828,0.032633055,0.0,0.09478185,0.17257535,0.19970657,0.15700947,0.07731985,-0.06862111,0.08429061,0.12984236,0.19657952,0.09966055,0.19824718,0.06949238,0.062604085,0.19685622,0.05774105
AAATCATGGTCTGA-1-ventral,0.17598818,0.04907706,0.086523876,0.2389434,0.17196514,0.124497406,0.13957253,0.2600058,0.033437323,-0.05286482,0.08386334,0.038258914,0.16034342,0.035520826,-0.0033358072,0.109218664,0.12294088,0.31790572,0.10793637,0.16928352,0.14938332,0.21547504,0.1497109,-0.009615687,0.1532524,0.15181589,0.14272222,0.23869522,-1.1095378,0.040089346,0.12844509,0.109493606,0.17787251,0.07671406,-0.00023802122,0.031512417,0.08467054,0.11518297,-0.040772162,0.06376912,0.027839337,0.1864161,0.087165006,0.029653953,0.0029688454,-0.0,0.0079912245,0.09119045,0.2377439,-0.046559375
AAATCCCTGACAGG-1-ventral,0.0,0.14012642,-0.0,0.109779224,0.08597342,0.16790529,0.27124026,-0.033941004,0.06303891,0.19879662,0.10749356,0.08610987,0.16073091,0.05361485,0.29669714,0.023758098,0.2714044,0.2760958,0.18771014,-0.039803717,0.10542676,-0.06741034,0.11902215,0.0,0.026249494,0.103377804,0.0,0.13817264,-1.1095265,0.041736312,0.10647577,0.0,0.0,0.0,0.0,0.14745238,-0.076296665,0.1429331,0.1985719,0.06460463,0.058406662,0.012445649,-0.054742895,0.0368569,0.12870263,0.0,-0.024156572,0.13515414,0.027384767,0.121537894
AAATCCCTGTTCGA-1-ventral,0.2718723,0.15260121,0.20954013,0.15546444,0.11028641,0.17638494,0.19116077,0.033279806,0.19522694,0.40811935,0.19015826,0.24998441,0.16982877,0.094620794,0.056101546,-0.035532847,0.2097874,0.1193267,0.19327241,0.12096755,-0.007449985,-0.018185973,0.18510553,0.0,0.054226946,0.064683765,-0.07188029,0.013718374,-1.1095098,-0.0854726,0.15385076,0.018933065,-0.042882565,0.09527904,-0.13432762,0.03965584,-0.11190177,0.124418885,0.13269125,0.094523214,0.2088961,-0.01885242,-0.00048650638,-0.0019936431,0.10663279,0.20292597,0.11407623,0.26639825,0.13437271,0.031883884
AAATGTTGAGCAAA-1-ventral,0.24680081,0.118474446,-0.06763419,0.19793013,0.16558138,0.10805215,0.22427523,-0.05496224,0.0,0.0,0.18276308,0.22464988,0.42624488,-0.0,0.0,0.05949777,0.16356887,0.30114588,0.11890912,0.050984297,0.003775259,0.12268645,0.24022089,0.0714013,0.110029586,0.25015146,-0.04705363,-0.026016502,-1.1094869,-0.071203776,-0.09710332,-0.11596475,-0.05887555,-0.00896891,0.13415627,0.22512081,0.001749057,0.23653635,0.04004857,0.1651823,0.3622103,-0.12118843,-0.074268386,-0.035298005,0.18658656,0.07223168,0.23047446,0.10725172,0.13446857,0.013312392
AAATGTTGAGCAAA-1-ventral-1,0.1789103,0.11314479,-0.100242764,0.30829325,0.2151743,0.035573177,0.23110232,0.0076544867,0.22743067,0.09473433,0.08351714,0.16481556,0.3986938,-0.0,0.068069205,0.07244546,0.15835664,0.31844822,0.0,-0.023058655,0.12337712,0.18541907,0.19986767,0.06037442,0.13027547,0.19911756,-0.060891446,0.044459876,-1.1095041,-0.0,-0.070117585,-0.02888991,-0.0247403,-0.011938877,0.14936352,0.27751958,0.045929704,0.19829486,0.07635631,0.050084386,0.2233462,-0.08210951,-0.095048614,0.0,0.18694633,-0.03671229,0.24298659,0.12722088,0.12001015,0.071739666
AAATGTTGCCTGAA-1-dorsal,0.109714985,0.17561533,0.053497173,0.20122255,0.14257322,0.04926246,0.110500276,0.01920513,0.13272263,0.10204776,0.090978384,0.11771662,-0.04367491,0.11228157,0.0,0.0,0.07483403,0.056503244,0.11717171,0.16718629,0.1541343,0.15791751,0.059864987,0.06635734,0.0,0.091294095,0.16292694,0.23285215,-1.1095502,0.09748445,0.18135947,0.0,0.19174464,0.0969986,-0.029752124,0.0846816,0.101246126,0.10308959,-0.023078324,0.16744804,0.074547485,0.054408144,0.13494124,0.08071289,0.027263539,0.0760148,0.027259659,0.06325718,0.20753226,0.08957912
AAATGTTGGAGGTG-1-ventral,0.0,0.036368396,-0.04994843,0.14798051,-0.06158657,-0.08242647,0.1834818,-0.06114755,0.1327088,-0.005179644,0.09521718,-0.079912744,0.226585,0.017324137,-0.16971907,0.07339203,-0.031224623,0.3697467,0.18122828,0.15922582,0.34058264,-0.042906206,0.0,-0.23606852,0.5310762,-0.04488084,0.23049864,0.09065614,-1.1094232,-0.0,-0.0,0.061661,0.11825264,0.038693026,0.10012491,-0.0,0.09727227,0.40733618,0.329178,0.112447724,0.33340615,0.032611687,0.0,0.06998993,-0.12367435,0.1565663,0.1044641,-0.10310598,0.12687676,0.475089
AAATGTTGGCTAAC-1-dorsal,0.16323872,0.04708613,0.070341334,0.22157326,0.33549932,0.27749977,0.14987032,0.0030954557,0.015493888,0.21354233,0.09489896,0.18190286,0.21115679,-0.0,-0.0,0.0039251773,0.1013821,0.24173573,0.0,-0.056413878,-0.0027097596,0.24179387,0.22425911,0.13659944,0.089852035,0.21280676,0.010426914,0.0067019467,-1.10952,0.0,0.10546524,0.040009562,0.06895204,0.32014295,0.027903436,0.09076293,0.0,0.22561863,0.09936651,-0.05138821,0.08378398,-0.04174968,-0.0,-0.09167036,0.099116676,0.0,0.0,0.053470757,0.14774583,0.12778617
AAATTCGAAGCACT-1-ventral,0.24054536,0.11795911,0.0,0.1124571,0.1638714,0.004803253,0.21007837,0.11618597,0.05033163,0.11274997,0.04723606,0.10185433,0.12502185,0.07260722,0.086230956,0.15986359,0.24483891,0.29473183,0.25521675,0.06462357,0.31254026,0.11872972,0.28661782,-0.02090494,0.24458452,0.001984694,0.24991061,-0.009888344,-1.1095265,0.0168901,0.13755754,0.07448192,0.15895177,0.16207036,-0.07462568,0.0,0.03455706,0.23108402,0.12635674,-0.028906995,0.0,0.047273163,-0.03164285,-0.06918609,0.15157577,-0.0,0.0015369679,0.08600581,0.04669294,-0.029848417
AAATTCGATCAGAC-1-ventral,0.18463857,0.06492698,0.12688643,0.25739536,0.1813623,0.0,0.37131372,0.07354495,0.15887384,0.0,0.10579721,0.25382295,0.20888126,-0.054830115,0.051253088,0.097305946,0.23348333,0.26624513,0.07324962,-0.011057655,0.034064695,0.1606651,0.25774753,-0.0039388738,0.019568153,0.3516349,-0.03902356,0.06391269,-1.109506,-0.049767695,0.05639305,0.041105963,-0.0,0.10778092,-0.017081566,0.1502011,-0.058850184,0.19524853,0.047782727,-0.0,0.27500927,-0.114952594,-0.069471866,0.061035328,0.13039872,0.07466969,0.09460471,0.10739344,0.14635761,0.119484745
AAATTGACAAGTAG-1-dorsal,0.23176569,0.095259756,0.16599603,0.1543808,0.26978117,0.09138608,0.11636399,-0.04508714,0.108295925,0.1000263,0.09901208,0.010493646,0.0,0.0,0.0,0.19678439,0.14084399,0.24681585,0.02188227,0.08897002,0.1560951,0.0834411,0.1818397,0.09050078,0.19236562,0.0,0.05927884,-0.0229764,-1.1095395,0.05098702,0.15690155,0.07768442,0.19759896,0.013772966,0.18141298,0.080782756,0.03976343,0.16399984,0.036191083,0.06735858,0.103271976,0.0,0.0,0.11367209,0.08363593,-0.10075424,-0.03777524,0.0,0.06900743,0.13218707
AAATTGACAAGTAG-1-dorsal-1,0.11397788,0.13961875,0.23261054,0.12855765,0.13775706,0.11504777,0.0,-0.0044634608,0.11714359,0.1414821,-0.012886459,-0.010389553,0.05630644,0.025623955,-0.06124881,0.21758792,0.11420081,0.13523309,0.10443537,0.084860146,0.11648893,0.2010084,0.17223471,0.0904428,0.08827102,0.13071682,0.0,0.039257858,-1.1095451,0.17589323,0.17453484,0.04095922,0.0,0.027249184,0.23507702,0.07609898,0.11043351,0.1502111,0.24226798,0.07233673,0.105698496,0.12638485,0.0782053,0.020220252,0.099811636,-0.059449874,0.0435521,0.1363436,0.061654337,0.070553415
AAATTGACTATCGG-1-ventral,0.0,0.0,0.05531688,0.085838124,0.0,0.042287152,0.3754919,0.028585428,0.19432794,0.1239758,0.1082432,0.069654115,0.25294465,-0.023444958,-0.059814457,0.07469608,0.0,0.0,-0.0,-0.04527927,0.029317088,0.0,0.35915846,-0.0556918,0.0,0.4077474,-0.08231733,0.0,-1.1094611,-0.03299051,0.27933553,0.11976927,-0.09932359,0.0,-0.14023027,0.35556468,-0.09265066,0.1136109,0.16224852,0.08373064,0.44157082,-0.10892895,0.14422786,0.1160073,0.06680627,0.17860088,0.2952021,0.048927106,-0.09539849,0.11362965
AAATTGACTATCGG-1-ventral-1,0.24771065,0.055049445,0.09776772,0.0,0.0,-0.027628675,0.3722645,0.0020413764,0.14848302,0.0795979,0.105424345,0.0,0.32743433,-0.11533757,-0.12133599,0.1253811,0.35714614,0.20515414,-0.025565095,-0.00949661,0.023789378,0.009212255,0.3007802,-0.027648741,0.1133434,0.42106378,-0.021644766,0.027093053,-1.1094705,-0.022025507,0.12519279,0.12020522,-0.016628703,0.054510444,-0.11237251,0.31799728,-0.039429136,0.10894599,0.12234343,0.052089147,0.45103723,-0.16288857,0.0,0.061684266,0.0,0.17057188,0.24018958,0.0,-0.0021472906,0.23706248
AACAATACTTTGCT-1-dorsal,0.15365222,0.11365281,0.12276176,0.06859079,0.13069536,0.17257215,0.09754056,0.0695502,0.11868379,0.100433916,0.108367294,0.14016956,0.11169964,0.04813183,0.07119773,0.12493061,0.031656466,0.10109776,0.1383228,0.0,0.050883807,0.083254755,0.10551781,0.0,0.0,0.15443772,0.18552312,0.12868357,-1.1095611,0.08319876,0.07316079,0.11425045,0.0,0.05682568,0.1449851,0.1458003,0.13432309,0.107872434,0.09401859,0.12078339,0.069134876,0.058721345,0.0762132,0.03482518,0.120952874,0.076729424,0.0657135,0.0,0.107788466,0.041880965
AACAATACTTTGCT-1-dorsal-1,0.12598565,0.18162274,0.0350186,0.013712343,0.122079104,0.0480185,0.1369744,0.10001997,0.054571208,0.12376231,0.106465556,0.15519811,0.08465915,0.13571757,0.09689522,0.14073071,0.0855664,0.14000568,0.11158849,0.116267145,0.11796854,0.100429416,0.09304908,0.059085652,0.23467436,0.06457132,0.07491703,0.027555833,-1.109557,0.059415665,0.094233096,0.09342747,0.17237973,-0.00870049,0.0,0.1249835,-0.028924413,0.0602272,0.17831975,0.17311077,0.19839244,0.10582302,0.0,0.119254544,0.108712874,0.11085781,0.042091176,0.08321737,0.059414152,0.12805265
AACAATACTTTGCT-1-dorsal-2,0.07650135,0.14529732,0.15417728,0.0840371,0.20602721,0.10725931,0.0,0.0,0.0,0.0,0.086449176,0.110911,0.04084516,0.15218242,0.113271415,0.09381581,0.07052736,0.04554724,0.16366373,0.08668345,0.08486151,0.123425886,0.052688945,0.060066115,0.10196544,0.15196323,0.13089974,0.06612989,-1.1095624,0.12964644,0.028929075,0.14721063,0.14460509,0.08890505,0.09120316,0.10383252,0.061091635,0.10009639,0.15939806,0.0,0.12499936,0.11864644,0.1094811,0.09284598,0.121659614,0.08398821,0.041477006,0.0,0.07375173,0.094683826
AACACGTGGTTGGT-1-ventral,0.0,0.13075016,0.2167307,0.18248613,0.0,0.02405341,0.22951621,0.12990998,0.0,0.113359295,0.12896508,0.26284385,0.17322218,-0.01012928,0.07377261,0.04750178,0.3052496,0.27849123,0.114160664,-0.046565138,0.0,0.26341748,0.08940501,0.09562468,0.0,0.29382515,-0.14797609,0.04028597,-1.1094897,-0.05494211,0.1915153,0.12329842,0.09969031,0.0010268515,-0.06421659,0.093418516,-0.0,0.25040963,-0.13423456,-0.12905844,0.24570628,-0.0,-0.0412641,-0.10102769,0.13708162,0.088594794,0.013473552,0.0,0.22683571,0.019781599
AACAGAGAGGATTC-1-ventral,0.17780441,0.16046306,0.078690104,0.31377715,0.13590913,0.42844033,0.06710421,-0.084159575,-0.04141874,0.17705907,0.0,0.23355938,0.2309966,-0.04293674,0.011210604,0.027215673,0.053382445,0.12994567,0.10770845,-0.1468987,0.13342199,0.0,0.10590585,0.0,0.08156232,0.39197215,-0.05796764,0.04347572,-1.1094699,0.24538682,-0.14596291,0.14209455,0.068104476,0.34430128,-0.15693904,0.3166122,0.07067765,0.2580025,-0.006702675,-0.117465794,0.26990196,0.068133794,-0.12910154,-0.11803833,0.13476878,0.021502659,0.0862161,0.10986609,0.27435452,0.20861809
AACAGAGAGGATTC-1-ventral-1,0.15626618,0.18532088,-0.005365213,0.31975394,0.15467887,0.455936,0.054209486,-0.1585714,0.0072522797,0.10163082,0.08552403,0.0,0.0,0.015631307,-0.15131865,-0.034698248,0.13156517,0.07689594,0.1974975,-0.12917545,0.0,-0.0008951956,0.124264464,0.13162595,0.0,0.4071545,-0.0,0.07685592,-1.1094503,0.15007307,0.025923112,0.11991132,0.1621904,0.38552552,-0.12499836,0.36373642,0.03556597,0.18387148,0.042844746,-0.12649801,0.14255683,0.057805426,-0.064248845,-0.20906079,0.073684655,-0.040537186,0.07722426,0.0,0.0,0.232472
AACAGCACACGCAT-1-dorsal,0.38943604,0.2533036,0.18172643,0.16992451,0.037847877,0.028146481,0.14771722,-0.028809112,0.12792978,0.10710983,0.070808284,0.22296622,0.065784566,0.0,0.086629845,0.047879145,0.19918647,0.047398195,0.15489484,0.18930396,0.057808112,0.041901786,0.1106652,-0.037125416,0.027997838,0.16421115,0.23319499,0.026430232,-1.1095214,-0.04054434,0.0911391,0.12880325,0.0146400435,0.13876824,0.035595,-0.016911626,0.04168914,0.3085653,0.33194605,0.07141785,0.19574523,-0.0,-0.034148693,0.01319598,0.19775793,0.035690404,0.00019092114,-0.02680527,0.04122545,0.14824653
AACAGCACACGCAT-1-dorsal-1,0.4224614,0.13329257,0.21288282,0.15973885,0.0,0.0796857,0.148295,0.0806624,0.014431262,0.15495566,0.0,0.12818432,0.10242195,0.116089,0.083507255,0.058645777,0.21313146,0.022903671,0.18235941,0.1818889,0.07550111,0.109570436,0.24028042,0.008144371,0.09490446,0.15921246,0.15285829,0.03699669,-1.1095269,-0.04708754,0.016988724,0.19688281,0.029088004,0.071948744,-0.13740037,-0.0003199445,0.028406164,0.28613374,0.28548786,0.05238881,0.11232483,0.050438482,0.02046501,-0.03846705,0.13093892,0.0,0.08562095,0.013492348,0.0010701353,0.11622146
AACAGCACGGTGGA-1-dorsal,0.24958134,0.24852552,0.09623098,0.28121436,0.19222172,0.0122951595,0.19070345,-0.14609337,0.07179241,0.015351173,0.049831808,0.14691141,0.18093218,0.06306088,0.060722213,0.04351484,0.18369308,0.23979153,0.13811474,0.06501581,0.058052022,0.1257265,0.3409217,0.0075171147,0.1304395,0.0,0.049712524,-0.013650657,-1.1095228,-0.05412857,0.010698388,0.25981915,0.06528519,-0.034819447,-0.038333803,0.17910726,-0.018088356,0.22086702,0.13332063,0.08363851,0.09267924,-0.0,0.005605548,0.025384225,0.09907457,0.06316105,0.0,0.13032347,0.14861166,0.23013464
AACATTGATTCGCC-1-ventral,0.0,0.1185411,0.21422853,0.29075074,0.26781884,0.05698291,0.054268662,0.0,0.12418242,0.25653803,0.03406061,0.11734522,0.27059606,0.0,0.22589721,-0.022115178,0.20406877,0.22224581,0.2136321,0.029292742,-0.060738724,0.08296707,0.14824684,-0.0022472276,0.12646592,0.24187554,-0.04614731,-0.012991032,-1.1095043,-0.0,0.029424736,0.18191585,0.123712026,0.10736021,0.14411058,0.0,-0.058016647,0.16450901,0.04187654,-0.04410234,0.085080914,-0.014646451,-0.13096061,-0.027117532,0.06518757,0.08160923,0.015286146,0.19600068,0.0,0.15437895
AACCAGTGGCGATT-1-ventral,0.07286319,0.15666988,0.07446062,0.22601987,0.35746345,0.10242423,0.15877527,0.03149999,0.1992127,0.0,0.105863765,-0.058263477,0.091318876,-0.045893393,0.1564018,0.048039373,-0.0036224395,0.20023164,0.19258124,0.038947932,0.028407136,0.03562146,0.21976295,0.002979057,0.11227934,0.16930805,0.1285239,0.15176627,-1.1095252,0.0,-0.037497878,0.18365474,0.15568249,0.1624691,-0.0077638365,0.15421134,-0.12543288,0.22912975,0.048875384,-0.05668415,0.05836031,0.0,0.08162999,0.042347103,0.19698974,0.0,-0.059618093,0.092949055,0.12149984,0.20962246
AACCAGTGGCGATT-1-ventral-1,0.20211722,0.27125633,0.22273573,0.32372877,0.28843725,0.080756,0.0,-0.024320815,0.15306729,0.27302438,0.08513216,0.023771286,0.12705067,-0.024054846,0.07225154,0.007848993,0.0,0.18892694,-0.004895197,0.05138729,-0.01853168,0.0,0.17429398,-0.017580722,0.10314089,0.22329758,0.092030734,0.05732962,-1.1095127,0.1507615,-0.035256147,0.18669714,0.0,0.13142613,-0.0,0.2958982,-0.19436744,0.13198853,0.13570741,-0.065560676,0.043705173,-0.005149842,0.12654936,0.07156639,0.2719229,0.18267837,-0.020183923,0.042487435,0.045927368,0.1634077
AACCAGTGTTGCTT-1-ventral,0.13727474,0.11885916,0.16490184,0.23365285,0.096866235,0.017636025,0.26934946,0.04043913,0.0,0.21036322,0.20909579,0.27785808,0.02026138,0.0,0.104437545,0.07623393,0.09738652,0.0,0.24514817,-0.07500464,0.1181572,0.06772004,0.31348374,0.2599139,0.055935506,0.3155337,0.0074429563,0.037598398,-1.10949,-0.06480482,0.01897566,0.12998563,0.0,0.045975026,0.13407129,0.120317064,-0.110105544,0.11121589,-0.13038364,-0.0,0.2066264,-0.060920388,0.06810283,-0.16192013,0.24842386,0.19295967,-0.071979366,0.08856607,0.24552177,0.030895853
AACCCAGAAGAATG-1-ventral,0.16786164,0.0119336825,-0.05913655,-0.078700125,0.45218202,0.43645608,-0.18081884,0.27714038,0.2759167,-0.0,-0.0,0.54490703,0.052238803,0.085271984,0.33849576,0.0,0.72745866,0.17583449,-0.24717061,0.19635057,-0.24447064,-0.18858817,0.014735536,-0.12190581,0.762711,0.8146388,-0.17318481,0.22055674,-1.1089836,-0.42177454,0.4745753,0.0,-0.31280944,0.19473454,0.0,-0.0,0.17052677,0.0,0.36426556,-0.28536898,-0.1470154,0.064178795,-0.0,0.25928944,-0.0,-0.077592604,-0.27335903,0.5151211,-0.0,0.47688842
AACCCAGAAGAATG-1-ventral-1,0.25519386,-0.035995778,-0.018162265,-0.09138624,0.4735131,0.4110838,-0.14488553,0.26494005,0.27090022,-0.13648894,0.0011347856,0.5189423,0.04845669,0.032000042,0.3309183,0.2922903,0.6600075,0.17499845,-0.1537286,0.18744697,-0.0,-0.118651465,0.0121460445,-0.09418243,0.7032416,0.86534685,-0.1584238,0.24497381,-0.0,-0.4113238,0.38047025,0.08084444,-0.37406307,0.23602216,0.23627415,-0.1281353,0.18898351,0.35266605,0.3462712,-0.3281461,-0.07113206,0.06037583,-0.0,0.17798227,-0.24109457,-0.0074888603,-0.22969261,0.5127124,-0.30247465,0.37026766
AACCCAGATGTCTT-1-dorsal,0.01734595,0.035834678,-0.07750909,0.17828955,0.3984506,0.13258083,0.08964683,0.07255162,0.11108445,0.04707993,0.1943938,-0.029734043,0.2539991,-0.15438306,0.0507238,0.17205966,0.24879877,0.21282548,0.09382922,0.11481216,-0.017361443,0.16455539,0.20868446,0.08014542,0.0,0.08295157,-0.09085311,0.014819098,-1.1095078,0.09609474,-0.0010215575,0.33460632,0.01243353,0.099804804,0.052198324,0.19283864,0.15164793,0.17583585,0.19592258,0.12633812,0.026476683,-0.12215999,0.0,-0.09330286,0.20061457,0.11408094,0.01666789,0.23328184,0.055179086,0.0
AACCGATGTACTCT-1-ventral,0.18157426,0.024389535,0.04745322,0.35792148,0.17541039,-0.033841465,0.2946372,0.0,0.25300696,0.08018249,0.15742193,0.063700564,0.28117603,0.06212031,-0.18873176,0.010469341,0.25040177,0.0,0.0,0.049192116,0.0,0.26804432,0.1424069,-0.026142467,0.15019083,0.3424956,0.0,0.10848542,-0.0,0.11775963,0.15101969,0.027972536,0.1351665,0.1743524,-0.09897279,0.04398233,-0.0044257115,0.1669904,0.036607098,-0.10132797,0.25423735,-0.079985596,-0.06332259,-0.10165103,0.21905513,0.01594645,0.3206212,-0.08882311,0.26412383,0.1432943
AACCGATGTTGTCT-1-ventral,0.16272183,0.10403194,0.19030313,0.4976709,0.13318165,-0.0417314,0.11426355,0.06869759,0.1217559,0.0,0.2491871,0.25586283,0.272144,0.395432,0.14044848,0.061923895,-0.014973614,0.21672496,0.22523876,-0.02635022,0.0,0.089826,0.21767998,0.027153444,0.25882992,0.12509418,0.28942865,0.16216342,-1.1094451,-0.05735431,0.12351897,0.085737914,-0.08891914,0.13979578,0.10772237,0.029854862,-0.02718919,0.0,0.13404258,-0.07287761,0.35669124,-0.24435958,-0.13792132,-0.2712169,-0.21962585,0.059645183,0.057141192,-0.05062951,0.28163484,-0.06939981
AACCGATGTTGTCT-1-ventral-1,0.15912403,0.07486052,0.12869929,0.39862165,0.16999577,0.01212967,0.21230738,0.12601613,0.0,0.0,0.21896483,0.1733485,0.2997587,0.3698758,0.19934618,-0.088384755,-0.10244025,0.0,0.17061679,-0.09978123,0.11476811,0.10308239,0.18091793,0.03840572,0.13957699,0.19944707,0.2608786,0.22379701,-1.1094432,-0.13930878,0.0985163,0.2523459,-0.1627511,0.21908677,0.17348863,0.015925555,-0.0,0.23570304,0.20571889,-0.04077733,0.24525215,-0.26866317,-0.1029506,-0.18942212,-0.14414272,0.07604194,0.084577076,-0.08701987,0.0,-0.10279272
AACCGCCTTGCAGT-1-ventral,0.36306244,0.17538376,0.155073,0.28292903,0.11243731,-0.12755626,0.22608797,-0.03164,0.07678968,0.09713499,0.079423524,0.23018987,0.30855876,0.014379079,0.20297895,0.09344042,0.12075961,0.28395605,0.16533764,-0.08454111,0.086693965,0.17918117,0.30898565,-0.0084376335,0.10313271,0.43294954,-0.06974949,0.0006085924,-1.1094906,-0.10744195,0.16063643,0.10018462,0.15534197,-0.024610627,0.0,0.07702119,-0.13276644,0.12036686,0.12964904,-0.069750085,0.20227046,-0.02021465,-0.066807605,-0.033583377,0.0,0.094996214,0.062215567,0.14463872,0.23959476,0.030009136
AACCTTTGCCCGTT-1-dorsal,0.4718096,0.07546192,-0.043387283,0.12588973,0.09932809,0.07740351,0.1316062,0.005969364,0.0,0.022692189,0.15292591,0.14562327,-0.09109961,0.05491407,0.0067284084,0.037067853,0.19644672,0.18003757,-0.067518026,0.18006009,0.0,0.0,0.32260644,-0.0136305895,0.07425059,0.06664708,0.23011158,-0.016503798,-1.1094927,0.12546071,0.022066055,0.20557831,0.21821496,0.07714061,-0.10971341,-0.019281905,0.11289769,0.43451262,0.07732656,0.11443117,0.10678802,-0.16413054,0.31116292,0.07488668,0.080216885,0.08025998,0.04252558,-0.00811418,0.29166722,0.069208585
AACCTTTGGGAAGC-1-ventral,0.07932485,-0.014468432,0.072760604,0.0,0.12694632,-0.056695413,0.0,-0.030479234,0.33178315,0.15334319,-0.059812073,0.2746427,0.0,0.0,-0.021612115,0.0,0.2590694,0.23502733,0.13211128,0.16341811,-0.025657946,0.0061838995,0.01808708,-0.040202472,0.13965751,0.30681425,-0.04441639,0.12409416,-1.1095067,-0.076714754,0.16332047,0.08303811,0.1076854,0.14060636,-0.073441535,0.163126,-0.058726538,0.22884822,0.12756912,-0.033539005,0.2289871,-0.0,-0.061399277,0.09193004,0.15736355,0.2783484,0.23474172,0.0,0.10872411,0.15373817
AACCTTTGTATGCG-1-dorsal,0.06957011,0.10554684,0.0,0.2777756,0.27839172,0.23692827,0.07532764,0.10979846,0.0,0.18327846,-0.01046194,0.058462,0.0,0.03846133,0.0,0.18590485,0.20935597,0.1299617,0.161794,0.10816629,0.018716386,0.09186757,0.35366794,-0.1924593,0.09015354,0.2042745,0.09202213,0.16738844,-1.1095086,0.18725137,0.18524842,0.21620502,0.03732194,-0.09472913,0.019470876,0.0,0.07057666,0.00019840483,0.1298416,0.015779324,0.08419181,-0.12188667,-0.12259047,-0.06401857,0.07473331,0.17005345,0.25794554,0.08226903,0.18747999,0.0
AACGCAACATGTCG-1-dorsal,0.11625799,0.29824436,0.08733175,0.24686773,0.20634802,0.07051606,0.0,-0.01728899,0.0,0.08214025,0.020415284,0.14275038,0.27298716,-0.07996937,0.0500487,0.025000561,0.11954774,0.0,0.11493211,0.107041754,0.117902525,0.14284585,0.38523456,0.0,0.0,0.15589066,0.0037862032,0.27167365,-1.1095058,-0.12269988,0.098834954,0.0,0.16340455,-0.03622393,-0.0,0.24721244,-0.12326718,0.092376,0.064066745,-0.1533709,0.105741344,0.0077347877,-0.0324793,0.19589724,0.07544141,0.17484786,0.032140013,0.1911932,-0.0012718308,0.18835333
AACGCAACCCTACC-1-dorsal,-0.0053836904,0.28182703,0.1265018,0.30336216,0.20698574,0.059945308,0.121944286,-0.05846282,0.20986111,0.024532499,0.034006648,0.0,0.25247818,0.035516247,0.05122143,0.0,0.091800205,0.16373569,0.0,0.043268185,0.019384544,0.16180821,0.0,0.22171395,0.20321906,0.2037854,0.16512354,0.028871307,-1.1095209,-0.029964581,0.10750064,0.1891644,0.021927373,0.030437784,0.055595852,0.11692526,-0.0,0.29330873,0.17588085,-0.082588926,0.082967706,0.009870944,-0.14845371,0.0,0.06055164,0.16934434,0.019640278,0.16799292,0.07416439,0.19606644
AACGCAACCTCAAG-1-dorsal,-0.060762767,-0.011360911,0.26412842,0.23925321,-0.024048025,-0.20176187,-0.02684355,-0.18102553,0.07943102,0.13076022,0.1764836,-0.19166669,0.46079132,-0.0,0.16614792,0.060842134,0.3405239,0.7699764,0.3207242,0.5128364,0.20166461,0.2784412,0.12724695,-0.1545971,-0.115861304,0.0,-0.3290983,0.04813813,-1.1092559,0.18408832,0.06761532,-0.037285622,0.2529424,-0.24552122,0.06052057,0.0,-0.30092645,0.23630784,0.30425832,-0.13288988,-0.20937815,0.10109627,0.21218976,0.0,0.05668096,0.33448157,-0.15529765,-0.18393067,0.6727625,0.2834301
AACGCCCTAAACAG-1-dorsal,0.47637612,0.1262398,0.0,0.13625783,0.1156746,0.034537196,0.05149429,-0.08416998,0.024601495,0.105225846,0.06789,0.18936837,0.0,-0.05240136,-0.01887487,0.21492702,0.0,0.23203303,0.101616405,0.16888085,0.13463664,0.09234315,0.23621427,-0.023382174,0.039768215,0.0,0.24622841,0.057262972,-1.109497,0.023551952,0.035070233,0.23603186,0.10074676,0.009243505,-0.10722015,0.16656834,0.13480048,0.04579474,0.0,-0.08304252,-0.03156225,-0.15389867,0.07003158,-0.04825612,0.21920653,0.11286438,0.10138431,0.1841894,-0.037464898,0.2463568
AACGCCCTAACTGC-1-dorsal,0.13166499,0.2765584,0.11375115,0.19307974,0.081210874,0.0404604,0.0,-0.05330874,0.0,0.028269313,0.12495467,0.32439485,0.37649104,0.1336661,0.021948928,0.03933258,0.0628703,0.06546686,0.13669133,0.0498496,0.052812945,0.18979517,0.24994095,0.07195122,0.1386131,0.14260921,-0.03556914,0.25238588,-1.1095105,-0.08950022,-0.0023692185,0.26176018,0.12565866,-0.0,-0.011478663,0.18495435,-0.06870058,0.144434,0.15810212,-0.002935264,0.11002137,-0.04242063,-0.100203626,0.03238974,0.05788401,0.0,0.1958721,0.09419408,-0.023147466,0.155086
AACGCCCTAACTGC-1-dorsal-1,0.0,0.24291688,0.14900193,0.11732597,0.033071134,0.08812407,0.0,-0.06417017,0.21881089,0.004481951,0.040035676,0.25617152,0.46300188,0.10729958,0.026475055,-0.0,0.21016434,-0.04119827,0.0,0.09468918,0.091835074,0.08492913,0.25062448,0.084915,0.2201652,0.2066054,-0.06755233,0.1903803,-0.0,-0.047605105,0.021976804,0.25255567,0.021463493,-0.020169618,-0.062268313,0.17072979,-0.07883907,0.21024512,0.0986035,-0.049272183,0.17280541,0.07720555,0.025980603,-0.07631819,0.05557149,0.17374584,0.25304374,0.04301602,0.030609652,0.23616768
AACGGTTGAGGTCT-1-ventral,0.39483476,0.07989948,-0.17578033,-0.01976596,-0.03404995,-0.0,0.10702662,-0.0359569,0.07096278,0.088618666,0.09692767,-0.045677226,0.35375422,0.16434425,0.12154401,-0.122392915,0.2605255,0.2080086,0.0683845,0.14821568,0.21061474,0.09690797,0.40704677,0.004128359,0.16858068,0.16206512,0.071987085,0.040213525,-0.0,-0.024913749,0.06945456,0.0,0.1749085,0.0,-0.111309096,-0.0225489,0.08038492,0.28318733,0.20396462,0.015646374,0.09785946,0.19946541,0.13462503,-0.077648036,0.044591073,0.12474241,0.1850002,0.14748213,0.19759846,0.17764354
AACGGTTGCTTGTT-1-ventral,0.04181082,-0.009319319,0.02492841,0.27522925,0.35445473,-0.0032314328,0.13337964,-0.0043832595,0.16305503,0.33738557,0.07067472,-0.009029773,0.13774513,0.14470816,-0.12382932,0.053609278,0.019377744,0.26641613,0.27639246,0.11235547,-0.0047057867,0.25315005,0.089757234,0.0,0.31836733,0.12593964,0.14694865,0.02816448,-1.1094997,0.088743106,0.0034471892,0.018650554,0.0,0.23357399,-0.0,0.1648419,-0.06757942,0.1298066,0.3092903,0.109575145,0.18040356,-0.16073142,-0.015117527,-0.08757466,0.0,0.23653108,-0.00888096,0.146177,-0.0018774802,0.23144911
AACGGTTGCTTGTT-1-ventral-1,-0.01780881,-0.0,0.005218991,0.27800602,0.407545,0.027958136,0.21743782,-0.16910303,0.20162196,0.3232903,0.0,0.014538136,0.15360582,0.20965335,-0.051393114,0.03825848,0.020578546,0.0,0.27540544,0.0570431,0.07872334,0.19768749,0.012957011,0.1128246,0.24212635,0.05237901,0.09592213,-0.0115350885,-1.1094921,0.0,-0.0,0.040082593,0.023685852,0.17430012,-0.02078659,0.16829175,-0.17478772,0.20791534,0.30289546,0.0,0.08284563,-0.053194232,0.055543706,-0.06322404,0.22316447,0.19365278,0.05872718,0.20122907,-0.06669654,0.19455235
AACGGTTGTATGGC-1-dorsal,0.048221834,0.249248,0.21347007,-0.022952624,0.23373722,0.34444234,0.067367405,0.10903241,0.19911167,0.3276485,-0.05609175,0.123892404,0.08497732,0.19094336,-0.041467417,0.0,0.17348576,0.421532,0.0,0.005668845,0.1038445,0.3395429,0.0,-9.894372e-05,0.07529642,-0.062423088,-0.037734907,-0.00779046,-1.1094654,-0.0,0.046601646,0.0,0.084700815,0.29234862,0.08220587,0.0,-0.118991144,0.48034614,0.06168016,-0.04178895,0.0,-0.22730021,-0.029361978,0.07034115,0.2436521,0.0034893595,-0.096611716,0.03822662,0.03208178,0.16927077
AACGGTTGTATGGC-1-dorsal-1,0.03331797,0.0,0.04275185,-0.027769078,0.2570176,0.31257904,0.051837604,0.11310592,0.077597484,0.34227753,-0.025014944,0.22200847,0.18901421,0.14918324,0.04903756,0.21927334,0.0,0.4611961,0.099552855,-0.0,0.15357827,0.42630205,0.1877027,-0.008703736,0.04109632,-0.07688536,-0.023218857,-0.13070326,-1.1094663,-0.0,0.052108858,0.15086764,0.04081785,0.20254275,0.06538542,0.20628949,-0.08141313,0.4723794,0.12833074,-0.04822824,0.08737602,-0.19602829,-0.034467578,0.0,0.16841489,0.08186049,-0.095024444,0.0,0.0832865,0.1505972
AACGTCGAGGTGTT-1-ventral,0.24156527,0.15897322,0.072596096,0.033428907,-0.052420564,0.024091184,0.27638513,0.09415214,0.055980626,0.08798835,0.0017935039,-0.022069018,0.26186138,0.0,0.0432687,0.08854522,0.2552214,0.2738577,-0.044914287,-0.056740977,0.19727695,0.18660904,0.3020507,0.029852586,0.080466375,0.0,0.27984664,0.0,-1.1095252,0.16732061,0.11145922,0.0,0.10021631,0.11548414,0.04052588,0.0,0.11807279,0.10259207,0.0,-0.06347842,0.06910999,0.14308967,0.1098053,-0.08784188,0.20975332,0.0,0.045842685,-0.079070464,0.11873658,0.0
AACGTCGATCCCAC-1-ventral,0.15517241,0.06605649,0.023955563,0.17407721,0.17097594,0.15500236,-0.021727616,0.0,0.11718803,0.0,0.014929156,0.21945335,0.21274532,0.034980718,0.14980194,0.058399007,0.1333939,0.09415553,0.080591545,-0.017670592,0.21360174,0.10985555,0.27947453,0.042704906,0.10324015,0.025349827,0.13699035,0.14301455,-1.1095375,0.095890634,0.031678274,0.13775183,-0.014674267,0.05846903,0.030594775,0.0,-0.023518603,0.2002389,0.079739496,-0.024722485,0.08285756,0.24865082,0.10769998,0.039034218,0.15165432,0.10478744,0.0,-0.04586975,-0.0,0.1990226
AACGTGTGGAGCTT-1-dorsal,0.12983298,0.24500895,0.13730223,0.27739102,0.16198593,0.11277057,0.122830346,-0.07447455,0.0007361257,0.1849565,0.021949613,-0.11212045,0.29646146,-0.008037157,0.3631837,0.12897262,0.13368703,0.27691123,0.20506804,0.041180953,-0.034550298,0.0,0.22566709,0.12025097,-0.017703906,0.031783417,0.16025794,0.022932392,-1.1095152,0.09107663,0.0023215844,0.09680936,0.0467052,-0.022086568,0.16168141,0.013466358,-0.0021359657,0.2489523,0.26356995,-0.02746198,0.0004182218,-0.1005039,0.05039273,0.10086441,0.18098597,0.14961907,0.08418862,0.11193805,0.1740792,0.075660974
AACGTGTGGAGCTT-1-dorsal-1,0.14076675,0.21841958,0.0,0.19675204,0.20890187,0.11925254,0.0,-0.0010954672,0.012553393,0.15707673,0.08778147,-0.119156644,0.37080008,-0.03290137,0.27704188,-0.004055434,0.2077267,0.0,0.14854613,0.08852068,-0.030460227,0.16633968,0.0,0.1436722,0.0476432,-0.036581095,0.14424153,0.19118568,-1.1095114,0.04312645,-0.12708843,0.024742693,0.012154497,0.0,0.19550095,0.035519432,-0.0021406016,0.20135008,0.23964295,-0.09949704,0.09694575,0.045587145,-0.054731306,0.060407445,0.15164886,0.11592607,0.13022853,0.16335668,0.066525295,0.12918016
AACGTTCTCAGAGG-1-ventral,0.18949854,0.14066671,-0.027988885,0.19072829,0.32571918,-0.14549422,0.20512365,-0.09182824,0.0646099,0.3952547,0.0940886,0.0,0.1239826,0.16794308,0.0,-0.10820846,0.0,0.0,0.058197394,-0.017690262,0.002108626,0.44579855,-0.011705624,0.20169328,0.20525664,0.32531542,0.092156336,0.07626973,-1.1094651,-0.13186601,0.04873565,0.1485004,0.17016365,-0.05100588,-0.02884269,0.001557635,0.08819738,0.29864052,0.35681614,-0.0063160397,0.31697294,-0.1700114,0.018015824,0.009618423,0.3308227,-0.06050461,0.27662164,0.00089152827,0.16682224,-0.004086561
AACGTTCTTCAAGC-1-ventral,0.16267078,0.031337865,-0.087709434,0.07029052,0.08170769,0.08644621,0.31845796,0.047718927,0.23737498,0.14147751,-0.111924484,-0.03187266,0.18665858,0.084146105,0.08480253,0.041132104,0.009787233,0.17655028,0.25900042,0.06911244,0.1454615,0.20767541,0.39625514,0.08684025,0.049780473,-0.07012474,0.056686923,-0.059590805,-1.1095077,0.0,0.12250603,0.20129782,0.04260643,0.0,0.16793855,-0.0016102527,0.0016388546,0.2373818,0.27001658,0.08957451,0.32228962,-0.08641879,0.13759315,-0.10100259,0.0,0.17420554,0.031631842,0.078652106,0.19829705,0.17419067
AACGTTCTTCAAGC-1-ventral-1,0.13051796,0.07652696,-0.097582676,0.09092444,0.13094547,0.14731362,0.0,-0.048724215,0.0,0.10089126,-0.038640767,0.041201755,0.17925365,0.020639107,0.15519193,-0.014751885,0.07408118,0.23460604,0.0,0.004758773,0.11585159,0.26883388,0.21405421,0.0,0.04348201,-0.058713425,0.038257677,-0.020507641,-1.1095095,0.08278428,0.17065878,0.2565538,0.03201374,0.20769659,0.18916474,-0.023090575,0.023398863,0.0,0.0,0.0,0.25291607,-0.063437164,0.17740501,-0.13644868,-0.0,0.19325623,0.009209605,0.01369935,0.3585077,0.15098853
AACTACCTCCAATG-1-ventral,0.1601492,0.28883886,0.10286845,0.19642943,0.16194278,0.0,0.09035828,-0.046340164,0.30243355,0.13305584,0.019799585,0.08691145,0.2427979,0.08254244,-0.0007542637,0.07252391,0.09145462,0.17641345,0.0,-0.034370955,-0.066984296,0.02152573,0.2044394,0.009936033,0.17535983,0.0,0.047267567,0.2153609,-1.1095226,0.043033004,0.029690688,0.22744422,0.17127249,-0.04992214,0.076057486,0.0,-0.21305847,0.22604145,0.11118348,0.1688132,0.053376094,0.0992951,0.10411778,-0.006586645,0.09877387,0.20536876,0.19510393,0.090781234,0.0,0.043859515
AACTACCTCCAATG-1-ventral-1,0.22529233,0.301761,0.12781057,0.1145846,0.20895879,0.15716541,-0.044470698,-0.030078426,0.39921224,0.16538194,-0.07064959,0.07763378,0.08398291,0.11764733,0.10031151,-0.0,0.088663444,0.107637815,0.15864752,-0.049952008,0.017923431,0.052892238,0.12999515,0.06167548,0.1437268,0.0288575,0.06483571,0.18815039,-0.0,-0.0,0.060248096,0.14545876,0.22566035,-0.087253585,0.042909503,0.14905597,-0.10997547,0.30689237,0.0974802,0.15886639,0.06016927,0.11258431,0.19423902,0.10662821,0.008065358,0.18012723,0.0,0.16879785,0.10687282,0.021571063
AACTCACTACCACA-1-dorsal,0.030825082,0.0,0.15327683,0.0,0.0,0.12986998,0.09619788,-0.12266868,0.0760262,0.06405223,-0.086444356,-0.0064271027,0.1764352,0.1298931,0.0,0.20046194,0.0660951,0.222447,0.092748426,0.04935308,-0.054485667,0.080564745,0.2916149,0.1597284,0.20882905,0.046154246,-0.0,0.03745686,-1.1095059,0.11487473,-0.008447502,0.109790534,0.09638386,0.16247846,0.26410034,0.06142603,0.0,0.19658306,0.0,0.15035799,0.08844372,-0.2037806,0.38943613,-0.06788797,0.089012966,-0.021453567,0.0,-0.038312346,0.14657064,0.13009053
AACTCACTAGTACC-1-ventral,0.21212605,0.09231175,-0.012656451,0.20946167,0.0,-0.0,0.08478064,-0.09351207,0.073090345,0.08674529,0.03714143,0.025435183,0.22481686,0.19815423,0.14095995,0.0,0.12262934,0.17988977,-0.0620189,0.17541419,-0.03076017,0.09107192,0.35293514,-0.024283795,0.0,0.08792785,0.09690803,-0.120305024,-1.109493,0.15743981,0.011823774,0.14797935,-0.04615658,0.26596496,0.073917195,0.19457404,-0.19932191,0.33037955,0.0,0.042373806,0.07430698,-0.048126712,0.2409949,0.05390321,0.015952555,0.0,0.4327937,0.038961448,0.09542492,0.15067548
AACTCGGACTAAGC-1-ventral,0.20318252,0.09528211,0.24191472,0.22062163,0.1356555,0.11015695,0.0,0.15735266,0.14166929,0.27168125,0.11389526,0.1446171,0.07066007,0.01624538,0.18533488,-0.08114736,0.26630905,0.24430306,0.12966558,-0.02413677,0.14325593,0.065459035,0.13171396,0.15914327,0.091529146,0.22885202,-0.0,0.1128613,-1.1095048,-0.15820684,0.07261913,0.21578106,0.08344588,0.0,0.0,-0.010088749,-0.043073364,0.20861463,-0.043742195,-0.09393196,0.21280299,-0.115605004,0.046763375,-0.08297099,0.0,0.10793675,-0.039822396,0.06141281,0.14528987,0.20508777
AACTCGGACTACTT-1-dorsal,0.086382195,0.22658913,0.0,0.0,0.27074125,-0.019877356,0.19554715,-0.10173189,-0.009166665,0.109088756,0.06091064,0.10784094,0.15794127,0.1351659,0.10116922,0.1302494,0.15814361,0.20194285,0.175633,-0.0725376,-0.012845,0.123756826,0.11560494,0.0,0.09638568,0.114955015,0.13733692,0.10442564,-1.1095194,0.104130894,0.017060613,0.18301775,0.064882785,0.13518481,0.002195918,-0.0,-0.11841894,0.21386445,0.3247775,0.05313727,-0.046458907,0.046545465,-0.06329199,0.07944639,0.37234458,0.28096306,0.11106791,0.0,0.011147448,0.13828416
AACTCGGACTACTT-1-dorsal-1,0.10022825,0.16887198,0.10771449,0.18862303,0.37124586,-0.0016113123,0.110334545,-0.10624614,0.14098595,0.12677763,0.123257495,0.0877477,0.16218457,0.10535594,0.06597008,0.09112489,0.23331124,0.23643987,0.21437858,-0.017367205,-0.012366839,0.14032447,0.11225116,-0.0028783747,0.04469759,0.14504646,0.109570146,0.08359527,-1.109522,0.0,-0.014859637,0.0,0.06147129,0.06330473,0.027386274,0.021050097,-0.050994426,0.26252526,0.17406757,-0.025816958,0.047392268,0.0,-0.13814662,0.034456432,0.3221112,0.27113286,0.115407795,0.15514755,0.14980628,0.11521341
AACTCGGACTTTAC-1-dorsal,0.1729821,0.077496596,0.1937033,-0.016050803,-0.0047887038,0.13597979,0.0,0.09681428,0.06367295,0.0,0.14426851,0.026476044,0.046416283,-0.12883757,-0.0,0.025129853,-0.043505564,0.13036405,0.04082774,0.34566364,0.20562255,0.12442551,0.17689388,0.07024135,-0.03426698,0.16801451,0.17372093,0.10543958,-1.1095271,0.06747931,0.04468176,0.12832075,0.035903033,0.30205438,-0.00855287,0.08915395,0.16143359,0.28205022,0.0,0.18105978,-0.04351689,-0.031495824,0.0,0.083538696,0.15860164,0.14990877,0.12771684,0.11778829,0.16556822,0.07752065
AACTCGGACTTTAC-1-dorsal-1,0.25069857,0.091109954,0.0,0.0,0.05026777,0.11024113,0.05406069,-0.0,0.036239352,0.045537606,0.0,0.0,-0.005830129,0.0013287863,-0.1169018,0.14606361,0.049841356,0.1468308,0.08208618,0.24463895,0.15660015,0.14211375,0.04824051,0.038746312,-0.024658509,0.1706476,0.21770227,0.08313077,-1.109536,0.0,0.008888287,0.067751095,0.16747938,0.25941148,0.040268436,0.0492767,0.124954395,0.24450944,0.22135529,0.20786434,0.024045058,-0.047714118,0.20008534,0.13401054,0.0,0.0,0.0,0.059238892,0.13323058,0.0
AACTCGGAGAACCT-1-dorsal,0.29620886,-0.026022727,-0.025699934,0.24158219,0.12923317,0.0,0.10515586,0.032935582,0.0,-0.03925542,0.14180072,0.0,0.03231091,0.020410705,0.045791052,0.062465146,0.059168316,0.1900713,0.17388287,0.10522662,0.13028404,0.021425843,0.0,0.0093191285,0.05346395,0.1235823,0.17002589,0.0,-1.1095387,0.061425332,0.13263492,0.052998226,0.17800431,0.07788,0.046282437,0.0,0.12591153,0.36982384,0.07851479,0.0,0.00037607635,0.19976121,0.10495607,0.0,0.040710486,0.0,0.07789943,0.08909298,0.16641262,0.0045742095
AACTCTTGGTGTAC-1-ventral,0.11108245,0.094518706,0.08252691,0.09782387,0.17229638,-0.0588531,0.26563954,0.007943317,0.1346958,0.03301603,0.08774796,0.0,0.17786276,-0.07971843,0.0057375142,0.16423467,0.35484946,0.23183799,0.086244084,0.022955516,0.03179842,0.062669516,0.13098954,0.069734074,0.0,0.41187334,0.0,-0.02096726,-1.1095088,0.022649629,0.151869,0.08621706,0.046273727,0.04649116,0.041826453,0.23822947,-0.13616616,0.14490044,0.1422952,-0.021749074,0.3970296,-0.0,0.0728055,0.10264006,0.1255396,-0.01235697,0.15801495,0.14611003,0.06342384,0.0
AACTCTTGTCTACT-1-ventral,0.23205091,0.011716883,0.052612748,0.32019892,0.20496972,0.05024447,0.20547158,-0.025948156,0.15229839,0.27105403,0.132963,0.13871056,0.11860055,0.10812261,-0.035268933,0.059441764,0.18786581,0.09627868,0.089747444,-0.0006884999,0.05596085,0.050471164,0.16091666,0.0876459,0.0,0.32818028,-0.07237124,-0.11227549,-1.1095198,0.1289893,0.14938432,0.20821263,0.11832021,0.09529394,0.059004463,0.12490386,0.035263717,0.1206063,0.18051362,0.01422688,0.0,-0.08706676,0.07049548,-0.087334186,0.2023654,-0.0,0.061145425,0.12310677,-0.027742652,0.22168034
AACTCTTGTGCGTA-1-dorsal,0.17267393,0.15715875,0.01612314,0.1584499,0.18826874,0.0031008201,0.12723465,0.08177898,0.039663795,0.055427648,0.0689076,0.053368494,0.2749997,0.11861902,0.0487892,0.07522052,0.2134555,0.19165233,0.10766601,0.08865718,0.032650467,0.19989078,0.11820275,0.058321513,0.095714815,0.075396694,0.0825276,0.114415176,-1.1095481,0.0,0.10677825,0.16519094,0.19405062,0.103054695,0.112277605,-0.0028067166,0.15595658,0.11600156,0.0,0.067082174,0.015120354,-0.04508456,0.14225921,-0.011927751,0.009123542,0.061683092,0.102098934,0.19630529,0.11377724,0.1378083
AACTCTTGTTCGTT-1-dorsal,0.15296288,0.09598395,0.30971265,0.05158176,0.2961449,0.0,0.20706284,0.011202371,0.063872844,0.18360165,0.19316924,0.07224005,0.09953322,0.009301471,0.1299107,0.1564798,0.18778266,0.22563267,0.20334314,-0.12439821,0.0,0.1523153,0.15355396,-0.04253732,0.17269689,0.20617524,0.051706333,-0.0,-1.1095085,0.13941091,-0.047054622,0.2775467,0.055952612,-0.050526265,0.016572095,0.08141925,0.13405448,0.20225003,0.33218336,0.08993957,0.06025669,-0.048795015,-0.118671395,-0.17537357,0.26897302,0.09675849,0.0,0.06778609,0.09436737,-0.02086282
AACTGTCTCCACCT-1-dorsal,0.43400317,0.108334735,0.012877816,0.1351923,0.04490898,0.0,0.06312474,0.1251066,0.106102094,-0.0,0.19057815,0.0,0.0,-0.0630545,0.14778431,0.0,0.2567093,0.188489,0.15657951,-0.0008771155,0.2598399,0.09288307,0.0,0.09941426,0.13785568,0.18193954,0.23167618,0.044210747,-1.1095256,-0.01251095,0.08168067,0.13474774,0.065965995,0.0074595753,-0.033191312,0.11677469,-0.09941936,0.24373272,0.1294053,0.23090288,0.0125159575,0.20721018,0.077708416,0.039205316,0.033149954,0.05176641,0.0,-0.020619765,0.042655494,0.1554408
AACTGTCTGAATAG-1-dorsal,0.36798063,0.1046001,0.04427082,0.2694033,0.14227003,0.10752932,0.11956629,0.06029064,0.0056117154,0.23757096,0.11594399,0.0,0.0,0.08652974,0.015585576,-0.027357806,0.17871553,0.0,0.13746357,0.0,0.0,0.105242215,0.16663717,-0.048258904,0.0032984654,0.092082776,0.15085012,0.038463995,-0.0,-0.0,0.14994615,-0.035639077,0.17231505,-0.05626414,0.09882336,0.053587206,0.004616715,0.31238657,0.089915104,0.11767181,0.13606048,0.0,-0.00021206008,0.12425718,0.058560856,0.0,-0.0632198,0.11568048,0.088209994,0.031695284
AACTGTCTTTTCAC-1-ventral,0.2571605,0.091521196,0.2444212,0.0,0.22644633,-0.011162759,0.07123777,0.1323099,-0.030208364,0.034286577,0.006657504,0.14559783,0.25906155,0.08307072,0.0,0.0,0.16881305,0.15495643,0.18816249,-0.08839793,0.14709172,0.22179674,0.12812223,0.024336752,0.10794516,0.08945507,0.079393096,-0.030092863,-1.109508,0.09559289,0.025683403,0.21086477,0.10582825,-0.1057658,0.0899281,-0.023689602,-0.13372886,0.0,0.25781077,-0.0,0.0,0.1467255,0.033904552,-0.0035566755,0.0,0.0,0.15816842,0.13441916,0.059572008,0.4274776
AACTTGCTTTCTAC-1-ventral,0.12169976,0.09298084,0.021477185,0.41821226,0.0,0.040588543,0.36739475,0.094741754,0.03318958,0.4757776,0.005140632,0.08016058,-0.12211986,-0.0,-0.10314558,0.074863605,0.0805839,-0.023609467,0.004608404,0.0706702,-0.0040343073,0.40357673,0.40341756,0.22684453,0.23439595,0.017061561,-0.09583951,0.003477956,-1.1094403,-0.0058395998,0.3103298,0.17497812,-0.052519046,0.08535684,-0.062708855,-0.04868925,-0.07727021,0.3510659,0.08426669,-0.1269036,0.24546136,-0.11360275,0.22103195,0.3222447,0.15546773,0.16405438,-0.0008930763,-0.1329936,0.0619892,0.099418625
AACTTGCTTTCTAC-1-ventral-1,0.19838996,0.16451144,-0.05792029,0.47708872,0.31816447,0.0,0.34865117,0.08988575,-0.07907285,0.48045424,0.05812616,0.06826057,0.08369558,-0.052808262,-0.05320655,0.12936598,-0.0,-0.05144272,-0.019325681,-0.047053564,-0.03338635,0.0,0.38425374,0.20493495,0.27585784,0.010469085,-0.05515377,-0.030398171,-1.1094433,0.11015699,0.27969396,0.14771064,-0.104460195,0.09198587,-0.03543132,0.040874477,-0.17142482,0.0,0.08274879,-0.07260952,0.3015544,-0.17114462,0.23090947,0.30036563,0.14529645,0.0,-0.008823143,-0.009563367,0.054765727,0.028619992
AAGAACGAAAGGCG-1-dorsal,0.21254948,0.15614782,0.1219629,0.24655809,0.10143623,0.10607154,0.13950898,-0.10186745,-0.047639214,0.015022404,0.10526174,0.28047708,0.13537277,0.033509035,0.08874705,0.0,0.20215605,0.3425149,0.20560467,-0.024337439,0.20672014,-0.06575598,0.061057992,0.14975795,0.21656476,0.08030769,0.4516639,0.07515939,-1.1094958,0.035920937,-0.0052056713,0.06782642,0.10910937,0.0,-0.06536901,0.026746314,0.028030347,0.26647714,0.25517315,-0.03562424,-0.0019652315,-0.2147982,-0.013990999,-0.06355047,0.19872326,0.2559353,-0.015339322,0.031204382,0.034708902,0.16561294
AAGAAGACCTGGTA-1-dorsal,0.0,0.17985673,0.07285593,0.27224427,0.13990462,0.01474821,0.16876365,-0.0,0.11590321,0.2356496,0.17828725,0.23735538,0.3434374,0.018830068,-0.10661503,-0.0017950933,0.2594542,0.04470495,0.13572353,0.0835635,-0.020435188,0.28038165,0.20736605,-0.0,0.12147323,0.2771501,-0.0,0.04047673,-1.1095155,0.10922331,0.09391042,0.106999435,0.08973649,0.13571244,0.024800584,0.084535934,0.0088116,0.17843547,0.07890788,0.045503262,0.0,-0.008865529,-0.065038204,0.0,0.10193329,-0.0029367872,0.23476526,0.02010386,0.09998618,-0.005890992
AAGAAGACCTGGTA-1-dorsal-1,0.16433255,0.055839967,0.11362353,0.25134885,0.13809597,-0.044978395,0.18601657,0.024771385,0.20684989,0.18602084,0.27664357,0.18412481,0.30865657,-0.06990731,-0.050584942,-0.050319303,0.24000944,0.13667594,0.15543024,0.0,0.10889422,0.263947,0.36878508,-0.02906508,0.16252035,0.32115746,-0.04883316,0.061729033,-1.1094992,0.02964902,0.08360002,0.11885323,0.20097089,0.0,-0.058831047,0.1459732,0.0,0.26002806,-0.022868978,-0.034972034,0.2746221,-0.018566385,-0.053864058,-0.080950394,0.028044723,-0.059297483,0.14875539,-0.021031566,0.0,0.08865247
AAGAAGACCTGGTA-1-dorsal-2,0.21832126,0.0,0.14948736,0.26115093,0.22922672,-0.019819604,0.11970078,-0.011043482,0.13320558,0.19318628,0.26990563,0.25370285,0.36810392,-0.117859446,-0.060187053,-0.045832463,0.23329929,0.12625459,0.092292614,0.0,0.07781326,0.27849695,0.25943828,-0.03830698,0.17324652,0.28402457,-0.037112303,0.092290394,-0.0,0.11075087,0.04859182,0.0,0.0,0.0,0.018018642,0.0,0.018711489,0.11236046,0.03105639,0.028383825,0.0,0.0041102245,0.0066972775,-0.0,0.09190754,-0.09376778,0.21307887,-0.05253209,0.025160214,-0.07578228
AAGAAGACTTCATC-1-ventral,0.34511653,-0.014812881,0.23361543,0.124736436,-0.060323812,0.1728942,0.2666871,0.10212946,-0.07864105,-0.0,0.2129724,0.14309983,0.24664961,-0.063739024,0.14622588,0.15116347,0.15161544,0.25904283,0.0009783234,0.00287818,0.26015615,0.0,0.2105292,-0.01698865,0.0,0.22841735,0.11901424,0.06428604,-1.1095151,0.027886618,-0.051572125,0.16689175,0.022975778,0.13346876,0.084087275,0.010017923,0.10371864,0.28135163,0.21626264,0.095540546,-0.0,0.016729157,-0.034557518,0.14724828,-0.0039358935,0.25552753,-0.0,0.041726325,0.002524853,0.0
AAGAATCTAAGCCT-1-dorsal,0.5242258,0.0,-0.08996467,0.10545248,0.15486307,0.17225897,0.16932003,-0.0,0.065072566,-0.10960142,0.10825005,0.0,0.0,-0.0,0.14245433,0.07674554,0.11942827,0.10179901,-0.028862227,0.15906808,0.29829758,-0.00063412724,0.0,0.032834217,-0.008423792,0.1124149,0.030930305,-0.0008732743,-0.0,0.0,0.24090052,-0.030307837,-0.045208666,0.23906358,-0.060403813,0.17013918,0.06329776,0.19736195,0.23633693,0.08104248,-0.08481344,0.08053533,0.2483324,0.108228184,0.19409572,0.2029439,0.0955886,0.010453091,-0.00062253745,0.16003998
AAGAATCTAAGCCT-1-dorsal-1,0.5264177,-0.022093192,0.08134833,0.035596676,0.1501659,0.1980387,0.0,-0.029995179,0.052104577,-0.09542572,-0.080176465,0.2619325,0.0041332883,-0.030185184,0.095744714,0.121917285,-0.014420683,0.0,0.045972954,0.1277014,0.26768273,0.13761805,0.15236492,0.025728215,0.057682782,0.1486742,0.06128624,0.025115578,-1.109498,0.1404985,0.20339975,-0.032997727,-0.07572797,0.22929017,-0.1132128,0.23831904,0.0,0.22460477,0.28773478,0.08654327,-0.11031734,0.046502806,0.20586185,0.16395171,0.1394912,0.25295144,0.034214817,0.06973736,0.0688967,0.0
AAGAATCTATCAGC-1-dorsal,0.08854378,0.32401073,-0.027020905,0.14037588,0.19363421,0.13347399,0.097963884,-0.04576405,0.12606543,0.019750468,0.07617254,0.105417386,0.22648829,0.14353944,0.025983673,0.053218752,0.094108745,0.08234697,0.16517195,-0.016687512,0.028838897,0.06788398,0.17316855,0.0,0.1076199,0.1115405,0.11929556,0.14677587,-1.1095246,-0.11434396,0.016677985,0.3005047,0.17659138,-0.032146443,0.0072432477,0.17021415,-0.046351753,0.28150237,0.24816431,0.010316116,0.0,0.0,-0.049743522,-0.036983956,0.12386145,0.26116517,0.15773012,0.090830915,0.078991,0.0
AAGACAGACTGGAT-1-ventral,0.23582582,0.0,0.0710862,0.046896618,0.1132844,0.07745596,0.22549143,0.0,0.111840546,0.0,-0.0,0.14826322,0.0992072,0.23910673,0.087250374,0.119584225,0.1800163,0.19033006,-0.028983753,0.14424136,0.16285573,0.27837345,0.2798102,0.04074405,0.17261173,0.034223944,0.1676454,0.33631757,-1.1095192,0.1613022,0.06793368,0.16364107,0.054365367,0.18674904,-0.096529596,0.056790676,-0.08971142,0.066348925,0.23284207,-0.13976952,-0.0899548,0.053234547,0.157393,0.052515764,0.19690591,-0.013553633,0.1285195,-0.03407823,0.09793012,0.053662065
AAGAGATGAACGAA-1-ventral,0.24301203,0.27441162,0.27700302,0.20367354,0.15351485,0.13477205,0.110919215,0.0107886605,0.051642396,0.122944966,-0.048590768,0.10312819,0.24011272,-0.0776338,0.26387343,0.01437306,0.033875275,0.28748888,0.15304905,0.04475956,0.13374141,0.19284518,0.19646266,0.09166165,0.07658446,0.11634772,-0.07452118,0.10997147,-1.1095127,-0.041223105,0.04915991,0.18488187,0.06957972,0.017957076,-0.05815579,0.15173641,-0.047675174,0.19643347,0.09300295,-0.12004972,0.03351662,-0.068647996,-0.0,0.06557051,0.29482225,0.19719219,0.14487855,0.27188763,0.04490389,0.07944121
AAGAGATGCCAGTA-1-ventral,0.11416967,0.22574797,0.12988329,0.05441445,0.13135222,0.12444414,0.055084154,0.12755759,0.19726506,0.17220314,0.06424195,0.1537936,0.12334105,0.04713886,0.06304089,0.049210653,0.19041453,0.3286697,0.0,0.038094997,-0.051641334,0.0376141,0.11365247,0.0,0.2033689,0.15299325,-0.050384868,0.16869582,-1.1095271,0.035052843,0.080705054,0.29762438,0.0,-0.05452567,0.04037325,0.0,-0.13678187,0.037846334,0.20881195,-0.060552362,0.18198024,-0.029183429,0.06816762,0.01194663,0.09879339,0.09031495,0.16157755,0.22216758,0.041710164,0.116839044
AAGATGGACTATTC-1-dorsal,0.15026411,0.105225176,0.08552315,0.22380494,0.0,-0.000366105,0.2150188,0.09342736,0.14593218,0.040461294,-0.01004186,0.18208948,0.3253366,0.049819395,-0.081116565,0.14059633,0.16669416,0.20928225,0.14453728,-0.025075477,0.0,0.1665635,0.23289068,0.051721342,0.0,0.08415693,0.020752592,0.007417078,-0.0,0.07591617,-0.05081965,0.18084218,0.16705337,-0.0013948149,0.02831186,0.009579837,-0.002876388,0.152428,0.066023014,-0.079262264,0.18568683,-0.010226966,-0.019532045,0.022661086,0.21473469,0.18097022,0.24186192,0.20351772,0.1627691,0.16949204
AAGATGGACTATTC-1-dorsal-1,0.12965256,0.0,0.08827988,0.2889784,0.09621125,-0.007125603,0.0,0.06841159,0.18861036,0.066575125,0.017187923,0.12694857,0.31746584,0.009817362,0.0,0.090887785,0.0,0.16344039,0.0,0.006027404,0.03460516,0.09210619,0.0,0.102594964,0.06886513,0.0,0.003768661,0.0304442,-1.1095306,0.08000785,0.0,0.0,0.114184506,-0.019822123,0.0,-0.012948911,-0.10615263,0.2032313,0.033233028,0.05774168,0.16533262,-0.0,0.061938148,0.051330112,0.2046171,0.08782422,0.18934129,0.17102978,0.111416884,0.0
AAGATGGAGACGAG-1-ventral,0.21768457,-0.026872953,0.04915544,0.16290952,0.3774281,0.05247285,0.121992104,0.06244524,0.36509922,0.081446454,0.0,0.15415698,0.14579244,0.051980287,0.029089862,0.17051171,0.17714126,0.22644165,0.17202663,0.06712266,-0.07289728,0.02295135,0.2205129,-0.15566337,0.0,0.0,0.086734414,-0.03547973,-1.1095157,0.1362147,0.024209354,0.18907218,0.13074043,0.042456068,-0.009645754,0.06618174,-0.014933216,-0.032119952,0.17008843,0.110175714,0.03196844,0.037861142,0.016892664,-0.035744973,0.18988194,0.0,0.0,0.12408571,0.028747264,0.21257432
AAGATGGAGACGAG-1-ventral-1,0.14011386,0.055909745,0.041401464,0.22205809,0.3006905,0.050102603,0.0,0.13600595,0.22225249,0.0,0.13002424,0.17542274,0.30090964,0.03140377,0.031629004,0.11386161,0.107499786,0.19547419,0.23183022,0.084517814,-0.016106103,-0.0,0.24631205,-0.16699997,0.1328924,0.10573158,0.017267818,0.0,-1.109501,0.12823264,-0.03429857,0.105037265,0.07636276,0.03008379,-0.03348821,0.034931622,-0.1221584,-0.06970499,0.23623264,0.06796652,0.10735971,0.022380551,-0.06633514,-0.17374106,0.2713392,0.22177519,0.2596681,0.3025357,0.0,0.18359785
AAGATTACCCATGA-1-ventral,0.20944048,0.17107356,-0.0,0.2137982,0.14580238,0.019811016,0.095667064,-0.054449506,0.3000494,0.29992884,0.13137855,0.0,0.38017562,-0.040927663,0.14589754,0.0,0.059986167,0.0,-0.06452369,0.012810839,-0.0,-0.10685762,0.2832187,-0.0,0.0,0.40910393,0.23983319,0.14021161,-1.1094848,-0.08154426,0.017401768,0.14228857,-0.09510087,0.04944505,-0.08610083,0.31270465,0.0027403277,0.2615825,0.0,-0.021741988,0.0,0.006003041,0.012992025,0.0066632987,0.1465671,0.034224223,0.12988754,0.0,-0.0007525418,-0.008085966
AAGCAAGAAGAGTA-1-ventral,0.28728342,0.1092317,-0.0,0.1878294,0.092991106,-0.0,0.1660543,-0.01590603,0.011720625,0.015652375,0.07711153,0.2847133,0.008923633,0.07321845,0.0,0.18383247,0.0,0.18484278,0.13300087,0.021922296,0.29189458,0.0,0.2745763,0.124814436,0.10814851,0.014611194,0.23030093,0.014712058,-1.1095163,0.0,0.06543462,0.025547007,0.07849357,0.06547121,0.07030007,-0.03921138,0.16338147,0.3451469,0.1867872,0.057597727,0.14377573,-0.0,0.0,0.08556391,0.17548127,-0.030569633,0.19676702,-0.09000328,0.0,-0.0035895905
AAGCCAACGAATGA-1-dorsal,0.33671525,0.09047082,0.15543051,0.3010498,0.0,0.07395821,0.13882723,0.0389016,0.0,-0.00094811124,0.12765542,0.18412985,0.19065826,0.010551608,0.0024912218,0.0,0.26661342,0.24804501,0.023381563,0.06843119,0.20786244,0.12323737,0.28698274,-0.014987257,0.13960797,0.041541193,0.0,0.03206769,-1.1095169,-0.015751854,-0.017755827,0.25618842,0.0788306,-0.04517198,-0.07989963,-0.024705596,0.07446214,0.24296111,0.1836067,0.027398642,-0.024538174,-0.0,0.18751492,-0.07359922,0.1416315,0.08079095,0.009194248,0.12448789,0.15030879,0.106011875
AAGCCAACGTTTCT-1-dorsal,0.20795381,0.116405666,0.14705527,0.1740034,0.23626722,0.033325616,0.039801158,-0.10108657,-0.0,-0.04899714,0.34551656,0.16055721,0.23923461,-0.00032265982,0.2606347,0.0,0.105964474,0.3795827,0.1771525,-0.009898279,0.29812664,0.1922318,0.09747314,0.0008402848,0.0,0.22818224,0.122430034,0.04302155,-1.1094837,0.16514172,-0.007472966,0.0,-0.033493508,0.14544521,-0.1397617,0.12265179,0.08775714,0.30662164,0.3546188,-0.0,-0.04999214,-0.0,0.045051605,-0.06518232,0.26623988,-0.057211787,0.011273776,-0.07800626,0.1751735,0.14592257
AAGCCAACTATGCG-1-ventral,0.17587422,0.17452373,0.1870491,0.006137056,0.2088423,0.11490816,0.14338678,-0.03696594,0.20540676,0.19674456,0.0,0.3166251,0.13831207,0.10283804,-0.010435714,0.0,0.1736089,0.23256488,0.03629518,0.0,-0.062300038,0.06713298,0.042955894,-0.02945251,0.0,0.0,0.027894342,0.035812285,-0.0,-0.06975161,0.14240927,0.19288461,0.16218033,0.010079489,-0.08204295,0.2692414,0.03969947,0.10203511,0.18654877,-0.047414966,0.22484024,-0.017276274,0.13060232,0.029615931,0.1936203,0.0019399036,0.21396849,0.092437975,0.12440707,0.12838964
AAGCCATGCCCAAA-1-dorsal,0.18356211,0.05387217,0.18535627,0.11925779,0.12966594,0.13050957,0.11601686,0.24827498,-0.026730102,0.10932911,-0.0,0.18638913,0.09539425,0.03130602,0.03816592,-0.032722224,0.3291706,0.10622395,0.16695696,0.18442574,0.27046698,0.0,0.0,0.09770503,0.03774271,0.096498236,0.21878418,0.009944945,-1.1095345,0.08334548,0.0,0.02684224,0.015407048,0.2157117,0.075494565,0.053254332,-0.008049409,0.16409436,0.05335231,0.048504714,0.075531185,-0.033682585,0.10307928,0.08387794,0.15308921,0.2079802,0.06438016,0.20094678,0.12863964,0.05967935
AAGCCATGGTAAGA-1-ventral,0.099010155,0.024513355,-0.0,0.09412872,0.31614786,0.0,0.13798684,0.015449806,0.20681545,0.037546735,0.07831599,0.056752972,0.30399454,0.12223434,0.16087422,-0.023519596,0.0,0.34733048,-0.019580921,0.11794546,0.060779504,-0.096753314,0.12214446,-0.0,0.3026619,0.33654964,0.16169555,0.0,-1.1094717,-0.010881358,-0.03993604,0.19783789,0.0602862,0.0,0.07268179,0.11678763,-0.2052355,0.32719252,0.1613032,0.1144624,0.3211199,-0.0,-0.15532587,-0.0024502808,0.21599655,-0.07946717,0.20542237,0.26144114,-0.06283039,0.24058674
AAGCCATGGTAAGA-1-ventral-1,0.19354114,-0.037210055,-0.09436323,0.08441,0.36993122,0.09642266,0.14906347,-0.017160377,0.1759661,0.12655863,0.0,0.062372994,0.0,-0.080558196,0.11103015,-0.00025378334,0.19304684,0.29515266,-0.11708618,0.11534407,0.14258346,0.0,0.0,-0.06750578,0.20111847,0.33276328,0.14976089,0.06742809,-1.1094744,0.076799415,-0.012261603,0.25991556,-0.10082312,0.25919998,0.043580268,0.0,-0.0,0.24277048,0.2918033,0.09482604,0.2952354,0.028642265,-0.07888967,-0.06875038,0.0,-0.12179223,0.16260155,0.23434697,-0.14328507,0.15500675
AAGCCTGAGTGAGG-1-ventral,0.3075105,0.18792921,0.03717872,0.09607522,0.1526983,0.0,-0.09599322,-0.07443521,-0.031429,0.08710547,0.26616493,-0.0,0.13372181,-0.049741138,0.106929526,0.0,0.2775475,0.31635198,-0.02268851,-0.0004909436,0.3249502,0.15095115,0.110465705,-0.011992852,0.1313754,0.24387713,0.0,-0.01939575,-1.1095006,0.0,0.034328867,0.14786904,0.1298194,0.16148295,-0.08548717,0.051510695,0.019590044,0.220437,0.21848057,-0.08356479,0.12122751,0.072873026,0.25472802,-0.022850236,0.19339569,0.036516942,-0.087222524,-0.047992602,0.11857932,0.3211048
AAGCCTGATTGACG-1-dorsal,0.14674436,-0.004431539,0.08559401,-0.010543533,0.07327054,0.101655774,0.17529686,0.15496814,-0.02056016,-0.050221484,0.10141666,0.13020349,0.08893391,0.05039083,0.0,0.04615454,0.124996565,0.0,0.20285833,0.20408717,0.14736968,0.101192504,0.15377474,0.034124054,0.038086157,0.09801442,0.16311386,-0.010002455,-1.1095407,0.06722249,0.0,0.0,0.15164039,0.1985759,0.017308379,3.034042e-06,-0.0,0.35699207,0.16657548,0.102825254,0.08721115,0.089095965,-0.014698705,0.10152344,0.13153917,0.0,0.17092755,0.047768936,0.15326557,0.09490753
AAGCGACTCTGATG-1-ventral,0.32780424,0.18582153,0.013595829,0.19616614,0.14441709,0.004826275,0.3069391,0.023312958,0.1468787,0.1851762,0.21847816,0.1468317,0.0,0.030340562,-0.0,0.026482191,0.18123052,0.25520793,0.0,0.041864496,-0.06017321,0.111482486,0.32833597,0.020296752,0.121813916,0.19887479,0.08395182,0.11259894,-1.1094997,-0.019056533,-0.10058311,0.13688508,-0.17459533,0.113853805,-0.00013364687,0.27749392,0.004335282,0.19673283,0.093194306,-0.14709063,0.23043759,-0.10337214,0.072997265,-0.00070770585,0.0761986,0.08333596,0.17247929,-0.0,0.15857863,0.10416661
AAGCGTACTATGCG-1-ventral,0.03869666,0.0687537,-0.0010289086,0.036156546,0.17058314,0.06748059,0.19540273,0.045219023,0.0,0.075382955,0.03173356,0.13123737,0.10478325,0.043224577,0.15446667,0.36315614,-0.038685866,0.30208507,0.0927505,0.11742339,0.02947143,0.17625402,0.24993151,0.014780363,0.25767317,-0.03614353,0.17472415,0.003274903,-1.109513,0.30697745,0.10264965,0.26162618,0.10394719,0.12922674,0.056451395,-0.043737028,0.050750114,0.18079679,0.11497307,-0.0,-0.017329985,-0.021222964,0.028091848,-0.041462846,0.24660283,0.09160113,-0.015260644,0.15802258,0.018205205,0.0
AAGGCTACGACAAA-1-ventral,0.2057681,0.15861125,-0.019742317,0.36684576,0.0,0.06976072,0.2153809,-0.078979865,0.110158205,0.4107198,0.07013237,0.031087466,0.2764467,0.067577556,0.035208866,-0.04792419,0.25948563,0.16965535,0.018379867,0.07775908,0.05796298,0.11591628,0.08162035,0.09942703,0.060940664,0.21369803,0.14477271,0.19406433,-1.1095071,-0.0,0.0063141934,0.091508515,-0.031511188,0.0,0.19683044,0.0,-0.0,0.19546111,0.21946,-0.075258486,0.16083698,-0.13016543,-0.04746298,0.06423851,0.06848404,0.0,0.09910567,1.4776986e-06,0.20106077,0.073198736
AAGGCTACGGTGAG-1-ventral,0.21767998,0.26796952,0.25946957,0.10636107,0.0,0.058809385,0.16695705,-0.024119087,0.30442306,0.0,0.10726787,0.09376865,0.35049033,-0.15027669,-0.060667466,-0.051277548,0.07803763,0.15855144,0.24643868,0.054982807,0.14037818,0.2273799,0.0,0.07332364,0.19124192,0.16719738,-0.11374865,0.18584397,-1.109502,0.0,0.06351319,0.29362002,-0.0,-0.06835567,0.008196881,0.3054143,-0.14688367,0.0,0.0,0.11035145,0.013690281,0.08576119,0.08032693,-0.016808644,-0.010904737,0.0,0.027774751,0.11627444,0.11474872,0.0
AAGGCTTGCTCATT-1-dorsal,0.14073457,0.20481011,0.29028594,0.16720052,0.14226288,0.17297094,0.10261447,-0.08530683,0.10779955,0.072841845,0.042152394,0.0,0.0,-0.032221016,-0.017161304,0.11708121,0.08945976,0.0,0.07741943,0.08298353,0.024553878,0.16908176,0.2761916,0.08579124,0.054408964,0.15032102,0.07910201,0.052708752,-1.1095312,0.04644085,-0.029302705,0.18365693,0.0,0.082051784,0.072984084,0.23207906,-0.0047668484,0.22187726,0.16718413,-0.0,0.07226646,0.111829065,-0.04800287,0.037844982,0.12002143,0.18721296,-0.0,0.10700949,0.031197602,0.0656686
AAGGTCACACTTTC-1-dorsal,0.06183545,0.24377294,0.0,0.06920518,0.3214174,0.06811701,0.082760856,0.0,0.1381102,0.13892083,0.086360015,0.113945454,0.020356918,0.0021270954,0.16195947,0.28621385,0.21419603,0.10974538,0.0,0.015712228,-0.0857344,0.093084484,0.10481341,0.03225299,0.08612978,0.016851956,0.10103706,0.0132298395,-1.1095213,0.16095582,-0.017774172,0.0,0.07771386,-0.040465992,0.020419054,0.0,-0.0,0.06776932,0.35118616,0.10924542,0.17679998,-0.029567746,-0.0040261615,-0.051173437,0.13265568,0.14613949,0.16408795,0.1268506,0.30930126,0.012856491
AAGGTCACAGGGTG-1-ventral,0.31477368,0.13495494,0.03741632,0.19672027,0.0,0.1067514,0.14680354,-0.05508231,0.070653535,0.15735762,-0.066536866,0.05375219,0.09555885,0.0,0.3004861,0.064981826,0.104847796,0.09379495,0.08049975,0.059137706,0.097967766,0.21352434,0.18454589,0.13382876,0.085514024,0.089740165,-0.051090587,-0.079432465,-0.0,0.19637473,0.17505413,0.017631374,0.0,0.0,0.011111978,0.025732026,-0.079677045,0.36751664,0.23509885,-0.055499345,0.029407633,-0.0,-0.08036773,-0.0,0.19794558,0.2253366,0.13246429,0.0,0.09632851,0.04771943
AAGGTCACCCCTCA-1-ventral,0.054964088,0.12474384,0.23679782,0.3118334,0.17243804,0.11255879,0.20570819,0.1216094,0.15484644,0.030357165,0.11441314,0.27620754,0.24216852,-0.0054937606,0.06615713,0.14710407,0.130086,0.23114878,0.0077117817,0.014508496,0.0,0.07796865,0.3152623,0.0328796,0.04676846,0.24532788,-0.013636616,0.0,-1.1094986,-0.10855059,0.13342775,0.21465775,0.067204274,0.16515867,-0.07663363,-0.0,-0.11194991,0.25064003,0.028446926,-0.18023837,0.27800477,-0.09473284,-0.066493884,-0.010231337,0.11695085,0.07788976,0.12730248,0.26756266,0.031786926,0.0
AAGGTCACTAACGC-1-ventral,0.1574096,0.0,-0.1344318,0.0,0.18249092,0.109657586,0.15647015,0.0,0.028154602,0.0,0.0,-0.04151093,0.0,0.12377639,0.29227602,0.10485156,0.25473052,0.37158328,0.04178243,0.21303366,0.08884716,0.26110688,0.15600812,0.0,0.27258298,0.044003386,0.055246565,0.13022844,-1.1095163,0.043517,0.14387347,0.1749837,-0.06353551,0.0053524105,-0.028756594,0.08814547,-0.0120106675,0.16421978,0.036311597,0.018028064,0.032309644,-0.056099694,0.12974048,-0.04536437,0.013811539,0.0,-0.05364809,0.14907165,0.17700467,0.07525569
AAGGTCACTCAGGT-1-ventral,0.22358671,-0.020238295,0.21752244,0.1278016,0.075936206,0.096434146,0.19516462,0.21622072,0.11584088,-0.0050447388,0.03881047,0.1346502,-0.013446279,0.0632211,0.039337456,0.11849243,0.14034742,0.21475945,0.0,-0.13191827,0.15010907,0.12050534,-0.034970246,0.15833625,0.036315024,0.10518709,-0.02567245,0.12542091,-1.1095408,0.13176766,0.11753392,0.0,0.19548908,0.124008216,0.14050075,0.098464414,0.27526894,0.14688577,0.09874181,0.11244932,0.088737026,0.118265785,0.0,0.0,0.1029078,0.03776205,0.14360194,0.11763311,0.07703928,0.037516326
AAGGTCTGGGTGGA-1-dorsal,0.0,0.13298999,0.087473035,0.22107339,0.30017817,-0.04083905,0.13090691,-0.10788719,0.061576277,0.0468658,0.049991928,0.1246645,0.23099355,0.08146337,0.12890655,0.12356666,0.22512974,0.085493796,0.2069305,0.19655374,-0.05212923,0.1862777,0.28816873,0.1637108,0.0,0.16699992,0.13494416,-0.06883231,-1.1095175,-0.023263099,0.0038173094,0.114616655,0.26797703,0.06337238,-0.045841668,0.22760801,-0.10057112,0.12412311,0.23123622,-0.042141546,0.007367358,-0.025187997,-0.047286753,0.0052369884,0.042470027,0.12506805,0.12954219,0.13611808,0.120856255,0.16267496
AAGGTCTGTCAGTG-1-dorsal,0.0,0.044015102,0.0,0.0,0.15428253,0.1754629,0.019538648,-0.06007917,0.08938252,0.08816494,-0.060432754,0.04389214,0.081713706,0.04375092,0.15933461,0.23206498,0.05625956,0.0,0.24858977,0.15759116,0.12787233,0.14550734,0.333298,-0.010527572,-0.021543505,0.058621917,0.033290606,0.15098795,-1.1095157,0.13244203,0.05832785,0.26043123,0.0,0.0,0.048221983,0.020664902,0.0721273,0.19925694,0.27865788,0.13515894,0.0,-0.26589966,0.08287897,-0.0,0.2843695,0.16078386,0.004851959,0.04593855,0.05626475,0.10925753
AAGGTGCTATCTCT-1-ventral,0.1385402,0.26338434,0.16781665,0.18113579,0.105846986,-0.028738117,0.35326472,-0.012293525,0.1659704,0.028285174,0.1804266,0.24779993,0.36652544,-0.040689643,0.032760806,-0.1364418,0.0,0.28069806,0.18146014,0.10865533,-0.04287124,0.14576426,0.13231072,0.067012005,0.22272746,0.0,-0.0,0.040463466,-1.109488,-0.00017152893,0.08930331,0.05462992,-0.04806406,0.0,0.053718258,0.0033039146,-0.10440589,0.19211964,0.17814921,-0.059407488,0.08734808,-0.005701251,0.0,-0.0,0.037071813,-0.057789885,0.16510348,0.13794751,0.07418659,0.046596628
AAGGTGCTATCTCT-1-ventral-1,0.2281812,0.24700364,0.10285949,0.16597562,0.13760637,0.02006937,0.24748723,-0.017226934,0.18328631,-0.040348373,0.0,0.31321353,0.33330032,-0.0,-0.034139156,-0.10014852,0.0,0.20403565,0.22235231,0.13690804,0.07836559,0.09017535,0.0,-0.053840615,0.17869444,0.39346465,-0.106169455,0.12536961,-1.1094877,0.01860716,0.07514208,0.0,-0.061079267,0.18345971,-0.00611345,0.007176139,-0.1183951,0.2749859,0.12854654,-0.0023616024,0.080057494,-0.07235223,0.092039265,-0.06030891,0.103776515,0.033541717,0.18091397,0.23550382,-0.028228363,0.1233253
AAGTAACTAGATGA-1-dorsal,0.29569462,0.0,0.038836468,0.0,0.07018575,0.0,0.06708817,0.034515735,0.0,0.05290767,0.17861894,0.14557226,0.15752175,0.10079747,-0.026308168,0.05028198,0.19936599,0.17620467,0.048237655,0.16529836,0.11884891,-0.008094245,0.109007016,-0.0,0.04071821,0.25277594,0.24873908,0.027126811,-1.1095413,0.06929817,0.17619857,0.12605667,0.09771328,0.08338253,-0.03927039,0.10097781,0.07836082,0.20055325,0.16525038,0.0,0.0,0.17815048,0.20101374,0.05895169,0.19701883,0.20024222,0.030436803,0.0018658158,0.12575814,0.064609826
AAGTAACTTCCTCG-1-dorsal,0.24898201,0.2861597,0.0,0.35431343,0.08581421,0.073688775,0.26759067,-0.12461027,0.1075694,0.13004014,0.15415277,0.24963231,0.0,-0.05660812,0.0,0.0030541173,0.06363806,0.16762836,0.08315259,-0.010273788,0.017484067,0.13692038,0.12950236,0.13382548,-0.05460183,0.12066138,-0.028686922,0.17304333,-1.1095123,-0.036612354,0.0065418086,0.24957038,0.01946329,0.06264971,-0.0200969,0.1578354,0.008371316,0.13766891,0.24147196,0.030809212,0.1410032,0.023430023,-0.11654404,-0.0,0.22124943,0.2292444,0.124073915,0.0019497094,0.11016376,0.09952303
AAGTAGGAGGACTT-1-ventral,0.056041613,-0.2331257,-0.16364814,0.047720395,0.019615,0.010051231,0.4380907,0.060598787,0.19897872,0.058724348,0.12788467,0.43811804,0.21903594,0.44661033,0.20336905,-0.10215336,0.46124148,0.40809938,-0.08304868,-0.088510916,0.03642857,0.14415044,0.035964634,-0.09877172,0.021764584,0.66230816,-0.25915563,0.0,-1.1093048,-0.030836465,-0.13516141,0.45001182,0.1483592,-0.026569434,0.06434424,-0.016274916,-0.018649897,0.3470744,0.07959129,0.15747276,0.036834396,-0.1844842,-0.10054947,0.00343615,0.01243651,0.43862703,-0.095052,0.4858433,-0.2816981,0.40432695
AAGTAGGAGGACTT-1-ventral-1,-0.084417135,-0.2539109,-0.10167447,-0.0034418372,0.06654349,0.0,0.49031317,0.16308147,0.2143844,0.12090021,0.04483475,0.43652058,0.2719171,0.41157112,0.31097734,-0.15010503,0.3682182,0.40198827,-0.15809324,-0.11103929,0.080163464,0.14939389,-0.0055129663,-0.022250349,-0.02705839,0.5621188,-0.3182851,0.22822669,-1.1092991,-0.079675786,-0.0864029,0.41389197,0.20633857,0.046691358,0.07265504,-0.1109263,-0.021393565,0.32469144,0.14201905,0.0057427506,-0.07030527,-0.0,-0.034974087,-0.0022477575,-0.039622057,0.312684,-0.089560024,0.5860432,-0.14912792,0.44616437
AAGTATACGGGAGT-1-dorsal,0.25750437,0.12155663,0.0,0.16870494,0.0,0.051048726,0.03767616,0.0,0.006061147,0.0667245,0.14598365,0.094534256,0.07523961,0.003311477,0.1633316,0.0,0.17179196,0.20773117,-0.0,0.28403887,0.28156465,0.08337978,0.21005379,0.0014295554,0.10028469,0.0,0.15270759,-0.059422325,-1.1095372,-0.0054758126,0.03780673,0.12842539,0.00053159066,-0.0,0.0021888814,-0.030893618,0.069856934,0.17260846,0.2600254,0.0,0.15478458,0.08137629,0.0,0.0876795,0.11770899,0.14562407,0.06706869,0.07906171,0.17920586,0.17658664
AAGTATACTCAGGT-1-ventral,0.35447446,-0.036098693,0.24673153,0.14167465,0.28877994,0.0,0.0,0.06580781,0.28692043,0.23339592,0.12315496,0.043420985,0.24614665,-0.07250375,0.0,-0.1384618,0.10470256,0.35543033,-0.18472394,-0.03658659,-0.052984957,-0.0035048858,0.19366877,0.09230876,-0.076841384,0.35659805,0.21513149,-0.09253091,-0.0,-0.09150784,-0.0072595812,0.13208902,0.113338225,0.14278512,0.0,0.31790796,-0.21451673,0.21399656,-0.06365538,0.0067301965,0.34665513,-0.0,-0.038229495,-0.0031832855,0.062777385,0.26980025,0.0,0.17050062,0.19042003,0.0
AAGTCCGAAGCGGA-1-ventral,0.11942511,0.2647754,0.0,0.15529795,0.19453056,0.30966485,0.0,-0.057227813,0.08278469,0.1365043,0.08382847,0.03455053,0.19160554,0.059290532,0.030786889,0.0,0.15381552,0.13810164,0.12377542,-0.0065204175,0.0015918952,0.04679853,0.10865899,0.07594985,0.02296317,0.16044657,-0.018268758,0.09222652,-1.1095132,0.10403569,-0.06245799,0.0,0.28979695,0.24112901,-0.0,0.11894667,-0.06635117,0.24672619,-0.0,-0.0686425,0.23916347,0.13646597,0.008257073,-0.027081504,0.0304202,0.099724405,0.0,0.27014574,0.29681674,0.27658802
AAGTCCGAGAGGCA-1-ventral,0.14817773,0.080129474,0.18164267,0.09454716,0.15840283,0.0704072,0.0,0.029956436,0.0,0.06000157,0.16040052,0.2075363,0.34795666,-0.018858314,0.0,-0.05846249,0.090997,0.2390138,0.1321366,-0.008516842,0.06291634,0.2419033,0.13883327,0.115608625,0.10921471,0.28696427,-0.10273192,0.15291885,-1.1095192,0.04200781,0.091207445,0.084184825,-0.0021106005,-0.018060474,0.0,0.017033994,-0.048013728,0.2912961,0.15745424,-0.1203443,0.29041815,0.05194868,0.12066143,-0.028822556,0.04476272,0.09880111,0.067527235,0.0,0.07339129,0.125347
AAGTCTCTAGTGCT-1-ventral,0.0,0.100922436,0.03854906,0.169956,0.22835325,0.026613636,0.30986774,0.0142001,0.16738796,0.26712003,0.088616714,0.10970438,0.21570088,0.022339502,-0.11222217,0.0,0.099107176,0.18021816,0.062692456,-0.037175152,0.14217871,0.38604754,0.256435,0.15010658,0.14450213,0.3467324,-0.085512534,0.1701189,-1.1095053,-0.027187733,0.22703604,0.122082524,0.060723834,0.0,0.0,-0.0194584,-0.023115676,0.24348824,-0.035445094,-0.022380684,-0.07897378,-0.0,0.1663013,0.08708616,0.10745519,0.08172055,0.0046466915,0.11386282,0.2099366,0.099506736
AAGTCTCTGGATCT-1-dorsal,0.5011417,0.10635059,-0.045609344,0.13164644,0.010161889,0.014773993,0.13772687,0.018471725,-0.07473761,0.13118178,0.12470074,0.10468762,0.07770647,0.0101692565,0.091024496,-0.008758903,0.3105889,0.22854203,0.032835808,0.22514373,0.21102996,0.10165315,0.28457558,-0.053735774,0.014450004,0.096918166,0.0,-0.01490646,-1.109503,0.15281752,0.12244858,0.1215071,0.06439048,0.1043831,0.00094945234,0.1824485,0.1252319,0.20555288,0.049709503,-0.0,0.019157348,-0.1256917,0.19274655,0.112822324,0.0,0.11265063,0.06979731,-0.0023775632,0.07061925,0.16285221
AAGTGCACGTACGT-1-ventral,0.2160308,0.0,0.07156046,0.25910679,0.32477835,0.14122735,0.13533826,-0.0125079695,0.0,0.1843848,0.17880054,0.22433077,0.0,0.1606278,-0.08322703,0.0,0.2515624,0.024616767,0.044955734,-0.0023943186,0.0,0.15210181,0.18782763,0.15460375,0.0,0.17226169,0.04775471,0.13870469,-1.1095041,0.012899849,-0.0,0.2044554,0.05579319,-0.006038613,-0.041540597,0.20341448,-0.13411914,0.23775081,0.15049845,-0.04642626,-0.044026643,-0.15117493,-0.051790345,0.027539255,-0.009866225,0.11142021,0.1494148,0.058469694,0.23012201,0.08699461
AAGTGGCTCCTTCG-1-dorsal,0.16971771,0.2090929,0.0,0.23772067,0.22616053,0.0,0.1865747,-0.14396264,0.093344994,0.047462206,0.03251834,0.24408004,0.28751788,0.07650174,-0.032549966,0.024858411,0.05902217,0.18467662,0.14061473,0.060036495,0.061889213,0.16491556,0.20255879,0.1939567,0.20488155,0.20770834,0.020419514,0.0,-0.0,-0.021060176,-0.0027715499,0.12082457,0.25438234,-0.026371282,0.0,0.050906073,-0.12160209,0.0,0.22771172,-0.036488906,0.07752655,0.045292567,-0.04958067,-0.026613409,0.23108917,0.24569882,0.07875817,0.1621418,-0.015453035,0.2787915
AAGTTATGACGACT-1-ventral,0.30931628,0.06206233,0.08764482,0.0,0.14314765,0.018138902,0.16362149,-0.054421294,0.0,0.22496037,0.09485502,0.0,0.27992275,0.08075619,0.004074222,-0.0,0.035311177,0.23845981,0.07099839,-0.02982855,0.012024136,0.22642219,0.0,0.092369705,0.17395175,0.10508157,-0.02679858,0.24502306,-1.1095104,0.1429678,0.0,0.14484677,-0.012466577,-0.0,0.0,0.14137438,-0.044438843,0.14600965,0.060567018,-0.07569128,0.0,-0.086651914,0.08144679,-0.07721742,-0.0048171813,0.19568329,0.21470763,0.22067624,0.1382783,0.062352728
AAGTTATGACGGAG-1-dorsal,0.12096682,0.073485866,-0.07428547,0.14085416,0.0,0.17108867,0.0,-0.0164081,0.09074358,0.09947769,0.19202746,-0.08228581,0.1498698,-0.018083785,0.23698358,0.030853422,-0.031039054,0.0,-0.010871821,0.12655263,-0.02082699,0.19872908,-0.0063672997,0.0,0.10064043,0.1712049,-0.0,-0.03930357,-0.0,0.33639875,0.24971123,0.3238591,0.0,0.0,0.02757446,0.0,0.042262983,0.11938567,0.22364855,0.13034944,0.05847504,-0.09480358,0.094664566,-0.04997439,0.24129121,0.0,0.13914703,0.0,0.13004695,0.25302616
AAGTTATGCATACG-1-ventral,0.16040263,0.049958985,0.04116514,0.19096531,0.032289244,0.16529554,0.2506425,0.13528293,0.14544213,-0.0016161469,0.16434032,0.16728024,0.24429573,0.37617484,0.20533316,0.27905476,0.06703394,0.25363207,0.04481809,-0.036862228,0.18175384,0.105294995,0.48301932,-0.1228818,0.24222507,0.14326364,0.052616138,0.216272,-1.1094817,0.006199798,0.15434508,0.35197613,-0.049140126,0.0,-0.090126134,0.043633007,0.10064876,0.040326104,0.06398564,-0.024553075,0.031166442,0.00651574,-0.0063092182,-0.15774304,-0.25097993,0.083579555,-0.026073059,0.05235468,0.13974875,0.1717313
AAGTTATGGAGGCA-1-ventral,0.2287343,0.06889151,-0.07416355,0.12737596,-0.10735472,-0.19762027,0.27279755,0.015194094,0.08216449,0.14401843,0.19598813,-0.07958042,-0.01570556,0.048530933,-0.020297768,-0.028639635,0.021955231,0.354723,0.2023489,0.11109383,-0.004791419,0.13689612,0.078947805,0.08452618,0.0,0.18433306,0.30788273,0.14163524,-1.1095072,0.0,0.0,0.12114446,0.13825725,0.16724007,0.039706506,0.013553919,0.16837959,0.38763463,0.27789083,0.06963314,0.0,0.06306253,0.1294105,0.17189069,0.008663817,0.046250056,-0.0046910183,-0.009664364,0.0,0.18112117
AAGTTATGTAGCCA-1-ventral,0.30041635,0.1971689,0.10717065,0.2326696,0.2704253,0.09034228,0.042258143,-0.16996941,0.14885157,0.16909102,0.14071736,0.22733991,0.0,0.0,-0.12418237,-0.11871769,0.10714916,0.13699807,0.051398624,-0.092702046,0.13486329,0.20267928,0.0,0.1749002,-0.0066384347,0.16794217,-0.024282007,0.009173486,-1.1095161,0.0,0.040833116,0.0,0.20482728,0.17907333,0.052924514,0.20842144,0.055224657,0.041933518,0.1268893,0.09813652,0.24135433,-0.002567702,0.17104158,-0.017143423,0.1333192,0.068186015,0.0,0.18443291,0.04694434,0.022856535
AAGTTATGTAGCCA-1-ventral-1,0.0,0.19178328,0.079942085,0.2578838,0.0,0.031105293,-0.01949231,-0.059861146,0.30254304,0.15741397,0.05623352,0.23266158,0.29730347,0.12062173,-0.0875277,-0.04855911,-0.018357106,0.0,-0.0,0.022536522,-0.008693271,0.19057043,0.22894701,0.049712274,0.03923415,0.0,0.022392001,0.011594652,-1.1095059,-0.04410022,0.15715213,0.12113052,0.0,0.10623452,0.0,0.20941296,0.049216304,0.0026219692,0.0,0.031012844,0.13336979,0.019400373,0.04261074,-0.046939123,0.05163687,0.10249766,0.06885017,0.31842354,0.089595884,-0.011143751
AATAACACTGCAGT-1-ventral,0.025453776,0.0969547,-0.010550552,0.21959993,0.18669027,0.046822425,0.25742477,-0.06774902,0.1251844,0.12899752,0.022892294,0.07584277,0.19569093,0.20107041,0.12639874,0.13027346,0.3259835,0.26345232,0.25561747,-0.030481089,0.009568892,0.12144215,0.1841921,0.09221993,0.12307951,0.051243547,-0.04351351,0.033606302,-1.1095208,0.04430872,0.2324006,0.11417078,0.077466056,-0.0018674136,0.002188161,0.11409454,0.0,0.26862347,0.14302099,-0.02147052,0.15542923,-0.147517,0.12073194,-0.07234282,0.073655464,0.09826952,0.14957616,0.08458947,0.15848784,0.17491712
AATAAGCTATGTGC-1-dorsal,0.119100034,0.1673672,0.0,0.17748566,0.27250108,0.020677324,0.22213356,0.01463242,0.0022996136,-0.0027012164,0.15148734,0.07900347,0.14216204,0.01945246,0.1367768,0.24029301,0.31890348,0.20956528,0.2431131,-0.047214694,0.04534907,0.18190543,0.41401535,-0.05237831,0.11017326,-0.06250289,0.106320634,-0.088620126,-1.1094973,0.16972938,-0.012110671,0.21808231,0.047467906,-0.0,-0.0477367,0.09776348,-0.02915303,0.18160668,0.14996473,0.09215554,0.12456881,-0.008964208,-0.057248477,-0.14918354,0.1555038,0.13712342,0.4072883,0.014056088,0.16240497,0.11922406
AATAAGCTGTATCG-1-dorsal,0.3694992,-0.0326148,0.0043625385,0.13387282,0.15496457,-0.10543135,0.07716459,0.057398822,0.008736655,0.11128501,0.2187474,-0.15395139,0.34893784,-0.07148564,0.08849928,-0.28769508,0.002838307,0.28452596,0.08171875,0.10857672,0.32408753,0.0,0.16039678,0.092937656,-0.0,0.0,0.1127287,-0.17025405,-1.109412,0.14679202,-0.000269413,0.07767166,0.04899383,0.010722789,-0.24990374,0.0,0.2993792,0.45913857,0.6374805,-0.0,0.0,0.20944975,0.0,-0.13801019,0.15702648,0.054867573,-0.14212821,0.24417941,0.028747471,0.26334026
AATAAGCTGTATCG-1-dorsal-1,0.279473,0.01358808,0.022849375,0.17967965,0.06369453,-0.12312691,0.22341554,0.030584395,-0.029676095,0.0032063285,0.2738544,-0.16841167,0.31905496,0.012663765,0.17644547,-0.25768578,-0.053707164,0.34883973,0.0037453533,0.10141332,0.31207943,0.1966472,0.17978232,0.15200254,0.15781423,0.35158676,0.032851487,-0.16445996,-1.1093966,0.17583229,0.14282386,0.17766373,0.123782314,-0.030088227,-0.24316305,0.043423604,0.34254438,0.56917655,0.58504194,-0.057402786,0.12335306,0.08142462,0.30339193,-0.1627207,0.0,-0.109834276,-0.15711673,0.15874304,-0.10660423,0.24584751
AATACCCTACCTAG-1-ventral,0.2082202,0.06453375,-0.030115446,0.2805838,0.04790409,0.05061877,0.17195183,-0.0,0.024073929,0.045772474,0.17312932,0.1420028,0.17589618,0.15497285,0.11585677,0.07147122,0.25761694,0.30348387,0.0016196776,0.09638358,0.27982837,0.12144016,0.3641095,0.009955404,0.03376716,0.17051923,0.027694732,-0.06540749,-1.1095146,0.02082278,0.08783271,0.1961423,-0.015388264,0.0,-0.006832083,0.22142422,0.04019865,0.30983528,0.3452369,-0.030086042,0.13124488,0.10059705,0.08048856,0.07283236,0.01645849,-0.002272725,-0.009798209,-0.011909141,0.0,0.07048687
AATACCCTAGGGTG-1-ventral,0.0,0.05361899,0.16524445,0.1439721,0.0,0.10875539,0.19654039,-0.064127184,0.059952646,0.17805816,0.0,-0.048443347,0.24012946,-0.09592136,-0.06463236,0.1541337,0.26634333,0.0,0.0070594917,0.20739758,0.32445425,0.056988128,0.2721155,-0.07905365,0.22481982,0.18088926,0.058281977,0.12342505,-1.109491,-0.033609867,0.04687851,0.117099255,0.04734672,0.12150118,-0.054381557,0.020537863,-0.019437538,0.18561694,0.0,0.020918049,0.019122459,-0.12857987,0.1312165,-0.09436581,0.08271762,-0.09961327,0.2693092,0.22113079,-0.032834943,0.18739076
AATACCCTATACCG-1-ventral,0.19056801,0.21183893,-0.05564723,0.07932794,-0.0644766,-0.009557738,0.1613132,-0.15286207,0.03140144,-0.00935442,0.052069083,0.07194977,0.12119978,0.2024548,0.17507333,0.08786434,0.2577955,0.39656872,-0.051688556,0.12672022,0.12748784,0.017960047,0.17383982,0.083159216,0.11195228,0.12389574,0.06387926,0.008148266,-1.1095146,0.009069133,0.06459802,-0.018545985,0.058821052,0.14846182,0.067066886,0.1252329,0.059553314,0.28447148,0.0,0.018326098,0.0,0.076013826,0.0,0.23627529,0.10064544,-0.08519319,0.2635975,0.03697375,0.0,0.18715584
AATACCCTATACCG-1-ventral-1,0.15229502,0.26914304,0.0,0.0,-0.07739544,-0.006511344,0.09130617,-0.12232748,0.04423809,0.14197566,-0.0,0.15162955,0.108948775,0.23697235,0.18210544,0.08022933,0.15781821,0.25746113,-0.041973922,0.11394809,0.12582807,0.05564732,0.08516487,0.06075094,0.055810317,0.16564222,0.026263567,0.0,-1.1095284,0.057634477,0.124131925,0.0,0.025839567,0.1862188,0.012098039,0.18218881,0.06759274,0.2621373,0.28483465,0.010259454,0.09509039,0.0,0.2231744,0.17547247,0.19643377,-0.020727979,0.23283936,0.03922717,0.02868833,0.12987582
AATACCCTCTTACT-1-ventral,0.31409028,0.0,0.07917169,0.0,0.28923327,0.15081808,0.32239664,0.054153837,0.22357929,0.10043562,0.1146024,0.0,0.20685849,-0.004454851,0.07702528,0.16562882,0.0,-0.02827651,0.13909857,-0.0,0.0450494,0.06336096,0.3978477,0.18680863,0.22564408,0.013477948,-0.05962081,-0.10833264,-1.1095035,0.019797076,0.08167054,0.0,0.0,0.15060686,-0.014459888,0.033005185,0.0,0.09064798,0.09725194,-0.075377695,0.051838767,-0.015274221,-0.08757717,-0.0,0.16737989,0.018541077,0.0,0.16315663,-0.029159255,0.2099285
AATACCCTGCCTTC-1-dorsal,0.26434657,0.043089043,-0.009968149,-0.019547477,0.11646625,0.17349385,0.0,0.1250863,0.046483602,0.08907858,0.10932153,0.19695756,0.3301709,0.022418914,0.084629975,0.11685834,0.3692981,0.20837475,0.19727622,0.13795532,0.2802789,0.014985991,0.17295258,-0.07275204,0.06945375,0.19707039,0.2431781,0.20672113,-1.1095033,0.07820623,0.1364285,-0.0034832293,0.03394662,0.17479025,-0.090596616,0.29554528,-0.16148892,0.0,0.0,0.15145051,0.019466924,0.12312676,0.0013951834,0.20682254,0.062017363,-0.065539084,0.039243665,-0.12487438,-0.10436185,0.15768763
AATAGGGAACAGCT-1-dorsal,0.34711674,0.1499613,0.2638333,0.3285502,0.110641435,-0.1459702,0.2920161,-0.0,-0.008786984,0.1836775,0.044048842,-0.0058474806,0.12050238,0.0,0.21363932,-0.13515341,-0.03463785,0.35438472,0.21720722,-0.01818604,0.39997667,0.22130236,0.21475577,-0.0,0.17150643,0.30914187,0.18253517,0.0,-1.1094478,0.06627532,-0.022897324,0.13352592,-0.21925351,0.0,0.0050986228,-0.039333437,0.13527063,0.396536,0.42844376,0.03907429,0.09935969,0.0015145914,0.082827695,-0.16992451,-0.08074443,0.01236486,-0.11672981,0.057470497,0.0902016,0.004052247
AATAGGGAATGGTC-1-ventral,0.16330524,0.06369492,0.29988462,0.09576366,0.17010233,0.06381739,0.16438979,-0.07022494,0.2052594,0.09050525,0.1467064,0.3893023,0.07830154,-0.0,0.07678496,0.20425922,0.24349445,0.22098349,-0.03648791,0.008374557,0.22375323,0.18503739,0.035986796,0.08955102,0.27745894,0.22743301,-0.009635091,0.081671394,-1.1095089,0.073350325,0.02418183,0.0,0.073962204,0.07390563,-0.02394842,-0.014647114,-0.11793435,0.19149512,0.053315222,-0.1284237,0.1455544,0.08151636,-0.05104807,-0.008437567,0.23285702,0.069415346,0.2153072,0.0804597,0.0,0.13897936
AATAGGGACTGGAT-1-dorsal,0.06996832,0.11215337,-0.026409496,0.23130699,0.34672242,0.22638759,0.16598071,-0.04785134,0.115360714,0.07632557,0.15860966,0.098967366,0.12477074,0.006111943,0.25350618,0.14278956,0.09590408,0.23177135,0.09184977,0.094578385,-0.004819367,0.016967531,0.27045846,0.05434219,0.2031285,0.036646724,-0.012189614,0.15197448,-1.1095154,0.056929056,0.048438452,0.0,0.19436327,-0.063799754,-0.032878388,0.12593871,0.1148054,0.13205111,0.20539318,-0.038239162,0.04648841,-0.091382734,-0.049742464,-0.09983467,0.27099785,0.15305828,0.119236484,0.04945607,-0.0068783765,0.23299742
